{"learner":{"attributes":{"scikit_learn":"{\"_estimator_type\": \"regressor\"}"},"feature_names":["age_at_diagnosis","chemotherapy","cohort","neoplasm_histologic_grade","hormone_therapy","lymph_nodes_examined_positive","mutation_count","nottingham_prognostic_index","radio_therapy","tumor_size","tumor_stage"],"feature_types":["float","int","float","float","int","float","float","float","int","float","float"],"gradient_booster":{"model":{"gbtree_model_param":{"num_parallel_tree":"1","num_trees":"500"},"iteration_indptr":[0,1,2,3,4,5,6,7,8,9,10,11,12,13,14,15,16,17,18,19,20,21,22,23,24,25,26,27,28,29,30,31,32,33,34,35,36,37,38,39,40,41,42,43,44,45,46,47,48,49,50,51,52,53,54,55,56,57,58,59,60,61,62,63,64,65,66,67,68,69,70,71,72,73,74,75,76,77,78,79,80,81,82,83,84,85,86,87,88,89,90,91,92,93,94,95,96,97,98,99,100,101,102,103,104,105,106,107,108,109,110,111,112,113,114,115,116,117,118,119,120,121,122,123,124,125,126,127,128,129,130,131,132,133,134,135,136,137,138,139,140,141,142,143,144,145,146,147,148,149,150,151,152,153,154,155,156,157,158,159,160,161,162,163,164,165,166,167,168,169,170,171,172,173,174,175,176,177,178,179,180,181,182,183,184,185,186,187,188,189,190,191,192,193,194,195,196,197,198,199,200,201,202,203,204,205,206,207,208,209,210,211,212,213,214,215,216,217,218,219,220,221,222,223,224,225,226,227,228,229,230,231,232,233,234,235,236,237,238,239,240,241,242,243,244,245,246,247,248,249,250,251,252,253,254,255,256,257,258,259,260,261,262,263,264,265,266,267,268,269,270,271,272,273,274,275,276,277,278,279,280,281,282,283,284,285,286,287,288,289,290,291,292,293,294,295,296,297,298,299,300,301,302,303,304,305,306,307,308,309,310,311,312,313,314,315,316,317,318,319,320,321,322,323,324,325,326,327,328,329,330,331,332,333,334,335,336,337,338,339,340,341,342,343,344,345,346,347,348,349,350,351,352,353,354,355,356,357,358,359,360,361,362,363,364,365,366,367,368,369,370,371,372,373,374,375,376,377,378,379,380,381,382,383,384,385,386,387,388,389,390,391,392,393,394,395,396,397,398,399,400,401,402,403,404,405,406,407,408,409,410,411,412,413,414,415,416,417,418,419,420,421,422,423,424,425,426,427,428,429,430,431,432,433,434,435,436,437,438,439,440,441,442,443,444,445,446,447,448,449,450,451,452,453,454,455,456,457,458,459,460,461,462,463,464,465,466,467,468,469,470,471,472,473,474,475,476,477,478,479,480,481,482,483,484,485,486,487,488,489,490,491,492,493,494,495,496,497,498,499,500],"tree_info":[0,0,0,0,0,0,0,0,0,0,0,0,0,0,0,0,0,0,0,0,0,0,0,0,0,0,0,0,0,0,0,0,0,0,0,0,0,0,0,0,0,0,0,0,0,0,0,0,0,0,0,0,0,0,0,0,0,0,0,0,0,0,0,0,0,0,0,0,0,0,0,0,0,0,0,0,0,0,0,0,0,0,0,0,0,0,0,0,0,0,0,0,0,0,0,0,0,0,0,0,0,0,0,0,0,0,0,0,0,0,0,0,0,0,0,0,0,0,0,0,0,0,0,0,0,0,0,0,0,0,0,0,0,0,0,0,0,0,0,0,0,0,0,0,0,0,0,0,0,0,0,0,0,0,0,0,0,0,0,0,0,0,0,0,0,0,0,0,0,0,0,0,0,0,0,0,0,0,0,0,0,0,0,0,0,0,0,0,0,0,0,0,0,0,0,0,0,0,0,0,0,0,0,0,0,0,0,0,0,0,0,0,0,0,0,0,0,0,0,0,0,0,0,0,0,0,0,0,0,0,0,0,0,0,0,0,0,0,0,0,0,0,0,0,0,0,0,0,0,0,0,0,0,0,0,0,0,0,0,0,0,0,0,0,0,0,0,0,0,0,0,0,0,0,0,0,0,0,0,0,0,0,0,0,0,0,0,0,0,0,0,0,0,0,0,0,0,0,0,0,0,0,0,0,0,0,0,0,0,0,0,0,0,0,0,0,0,0,0,0,0,0,0,0,0,0,0,0,0,0,0,0,0,0,0,0,0,0,0,0,0,0,0,0,0,0,0,0,0,0,0,0,0,0,0,0,0,0,0,0,0,0,0,0,0,0,0,0,0,0,0,0,0,0,0,0,0,0,0,0,0,0,0,0,0,0,0,0,0,0,0,0,0,0,0,0,0,0,0,0,0,0,0,0,0,0,0,0,0,0,0,0,0,0,0,0,0,0,0,0,0,0,0,0,0,0,0,0,0,0,0,0,0,0,0,0,0,0,0,0,0,0,0,0,0,0,0,0,0,0,0,0,0,0,0,0,0,0,0,0,0,0,0,0,0,0,0,0,0,0,0,0,0,0,0,0,0,0,0,0,0,0,0,0,0,0,0,0,0,0,0,0,0,0,0,0,0,0,0,0],"trees":[{"base_weights":[-1.6706521E-6,2.0176348E1,-2.1264025E1,-2.3457663E1,3.2980774E1,-1.5038343E1,-5.247263E1,-4.4330265E1,-1.7853832E1,4.0595078E1,-4.5238442E0,-6.5385537E0,-4.3345066E1,-6.9825573E0,-5.732757E1,-2.620719E1,-6.2004223E1,1.6195627E0,-1.917129E1,5.429215E1,2.6845829E1,2.8945095E1,-1.1951915E1,7.60692E1,-8.466217E0,-3.2001793E1,-5.6846893E1,-2.1948984E1,2.511093E0,-6.1001526E1,-1.4120494E1,2.3949541E1,-4.4522736E1,-3.5831208E0,-2.2560442E1,-2.4902544E1,-4.363869E0,5.575156E1,-4.5433264E0,8.589435E1,1.9994482E1,7.1145355E1,-1.6005045E0,-2.3272661E1,8.518825E0,9.364617E1,-2.4925137E0,-3.9359203E1,-4.7594976E0,-5.4533844E1,-2.6815964E1,4.826228E0,-6.103887E1,2.2466255E1,-4.141298E1,-7.8811966E1,-5.0937305E1,1.7799587E1,-3.0343327E1,2.681978E0,-3.1125138E0,-3.5996075E0,-1.1487982E1,2.9942602E-1,-2.179463E0,-1.2514422E1,-3.138054E1,-8.198827E0,3.6299865E0,6.626157E1,4.6840878E1,-3.3356014E1,4.20832E0,9.1812805E1,-1.5516804E0,1.1207552E1,4.9519333E1,4.7555327E0,-2.501831E-2,2.2412018E1,-3.970044E1,2.0333152E0,-2.645274E1,-2.0293081E1,1.9422665E1,-2.4900138E0,1.1511803E2,-5.3825096E1,5.953339E0,-1.8867394E0,-3.119891E1,-6.0192814E1,4.758198E-1,-1.5144475E1,-4.709636E1,-1.6400412E1,2.2433197E0,3.1728942E0,-6.568209E1,-3.858471E-1,1.7549819E0,-4.8919518E1,2.7831957E-1,-4.409124E0,-5.350328E1,-5.2428402E1,1.2241528E0,-6.125137E-1,1.5949817E0,-1.0933744E1,-2.1083539E0,-1.2743094E0,2.1624863E0,-1.5944947E-1,-1.6709341E0,-1.7120548E0,1.22754805E-1,7.0627195E-1,-7.2077936E-1,-1.2908471E0,3.3671594E0,-1.2652473E-1,2.5179782E0,-6.012706E-1,-2.5339072E0,3.4361966E0,5.747551E0,1.5753353E0,-8.725962E-2,2.6357574E0,-2.8366804E0,-3.1725137E0,2.1871192E0,-5.7251376E-1,-2.1950207E0,-7.7516955E-1,-2.2615173E0,-2.246134E0,1.0862293E0,2.4789145E0,-3.7938425E-1,1.2583195E0,6.1608095E0,-2.9360914E0,1.1438706E0,-2.645847E0,7.6344705E-1,1.9627301E-1,-8.349182E-1,-2.2944656E-1,-3.088447E0,-3.6346073E0,-1.674745E0,3.0437295E0,-1.1095796E0,-2.9815884E0,-9.789133E-1,-1.0750183E0,-2.7513696E-2,-1.6794627E0,1.9438705E0,-1.5276886E0,-3.3898346E0,-2.7589118E0,-2.8418046E-1,2.4358196E0,-3.361237E0,-1.1083583E0,-2.8674247E0,8.415299E-2,-7.850183E-1],"categories":[],"categories_nodes":[],"categories_segments":[],"categories_sizes":[],"default_left":[0,0,0,0,0,0,0,0,0,0,0,0,0,0,0,0,0,0,0,0,0,0,0,0,0,0,0,0,0,0,0,0,0,0,0,0,0,0,0,0,0,0,0,0,0,0,0,0,0,0,0,0,0,0,0,0,0,0,0,0,0,0,0,0,0,0,0,0,0,0,0,0,0,0,0,0,0,0,0,0,0,0,0,0,0,0,0,0,0,0,0,0,0,0,0,0,0,0,0,0,0,0,0,0,0,0,0,0,0,0,0,0,0,0,0,0,0,0,0,0,0,0,0,0,0,0,0,0,0,0,0,0,0,0,0,0,0,0,0,0,0,0,0,0,0,0,0,0,0,0,0,0,0,0,0,0,0,0,0,0,0,0,0,0,0,0,0,0,0,0,0],"id":0,"left_children":[1,3,5,7,9,11,13,15,17,19,21,23,25,27,29,31,33,-1,35,37,39,41,43,45,47,49,51,53,-1,55,57,59,61,-1,63,65,67,69,71,73,75,77,79,81,83,85,-1,87,89,91,93,95,97,99,101,103,105,107,109,-1,-1,-1,111,-1,-1,113,115,117,-1,119,121,123,-1,125,-1,127,129,-1,-1,131,133,-1,135,137,139,-1,141,143,145,147,149,151,-1,153,155,157,-1,159,161,-1,-1,163,-1,-1,165,167,-1,-1,-1,169,-1,-1,-1,-1,-1,-1,-1,-1,-1,-1,-1,-1,-1,-1,-1,-1,-1,-1,-1,-1,-1,-1,-1,-1,-1,-1,-1,-1,-1,-1,-1,-1,-1,-1,-1,-1,-1,-1,-1,-1,-1,-1,-1,-1,-1,-1,-1,-1,-1,-1,-1,-1,-1,-1,-1,-1,-1,-1,-1,-1,-1],"loss_changes":[6.538423E5,4.3768362E5,1.4337769E5,2.002857E4,1.729545E5,1.4888933E5,2.6764469E4,1.0226383E4,1.0020777E4,9.326969E4,2.5952744E4,7.6760734E4,2.0081969E4,1.2232212E4,1.6758844E4,1.9439258E4,5.2404688E3,0E0,1.1687578E4,2.18055E4,1.0063675E5,2.4605479E4,1.98965E4,2.9014406E4,5.340412E4,7.885414E3,1.6840688E4,1.0439873E4,0E0,1.4268844E4,5.7184404E3,1.8694723E4,1.2784635E4,0E0,3.262789E3,7.6323125E3,1.2401317E4,1.9840812E4,2.0699215E4,2.0842156E4,5.8595688E4,1.378368E4,1.1868274E4,1.2258939E4,1.0133118E4,3.6533523E4,0E0,3.309475E4,3.1765879E4,5.6472383E3,1.5145809E4,4.9854185E3,1.8097328E4,1.7961249E3,3.0935234E3,3.5823906E3,8.930828E3,2.085597E3,1.1454146E3,0E0,0E0,0E0,7.2321074E3,0E0,0E0,6.911314E3,6.375324E3,5.6162256E3,0E0,1.2693875E4,2.3753656E4,1.607523E3,0E0,5.4559844E3,0E0,4.6593555E4,2.0648078E4,0E0,0E0,1.742726E4,9.0578125E1,0E0,1.0195711E4,1.0289831E4,1.9110008E4,0E0,3.4550781E3,1.5615898E4,7.9373438E3,3.2692943E4,3.3068734E4,1.9033633E3,0E0,2.4922371E4,7.111328E3,3.115088E2,0E0,7.868737E3,2.0883906E3,0E0,0E0,1.5805996E3,0E0,0E0,2.0106184E4,8.704234E3,0E0,0E0,0E0,2.669828E2,0E0,0E0,0E0,0E0,0E0,0E0,0E0,0E0,0E0,0E0,0E0,0E0,0E0,0E0,0E0,0E0,0E0,0E0,0E0,0E0,0E0,0E0,0E0,0E0,0E0,0E0,0E0,0E0,0E0,0E0,0E0,0E0,0E0,0E0,0E0,0E0,0E0,0E0,0E0,0E0,0E0,0E0,0E0,0E0,0E0,0E0,0E0,0E0,0E0,0E0,0E0,0E0,0E0,0E0,0E0,0E0,0E0,0E0,0E0,0E0,0E0],"parents":[2147483647,0,0,1,1,2,2,3,3,4,4,5,5,6,6,7,7,8,8,9,9,10,10,11,11,12,12,13,13,14,14,15,15,16,16,18,18,19,19,20,20,21,21,22,22,23,23,24,24,25,25,26,26,27,27,29,29,30,30,31,31,32,32,34,34,35,35,36,36,37,37,38,38,39,39,40,40,41,41,42,42,43,43,44,44,45,45,47,47,48,48,49,49,50,50,51,51,52,52,53,53,54,54,55,55,56,56,57,57,58,58,62,62,65,65,66,66,67,67,69,69,70,70,71,71,73,73,75,75,76,76,79,79,80,80,82,82,83,83,84,84,86,86,87,87,88,88,89,89,90,90,91,91,93,93,94,94,95,95,97,97,98,98,101,101,104,104,105,105,109,109],"right_children":[2,4,6,8,10,12,14,16,18,20,22,24,26,28,30,32,34,-1,36,38,40,42,44,46,48,50,52,54,-1,56,58,60,62,-1,64,66,68,70,72,74,76,78,80,82,84,86,-1,88,90,92,94,96,98,100,102,104,106,108,110,-1,-1,-1,112,-1,-1,114,116,118,-1,120,122,124,-1,126,-1,128,130,-1,-1,132,134,-1,136,138,140,-1,142,144,146,148,150,152,-1,154,156,158,-1,160,162,-1,-1,164,-1,-1,166,168,-1,-1,-1,170,-1,-1,-1,-1,-1,-1,-1,-1,-1,-1,-1,-1,-1,-1,-1,-1,-1,-1,-1,-1,-1,-1,-1,-1,-1,-1,-1,-1,-1,-1,-1,-1,-1,-1,-1,-1,-1,-1,-1,-1,-1,-1,-1,-1,-1,-1,-1,-1,-1,-1,-1,-1,-1,-1,-1,-1,-1,-1,-1,-1,-1],"split_conditions":[4.046E0,2E0,7E0,1E0,7.254E1,7.212E1,1.83E1,5.839E1,1.06E0,2E0,2E0,1.38E1,2E0,6.03094E0,1.1E1,3.03E0,4.028E0,1.6195627E0,4.029E0,1.7E1,3E0,5E0,1E0,6.199E1,4.074E1,7.365E1,7.281E1,6.114E1,2.511093E0,1E0,4.961E1,4E0,5.042E1,-3.5831208E0,4.032E0,2E0,8E0,5.684E1,2.6E1,4E0,5E0,4E0,2.044E0,2E0,4E0,1E0,-2.4925137E0,4E0,1.1E1,5.052E0,8.031E1,6E0,1.62E1,1E0,3E0,6.07E0,4.1E1,3E0,8E0,2.681978E0,-3.1125138E0,-3.5996075E0,2E0,2.9942602E-1,-2.179463E0,7.101E1,1E0,4.034E0,3.6299865E0,3.126E1,5.756E1,3E0,4.20832E0,1.72E1,-1.5516804E0,5.839E1,6.2E1,4.7555327E0,-2.501831E-2,7.541E1,7.324E1,2.0333152E0,3.06E0,2E0,1E0,-2.4900138E0,2E0,6.106E0,5E0,6.447E1,5.052E0,7E0,4.758198E-1,1E0,3.11E1,7.239E1,2.2433197E0,7.526E1,2E0,-3.858471E-1,1.7549819E0,7.48E1,2.7831957E-1,-4.409124E0,9E0,2.4E1,1.2241528E0,-6.125137E-1,1.5949817E0,6.586E1,-2.1083539E0,-1.2743094E0,2.1624863E0,-1.5944947E-1,-1.6709341E0,-1.7120548E0,1.22754805E-1,7.0627195E-1,-7.2077936E-1,-1.2908471E0,3.3671594E0,-1.2652473E-1,2.5179782E0,-6.012706E-1,-2.5339072E0,3.4361966E0,5.747551E0,1.5753353E0,-8.725962E-2,2.6357574E0,-2.8366804E0,-3.1725137E0,2.1871192E0,-5.7251376E-1,-2.1950207E0,-7.7516955E-1,-2.2615173E0,-2.246134E0,1.0862293E0,2.4789145E0,-3.7938425E-1,1.2583195E0,6.1608095E0,-2.9360914E0,1.1438706E0,-2.645847E0,7.6344705E-1,1.9627301E-1,-8.349182E-1,-2.2944656E-1,-3.088447E0,-3.6346073E0,-1.674745E0,3.0437295E0,-1.1095796E0,-2.9815884E0,-9.789133E-1,-1.0750183E0,-2.7513696E-2,-1.6794627E0,1.9438705E0,-1.5276886E0,-3.3898346E0,-2.7589118E0,-2.8418046E-1,2.4358196E0,-3.361237E0,-1.1083583E0,-2.8674247E0,8.415299E-2,-7.850183E-1],"split_indices":[7,2,5,4,0,0,9,0,7,10,3,9,5,7,6,7,7,0,7,6,2,6,8,0,0,0,0,0,0,4,0,6,0,0,7,3,6,0,6,5,2,2,7,6,6,8,0,2,6,7,0,6,9,1,10,7,5,3,5,0,0,0,10,0,0,0,5,7,0,0,0,3,0,9,0,0,9,0,0,0,0,0,7,10,4,0,2,7,6,0,7,6,0,4,9,0,0,0,6,0,0,0,0,0,5,9,0,0,0,0,0,0,0,0,0,0,0,0,0,0,0,0,0,0,0,0,0,0,0,0,0,0,0,0,0,0,0,0,0,0,0,0,0,0,0,0,0,0,0,0,0,0,0,0,0,0,0,0,0,0,0,0,0,0,0,0,0,0,0,0,0],"split_type":[0,0,0,0,0,0,0,0,0,0,0,0,0,0,0,0,0,0,0,0,0,0,0,0,0,0,0,0,0,0,0,0,0,0,0,0,0,0,0,0,0,0,0,0,0,0,0,0,0,0,0,0,0,0,0,0,0,0,0,0,0,0,0,0,0,0,0,0,0,0,0,0,0,0,0,0,0,0,0,0,0,0,0,0,0,0,0,0,0,0,0,0,0,0,0,0,0,0,0,0,0,0,0,0,0,0,0,0,0,0,0,0,0,0,0,0,0,0,0,0,0,0,0,0,0,0,0,0,0,0,0,0,0,0,0,0,0,0,0,0,0,0,0,0,0,0,0,0,0,0,0,0,0,0,0,0,0,0,0,0,0,0,0,0,0,0,0,0,0,0,0],"sum_hessian":[1.522E3,7.81E2,7.41E2,1.77E2,6.04E2,6.19E2,1.22E2,3.6E1,1.41E2,5.02E2,1.02E2,4.77E2,1.42E2,1.2E1,1.1E2,1.9E1,1.7E1,3E0,1.38E2,2.5E2,2.52E2,1.8E1,8.4E1,1E1,4.67E2,7.9E1,6.3E1,1E1,2E0,1.01E2,9E0,5E0,1.4E1,1.3E1,4E0,9.9E1,3.9E1,2.44E2,6E0,2.5E1,2.27E2,7E0,1.1E1,5.4E1,3E1,9E0,1E0,4.9E1,4.18E2,1.3E1,6.6E1,4E0,5.9E1,3E0,7E0,3.4E1,6.7E1,3E0,6E0,4E0,1E0,7E0,7E0,2E0,2E0,3.5E1,6.4E1,3.8E1,1E0,1.09E2,1.35E2,5E0,1E0,2.4E1,1E0,1.76E2,5.1E1,5E0,2E0,7E0,4E0,2E0,5.2E1,8E0,2.2E1,1E0,8E0,3.7E1,1.2E1,3.78E2,4E1,1.2E1,1E0,4.3E1,2.3E1,3E0,1E0,4E0,5.5E1,1E0,2E0,6E0,1E0,2.3E1,1.1E1,6.6E1,1E0,1E0,2E0,3E0,3E0,6E0,1E0,2.5E1,1E1,5.9E1,5E0,8E0,3E1,1E0,1.08E2,9E0,1.26E2,3E0,2E0,1.4E1,1E1,6.8E1,1.08E2,5E1,1E0,1E0,6E0,1E0,3E0,3.4E1,1.8E1,5E0,3E0,1E1,1.2E1,1E0,7E0,3.5E1,2E0,1E0,1.1E1,2.72E2,1.06E2,2.2E1,1.8E1,7E0,5E0,3E0,4E1,1.5E1,8E0,2E0,1E0,2E0,2E0,4E0,5.1E1,5E0,1E0,1E0,1E1,1E1,5.6E1,1E0,2E0],"tree_param":{"num_deleted":"0","num_feature":"11","num_nodes":"171","size_leaf_vector":"1"}},{"base_weights":[-1.036312E-2,1.9178509E1,-2.0233662E1,-2.2322926E1,3.1357147E1,-1.4311536E1,-4.9920525E1,-4.234632E1,-1.6948359E1,3.8594074E1,-4.2887793E0,-6.2224946E0,-4.1250347E1,-6.5476246E0,-5.45505E1,-2.5053928E1,-5.920752E1,1.558829E0,-1.8211317E1,5.159962E1,2.5538792E1,2.7549292E1,-1.1355068E1,7.248724E1,-8.059214E0,-3.394004E1,-6.055673E1,-2.0978409E1,2.4273899E0,-5.8030724E1,-1.3597146E1,2.268031E1,-4.247736E1,-6.833523E1,-2.1808424E1,-2.3691616E1,-4.055288E0,5.2982224E1,-4.162853E0,8.1893166E1,1.9000402E1,6.81794E1,-1.833222E0,-2.212727E1,8.123195E0,8.945677E1,-2.430201E0,-3.746474E1,-4.5309668E0,-7.739485E0,-3.9211296E1,-6.4950645E1,1.2355884E1,2.168523E1,-3.9687927E1,-7.502378E1,-4.8430904E1,1.7155222E1,-2.9227478E1,2.5746992E0,-3.034701E0,-3.4421246E0,-1.0802563E1,-3.6238544E0,-2.8989397E1,2.8944525E-1,-2.1068141E0,-1.0098138E0,-2.6773113E1,-7.789256E0,3.5392368E0,6.2967377E1,4.451642E1,-3.2210743E1,4.103112E0,8.758951E1,-1.5128883E0,1.06555805E1,4.70395E1,4.557386E0,-2.4184419E-2,2.1168243E1,-3.8268925E1,1.965538E0,-2.5187397E1,-1.9407307E1,1.8542816E1,-2.4277635E0,1.1018648E2,-5.1181007E1,5.510869E0,-1.794089E0,-2.9719889E1,-4.044059E1,3.3088478E1,-2.0230297E1,-4.9179375E1,-6.161875E-1,-6.768388E1,1.1752926E0,-2.4860135E-1,-3.7620088E-1,1.6964827E0,-4.6908268E1,2.7136156E-1,-8.3957054E1,-5.0905235E1,-4.986632E1,1.193549E0,-5.97201E-1,1.5418155E0,-1.0562273E1,-2.029291E0,1.5141251E0,-1.4772334E0,-1.8654358E0,-3.0876905E-1,8.973302E-1,-5.714478E-1,-1.5038543E0,-4.555144E-2,6.7488223E-1,-6.859029E-1,3.4905267E0,2.1638207E0,-1.2083107E-1,2.3930707E0,-5.787229E-1,-2.4494436E0,3.2758405E0,5.4862986E0,1.4977101E0,-8.293679E-2,2.5065536E0,-2.7657635E0,-3.093201E0,2.0933857E0,-8.488927E-1,-2.3401842E0,-1.8272024E0,-3.761875E-1,-2.1525452E0,1.0454959E0,2.3662367E0,-3.618742E-1,1.2268616E0,5.891274E0,-2.7933652E0,1.1057414E0,-2.5797012E0,7.284556E-1,1.8649527E-1,-7.935626E-1,-2.1847303E-1,-2.9421523E0,-3.72336E0,1.6305989E-2,2.5466292E0,-9.749003E-2,-1.4115236E0,9.571099E-1,-3.1198636E-1,-2.6594098E0,-3.6320672E0,-1.9092457E0,-2.6439571E0,-2.7707598E-1,-4.764364E0,-3.0952163E0,2.3749242E0,-3.208454E0,-1.0579784E0,-2.726569E0,8.204918E-2,-7.58851E-1],"categories":[],"categories_nodes":[],"categories_segments":[],"categories_sizes":[],"default_left":[0,0,0,0,0,0,0,0,0,0,0,0,0,0,0,0,0,0,0,0,0,0,0,0,0,0,0,0,0,0,0,0,0,0,0,0,0,0,0,0,0,0,0,0,0,0,0,0,0,0,0,0,0,0,0,0,0,0,0,0,0,0,0,0,0,0,0,0,0,0,0,0,0,0,0,0,0,0,0,0,0,0,0,0,0,0,0,0,0,0,0,0,0,0,0,0,0,0,0,0,0,0,0,0,0,0,0,0,0,0,0,0,0,0,0,0,0,0,0,0,0,0,0,0,0,0,0,0,0,0,0,0,0,0,0,0,0,0,0,0,0,0,0,0,0,0,0,0,0,0,0,0,0,0,0,0,0,0,0,0,0,0,0,0,0,0,0,0,0,0,0,0,0,0,0],"id":1,"left_children":[1,3,5,7,9,11,13,15,17,19,21,23,25,27,29,31,33,-1,35,37,39,41,43,45,47,49,51,53,-1,55,57,59,61,63,65,67,69,71,73,75,77,79,81,83,85,87,-1,89,91,93,95,97,99,101,103,105,107,109,111,-1,-1,-1,113,-1,115,-1,-1,117,119,121,-1,123,125,127,-1,129,-1,131,133,-1,-1,135,137,-1,139,141,143,-1,145,147,149,151,153,155,157,159,161,-1,163,-1,-1,-1,-1,165,-1,167,169,171,-1,-1,-1,173,-1,-1,-1,-1,-1,-1,-1,-1,-1,-1,-1,-1,-1,-1,-1,-1,-1,-1,-1,-1,-1,-1,-1,-1,-1,-1,-1,-1,-1,-1,-1,-1,-1,-1,-1,-1,-1,-1,-1,-1,-1,-1,-1,-1,-1,-1,-1,-1,-1,-1,-1,-1,-1,-1,-1,-1,-1,-1,-1,-1,-1,-1,-1],"loss_changes":[5.914068E5,3.9594703E5,1.2973609E5,1.8438148E4,1.562355E5,1.34847E5,2.4343094E4,9.304727E3,9.198508E3,8.4087125E4,2.3485457E4,6.9687555E4,1.8127078E4,1.1354367E4,1.5031406E4,1.7597287E4,4.6543438E3,0E0,1.0687441E4,1.9572062E4,9.166609E4,2.2807469E4,1.8014762E4,2.6951434E4,4.8385234E4,1.4336164E4,1.2976656E4,9.64102E3,0E0,1.3005844E4,5.308101E3,1.7539299E4,1.1782977E4,1.804375E2,3.0488953E3,6.9623594E3,1.1729371E4,1.7907312E4,1.9572309E4,1.9260375E4,5.2846508E4,1.2660691E4,1.086698E4,1.1330592E4,9.252446E3,3.3959617E4,0E0,2.9755297E4,2.8832127E4,2.6705387E4,1.56550625E4,4.3441875E3,6.964888E2,1.6858887E3,2.8605566E3,3.2671562E3,8.247609E3,1.9607463E3,1.0553613E3,0E0,0E0,0E0,7.054851E3,0E0,3.3899585E2,0E0,0E0,2.7727356E3,7.4919883E3,5.107188E3,0E0,1.1801156E4,2.1466406E4,1.5104097E3,0E0,5.026375E3,0E0,4.2113617E4,1.9227742E4,0E0,0E0,1.63398955E4,1.139458E2,0E0,1.0356848E4,9.479388E3,1.740866E4,0E0,2.9973594E3,1.4287953E4,7.4761885E3,2.953106E4,3.0012543E4,1.5282965E4,5.7263486E3,1.0619973E4,9.4799375E3,0E0,2.1983438E3,0E0,0E0,0E0,0E0,1.4359365E3,0E0,9.8015625E1,1.8710465E4,7.8186875E3,0E0,0E0,0E0,2.5016504E2,0E0,0E0,0E0,0E0,0E0,0E0,0E0,0E0,0E0,0E0,0E0,0E0,0E0,0E0,0E0,0E0,0E0,0E0,0E0,0E0,0E0,0E0,0E0,0E0,0E0,0E0,0E0,0E0,0E0,0E0,0E0,0E0,0E0,0E0,0E0,0E0,0E0,0E0,0E0,0E0,0E0,0E0,0E0,0E0,0E0,0E0,0E0,0E0,0E0,0E0,0E0,0E0,0E0,0E0,0E0,0E0,0E0,0E0,0E0,0E0,0E0,0E0,0E0],"parents":[2147483647,0,0,1,1,2,2,3,3,4,4,5,5,6,6,7,7,8,8,9,9,10,10,11,11,12,12,13,13,14,14,15,15,16,16,18,18,19,19,20,20,21,21,22,22,23,23,24,24,25,25,26,26,27,27,29,29,30,30,31,31,32,32,33,33,34,34,35,35,36,36,37,37,38,38,39,39,40,40,41,41,42,42,43,43,44,44,45,45,47,47,48,48,49,49,50,50,51,51,52,52,53,53,54,54,55,55,56,56,57,57,58,58,62,62,64,64,67,67,68,68,69,69,71,71,72,72,73,73,75,75,77,77,78,78,81,81,82,82,84,84,85,85,86,86,88,88,89,89,90,90,91,91,92,92,93,93,94,94,95,95,96,96,98,98,103,103,105,105,106,106,107,107,111,111],"right_children":[2,4,6,8,10,12,14,16,18,20,22,24,26,28,30,32,34,-1,36,38,40,42,44,46,48,50,52,54,-1,56,58,60,62,64,66,68,70,72,74,76,78,80,82,84,86,88,-1,90,92,94,96,98,100,102,104,106,108,110,112,-1,-1,-1,114,-1,116,-1,-1,118,120,122,-1,124,126,128,-1,130,-1,132,134,-1,-1,136,138,-1,140,142,144,-1,146,148,150,152,154,156,158,160,162,-1,164,-1,-1,-1,-1,166,-1,168,170,172,-1,-1,-1,174,-1,-1,-1,-1,-1,-1,-1,-1,-1,-1,-1,-1,-1,-1,-1,-1,-1,-1,-1,-1,-1,-1,-1,-1,-1,-1,-1,-1,-1,-1,-1,-1,-1,-1,-1,-1,-1,-1,-1,-1,-1,-1,-1,-1,-1,-1,-1,-1,-1,-1,-1,-1,-1,-1,-1,-1,-1,-1,-1,-1,-1,-1,-1],"split_conditions":[4.046E0,2E0,7E0,1E0,7.254E1,7.212E1,1.83E1,5.839E1,1.06E0,2E0,2E0,1.38E1,8.102E1,6.03094E0,1.1E1,3.03E0,4.028E0,1.558829E0,4.029E0,1.7E1,3E0,5E0,1E0,6.199E1,4.074E1,2.232E1,5.5E1,6.114E1,2.4273899E0,1E0,4.961E1,4E0,5.042E1,4.6E1,4.032E0,2E0,8E0,5.684E1,2.6E1,4E0,5E0,4E0,2.044E0,2E0,4E0,1E0,-2.430201E0,4E0,1.1E1,6E0,1E0,2E0,8.302E1,1E0,3E0,6.07E0,4.1E1,3E0,8E0,2.5746992E0,-3.034701E0,-3.4421246E0,5.35E1,-3.6238544E0,6.027E1,2.8944525E-1,-2.1068141E0,3.026E0,3.26E1,4.034E0,3.5392368E0,4.024E0,5.756E1,3E0,4.103112E0,1.72E1,-1.5128883E0,5.839E1,6.2E1,4.557386E0,-2.4184419E-2,7.541E1,7.929E1,1.965538E0,2.4E1,2E0,1E0,-2.4277635E0,2E0,6.106E0,5E0,6.447E1,5.052E0,7.402E1,7.651E1,7.912E1,3E0,-6.161875E-1,1E1,1.1752926E0,-2.4860135E-1,-3.7620088E-1,1.6964827E0,7.48E1,2.7136156E-1,4E0,9E0,2.4E1,1.193549E0,-5.97201E-1,1.5418155E0,6.586E1,-2.029291E0,1.5141251E0,-1.4772334E0,-1.8654358E0,-3.0876905E-1,8.973302E-1,-5.714478E-1,-1.5038543E0,-4.555144E-2,6.7488223E-1,-6.859029E-1,3.4905267E0,2.1638207E0,-1.2083107E-1,2.3930707E0,-5.787229E-1,-2.4494436E0,3.2758405E0,5.4862986E0,1.4977101E0,-8.293679E-2,2.5065536E0,-2.7657635E0,-3.093201E0,2.0933857E0,-8.488927E-1,-2.3401842E0,-1.8272024E0,-3.761875E-1,-2.1525452E0,1.0454959E0,2.3662367E0,-3.618742E-1,1.2268616E0,5.891274E0,-2.7933652E0,1.1057414E0,-2.5797012E0,7.284556E-1,1.8649527E-1,-7.935626E-1,-2.1847303E-1,-2.9421523E0,-3.72336E0,1.6305989E-2,2.5466292E0,-9.749003E-2,-1.4115236E0,9.571099E-1,-3.1198636E-1,-2.6594098E0,-3.6320672E0,-1.9092457E0,-2.6439571E0,-2.7707598E-1,-4.764364E0,-3.0952163E0,2.3749242E0,-3.208454E0,-1.0579784E0,-2.726569E0,8.204918E-2,-7.58851E-1],"split_indices":[7,2,5,4,0,0,9,0,7,10,3,9,0,7,6,7,7,0,7,6,2,6,8,0,0,9,9,0,0,4,0,6,0,9,7,6,6,0,6,5,2,2,7,6,6,8,0,2,6,6,5,6,0,1,10,7,5,3,5,0,0,0,0,0,0,0,0,7,9,7,0,7,0,3,0,9,0,0,9,0,0,0,0,0,9,10,4,0,2,7,6,0,7,0,0,0,6,0,6,0,0,0,0,0,0,2,5,9,0,0,0,0,0,0,0,0,0,0,0,0,0,0,0,0,0,0,0,0,0,0,0,0,0,0,0,0,0,0,0,0,0,0,0,0,0,0,0,0,0,0,0,0,0,0,0,0,0,0,0,0,0,0,0,0,0,0,0,0,0,0,0,0,0,0,0],"split_type":[0,0,0,0,0,0,0,0,0,0,0,0,0,0,0,0,0,0,0,0,0,0,0,0,0,0,0,0,0,0,0,0,0,0,0,0,0,0,0,0,0,0,0,0,0,0,0,0,0,0,0,0,0,0,0,0,0,0,0,0,0,0,0,0,0,0,0,0,0,0,0,0,0,0,0,0,0,0,0,0,0,0,0,0,0,0,0,0,0,0,0,0,0,0,0,0,0,0,0,0,0,0,0,0,0,0,0,0,0,0,0,0,0,0,0,0,0,0,0,0,0,0,0,0,0,0,0,0,0,0,0,0,0,0,0,0,0,0,0,0,0,0,0,0,0,0,0,0,0,0,0,0,0,0,0,0,0,0,0,0,0,0,0,0,0,0,0,0,0,0,0,0,0,0,0],"sum_hessian":[1.522E3,7.81E2,7.41E2,1.77E2,6.04E2,6.19E2,1.22E2,3.6E1,1.41E2,5.02E2,1.02E2,4.77E2,1.42E2,1.2E1,1.1E2,1.9E1,1.7E1,3E0,1.38E2,2.5E2,2.52E2,1.8E1,8.4E1,1E1,4.67E2,1.05E2,3.7E1,1E1,2E0,1.01E2,9E0,5E0,1.4E1,1.3E1,4E0,9.9E1,3.9E1,2.44E2,6E0,2.5E1,2.27E2,7E0,1.1E1,5.4E1,3E1,9E0,1E0,4.9E1,4.18E2,1.8E1,8.7E1,3.5E1,2E0,3E0,7E0,3.4E1,6.7E1,3E0,6E0,4E0,1E0,7E0,7E0,1.1E1,2E0,2E0,2E0,1.2E1,8.7E1,3.8E1,1E0,1.09E2,1.35E2,5E0,1E0,2.4E1,1E0,1.76E2,5.1E1,5E0,2E0,7E0,4E0,2E0,5.2E1,8E0,2.2E1,1E0,8E0,3.7E1,1.2E1,3.78E2,4E1,1E1,8E0,3.1E1,5.6E1,2E0,3.3E1,1E0,1E0,1E0,2E0,6E0,1E0,2.3E1,1.1E1,6.6E1,1E0,1E0,2E0,3E0,3E0,2E0,5E0,1E0,1E0,4E0,8E0,7.7E1,1E1,8E0,3E1,7.9E1,3E1,9E0,1.26E2,3E0,2E0,1.4E1,1E1,6.8E1,1.08E2,5E1,1E0,1E0,6E0,2E0,2E0,3.1E1,2.1E1,5E0,3E0,1E1,1.2E1,1E0,7E0,3.5E1,2E0,1E0,1.1E1,2.72E2,1.06E2,2.2E1,1.8E1,5E0,5E0,5E0,3E0,2.6E1,5E0,5E0,5.1E1,2.7E1,6E0,5E0,1E0,1.3E1,1E1,1E0,1E1,1E1,5.6E1,1E0,2E0],"tree_param":{"num_deleted":"0","num_feature":"11","num_nodes":"175","size_leaf_vector":"1"}},{"base_weights":[-2.0424908E-2,1.8233387E1,-1.9258242E1,-2.124957E1,2.9819723E1,-1.0587472E1,-3.7689262E1,-4.053929E1,-1.6073732E1,3.669898E1,-4.0645947E0,-1.9045676E0,-3.6214294E1,3.7346607E1,-3.979992E1,-2.3994492E1,-5.6670223E1,1.5003731E0,-1.728417E1,4.9055504E1,2.4295074E1,2.6189949E1,-1.0779556E1,1.29460745E1,-1.3917447E1,-2.8593088E1,-5.3512062E1,-2.1532753E0,5.792621E1,-3.293956E1,-5.681346E1,2.1469631E1,-4.058051E1,-6.6951004E1,-2.495016E1,-2.2519272E1,-3.7643156E0,5.0365467E1,-3.8011496E0,7.8077324E1,1.8055454E1,6.533708E1,-2.0906334E0,-2.102523E1,7.745979E0,-1.2326183E1,1.9123526E1,-5.0260826E1,-7.58099E0,-2.3230106E1,-4.259683E1,-2.0896965E1,-5.7820503E1,3.27996E0,4.890316E-1,-6.5914024E1,-2.8763025E1,-5.842849E1,1.1637105E0,2.4717114E0,-2.9588335E0,-3.2915318E0,-1.0257822E1,-3.5707684E0,-2.8264664E1,-6.876436E0,-2.036587E0,-1.0946516E1,-2.8582346E1,-7.4000735E0,3.450756E0,2.2406132E1,5.316123E1,-3.1104902E1,4.000534E0,8.3560524E1,-1.4750662E0,1.0130796E1,4.468255E1,4.367494E0,-4.675649E-1,1.9984856E1,-3.699329E1,1.9000205E0,-2.39696E1,-1.855995E1,1.7702822E1,1.8832794E1,-2.1101948E1,5.8666122E1,3.9061024E0,-6.376021E1,-3.4800806E0,-2.9224842E0,-3.6346825E1,-2.7574036E1,2.6252827E1,-5.4202946E1,-1.7230745E1,-2.3045254E0,3.222433E0,-3.1522858E1,-3.2487416E0,-8.299481E-1,-7.104098E1,5.6861317E1,-3.2107735E1,-1.0711307E1,-6.1431114E1,-1.1991198E0,2.145355E0,-1.8188E0,-3.010498E-1,2.797971E-1,-1.1073393E0,-9.612039E-2,-1.5640545E0,-1.5662405E0,1.8030046E-1,6.448875E-1,-6.527139E-1,-1.6994971E0,1.4539021E0,4.097736E0,2.454561E0,-5.5702084E-1,-2.3677957E0,3.1229684E0,5.2369213E0,1.4239099E0,-7.8827865E-2,2.3836837E0,-2.6966195E0,-7.117081E-3,-2.7950287E-2,-3.0158708E0,2.0036693E0,-8.2059634E-1,-2.262178E0,-6.736431E-1,-2.102207E0,-2.062856E0,1.0062895E0,2.2586803E0,-3.4517214E-1,6.1032623E-1,1.6304172E0,-2.7695231E0,-4.3337947E-1,9.706621E-1,3.3451722E0,-1.2967571E0,7.099493E-1,-9.2584896E-1,-3.5941503E0,-4.1191835E0,3.01694E0,9.223264E-1,-5.4785454E-1,-2.5403068E0,8.954341E-1,-7.034503E-1,-2.376946E0,-2.0701818E0,2.4032423E0,-5.95648E-1,-2.9696724E0,-2.458741E0,-5.3944618E-2,5.531531E-1,-5.0748634E-1,-3.9799817E0,2.8910682E-1,-3.8257546E0,-1.0907387E0,3.9206426E0,1.324117E0,-1.2747519E0,-2.830329E0,1.2070332E0,-1.2729733E0,-1.2376508E0,-3.2157714E0],"categories":[],"categories_nodes":[],"categories_segments":[],"categories_sizes":[],"default_left":[0,0,0,0,0,0,0,0,0,0,0,0,0,0,0,0,0,0,0,0,0,0,0,0,0,0,0,0,0,0,0,0,0,0,0,0,0,0,0,0,0,0,0,0,0,0,0,0,0,0,0,0,0,0,0,0,0,0,0,0,0,0,0,0,0,0,0,0,0,0,0,0,0,0,0,0,0,0,0,0,0,0,0,0,0,0,0,0,0,0,0,0,0,0,0,0,0,0,0,0,0,0,0,0,0,0,0,0,0,0,0,0,0,0,0,0,0,0,0,0,0,0,0,0,0,0,0,0,0,0,0,0,0,0,0,0,0,0,0,0,0,0,0,0,0,0,0,0,0,0,0,0,0,0,0,0,0,0,0,0,0,0,0,0,0,0,0,0,0,0,0,0,0,0,0,0,0,0,0,0,0,0,0],"id":2,"left_children":[1,3,5,7,9,11,13,15,17,19,21,23,25,27,29,31,33,-1,35,37,39,41,43,45,47,49,51,-1,53,55,57,59,61,63,65,67,69,71,73,75,77,79,81,83,85,87,89,91,93,95,97,99,101,-1,-1,103,105,107,-1,-1,-1,-1,109,-1,111,113,-1,115,117,119,-1,121,123,125,-1,127,-1,129,131,-1,133,135,137,-1,139,141,143,145,147,149,151,153,155,157,159,161,163,165,167,-1,169,171,-1,-1,173,175,177,179,181,-1,-1,-1,-1,-1,-1,-1,-1,-1,-1,-1,-1,-1,-1,-1,-1,-1,-1,-1,-1,-1,-1,-1,-1,-1,-1,-1,-1,-1,-1,-1,-1,-1,-1,-1,-1,-1,-1,-1,-1,-1,-1,-1,-1,-1,-1,-1,-1,-1,-1,-1,-1,-1,-1,-1,-1,-1,-1,-1,-1,-1,-1,-1,-1,-1,-1,-1,-1,-1,-1,-1,-1,-1,-1],"loss_changes":[5.351731E5,3.5836956E5,1.1818084E5,1.7119992E4,1.4117394E5,1.12523734E5,3.902125E4,8.514902E3,8.439199E3,7.5902625E4,2.1207598E4,6.779339E4,1.5344141E4,1.4078566E4,2.5090688E4,1.5952621E4,4.1994883E3,0E0,9.753352E3,1.757075E4,8.3492234E4,2.1171562E4,1.6296422E4,2.67758E4,4.797951E4,5.8447344E3,4.131492E3,0E0,1.5749219E3,2.1103188E4,9.767234E3,1.6456799E4,1.08095E4,2.2669531E2,1.431302E3,6.7037695E3,1.1095054E4,1.7959875E4,1.8507367E4,1.7801922E4,4.7657758E4,1.1629203E4,9.985225E3,1.0469492E4,8.448207E3,9.6945E3,8.220873E4,1.9354953E4,2.4014826E4,1.534052E4,6.1316836E3,3.7944417E3,4.160492E3,0E0,0E0,3.3718438E3,4.478397E4,8.511703E3,0E0,0E0,0E0,0E0,6.866342E3,0E0,3.2225806E2,8.8576245E2,0E0,6.545914E3,5.8508594E3,4.644324E3,0E0,1.0018831E4,2.1992875E4,1.4190938E3,0E0,4.630047E3,0E0,3.8064406E4,1.7909562E4,0E0,9.6462965E-3,1.5322359E4,1.064751E2,0E0,9.488902E3,8.732844E3,1.5858781E4,3.3220972E2,1.1031501E4,1.0988039E4,3.1083498E4,7.4889766E3,4.525524E4,2.6986008E4,2.05223E4,1.6317629E4,1.0844404E4,2.8045469E3,4.59055E3,0E0,5.3167163E2,1.660179E4,0E0,0E0,2.6423594E3,1.8517246E3,2.2047312E4,3.1846204E3,4.7554688E3,0E0,0E0,0E0,0E0,0E0,0E0,0E0,0E0,0E0,0E0,0E0,0E0,0E0,0E0,0E0,0E0,0E0,0E0,0E0,0E0,0E0,0E0,0E0,0E0,0E0,0E0,0E0,0E0,0E0,0E0,0E0,0E0,0E0,0E0,0E0,0E0,0E0,0E0,0E0,0E0,0E0,0E0,0E0,0E0,0E0,0E0,0E0,0E0,0E0,0E0,0E0,0E0,0E0,0E0,0E0,0E0,0E0,0E0,0E0,0E0,0E0,0E0,0E0,0E0,0E0,0E0,0E0,0E0,0E0,0E0,0E0,0E0,0E0,0E0],"parents":[2147483647,0,0,1,1,2,2,3,3,4,4,5,5,6,6,7,7,8,8,9,9,10,10,11,11,12,12,13,13,14,14,15,15,16,16,18,18,19,19,20,20,21,21,22,22,23,23,24,24,25,25,26,26,28,28,29,29,30,30,31,31,32,32,33,33,34,34,35,35,36,36,37,37,38,38,39,39,40,40,41,41,42,42,43,43,44,44,45,45,46,46,47,47,48,48,49,49,50,50,51,51,52,52,55,55,56,56,57,57,62,62,64,64,65,65,67,67,68,68,69,69,71,71,72,72,73,73,75,75,77,77,78,78,80,80,81,81,82,82,84,84,85,85,86,86,87,87,88,88,89,89,90,90,91,91,92,92,93,93,94,94,95,95,96,96,97,97,98,98,100,100,101,101,104,104,105,105,106,106,107,107,108,108],"right_children":[2,4,6,8,10,12,14,16,18,20,22,24,26,28,30,32,34,-1,36,38,40,42,44,46,48,50,52,-1,54,56,58,60,62,64,66,68,70,72,74,76,78,80,82,84,86,88,90,92,94,96,98,100,102,-1,-1,104,106,108,-1,-1,-1,-1,110,-1,112,114,-1,116,118,120,-1,122,124,126,-1,128,-1,130,132,-1,134,136,138,-1,140,142,144,146,148,150,152,154,156,158,160,162,164,166,168,-1,170,172,-1,-1,174,176,178,180,182,-1,-1,-1,-1,-1,-1,-1,-1,-1,-1,-1,-1,-1,-1,-1,-1,-1,-1,-1,-1,-1,-1,-1,-1,-1,-1,-1,-1,-1,-1,-1,-1,-1,-1,-1,-1,-1,-1,-1,-1,-1,-1,-1,-1,-1,-1,-1,-1,-1,-1,-1,-1,-1,-1,-1,-1,-1,-1,-1,-1,-1,-1,-1,-1,-1,-1,-1,-1,-1,-1,-1,-1,-1,-1],"split_conditions":[4.046E0,2E0,4E0,1E0,7.254E1,7.101E1,1.45E1,5.839E1,1.06E0,2E0,2E0,2.6E1,2E0,1E0,1.1E1,3.03E0,4.026E0,1.5003731E0,4.029E0,1.7E1,3E0,5E0,1E0,2E0,4.192E1,8.031E1,7.239E1,-2.1532753E0,1.38E1,3.94E1,4.5E1,4E0,5.042E1,4.6E1,4.032E0,2E0,8E0,3E0,2.6E1,4E0,5E0,4E0,2.044E0,2E0,4E0,2E0,3E0,5.086E0,1E1,7.912E1,3.11E1,5.038E0,2.4E1,3.27996E0,4.890316E-1,5.038E0,4.363E1,2E1,1.1637105E0,2.4717114E0,-2.9588335E0,-3.2915318E0,2E0,-3.5707684E0,6.027E1,7.225E1,-2.036587E0,7.101E1,1E0,4.034E0,3.450756E0,5E0,4.308E1,3E0,4.000534E0,1.72E1,-1.4750662E0,5.839E1,6.2E1,4.367494E0,7.601E1,7.541E1,7.929E1,1.9000205E0,3.06E0,2E0,1E0,5.777E1,3E0,2E0,2E1,2.8E1,1E0,5.257E1,3.6E1,3.1E1,2E0,2E0,8.056E1,-2.3045254E0,7.212E1,7.402E1,-3.2487416E0,-8.299481E-1,9E0,3.992E1,7.571E1,6.114E1,2E0,-1.1991198E0,2.145355E0,-1.8188E0,-3.010498E-1,2.797971E-1,-1.1073393E0,-9.612039E-2,-1.5640545E0,-1.5662405E0,1.8030046E-1,6.448875E-1,-6.527139E-1,-1.6994971E0,1.4539021E0,4.097736E0,2.454561E0,-5.5702084E-1,-2.3677957E0,3.1229684E0,5.2369213E0,1.4239099E0,-7.8827865E-2,2.3836837E0,-2.6966195E0,-7.117081E-3,-2.7950287E-2,-3.0158708E0,2.0036693E0,-8.2059634E-1,-2.262178E0,-6.736431E-1,-2.102207E0,-2.062856E0,1.0062895E0,2.2586803E0,-3.4517214E-1,6.1032623E-1,1.6304172E0,-2.7695231E0,-4.3337947E-1,9.706621E-1,3.3451722E0,-1.2967571E0,7.099493E-1,-9.2584896E-1,-3.5941503E0,-4.1191835E0,3.01694E0,9.223264E-1,-5.4785454E-1,-2.5403068E0,8.954341E-1,-7.034503E-1,-2.376946E0,-2.0701818E0,2.4032423E0,-5.95648E-1,-2.9696724E0,-2.458741E0,-5.3944618E-2,5.531531E-1,-5.0748634E-1,-3.9799817E0,2.8910682E-1,-3.8257546E0,-1.0907387E0,3.9206426E0,1.324117E0,-1.2747519E0,-2.830329E0,1.2070332E0,-1.2729733E0,-1.2376508E0,-3.2157714E0],"split_indices":[7,2,5,4,0,0,9,0,7,10,3,9,5,4,5,7,7,0,7,6,2,6,8,2,0,0,0,0,9,0,5,6,0,9,7,3,6,6,6,5,2,2,7,6,6,6,2,7,6,0,9,7,9,0,0,7,0,9,0,0,0,0,10,0,0,0,0,0,5,7,0,9,0,3,0,9,0,0,9,0,0,0,0,0,7,10,4,0,6,10,9,9,8,0,9,9,6,6,0,0,0,0,0,0,6,0,0,0,6,0,0,0,0,0,0,0,0,0,0,0,0,0,0,0,0,0,0,0,0,0,0,0,0,0,0,0,0,0,0,0,0,0,0,0,0,0,0,0,0,0,0,0,0,0,0,0,0,0,0,0,0,0,0,0,0,0,0,0,0,0,0,0,0,0,0,0,0,0,0,0,0,0,0],"split_type":[0,0,0,0,0,0,0,0,0,0,0,0,0,0,0,0,0,0,0,0,0,0,0,0,0,0,0,0,0,0,0,0,0,0,0,0,0,0,0,0,0,0,0,0,0,0,0,0,0,0,0,0,0,0,0,0,0,0,0,0,0,0,0,0,0,0,0,0,0,0,0,0,0,0,0,0,0,0,0,0,0,0,0,0,0,0,0,0,0,0,0,0,0,0,0,0,0,0,0,0,0,0,0,0,0,0,0,0,0,0,0,0,0,0,0,0,0,0,0,0,0,0,0,0,0,0,0,0,0,0,0,0,0,0,0,0,0,0,0,0,0,0,0,0,0,0,0,0,0,0,0,0,0,0,0,0,0,0,0,0,0,0,0,0,0,0,0,0,0,0,0,0,0,0,0,0,0,0,0,0,0,0,0],"sum_hessian":[1.522E3,7.81E2,7.41E2,1.77E2,6.04E2,5.05E2,2.36E2,3.6E1,1.41E2,5.02E2,1.02E2,3.78E2,1.27E2,6E0,2.3E2,1.9E1,1.7E1,3E0,1.38E2,2.5E2,2.52E2,1.8E1,8.4E1,1.69E2,2.09E2,9E1,3.7E1,1E0,5E0,1.66E2,6.4E1,5E0,1.4E1,1.2E1,5E0,9.9E1,3.9E1,2.44E2,6E0,2.5E1,2.27E2,7E0,1.1E1,5.4E1,3E1,3.3E1,1.36E2,3E1,1.79E2,6.7E1,2.3E1,5E0,3.2E1,4E0,1E0,1.7E1,1.49E2,6.3E1,1E0,4E0,1E0,7E0,7E0,1E1,2E0,3E0,2E0,3.5E1,6.4E1,3.8E1,1E0,2.3E1,2.21E2,5E0,1E0,2.4E1,1E0,1.76E2,5.1E1,5E0,2E0,7E0,4E0,2E0,5.2E1,8E0,2.2E1,7E0,2.6E1,3.7E1,9.9E1,2.3E1,7E0,1.55E2,2.4E1,6.2E1,5E0,1.5E1,8E0,2E0,3E0,8E0,2.4E1,2E0,1.5E1,5E0,1.44E2,4E0,5.9E1,6E0,1E0,1E0,1E0,2E0,1E0,2.5E1,1E1,5.9E1,5E0,8E0,3E1,2E0,2.1E1,2.5E1,1.96E2,3E0,2E0,1.4E1,1E1,6.8E1,1.08E2,5E1,1E0,1E0,1E0,1E0,6E0,2E0,2E0,3.4E1,1.8E1,5E0,3E0,1E1,1.2E1,6E0,1E0,6E0,2E1,7E0,3E1,2.5E1,7.4E1,4E0,1.9E1,3E0,4E0,4.2E1,1.13E2,1.9E1,5E0,3.8E1,2.4E1,1E0,4E0,2E0,1.3E1,2E0,6E0,2E0,1E0,3E0,5E0,1.3E1,2E0,2E0,3E0,1.15E2,2.9E1,1E0,3E0,5E0,5.4E1],"tree_param":{"num_deleted":"0","num_feature":"11","num_nodes":"183","size_leaf_vector":"1"}},{"base_weights":[-3.4155823E-2,1.7329428E1,-1.8333735E1,-2.0240406E1,2.8354387E1,-1.2952178E1,-4.5311226E1,-3.8820087E1,-1.5256683E1,3.4894447E1,-3.859243E0,-5.606715E0,-3.741497E1,-6.494247E1,-3.542359E1,-2.2936388E1,-5.4311974E1,1.4441093E0,-1.6417107E1,4.663214E1,2.3111614E1,2.489295E1,-1.0240801E1,6.730512E1,-7.308475E0,-2.7390976E1,-4.936035E1,-6.960467E1,-5.5815353E0,-8.518351E0,-4.483322E1,-3.272981E1,2.1734803E0,-6.255155E1,-2.0378761E1,-2.1423769E1,-3.490023E0,-7.6679E0,4.776697E1,7.4438255E1,1.715721E1,6.261178E1,-2.3273468E0,-1.9989893E1,7.3863225E0,8.338374E1,-2.337027E0,-3.8302296E1,-4.480411E0,-4.8904022E1,-2.2486893E1,6.9716964E0,-5.3232018E1,-3.892358E0,-4.83995E1,8.49297E-1,-9.383003E-1,-1.405647E-1,-3.21617E0,-5.7752786E0,-5.0512634E1,-1.1724896E1,-3.6392744E0,-3.8160374E1,-3.5931084E0,2.7047044E-1,-1.9687006E0,1.7207864E-1,-2.4370613E1,-7.030267E0,3.3644872E0,-2.0955048E1,1.469196E0,4.906199E1,-3.457417E0,7.971689E1,-1.4381895E0,9.631857E0,4.2442406E1,4.185516E0,-4.5587668E-1,1.8859093E1,-3.576018E1,1.8366861E0,-2.2823496E1,-1.7749346E1,1.6900875E1,-2.3346503E0,1.03024826E2,-5.7177635E1,8.932023E0,-1.826155E1,-3.0338824E-1,-5.435201E1,5.4799575E-1,-4.056212E1,-1.14550905E1,-1.2839777E1,2.1554399E0,3.6558442E0,-5.7360718E1,2.217535E0,-5.9824577E1,-2.3444853E1,1.929139E1,-3.4858758E0,3.7815426E1,-2.3644903E1,-5.7626156E1,-2.8458564E0,3.7622434E-1,-2.172213E0,-2.935236E-1,8.946623E-1,-4.8460674E-1,-1.6013119E0,-6.727315E-1,6.162261E-1,-6.211308E-1,-1.3542885E0,8.919602E-2,2.745357E0,1.8776525E0,-1.5018562E0,3.9005208E0,2.9772298E0,4.9988794E0,1.3537465E0,-7.492268E-2,2.2668366E0,-2.629204E0,-6.9391252E-3,-2.7251625E-2,-2.9404743E0,1.917798E0,-7.9324317E-1,-2.186772E0,-1.6859788E0,-2.968612E-1,-1.9769033E0,9.685537E-1,2.156013E0,-3.2924128E-1,1.114191E0,5.5165987E0,-3.4975362E0,-1.7158812E0,-2.532957E0,9.4773895E-1,-8.015313E-1,-3.3898053E0,3.0651546E-1,-9.64725E-1,-3.3071887E0,-1.4785495E0,-2.921576E-1,-2.5609233E0,3.312405E-2,-1.8301548E0,-9.036705E-1,7.1528055E-2,-1.5162896E0,1.8209432E0,-3.047786E0,-1.7364072E0,5.8183616E-1,-3.3689473E0,1.1708676E0,-1.5626847E0,-3.619748E-1,1.4469703E0,4.1175976E-1,3.2325294E0,7.789112E-2,-3.2140415E0,-2.9570405E0,1.11866765E-1],"categories":[],"categories_nodes":[],"categories_segments":[],"categories_sizes":[],"default_left":[0,0,0,0,0,0,0,0,0,0,0,0,0,0,0,0,0,0,0,0,0,0,0,0,0,0,0,0,0,0,0,0,0,0,0,0,0,0,0,0,0,0,0,0,0,0,0,0,0,0,0,0,0,0,0,0,0,0,0,0,0,0,0,0,0,0,0,0,0,0,0,0,0,0,0,0,0,0,0,0,0,0,0,0,0,0,0,0,0,0,0,0,0,0,0,0,0,0,0,0,0,0,0,0,0,0,0,0,0,0,0,0,0,0,0,0,0,0,0,0,0,0,0,0,0,0,0,0,0,0,0,0,0,0,0,0,0,0,0,0,0,0,0,0,0,0,0,0,0,0,0,0,0,0,0,0,0,0,0,0,0,0,0,0,0,0,0,0,0,0,0,0,0,0,0,0,0],"id":3,"left_children":[1,3,5,7,9,11,13,15,17,19,21,23,25,27,29,31,33,-1,35,37,39,41,43,45,47,49,51,53,55,57,59,61,-1,63,65,67,69,71,73,75,77,79,81,83,85,87,-1,89,91,93,95,97,99,-1,101,-1,-1,103,-1,105,107,109,-1,111,-1,-1,-1,113,115,117,-1,119,-1,121,123,125,-1,127,129,-1,131,133,135,-1,137,139,141,-1,143,145,147,149,151,153,-1,155,157,159,-1,161,163,-1,165,167,169,-1,171,173,175,-1,-1,-1,-1,-1,-1,-1,-1,-1,-1,-1,-1,-1,-1,-1,-1,-1,-1,-1,-1,-1,-1,-1,-1,-1,-1,-1,-1,-1,-1,-1,-1,-1,-1,-1,-1,-1,-1,-1,-1,-1,-1,-1,-1,-1,-1,-1,-1,-1,-1,-1,-1,-1,-1,-1,-1,-1,-1,-1,-1,-1,-1,-1,-1,-1,-1,-1,-1],"loss_changes":[4.8424525E5,3.244829E5,1.0713731E5,1.58898125E4,1.2759553E5,1.1119836E5,2.1574594E4,7.8588164E3,7.747371E3,6.848881E4,1.9153754E4,5.9801383E4,1.5770844E4,1.0681594E4,2.0884234E4,1.4429591E4,3.7579922E3,0E0,8.921523E3,1.58331875E4,7.604461E4,1.9653355E4,1.4754769E4,2.406807E4,4.084976E4,7.3404375E3,1.43294375E4,2.6992188E3,1.5089191E3,1.0743982E4,1.3461508E4,1.4291184E4,0E0,4.370664E2,2.6622537E3,6.3681562E3,1.049617E4,3.5696191E3,1.6488375E4,1.6456875E4,4.2975047E4,1.0683242E4,9.174278E3,9.678664E3,7.713773E3,3.0359023E4,0E0,3.5281703E4,2.4747035E4,5.161629E3,1.28953125E4,4.133153E3,1.4302078E4,0E0,1.6429076E4,0E0,0E0,9.962089E3,0E0,2.7721979E4,8.958141E3,1.1737266E4,0E0,7.686592E2,0E0,0E0,0E0,2.4458936E3,6.9231367E3,4.2234463E3,0E0,7.4535034E2,0E0,1.40831875E4,1.7500945E4,4.2645E3,0E0,3.4404555E4,1.6685938E4,0E0,9.171426E-3,1.4370044E4,9.949512E1,0E0,9.551492E3,8.0451533E3,1.4446894E4,0E0,2.8512656E3,5.775258E3,8.127445E3,9.963977E3,4.056088E4,1.8428164E3,0E0,8.950156E3,1.3127756E4,3.245979E2,0E0,6.6711357E3,2.4395156E3,0E0,7.262207E3,4.3912734E3,3.2811523E3,0E0,4.230332E3,1.3413908E4,3.9405625E3,0E0,0E0,0E0,0E0,0E0,0E0,0E0,0E0,0E0,0E0,0E0,0E0,0E0,0E0,0E0,0E0,0E0,0E0,0E0,0E0,0E0,0E0,0E0,0E0,0E0,0E0,0E0,0E0,0E0,0E0,0E0,0E0,0E0,0E0,0E0,0E0,0E0,0E0,0E0,0E0,0E0,0E0,0E0,0E0,0E0,0E0,0E0,0E0,0E0,0E0,0E0,0E0,0E0,0E0,0E0,0E0,0E0,0E0,0E0,0E0,0E0,0E0,0E0,0E0,0E0,0E0,0E0,0E0],"parents":[2147483647,0,0,1,1,2,2,3,3,4,4,5,5,6,6,7,7,8,8,9,9,10,10,11,11,12,12,13,13,14,14,15,15,16,16,18,18,19,19,20,20,21,21,22,22,23,23,24,24,25,25,26,26,27,27,28,28,29,29,30,30,31,31,33,33,34,34,35,35,36,36,37,37,38,38,39,39,40,40,41,41,42,42,43,43,44,44,45,45,47,47,48,48,49,49,50,50,51,51,52,52,54,54,57,57,59,59,60,60,61,61,63,63,67,67,68,68,69,69,71,71,73,73,74,74,75,75,77,77,78,78,80,80,81,81,82,82,84,84,85,85,86,86,88,88,89,89,90,90,91,91,92,92,93,93,95,95,96,96,97,97,99,99,100,100,102,102,103,103,104,104,106,106,107,107,108,108],"right_children":[2,4,6,8,10,12,14,16,18,20,22,24,26,28,30,32,34,-1,36,38,40,42,44,46,48,50,52,54,56,58,60,62,-1,64,66,68,70,72,74,76,78,80,82,84,86,88,-1,90,92,94,96,98,100,-1,102,-1,-1,104,-1,106,108,110,-1,112,-1,-1,-1,114,116,118,-1,120,-1,122,124,126,-1,128,130,-1,132,134,136,-1,138,140,142,-1,144,146,148,150,152,154,-1,156,158,160,-1,162,164,-1,166,168,170,-1,172,174,176,-1,-1,-1,-1,-1,-1,-1,-1,-1,-1,-1,-1,-1,-1,-1,-1,-1,-1,-1,-1,-1,-1,-1,-1,-1,-1,-1,-1,-1,-1,-1,-1,-1,-1,-1,-1,-1,-1,-1,-1,-1,-1,-1,-1,-1,-1,-1,-1,-1,-1,-1,-1,-1,-1,-1,-1,-1,-1,-1,-1,-1,-1,-1,-1,-1,-1,-1,-1],"split_conditions":[4.046E0,2E0,7E0,1E0,7.254E1,7.212E1,1E0,5.839E1,1.06E0,2E0,2E0,1.38E1,2E0,1.5E1,2.4E1,2.4E1,4.028E0,1.4441093E0,4.029E0,2E0,3E0,5E0,1E0,6.199E1,3.899E1,7.365E1,7.281E1,6.07E0,4.132E1,1.7E1,4.961E1,1.83E1,2.1734803E0,2E0,4.032E0,2E0,8E0,6.932E1,1.7E1,4E0,5E0,4E0,2.044E0,2E0,4E0,1E0,-2.337027E0,4E0,2E0,5.052E0,2E0,6E0,1.62E1,-3.892358E0,9E0,8.49297E-1,-9.383003E-1,5.044E0,-3.21617E0,6.064E0,2.85E1,3.899E1,-3.6392744E0,2.05E1,-3.5931084E0,2.7047044E-1,-1.9687006E0,3.026E0,5E0,4.034E0,3.3644872E0,1E0,1.469196E0,4.024E0,2.6E1,1.72E1,-1.4381895E0,5.839E1,6.2E1,4.185516E0,7.601E1,7.541E1,7.929E1,1.8366861E0,2.4E1,2E0,1E0,-2.3346503E0,2E0,3E0,5E0,1.4E1,4E0,7E0,5.4799575E-1,7.697E1,4E0,7.239E1,2.1554399E0,7.526E1,6E0,2.217535E0,2E0,5.35E1,1E0,-3.4858758E0,8E0,1E0,1.1E1,-2.8458564E0,3.7622434E-1,-2.172213E0,-2.935236E-1,8.946623E-1,-4.8460674E-1,-1.6013119E0,-6.727315E-1,6.162261E-1,-6.211308E-1,-1.3542885E0,8.919602E-2,2.745357E0,1.8776525E0,-1.5018562E0,3.9005208E0,2.9772298E0,4.9988794E0,1.3537465E0,-7.492268E-2,2.2668366E0,-2.629204E0,-6.9391252E-3,-2.7251625E-2,-2.9404743E0,1.917798E0,-7.9324317E-1,-2.186772E0,-1.6859788E0,-2.968612E-1,-1.9769033E0,9.685537E-1,2.156013E0,-3.2924128E-1,1.114191E0,5.5165987E0,-3.4975362E0,-1.7158812E0,-2.532957E0,9.4773895E-1,-8.015313E-1,-3.3898053E0,3.0651546E-1,-9.64725E-1,-3.3071887E0,-1.4785495E0,-2.921576E-1,-2.5609233E0,3.312405E-2,-1.8301548E0,-9.036705E-1,7.1528055E-2,-1.5162896E0,1.8209432E0,-3.047786E0,-1.7364072E0,5.8183616E-1,-3.3689473E0,1.1708676E0,-1.5626847E0,-3.619748E-1,1.4469703E0,4.1175976E-1,3.2325294E0,7.789112E-2,-3.2140415E0,-2.9570405E0,1.11866765E-1],"split_indices":[7,2,5,4,0,0,4,0,7,10,3,9,5,6,9,9,7,0,7,6,2,6,8,0,0,0,0,7,0,5,0,9,0,10,7,6,6,0,6,5,2,2,7,6,6,8,0,2,2,7,2,6,9,0,5,0,0,7,0,7,9,0,0,9,0,0,0,7,6,7,0,5,0,7,6,9,0,0,9,0,0,0,0,0,9,10,4,0,2,2,6,6,2,6,0,0,2,0,0,0,5,0,6,0,8,0,5,1,6,0,0,0,0,0,0,0,0,0,0,0,0,0,0,0,0,0,0,0,0,0,0,0,0,0,0,0,0,0,0,0,0,0,0,0,0,0,0,0,0,0,0,0,0,0,0,0,0,0,0,0,0,0,0,0,0,0,0,0,0,0,0,0,0,0,0,0,0],"split_type":[0,0,0,0,0,0,0,0,0,0,0,0,0,0,0,0,0,0,0,0,0,0,0,0,0,0,0,0,0,0,0,0,0,0,0,0,0,0,0,0,0,0,0,0,0,0,0,0,0,0,0,0,0,0,0,0,0,0,0,0,0,0,0,0,0,0,0,0,0,0,0,0,0,0,0,0,0,0,0,0,0,0,0,0,0,0,0,0,0,0,0,0,0,0,0,0,0,0,0,0,0,0,0,0,0,0,0,0,0,0,0,0,0,0,0,0,0,0,0,0,0,0,0,0,0,0,0,0,0,0,0,0,0,0,0,0,0,0,0,0,0,0,0,0,0,0,0,0,0,0,0,0,0,0,0,0,0,0,0,0,0,0,0,0,0,0,0,0,0,0,0,0,0,0,0,0,0],"sum_hessian":[1.522E3,7.81E2,7.41E2,1.77E2,6.04E2,6.19E2,1.22E2,3.6E1,1.41E2,5.02E2,1.02E2,4.77E2,1.42E2,3.9E1,8.3E1,1.9E1,1.7E1,3E0,1.38E2,2.5E2,2.52E2,1.8E1,8.4E1,1E1,4.67E2,7.9E1,6.3E1,3.6E1,3E0,2.2E1,6.1E1,1.7E1,2E0,1.3E1,4E0,9.9E1,3.9E1,5E0,2.45E2,2.5E1,2.27E2,7E0,1.1E1,5.4E1,3E1,9E0,1E0,3.8E1,4.29E2,1.3E1,6.6E1,4E0,5.9E1,2.4E1,1.2E1,1E0,2E0,2E1,2E0,8E0,5.3E1,1.2E1,5E0,5E0,8E0,2E0,2E0,1.2E1,8.7E1,3.8E1,1E0,4E0,1E0,2.39E2,6E0,2.4E1,1E0,1.76E2,5.1E1,5E0,2E0,7E0,4E0,2E0,5.2E1,8E0,2.2E1,1E0,8E0,2.7E1,1.1E1,9.9E1,3.3E2,1.2E1,1E0,2.4E1,4.2E1,3E0,1E0,4E0,5.5E1,1E0,1.1E1,9E0,1.1E1,3E0,5E0,1.2E1,4.1E1,3E0,9E0,4E0,1E0,4E0,8E0,5E1,3.7E1,8E0,3E1,3E0,1E0,1.56E2,8.3E1,5E0,1E0,1.4E1,1E1,6.8E1,1.08E2,5E1,1E0,1E0,1E0,1E0,6E0,2E0,2E0,3.1E1,2.1E1,5E0,3E0,1E1,1.2E1,1E0,7E0,1.6E1,1.1E1,1E0,1E1,9.6E1,3E0,2.47E2,8.3E1,7E0,5E0,6E0,1.8E1,2.9E1,1.3E1,2E0,1E0,2E0,2E0,4.6E1,9E0,1E0,1E1,1E0,8E0,3E0,8E0,3E0,2E0,8E0,4E0,4E1,1E0],"tree_param":{"num_deleted":"0","num_feature":"11","num_nodes":"177","size_leaf_vector":"1"}},{"base_weights":[-5.0756764E-2,1.6044186E1,-1.7929E1,-1.8865358E1,2.6322252E1,-9.910999E0,-3.429533E1,-3.4521862E1,-1.4661163E1,3.2615578E1,-4.8556376E0,-2.0740747E0,-3.3022625E1,3.4847702E1,-3.6242107E1,-3.7195095E1,1.6096951E0,1.3899554E0,-1.5746337E1,4.4210472E1,2.1380262E1,2.3656126E1,-1.1026532E1,1.2614516E1,-1.2905777E1,-2.6342289E1,-4.843503E1,-2.0021346E0,5.4003216E1,-3.0099428E1,-5.14665E1,-1.511308E1,-4.718994E1,-2.2256624E1,-7.8137813E0,5.9583363E1,3.9639297E1,7.09678E1,1.5896346E1,6.0000107E1,-2.5445383E0,-2.0643003E1,6.14687E0,-1.1303289E1,1.8209116E1,-4.689057E1,-6.9811416E0,-2.127866E1,-3.895869E1,-1.944501E1,-5.2483585E1,3.0525358E0,4.691429E-1,-6.0697235E1,-2.622703E1,-5.297858E1,1.1326703E0,2.4823756E0,-3.950601E1,-3.1366117E1,-7.183606E1,-1.4500426E1,-3.910388E1,-1.4953576E1,7.1455164E0,-1.5169163E0,6.176991E1,5.2697998E1,3.0711992E1,7.605009E1,-1.4022349E0,9.339847E0,3.8729725E1,4.0111194E0,-4.4447836E-1,-4.1041016E1,1.4847733E1,-9.312827E0,-3.908316E1,-1.6973915E1,1.4561045E1,2.0277288E1,-2.179639E1,5.6388477E1,2.9050927E0,-5.9576515E1,-2.9714088E0,-2.5428302E0,-3.439696E1,-2.563516E1,2.5832775E1,-4.9892498E1,-1.5192062E1,-2.196568E0,3.7810059E0,-2.1962408E1,-5.8930172E1,-7.89481E-1,-6.532384E1,5.4412655E1,-2.9382967E1,-1.0020996E1,-5.5675404E1,-3.0282822E0,1.4910843E0,-2.116633E0,-6.868591E-1,-4.055265E0,-1.3131251E0,-3.1861144E-1,-1.7875403E0,-1.3398163E-1,-2.3127377E0,-1.3236793E0,-3.146534E-1,1.7443049E0,-2.7187914E-1,1.2800053E0,3.4619377E0,3.633778E0,1.517236E0,9.6901506E-1,2.165821E0,2.8382921E0,4.7716575E0,1.2970816E0,-4.0728442E-2,2.0723217E0,-2.563474E0,-6.7655565E-3,-2.657032E-2,3.399372E-1,-2.9626925E0,-7.396905E-1,2.7799058E0,-1.146129E0,1.7031695E0,-3.571062E-2,-2.2719154E0,-1.8945324E0,9.3223304E-1,2.0580127E0,-3.6892036E-1,-9.414383E-2,2.1454086E0,-1.4829878E0,2.7132195E-1,7.3146206E-1,3.1325965E0,-1.218225E0,6.8018216E-1,-9.0281993E-1,-3.3488863E0,-3.9113927E0,2.8914015E0,8.877417E-1,-5.0883305E-1,-2.804505E-1,-3.0269496E0,-6.0773367E-1,-2.2010827E0,-1.9544042E0,2.3317282E0,-4.9042892E-1,-2.745908E0,-2.2914188E0,5.404064E-3,5.6687206E-1,-4.7220746E-1,-3.1242754E0,3.3719668E-1,-3.0384796E0,-1.2592286E0,-3.5115097E0,-1.0326455E0,3.7478871E0,1.2700341E0,-1.1675975E0,-2.5861738E0,-2.022384E0,3.8487968E-1,-1.1039823E0,-2.9164057E0],"categories":[],"categories_nodes":[],"categories_segments":[],"categories_sizes":[],"default_left":[0,0,0,0,0,0,0,0,0,0,0,0,0,0,0,0,0,0,0,0,0,0,0,0,0,0,0,0,0,0,0,0,0,0,0,0,0,0,0,0,0,0,0,0,0,0,0,0,0,0,0,0,0,0,0,0,0,0,0,0,0,0,0,0,0,0,0,0,0,0,0,0,0,0,0,0,0,0,0,0,0,0,0,0,0,0,0,0,0,0,0,0,0,0,0,0,0,0,0,0,0,0,0,0,0,0,0,0,0,0,0,0,0,0,0,0,0,0,0,0,0,0,0,0,0,0,0,0,0,0,0,0,0,0,0,0,0,0,0,0,0,0,0,0,0,0,0,0,0,0,0,0,0,0,0,0,0,0,0,0,0,0,0,0,0,0,0,0,0,0,0,0,0,0,0,0,0,0,0,0,0,0,0],"id":4,"left_children":[1,3,5,7,9,11,13,15,17,19,21,23,25,27,29,31,-1,-1,33,35,37,39,41,43,45,47,49,-1,51,53,55,57,59,61,63,65,67,69,71,73,75,77,79,81,83,85,87,89,91,93,95,-1,-1,97,99,101,-1,-1,103,105,107,109,111,113,115,-1,117,119,121,123,-1,125,127,-1,129,131,133,135,137,139,141,143,145,147,149,151,153,155,157,159,161,163,165,-1,167,169,171,-1,173,175,177,179,181,-1,-1,-1,-1,-1,-1,-1,-1,-1,-1,-1,-1,-1,-1,-1,-1,-1,-1,-1,-1,-1,-1,-1,-1,-1,-1,-1,-1,-1,-1,-1,-1,-1,-1,-1,-1,-1,-1,-1,-1,-1,-1,-1,-1,-1,-1,-1,-1,-1,-1,-1,-1,-1,-1,-1,-1,-1,-1,-1,-1,-1,-1,-1,-1,-1,-1,-1,-1,-1,-1,-1,-1,-1,-1,-1,-1,-1,-1,-1,-1],"loss_changes":[4.3852988E5,2.882563E5,9.440469E4,1.1539484E4,1.2181016E5,8.79578E4,3.3164625E4,7.9746367E3,7.1649473E3,6.627531E4,1.873487E4,5.8076086E4,1.13881875E4,1.2204382E4,2.0053656E4,7.4529453E3,0E0,0E0,7.2110664E3,1.5417031E4,7.066244E4,1.8245164E4,1.4494724E4,2.0946459E4,4.1955625E4,4.792875E3,3.2046953E3,0E0,1.3139414E3,1.8195422E4,8.485047E3,2.249748E4,7.496676E3,9.625293E3,7.156068E3,1.2884594E4,2.1464156E4,1.5216266E4,3.5418254E4,9.814273E3,8.643859E3,1.1336121E4,6.4725127E3,1.0383318E4,7.345772E4,1.7094812E4,2.1814926E4,1.4002885E4,5.478664E3,3.5784265E3,4.8052344E3,0E0,0E0,2.708414E3,3.977289E4,6.856422E3,0E0,0E0,1.6406328E4,2.7050508E3,1.6718594E3,9.2721875E3,6.127211E3,4.3230107E3,7.8690703E3,0E0,1.3085547E4,3.3073266E4,1.63000625E4,3.9273438E3,0E0,3.1545855E4,1.5083508E4,0E0,8.720696E-3,3.888043E3,1.16936455E4,2.203305E4,5.0881895E3,7.411676E3,1.4309426E4,4.092824E3,5.0843975E3,8.499492E3,2.688025E4,6.165789E3,4.112816E4,2.4352717E4,1.847482E4,1.4336465E4,9.925677E3,2.6845E3,4.2236133E3,0E0,5.0681256E2,8.564288E3,2.134375E1,0E0,2.0562812E3,1.6723418E3,1.8328883E4,3.0069392E3,4.0593281E3,0E0,0E0,0E0,0E0,0E0,0E0,0E0,0E0,0E0,0E0,0E0,0E0,0E0,0E0,0E0,0E0,0E0,0E0,0E0,0E0,0E0,0E0,0E0,0E0,0E0,0E0,0E0,0E0,0E0,0E0,0E0,0E0,0E0,0E0,0E0,0E0,0E0,0E0,0E0,0E0,0E0,0E0,0E0,0E0,0E0,0E0,0E0,0E0,0E0,0E0,0E0,0E0,0E0,0E0,0E0,0E0,0E0,0E0,0E0,0E0,0E0,0E0,0E0,0E0,0E0,0E0,0E0,0E0,0E0,0E0,0E0,0E0,0E0,0E0,0E0,0E0,0E0,0E0,0E0,0E0],"parents":[2147483647,0,0,1,1,2,2,3,3,4,4,5,5,6,6,7,7,8,8,9,9,10,10,11,11,12,12,13,13,14,14,15,15,18,18,19,19,20,20,21,21,22,22,23,23,24,24,25,25,26,26,28,28,29,29,30,30,31,31,32,32,33,33,34,34,35,35,36,36,37,37,38,38,39,39,40,40,41,41,42,42,43,43,44,44,45,45,46,46,47,47,48,48,49,49,50,50,53,53,54,54,55,55,58,58,59,59,60,60,61,61,62,62,63,63,64,64,66,66,67,67,68,68,69,69,71,71,72,72,74,74,75,75,76,76,77,77,78,78,79,79,80,80,81,81,82,82,83,83,84,84,85,85,86,86,87,87,88,88,89,89,90,90,91,91,92,92,94,94,95,95,96,96,98,98,99,99,100,100,101,101,102,102],"right_children":[2,4,6,8,10,12,14,16,18,20,22,24,26,28,30,32,-1,-1,34,36,38,40,42,44,46,48,50,-1,52,54,56,58,60,62,64,66,68,70,72,74,76,78,80,82,84,86,88,90,92,94,96,-1,-1,98,100,102,-1,-1,104,106,108,110,112,114,116,-1,118,120,122,124,-1,126,128,-1,130,132,134,136,138,140,142,144,146,148,150,152,154,156,158,160,162,164,166,-1,168,170,172,-1,174,176,178,180,182,-1,-1,-1,-1,-1,-1,-1,-1,-1,-1,-1,-1,-1,-1,-1,-1,-1,-1,-1,-1,-1,-1,-1,-1,-1,-1,-1,-1,-1,-1,-1,-1,-1,-1,-1,-1,-1,-1,-1,-1,-1,-1,-1,-1,-1,-1,-1,-1,-1,-1,-1,-1,-1,-1,-1,-1,-1,-1,-1,-1,-1,-1,-1,-1,-1,-1,-1,-1,-1,-1,-1,-1,-1,-1,-1,-1,-1,-1,-1,-1],"split_conditions":[4.048E0,2E0,4E0,1E0,7.254E1,7.101E1,1.45E1,4.046E0,1.06E0,2E0,2E0,2.6E1,2E0,1E0,1.1E1,5.35E1,1.6096951E0,1.3899554E0,3.068E0,4.817E1,3E0,5E0,1E0,2E0,4.192E1,8.031E1,7.239E1,-2.0021346E0,1.38E1,3.94E1,4.5E1,3.03E0,2.232E1,3.04E0,6.516E1,3.126E1,1E0,4E0,5E0,4E0,6E0,3.06E0,4E0,1E0,3E0,5.086E0,1E1,7.912E1,3.11E1,5.038E0,2.4E1,3.0525358E0,4.691429E-1,5.038E0,4.363E1,2E1,1.1326703E0,2.4823756E0,5.042E1,2E0,4.6E1,7.101E1,2E0,1E0,6.913E1,-1.5169163E0,3.016E0,6.246E1,6.099E1,1.72E1,-1.4022349E0,5.839E1,6.2E1,4.0111194E0,7.601E1,5E0,5E0,3.05E0,4E0,2E0,1E0,2E1,3E0,2E0,2E1,2.8E1,1E0,5.257E1,1E0,3.1E1,2E0,2E0,8.056E1,-2.196568E0,7.212E1,7.402E1,6E1,-7.89481E-1,9E0,3.992E1,7.571E1,3E0,2E0,-3.0282822E0,1.4910843E0,-2.116633E0,-6.868591E-1,-4.055265E0,-1.3131251E0,-3.1861144E-1,-1.7875403E0,-1.3398163E-1,-2.3127377E0,-1.3236793E0,-3.146534E-1,1.7443049E0,-2.7187914E-1,1.2800053E0,3.4619377E0,3.633778E0,1.517236E0,9.6901506E-1,2.165821E0,2.8382921E0,4.7716575E0,1.2970816E0,-4.0728442E-2,2.0723217E0,-2.563474E0,-6.7655565E-3,-2.657032E-2,3.399372E-1,-2.9626925E0,-7.396905E-1,2.7799058E0,-1.146129E0,1.7031695E0,-3.571062E-2,-2.2719154E0,-1.8945324E0,9.3223304E-1,2.0580127E0,-3.6892036E-1,-9.414383E-2,2.1454086E0,-1.4829878E0,2.7132195E-1,7.3146206E-1,3.1325965E0,-1.218225E0,6.8018216E-1,-9.0281993E-1,-3.3488863E0,-3.9113927E0,2.8914015E0,8.877417E-1,-5.0883305E-1,-2.804505E-1,-3.0269496E0,-6.0773367E-1,-2.2010827E0,-1.9544042E0,2.3317282E0,-4.9042892E-1,-2.745908E0,-2.2914188E0,5.404064E-3,5.6687206E-1,-4.7220746E-1,-3.1242754E0,3.3719668E-1,-3.0384796E0,-1.2592286E0,-3.5115097E0,-1.0326455E0,3.7478871E0,1.2700341E0,-1.1675975E0,-2.5861738E0,-2.022384E0,3.8487968E-1,-1.1039823E0,-2.9164057E0],"split_indices":[7,2,5,4,0,0,9,7,7,10,3,9,5,4,5,0,0,0,7,0,2,6,8,2,0,0,0,0,9,0,5,7,9,7,0,0,8,5,2,2,6,7,6,1,2,7,6,0,9,7,9,0,0,7,0,9,0,0,0,10,9,0,6,1,0,0,7,0,0,9,0,0,9,0,0,2,2,7,6,10,4,9,5,10,9,9,8,0,4,9,6,6,0,0,0,0,9,0,6,0,0,3,6,0,0,0,0,0,0,0,0,0,0,0,0,0,0,0,0,0,0,0,0,0,0,0,0,0,0,0,0,0,0,0,0,0,0,0,0,0,0,0,0,0,0,0,0,0,0,0,0,0,0,0,0,0,0,0,0,0,0,0,0,0,0,0,0,0,0,0,0,0,0,0,0,0,0,0,0,0,0,0,0],"split_type":[0,0,0,0,0,0,0,0,0,0,0,0,0,0,0,0,0,0,0,0,0,0,0,0,0,0,0,0,0,0,0,0,0,0,0,0,0,0,0,0,0,0,0,0,0,0,0,0,0,0,0,0,0,0,0,0,0,0,0,0,0,0,0,0,0,0,0,0,0,0,0,0,0,0,0,0,0,0,0,0,0,0,0,0,0,0,0,0,0,0,0,0,0,0,0,0,0,0,0,0,0,0,0,0,0,0,0,0,0,0,0,0,0,0,0,0,0,0,0,0,0,0,0,0,0,0,0,0,0,0,0,0,0,0,0,0,0,0,0,0,0,0,0,0,0,0,0,0,0,0,0,0,0,0,0,0,0,0,0,0,0,0,0,0,0,0,0,0,0,0,0,0,0,0,0,0,0,0,0,0,0,0,0],"sum_hessian":[1.522E3,8.01E2,7.21E2,1.82E2,6.19E2,4.85E2,2.36E2,3.7E1,1.45E2,5.15E2,1.04E2,3.63E2,1.22E2,6E0,2.3E2,3.6E1,1E0,3E0,1.42E2,2.52E2,2.63E2,1.8E1,8.6E1,1.54E2,2.09E2,8.7E1,3.5E1,1E0,5E0,1.66E2,6.4E1,1.2E1,2.4E1,7.7E1,6.5E1,5.5E1,1.97E2,2.5E1,2.38E2,7E0,1.1E1,5.5E1,3.1E1,2.9E1,1.25E2,3E1,1.79E2,6.4E1,2.3E1,5E0,3E1,4E0,1E0,1.7E1,1.49E2,6.3E1,1E0,3E0,9E0,1.6E1,8E0,5.4E1,2.3E1,4.4E1,2.1E1,1E0,5.4E1,7.8E1,1.19E2,2.4E1,1E0,1.86E2,5.2E1,5E0,2E0,3E0,8E0,3.5E1,2E1,8E0,2.3E1,7E0,2.2E1,3.5E1,9E1,2.3E1,7E0,1.55E2,2.4E1,5.9E1,5E0,1.5E1,8E0,2E0,3E0,6E0,2.4E1,2E0,1.5E1,5E0,1.44E2,4E0,5.9E1,7E0,2E0,9E0,7E0,6E0,2E0,4E1,1.4E1,4E0,1.9E1,1.8E1,2.6E1,6E0,1.5E1,1E1,4.4E1,4E1,3.8E1,6.4E1,5.5E1,1.4E1,1E1,7E1,1.16E2,5.1E1,1E0,1E0,1E0,1E0,2E0,5E0,3E0,2.7E1,8E0,3E0,1.7E1,5E0,3E0,1E1,1.3E1,4E0,3E0,1.7E1,5E0,5E0,3E1,2.5E1,6.5E1,4E0,1.9E1,3E0,4E0,4.2E1,1.13E2,1.2E1,1.2E1,3.5E1,2.4E1,1E0,4E0,2E0,1.3E1,2E0,6E0,2E0,1E0,2E0,4E0,2.2E1,2E0,1.3E1,2E0,2E0,3E0,1.15E2,2.9E1,1E0,3E0,5E0,5.4E1],"tree_param":{"num_deleted":"0","num_feature":"11","num_nodes":"183","size_leaf_vector":"1"}},{"base_weights":[-5.8948964E-2,1.5668653E1,-1.663432E1,-1.836151E1,2.5654934E1,-7.222699E0,-2.9510878E1,-3.553066E1,-1.3758552E1,3.15563E1,-3.413431E0,3.0192556E0,-2.7585327E1,-2.5359035E1,-5.6436295E1,-2.0681639E1,-5.005564E1,-2.5465872E1,-9.390584E0,4.2156948E1,2.091472E1,2.2652014E1,-9.199667E0,6.2672237E1,6.394649E-1,-3.181837E1,-1.3493323E1,-1.942427E1,-4.8009384E1,-3.3496525E1,-6.977789E1,1.9859072E1,-3.5519146E1,-5.895033E1,-2.2441217E1,-3.3281864E1,2.1766413E1,-2.5017295E0,-2.1983566E1,1.7460785E1,4.4571648E1,6.765817E1,1.5492596E1,5.7497322E1,-2.4658568E0,-1.8015276E1,6.7376947E0,7.7932045E1,-2.2481458E0,3.0396886E0,-4.833736E1,-2.6716352E1,-4.3419655E1,2.6320238E1,-2.4386723E1,-3.2183502E1,-5.639202E0,-4.968545E1,1.1043533E0,-4.999704E1,-2.7819278E0,-3.6251305E1,-3.8173485E0,2.268544E0,-2.6924992E0,-5.7915894E1,-8.682506E0,-3.1372411E0,-2.5387085E1,-9.025038E0,-2.238053E0,5.602374E0,-3.8838394E1,3.1156454E1,-6.295948E-1,-9.740613E0,1.8549587E1,-3.899215E0,-1.474867E1,-3.4253048E1,2.3718998E1,7.280681E1,4.0735756E1,7.255199E1,-1.3671789E0,8.684022E0,3.837E1,3.843989E0,-4.3336487E-1,-3.9644653E1,1.4332036E1,1.7951607E0,-2.0727356E1,-1.6232143E1,1.5432949E1,-2.2458284E0,9.657262E1,1.0144481E1,-9.992908E0,-5.592889E1,-2.1946526E-1,-2.8879398E1,-3.422568E-1,-7.5514627E0,-5.140649E1,3.4084E0,-1.2422022E1,-3.691226E1,-1.6734182E0,-2.2445377E1,-5.5110912E1,-2.5138472E1,8.604448E0,-5.11731E1,7.661934E-1,-2.671171E0,-3.933302E-1,2.2366734E1,-2.7235107E1,-2.5935936E0,-3.3401158E0,-8.514954E-1,-3.0661952E0,-1.0959966E0,2.099487E0,-1.6506741E0,-2.5335732E-1,2.8434983E-1,-1.0364364E0,-2.7811787E-1,1.2565325E0,-2.0599914E0,6.8204063E-1,1.7710953E0,3.5236606E-1,-1.6531879E-1,-1.545627E0,-4.6888223E-1,1.8586987E0,-9.3809813E-1,1.0020765E0,-2.0804358E0,-4.8854277E-1,1.8018137E0,-7.566559E-1,1.5726316E0,4.6425023E0,2.7663548E0,1.5397819E0,2.7058387E0,4.554764E0,1.2231258E0,-6.9193415E-2,2.0541327E0,-2.499387E0,-6.596375E-3,-2.5905991E-2,3.3143884E-1,-2.8639362E0,-7.088701E-1,2.6756592E0,-1.5364612E0,-2.6185167E-1,-1.8155936E0,8.972742E-1,1.9644665E0,-2.970185E-1,5.1658893E0,1.0652825E0,-1.5974864E0,6.609464E-1,-2.0289615E-1,-2.720308E0,-2.9232125E0,-7.643822E-1,-1.9132273E0,-1.1436738E0,1.0012684E0,-3.537211E-1,-1.9247017E0,1.2639488E0,2.5424215E-1,-2.693477E0,5.034432E-1,-1.5386117E0,-3.508907E0,-1.279027E0,3.8953385E-1,-2.4078593E0,-3.287206E0,-4.958448E-1,-3.025822E0,2.946647E0,-1.7701955E-1,-2.5979526E0,1.3122138E0,-1.122381E0,-4.861451E-1,-2.6710353E0,3.1992683E-1,1.277831E0,-2.207955E0,-3.4370396E-1,2.045002E-1,-4.550089E-1],"categories":[],"categories_nodes":[],"categories_segments":[],"categories_sizes":[],"default_left":[0,0,0,0,0,0,0,0,0,0,0,0,0,0,0,0,0,0,0,0,0,0,0,0,0,0,0,0,0,0,0,0,0,0,0,0,0,0,0,0,0,0,0,0,0,0,0,0,0,0,0,0,0,0,0,0,0,0,0,0,0,0,0,0,0,0,0,0,0,0,0,0,0,0,0,0,0,0,0,0,0,0,0,0,0,0,0,0,0,0,0,0,0,0,0,0,0,0,0,0,0,0,0,0,0,0,0,0,0,0,0,0,0,0,0,0,0,0,0,0,0,0,0,0,0,0,0,0,0,0,0,0,0,0,0,0,0,0,0,0,0,0,0,0,0,0,0,0,0,0,0,0,0,0,0,0,0,0,0,0,0,0,0,0,0,0,0,0,0,0,0,0,0,0,0,0,0,0,0,0,0,0,0,0,0,0,0,0,0,0,0,0,0,0,0,0,0,0,0,0,0,0,0,0,0],"id":5,"left_children":[1,3,5,7,9,11,13,15,17,19,21,23,25,27,29,31,33,35,37,39,41,43,45,47,49,51,53,55,57,59,61,63,65,67,69,71,73,75,77,79,81,83,85,87,89,91,93,95,-1,97,99,101,103,105,107,109,111,113,-1,115,117,119,-1,-1,-1,121,123,-1,125,127,-1,129,131,133,-1,135,137,-1,139,141,143,145,147,149,-1,151,153,-1,155,157,159,-1,161,163,165,-1,167,169,171,173,-1,175,177,179,181,-1,183,185,187,189,191,193,195,197,-1,-1,-1,199,201,-1,203,-1,-1,-1,-1,-1,-1,-1,-1,-1,-1,-1,-1,-1,-1,-1,-1,-1,-1,-1,-1,-1,-1,-1,-1,-1,-1,-1,-1,-1,-1,-1,-1,-1,-1,-1,-1,-1,-1,-1,-1,-1,-1,-1,-1,-1,-1,-1,-1,-1,-1,-1,-1,-1,-1,-1,-1,-1,-1,-1,-1,-1,-1,-1,-1,-1,-1,-1,-1,-1,-1,-1,-1,-1,-1,-1,-1,-1,-1,-1,-1,-1,-1,-1,-1],"loss_changes":[3.9729278E5,2.6622188E5,8.970928E4,1.3578285E4,1.0389125E5,8.976113E4,3.3559156E4,6.9449883E3,7.022342E3,5.5860594E4,1.5742936E4,4.0702906E4,8.1605547E3,3.576533E4,1.0210859E4,1.2735842E4,3.0982734E3,1.4752787E4,9.053882E3,1.4189781E4,6.307436E4,1.6771338E4,1.2063674E4,2.1571465E4,3.2709762E4,5.3508906E3,1.582154E4,3.816185E4,7.676633E3,8.476623E3,2.7382969E3,1.3725929E4,8.512947E3,6.2710938E1,1.3927117E3,7.3476133E3,2.328075E3,1.0695458E4,1.3840738E4,8.579718E3,2.1728188E4,1.4071773E4,3.5180637E4,9.016027E3,8.0624937E3,8.786896E3,6.442096E3,2.7237398E4,0E0,2.4638754E4,4.0917344E3,4.4969336E3,8.778949E3,1.3817E4,7.904125E3,2.3992523E4,2.9656828E4,6.1032812E3,0E0,1.1676445E3,4.9139136E3,2.91129E3,0E0,0E0,0E0,7.037695E1,6.2865728E3,0E0,2.9761963E2,9.788096E2,0E0,1.2299254E3,4.1558516E3,2.6455225E2,0E0,6.981503E3,9.710902E3,0E0,5.1232104E3,1.3369604E2,1.107349E4,1.8630281E4,2.7739188E4,3.6164531E3,0E0,2.815139E4,1.4517203E4,0E0,8.290648E-3,3.643644E3,1.0811971E4,0E0,8.0504746E3,6.8281313E3,1.1960863E4,0E0,2.3679375E3,2.2681969E4,2.4556873E4,2.3966406E2,0E0,3.2395078E3,1.1014955E3,8.0840967E3,3.8915781E3,0E0,2.3734038E3,4.990076E3,5.2143716E3,4.328789E4,2.390982E4,2.5883332E4,3.4549812E4,4.511422E3,0E0,0E0,0E0,4.0221924E1,1.0748059E3,0E0,1.6561362E2,0E0,0E0,0E0,0E0,0E0,0E0,0E0,0E0,0E0,0E0,0E0,0E0,0E0,0E0,0E0,0E0,0E0,0E0,0E0,0E0,0E0,0E0,0E0,0E0,0E0,0E0,0E0,0E0,0E0,0E0,0E0,0E0,0E0,0E0,0E0,0E0,0E0,0E0,0E0,0E0,0E0,0E0,0E0,0E0,0E0,0E0,0E0,0E0,0E0,0E0,0E0,0E0,0E0,0E0,0E0,0E0,0E0,0E0,0E0,0E0,0E0,0E0,0E0,0E0,0E0,0E0,0E0,0E0,0E0,0E0,0E0,0E0,0E0,0E0,0E0,0E0,0E0,0E0,0E0,0E0,0E0,0E0,0E0,0E0],"parents":[2147483647,0,0,1,1,2,2,3,3,4,4,5,5,6,6,7,7,8,8,9,9,10,10,11,11,12,12,13,13,14,14,15,15,16,16,17,17,18,18,19,19,20,20,21,21,22,22,23,23,24,24,25,25,26,26,27,27,28,28,29,29,30,30,31,31,32,32,33,33,34,34,35,35,36,36,37,37,38,38,39,39,40,40,41,41,42,42,43,43,44,44,45,45,46,46,47,47,49,49,50,50,51,51,52,52,53,53,54,54,55,55,56,56,57,57,59,59,60,60,61,61,65,65,66,66,68,68,69,69,71,71,72,72,73,73,75,75,76,76,78,78,79,79,80,80,81,81,82,82,83,83,85,85,86,86,88,88,89,89,90,90,92,92,93,93,94,94,96,96,97,97,98,98,99,99,101,101,102,102,103,103,104,104,106,106,107,107,108,108,109,109,110,110,111,111,112,112,113,113,117,117,118,118,120,120],"right_children":[2,4,6,8,10,12,14,16,18,20,22,24,26,28,30,32,34,36,38,40,42,44,46,48,50,52,54,56,58,60,62,64,66,68,70,72,74,76,78,80,82,84,86,88,90,92,94,96,-1,98,100,102,104,106,108,110,112,114,-1,116,118,120,-1,-1,-1,122,124,-1,126,128,-1,130,132,134,-1,136,138,-1,140,142,144,146,148,150,-1,152,154,-1,156,158,160,-1,162,164,166,-1,168,170,172,174,-1,176,178,180,182,-1,184,186,188,190,192,194,196,198,-1,-1,-1,200,202,-1,204,-1,-1,-1,-1,-1,-1,-1,-1,-1,-1,-1,-1,-1,-1,-1,-1,-1,-1,-1,-1,-1,-1,-1,-1,-1,-1,-1,-1,-1,-1,-1,-1,-1,-1,-1,-1,-1,-1,-1,-1,-1,-1,-1,-1,-1,-1,-1,-1,-1,-1,-1,-1,-1,-1,-1,-1,-1,-1,-1,-1,-1,-1,-1,-1,-1,-1,-1,-1,-1,-1,-1,-1,-1,-1,-1,-1,-1,-1,-1,-1,-1,-1,-1,-1],"split_conditions":[4.046E0,2E0,5.052E0,1E0,7.254E1,6.975E1,7.619E1,5.839E1,5.193E1,2E0,2E0,1.38E1,5.04E0,1.1E1,3.1E1,3.03E0,4.026E0,1E0,7.101E1,3E0,3E0,5E0,1E0,6.199E1,6E0,2E0,7.182E1,3.4E1,4.5E1,6E0,2E0,4E0,5.042E1,4.6E1,8E0,3.899E1,4.899E1,6.611E1,1.1E1,5E0,4.308E1,4E0,5E0,4E0,6E0,2E0,4E0,1E0,-2.2481458E0,1E0,6.757E1,1.2E1,1.69E1,4E0,7E0,8E0,1E0,7.501E1,1.1043533E0,1.1E1,7E0,2E0,-3.8173485E0,2.268544E0,-2.6924992E0,3.513E1,2E0,-3.1372411E0,6.027E1,7.225E1,-2.238053E0,3.859E1,3.1E1,5E0,-6.295948E-1,6.262E1,1E0,-3.899215E0,4.7E1,3.43E1,4.036E0,1E0,1E0,1.72E1,-1.3671789E0,5.839E1,6.2E1,3.843989E0,7.601E1,5E0,5E0,1.7951607E0,2.4E1,2E0,1E0,-2.2458284E0,5E0,4.308E1,6.031E1,1E1,-2.1946526E-1,7.365E1,7.028E1,7.402E1,2E0,3.4084E0,2E0,7.316E1,3E0,3E0,2.3E1,4.788E1,6.713E1,2E1,7.661934E-1,-2.671171E0,-3.933302E-1,7.854E1,1E0,-2.5935936E0,7.748E1,-8.514954E-1,-3.0661952E0,-1.0959966E0,2.099487E0,-1.6506741E0,-2.5335732E-1,2.8434983E-1,-1.0364364E0,-2.7811787E-1,1.2565325E0,-2.0599914E0,6.8204063E-1,1.7710953E0,3.5236606E-1,-1.6531879E-1,-1.545627E0,-4.6888223E-1,1.8586987E0,-9.3809813E-1,1.0020765E0,-2.0804358E0,-4.8854277E-1,1.8018137E0,-7.566559E-1,1.5726316E0,4.6425023E0,2.7663548E0,1.5397819E0,2.7058387E0,4.554764E0,1.2231258E0,-6.9193415E-2,2.0541327E0,-2.499387E0,-6.596375E-3,-2.5905991E-2,3.3143884E-1,-2.8639362E0,-7.088701E-1,2.6756592E0,-1.5364612E0,-2.6185167E-1,-1.8155936E0,8.972742E-1,1.9644665E0,-2.970185E-1,5.1658893E0,1.0652825E0,-1.5974864E0,6.609464E-1,-2.0289615E-1,-2.720308E0,-2.9232125E0,-7.643822E-1,-1.9132273E0,-1.1436738E0,1.0012684E0,-3.537211E-1,-1.9247017E0,1.2639488E0,2.5424215E-1,-2.693477E0,5.034432E-1,-1.5386117E0,-3.508907E0,-1.279027E0,3.8953385E-1,-2.4078593E0,-3.287206E0,-4.958448E-1,-3.025822E0,2.946647E0,-1.7701955E-1,-2.5979526E0,1.3122138E0,-1.122381E0,-4.861451E-1,-2.6710353E0,3.1992683E-1,1.277831E0,-2.207955E0,-3.4370396E-1,2.045002E-1,-4.550089E-1],"split_indices":[7,2,7,4,0,0,0,0,0,10,3,9,7,5,9,7,7,5,0,6,2,6,8,0,5,5,0,9,5,5,5,6,0,9,6,0,0,0,9,9,0,5,2,2,6,6,6,8,0,1,0,6,9,6,6,6,4,0,0,6,5,2,0,0,0,0,10,0,0,0,0,0,9,6,0,0,8,0,9,0,7,8,8,9,0,0,9,0,0,2,2,0,9,10,4,0,5,0,0,5,0,0,0,0,6,0,5,0,10,6,6,0,0,9,0,0,0,0,4,0,0,0,0,0,0,0,0,0,0,0,0,0,0,0,0,0,0,0,0,0,0,0,0,0,0,0,0,0,0,0,0,0,0,0,0,0,0,0,0,0,0,0,0,0,0,0,0,0,0,0,0,0,0,0,0,0,0,0,0,0,0,0,0,0,0,0,0,0,0,0,0,0,0,0,0,0,0,0,0,0,0,0,0,0,0],"split_type":[0,0,0,0,0,0,0,0,0,0,0,0,0,0,0,0,0,0,0,0,0,0,0,0,0,0,0,0,0,0,0,0,0,0,0,0,0,0,0,0,0,0,0,0,0,0,0,0,0,0,0,0,0,0,0,0,0,0,0,0,0,0,0,0,0,0,0,0,0,0,0,0,0,0,0,0,0,0,0,0,0,0,0,0,0,0,0,0,0,0,0,0,0,0,0,0,0,0,0,0,0,0,0,0,0,0,0,0,0,0,0,0,0,0,0,0,0,0,0,0,0,0,0,0,0,0,0,0,0,0,0,0,0,0,0,0,0,0,0,0,0,0,0,0,0,0,0,0,0,0,0,0,0,0,0,0,0,0,0,0,0,0,0,0,0,0,0,0,0,0,0,0,0,0,0,0,0,0,0,0,0,0,0,0,0,0,0,0,0,0,0,0,0,0,0,0,0,0,0,0,0,0,0,0,0],"sum_hessian":[1.522E3,7.81E2,7.41E2,1.77E2,6.04E2,4.29E2,3.12E2,3.6E1,1.41E2,5.02E2,1.02E2,2.86E2,1.43E2,2.72E2,4E1,1.9E1,1.7E1,3.7E1,1.04E2,2.5E2,2.52E2,1.8E1,8.4E1,1E1,2.76E2,1.09E2,3.4E1,2.17E2,5.5E1,1.6E1,2.4E1,5E0,1.4E1,1.2E1,5E0,3.2E1,5E0,6.8E1,3.6E1,2.3E1,2.27E2,2.5E1,2.27E2,7E0,1.1E1,5.4E1,3E1,9E0,1E0,2.64E2,1.2E1,7.8E1,3.1E1,7E0,2.7E1,1.12E2,1.05E2,5.4E1,1E0,1E1,6E0,5E0,1.9E1,4E0,1E0,7E0,7E0,1E1,2E0,4E0,1E0,4E0,2.8E1,4E0,1E0,5.1E1,1.7E1,3E0,3.3E1,2E0,2.1E1,2.5E1,2.02E2,2.4E1,1E0,1.76E2,5.1E1,5E0,2E0,3E0,8E0,2E0,5.2E1,8E0,2.2E1,1E0,8E0,1.71E2,9.3E1,1E1,2E0,7.2E1,6E0,6E0,2.5E1,3E0,4E0,1.7E1,1E1,8E1,3.2E1,4.4E1,6.1E1,5.3E1,1E0,9E0,1E0,3E0,3E0,3E0,2E0,1E0,6E0,6E0,1E0,1E0,1E0,2E0,2E0,3E0,1E0,2.7E1,1E0,3E0,1E0,4E1,1.1E1,7E0,1E1,3E1,3E0,1E0,1E0,1.6E1,5E0,9E0,1.6E1,8E1,1.22E2,1.4E1,1E1,6.8E1,1.08E2,5E1,1E0,1E0,1E0,1E0,2E0,5E0,3E0,3.1E1,2.1E1,5E0,3E0,1E1,1.2E1,7E0,1E0,1.1E1,1.6E2,8.3E1,1E1,9E0,1E0,2.6E1,4.6E1,1E0,5E0,3E0,3E0,1E0,2.4E1,2E0,2E0,3E0,1.4E1,9E0,1E0,1.7E1,6.3E1,3.1E1,1E0,2.5E1,1.9E1,3.9E1,2.2E1,3E0,5E1,1E0,2E0,1E0,2E0,1E0,1E0],"tree_param":{"num_deleted":"0","num_feature":"11","num_nodes":"205","size_leaf_vector":"1"}},{"base_weights":[-7.5192004E-2,1.4891816E1,-1.5848946E1,-1.7524511E1,2.4404568E1,-9.878337E0,-3.429996E1,-3.4061413E1,-1.3092189E1,3.0009495E1,-3.2040052E0,-2.8189027E0,-3.0160852E1,-5.8377506E1,-2.660475E1,-1.3158949E1,-4.3568237E1,1.3633509E0,-1.4159416E1,4.0084946E1,1.9895077E1,2.1690245E1,-8.730908E0,8.760511E0,-1.2506838E1,-2.6311665E1,-4.758449E1,-6.3239193E1,-8.780863E0,-1.5644648E1,-4.6416267E1,2.3042161E0,-3.5540363E1,-2.8818937E1,-6.6587105E1,-1.8582964E1,-2.74656E0,4.124667E1,-6.3016925E0,6.450193E1,1.472107E1,5.509889E1,-2.3897047E0,-1.711457E1,6.424976E0,5.9696552E1,5.616551E0,-2.280735E1,-4.3636924E-1,-4.0870907E1,-2.1062784E1,-5.6516373E-1,-5.2018143E1,-7.7672646E1,-4.208502E1,3.3704617E0,-2.2340348E0,1.0402724E0,-2.65846E1,-4.828056E1,1.0767444E0,-5.5509815E1,1.4779147E0,-3.917133E1,-1.2276082E1,-3.7501912E0,-2.4752405E1,-3.130658E1,-1.3924338E1,-6.089087E0,3.1902997E0,5.0135727E1,3.3753704E1,-3.2087757E1,3.7103677E0,6.9214806E1,-1.3329995E0,8.256337E0,3.6442932E1,3.6838224E0,-4.225286E-1,-3.829554E1,1.3833968E1,1.7353219E0,-1.972492E1,-1.5522575E1,1.4733801E1,7.4433975E1,-2.191942E0,8.742794E0,-4.3492916E1,-1.1981578E1,-4.96841E1,-3.2386852E1,1.1448251E1,-1.760537E1,-5.8995155E1,8.5856336E-1,-2.7249903E1,-5.452157E1,1.384449E-2,-4.9332944E-1,-4.021583E0,-6.196514E1,-1.9926616E0,-1.9374296E1,1.5839946E1,-3.6536373E1,1.6543978E1,-2.33292E1,-5.1971546E1,-1.211253E0,-3.0950277E0,2.15772E-3,-2.4490173E0,1.2296536E0,-1.9658095E0,-1.6094071E0,-2.4702339E-1,9.851925E-1,-1.7067575E0,1.3382936E0,-7.995756E-1,5.8258706E-1,-5.521614E-1,-1.5950558E0,2.5590513E0,-4.687266E-1,1.8441925E0,-3.9692917E-1,-2.108885E0,2.579566E0,4.347729E0,1.1628555E0,-6.57656E-2,1.9534397E0,-2.4369023E0,-6.431389E-3,-2.5258256E-2,3.2315293E-1,-2.7684715E0,-6.7933375E-1,2.575322E0,-5.06963E-1,-1.817228E0,-1.7399441E0,8.636263E-1,1.8751729E0,-2.8330997E-1,-2.1896827E0,4.621817E0,9.291021E-1,-2.5221285E-1,-2.689652E0,9.525452E-2,-1.7408974E0,-4.6426218E-2,-3.598908E0,-5.550859E-1,2.5630376E-1,-2.2277894E0,1.3823448E0,-7.0014095E-1,-2.0295858E0,1.11452736E-1,-3.6965446E0,-1.87522E0,-7.451674E-1,1.1765186E0,-8.8877994E-1,-2.19858E0,-3.0501003E0,-1.0791885E0,-7.39452E-1,-3.2454708E0,7.7831745E-1,-3.7567776E-1,-1.7994959E0,1.9735022E0,1.20618336E-1,2.5622382E0,1.154421E0,-1.9923279E0,-1.2746613E0,2.2103565E0,-2.1799839E0,2.9641032E0,-1.6330782E0,-2.9885204E0],"categories":[],"categories_nodes":[],"categories_segments":[],"categories_sizes":[],"default_left":[0,0,0,0,0,0,0,0,0,0,0,0,0,0,0,0,0,0,0,0,0,0,0,0,0,0,0,0,0,0,0,0,0,0,0,0,0,0,0,0,0,0,0,0,0,0,0,0,0,0,0,0,0,0,0,0,0,0,0,0,0,0,0,0,0,0,0,0,0,0,0,0,0,0,0,0,0,0,0,0,0,0,0,0,0,0,0,0,0,0,0,0,0,0,0,0,0,0,0,0,0,0,0,0,0,0,0,0,0,0,0,0,0,0,0,0,0,0,0,0,0,0,0,0,0,0,0,0,0,0,0,0,0,0,0,0,0,0,0,0,0,0,0,0,0,0,0,0,0,0,0,0,0,0,0,0,0,0,0,0,0,0,0,0,0,0,0,0,0,0,0,0,0,0,0,0,0,0,0,0,0,0,0,0,0,0,0,0,0],"id":6,"left_children":[1,3,5,7,9,11,13,15,17,19,21,23,25,27,29,31,33,-1,35,37,39,41,43,45,47,49,51,53,55,57,59,-1,61,63,65,67,69,71,73,75,77,79,81,83,85,87,89,91,93,95,97,-1,99,101,103,-1,-1,105,107,109,-1,111,-1,113,115,-1,117,119,121,123,-1,125,127,129,-1,131,-1,133,135,-1,137,139,141,-1,143,145,147,149,-1,151,153,155,157,159,161,163,165,167,169,171,-1,-1,-1,173,175,177,179,181,183,185,187,-1,-1,-1,-1,-1,-1,-1,-1,-1,-1,-1,-1,-1,-1,-1,-1,-1,-1,-1,-1,-1,-1,-1,-1,-1,-1,-1,-1,-1,-1,-1,-1,-1,-1,-1,-1,-1,-1,-1,-1,-1,-1,-1,-1,-1,-1,-1,-1,-1,-1,-1,-1,-1,-1,-1,-1,-1,-1,-1,-1,-1,-1,-1,-1,-1,-1,-1,-1,-1,-1,-1,-1,-1,-1,-1,-1,-1,-1],"loss_changes":[3.5979484E5,2.415718E5,8.1402734E4,1.2600902E4,9.371634E4,8.038387E4,3.1982875E4,6.7791836E3,6.502375E3,5.0461875E4,1.4360949E4,4.7001066E4,8.472672E3,9.813E3,2.9455781E4,1.8875182E4,6.568832E3,0E0,6.966418E3,1.3785875E4,5.744189E4,1.541676E4,1.0910216E4,3.0251629E4,2.8337742E4,8.3859375E3,3.4334805E3,8.6389375E3,1.6687951E4,1.6638088E4,7.2470703E3,0E0,1.4640621E4,2.4305166E3,1.3124727E3,5.491535E3,9.286667E3,1.4626094E4,1.6913229E4,1.3015766E4,3.171625E4,8.282748E3,7.520073E3,8.1244785E3,5.881816E3,2.004739E4,2.816884E4,3.5192984E4,4.0621027E4,1.2033148E4,1.2365723E4,0E0,2.8952695E3,3.3221406E3,1.4223256E4,0E0,0E0,1.1485659E4,2.4210773E4,3.2081094E3,0E0,9.9916016E1,0E0,3.848668E3,8.942473E3,0E0,2.8292444E2,4.424043E3,6.7365537E3,3.556405E3,0E0,1.1065594E4,1.8705453E4,1.1271514E3,0E0,3.3298203E3,0E0,2.5444629E4,1.3535164E4,0E0,7.882595E-3,3.4146694E3,9.996831E3,0E0,8.0749336E3,6.29058E3,1.0896023E4,2.533189E4,0E0,2.3290605E4,5.246135E3,2.24323E4,2.9306445E4,1.3466678E4,3.2544418E4,6.929296E3,2.6839297E3,7.855052E3,1.0466656E4,3.1658203E3,0E0,0E0,0E0,7.0684766E2,7.955486E2,1.7064285E4,1.0335201E4,9.801605E3,1.3918679E4,1.5981235E4,4.222242E3,0E0,0E0,0E0,0E0,0E0,0E0,0E0,0E0,0E0,0E0,0E0,0E0,0E0,0E0,0E0,0E0,0E0,0E0,0E0,0E0,0E0,0E0,0E0,0E0,0E0,0E0,0E0,0E0,0E0,0E0,0E0,0E0,0E0,0E0,0E0,0E0,0E0,0E0,0E0,0E0,0E0,0E0,0E0,0E0,0E0,0E0,0E0,0E0,0E0,0E0,0E0,0E0,0E0,0E0,0E0,0E0,0E0,0E0,0E0,0E0,0E0,0E0,0E0,0E0,0E0,0E0,0E0,0E0,0E0,0E0,0E0,0E0,0E0,0E0,0E0,0E0,0E0,0E0],"parents":[2147483647,0,0,1,1,2,2,3,3,4,4,5,5,6,6,7,7,8,8,9,9,10,10,11,11,12,12,13,13,14,14,15,15,16,16,18,18,19,19,20,20,21,21,22,22,23,23,24,24,25,25,26,26,27,27,28,28,29,29,30,30,32,32,33,33,34,34,35,35,36,36,37,37,38,38,39,39,40,40,41,41,42,42,43,43,44,44,45,45,46,46,47,47,48,48,49,49,50,50,52,52,53,53,54,54,57,57,58,58,59,59,61,61,63,63,64,64,66,66,67,67,68,68,69,69,71,71,72,72,73,73,75,75,77,77,78,78,80,80,81,81,82,82,84,84,85,85,86,86,87,87,89,89,90,90,91,91,92,92,93,93,94,94,95,95,96,96,97,97,98,98,99,99,103,103,104,104,105,105,106,106,107,107,108,108,109,109,110,110],"right_children":[2,4,6,8,10,12,14,16,18,20,22,24,26,28,30,32,34,-1,36,38,40,42,44,46,48,50,52,54,56,58,60,-1,62,64,66,68,70,72,74,76,78,80,82,84,86,88,90,92,94,96,98,-1,100,102,104,-1,-1,106,108,110,-1,112,-1,114,116,-1,118,120,122,124,-1,126,128,130,-1,132,-1,134,136,-1,138,140,142,-1,144,146,148,150,-1,152,154,156,158,160,162,164,166,168,170,172,-1,-1,-1,174,176,178,180,182,184,186,188,-1,-1,-1,-1,-1,-1,-1,-1,-1,-1,-1,-1,-1,-1,-1,-1,-1,-1,-1,-1,-1,-1,-1,-1,-1,-1,-1,-1,-1,-1,-1,-1,-1,-1,-1,-1,-1,-1,-1,-1,-1,-1,-1,-1,-1,-1,-1,-1,-1,-1,-1,-1,-1,-1,-1,-1,-1,-1,-1,-1,-1,-1,-1,-1,-1,-1,-1,-1,-1,-1,-1,-1,-1,-1,-1,-1,-1,-1],"split_conditions":[4.046E0,2E0,5.106E0,1E0,7.254E1,7.13E1,1E0,5.35E1,1.06E0,2E0,2E0,2.6E1,8.302E1,6.106E0,1E1,3.03E0,2.232E1,1.3633509E0,4.029E0,1.7E1,3E0,5E0,1E0,1.38E1,3.4E1,7.365E1,2E0,5.469E1,3.992E1,6.046E0,3.3E1,2.3042161E0,5.042E1,2E0,4.6E1,5.193E1,8E0,5.684E1,2.6E1,4E0,5E0,4E0,6E0,2E0,4E0,6.199E1,6E0,8E0,4E0,7.239E1,2.4E1,-5.6516373E-1,5.1E1,3E0,8E0,3.3704617E0,-2.2340348E0,1E0,1E1,3.859E1,1.0767444E0,3.716E1,1.4779147E0,2E0,1.62E1,-3.7501912E0,6.027E1,1E1,5.368E1,4.034E0,3.1902997E0,3.126E1,5.756E1,3.034E0,3.7103677E0,1.72E1,-1.3329995E0,5.839E1,6.2E1,3.6838224E0,7.601E1,5E0,5E0,1.7353219E0,3.06E0,2E0,1E0,1E0,-2.191942E0,1E0,6.757E1,1E0,6.499E1,2E0,1E0,5.038E0,2.6E1,7E0,2E0,8E0,1.384449E-2,-4.9332944E-1,-4.021583E0,3E0,5.495E1,7E0,6.04E0,2E0,4.585E1,3.787E1,3.1E1,-1.211253E0,-3.0950277E0,2.15772E-3,-2.4490173E0,1.2296536E0,-1.9658095E0,-1.6094071E0,-2.4702339E-1,9.851925E-1,-1.7067575E0,1.3382936E0,-7.995756E-1,5.8258706E-1,-5.521614E-1,-1.5950558E0,2.5590513E0,-4.687266E-1,1.8441925E0,-3.9692917E-1,-2.108885E0,2.579566E0,4.347729E0,1.1628555E0,-6.57656E-2,1.9534397E0,-2.4369023E0,-6.431389E-3,-2.5258256E-2,3.2315293E-1,-2.7684715E0,-6.7933375E-1,2.575322E0,-5.06963E-1,-1.817228E0,-1.7399441E0,8.636263E-1,1.8751729E0,-2.8330997E-1,-2.1896827E0,4.621817E0,9.291021E-1,-2.5221285E-1,-2.689652E0,9.525452E-2,-1.7408974E0,-4.6426218E-2,-3.598908E0,-5.550859E-1,2.5630376E-1,-2.2277894E0,1.3823448E0,-7.0014095E-1,-2.0295858E0,1.11452736E-1,-3.6965446E0,-1.87522E0,-7.451674E-1,1.1765186E0,-8.8877994E-1,-2.19858E0,-3.0501003E0,-1.0791885E0,-7.39452E-1,-3.2454708E0,7.7831745E-1,-3.7567776E-1,-1.7994959E0,1.9735022E0,1.20618336E-1,2.5622382E0,1.154421E0,-1.9923279E0,-1.2746613E0,2.2103565E0,-2.1799839E0,2.9641032E0,-1.6330782E0,-2.9885204E0],"split_indices":[7,2,7,4,0,0,8,0,7,10,3,9,0,7,5,7,9,0,7,6,2,6,8,9,9,0,6,0,0,7,5,0,0,10,9,0,6,0,6,5,2,2,6,6,6,0,5,6,6,0,9,0,9,3,5,0,0,1,6,0,0,0,0,6,9,0,0,9,0,7,0,0,0,7,0,9,0,0,9,0,0,2,2,0,7,10,4,8,0,1,0,4,0,6,1,7,9,6,5,6,0,0,0,3,0,5,7,6,0,0,9,0,0,0,0,0,0,0,0,0,0,0,0,0,0,0,0,0,0,0,0,0,0,0,0,0,0,0,0,0,0,0,0,0,0,0,0,0,0,0,0,0,0,0,0,0,0,0,0,0,0,0,0,0,0,0,0,0,0,0,0,0,0,0,0,0,0,0,0,0,0,0,0,0,0,0,0,0,0],"split_type":[0,0,0,0,0,0,0,0,0,0,0,0,0,0,0,0,0,0,0,0,0,0,0,0,0,0,0,0,0,0,0,0,0,0,0,0,0,0,0,0,0,0,0,0,0,0,0,0,0,0,0,0,0,0,0,0,0,0,0,0,0,0,0,0,0,0,0,0,0,0,0,0,0,0,0,0,0,0,0,0,0,0,0,0,0,0,0,0,0,0,0,0,0,0,0,0,0,0,0,0,0,0,0,0,0,0,0,0,0,0,0,0,0,0,0,0,0,0,0,0,0,0,0,0,0,0,0,0,0,0,0,0,0,0,0,0,0,0,0,0,0,0,0,0,0,0,0,0,0,0,0,0,0,0,0,0,0,0,0,0,0,0,0,0,0,0,0,0,0,0,0,0,0,0,0,0,0,0,0,0,0,0,0,0,0,0,0,0,0],"sum_hessian":[1.522E3,7.81E2,7.41E2,1.77E2,6.04E2,5.61E2,1.8E2,3.6E1,1.41E2,5.02E2,1.02E2,4.17E2,1.44E2,4.2E1,1.38E2,1.2E1,2.4E1,3E0,1.38E2,2.5E2,2.52E2,1.8E1,8.4E1,1.9E2,2.27E2,1.2E2,2.4E1,3.8E1,4E0,9E1,4.8E1,3E0,9E0,1.6E1,8E0,9.9E1,3.9E1,2.44E2,6E0,2.5E1,2.27E2,7E0,1.1E1,5.4E1,3E1,1E1,1.8E2,1.22E2,1.05E2,3E1,9E1,3E0,2.1E1,2.1E1,1.7E1,1E0,3E0,3.6E1,5.4E1,4.7E1,1E0,7E0,2E0,9E0,7E0,6E0,2E0,2.5E1,7.4E1,3.8E1,1E0,1.09E2,1.35E2,5E0,1E0,2.4E1,1E0,1.76E2,5.1E1,5E0,2E0,3E0,8E0,2E0,5.2E1,8E0,2.2E1,9E0,1E0,1.7E2,1E1,8.8E1,3.4E1,2.8E1,7.7E1,1.4E1,1.6E1,2E1,7E1,2E1,1E0,1E0,2E1,1.1E1,6E0,1.5E1,2.1E1,4.4E1,1E1,7E0,4E1,2E0,5E0,2E0,7E0,3E0,4E0,1E0,1E0,1E0,2.4E1,3E0,7.1E1,8E0,3E1,1E0,1.08E2,9E0,1.26E2,2E0,3E0,1.4E1,1E1,6.8E1,1.08E2,5E1,1E0,1E0,1E0,1E0,2E0,5E0,3E0,3.4E1,1.8E1,5E0,3E0,1E1,1.2E1,1E0,8E0,9.9E1,7.1E1,8E0,2E0,2.8E1,6E1,2.1E1,1.3E1,7E0,2.1E1,4.7E1,3E1,6E0,8E0,8E0,8E0,1.2E1,8E0,4.6E1,2.4E1,1.6E1,4E0,1E0,1E1,1E0,5E0,1.2E1,3E0,1.6E1,5E0,2E0,4.2E1,4E0,6E0,6E0,1E0,1.3E1,2.7E1],"tree_param":{"num_deleted":"0","num_feature":"11","num_nodes":"189","size_leaf_vector":"1"}},{"base_weights":[-8.616199E-2,1.4157544E1,-1.5097607E1,-1.6675884E1,2.3205795E1,-8.2260895E0,-2.9704737E1,-3.2610065E1,-1.2406585E1,2.8528408E1,-3.012449E0,-1.3148221E0,-2.8625652E1,3.1447329E1,-3.142924E1,-1.2541322E1,-4.174141E1,1.312225E0,-1.3429589E1,3.396056E1,1.1651422E1,-1.4642532E-1,-4.9322094E1,1.1048708E1,-1.1317133E1,-2.251098E1,-4.2515377E1,-1.8991005E0,4.934922E1,-4.5380745E1,-2.604241E1,2.2178082E0,-3.4046185E1,-2.7565226E1,-6.388071E1,-1.9522507E1,-5.5477E0,4.8340054E1,2.5275E1,-6.9014244E0,3.358023E1,2.534631E1,-5.8096695E0,-3.2061691E0,6.171085E-1,-1.0185693E1,1.6237911E1,-4.296129E1,-5.8044333E0,-1.7938276E1,-3.4529015E1,-1.7204088E1,-4.5829086E1,3.2967174E0,1.2286533E0,-2.2308979E1,-5.3422287E1,-2.2425869E1,-6.448083E1,-5.3272614E1,1.428651E0,-3.7457447E1,-1.1754298E1,-3.5894685E0,-2.4133596E1,-1.2083681E1,-3.575638E1,-1.1696195E1,7.013466E0,4.8229852E-1,5.0083168E1,2.7918333E1,-1.9201326E1,1.1310682E1,-1.5857447E1,9.654712E0,4.350721E1,5.280046E1,3.0754442E0,-2.2538497E0,-3.1843934E0,1.8702356E1,-1.8367867E1,5.029396E1,3.1342344E0,-5.5059868E1,-1.2953873E0,1.051036E1,-1.1987144E1,-2.1864216E1,2.6273802E1,-4.4706017E1,-1.2600011E1,-1.9659137E0,3.6825714E0,-2.5451765E1,-5.133176E1,1.8102024E1,-4.4022984E1,-6.861657E1,-3.0238892E1,-2.3297707E1,2.8177218E0,-4.6226045E-1,-6.801855E1,-1.1708782E0,-2.9660685E0,2.0858764E-3,-2.3418727E0,1.1835413E0,-1.8871769E0,-1.569172E0,-2.4084778E-1,-2.2516647E-1,-1.5998867E0,-1.0064194E-1,-2.1202223E0,-1.0793463E0,7.064747E-2,1.5949285E0,-2.5335735E-1,-1.1380422E0,1.5656193E0,4.0656896E0,2.3076618E0,1.4427854E0,-2.5689197E0,-1.9135567E0,1.902049E0,1.8478814E-1,2.3278806E0,-1.6883787E0,-4.2715308E-1,8.646807E-1,-3.0051653E0,2.3529842E0,-2.3759797E0,3.53033E0,-2.0598222E-2,-1.8496048E0,1.1362392E0,-5.4612315E-1,5.000041E-1,1.1651558E0,4.13791E-1,-2.5437124E0,-3.3288738E-1,3.9214668E0,1.9428915E0,-1.1503223E0,6.077274E-1,-7.7507883E-1,-3.1098225E0,-3.6072679E0,2.7821834E0,1.7732766E0,-2.3176105E-1,-3.7791994E0,-2.763784E-1,-4.9991986E-1,-1.9750162E0,-1.858323E0,2.3197572E0,-4.1711983E-1,-2.465247E0,-2.0838463E0,8.307626E-2,5.460331E-1,-4.5079252E-1,-3.4257615E0,3.7495872E-1,-2.649033E0,-1.0789795E0,-1.2721792E0,2.8561065E0,1.7617692E0,-2.7215755E0,-3.56154E0,-1.1979576E0,-7.384577E-2,-2.942659E0,-9.4016117E-1,-1.7874634E0,-6.7692226E-1,-3.571518E0],"categories":[],"categories_nodes":[],"categories_segments":[],"categories_sizes":[],"default_left":[0,0,0,0,0,0,0,0,0,0,0,0,0,0,0,0,0,0,0,0,0,0,0,0,0,0,0,0,0,0,0,0,0,0,0,0,0,0,0,0,0,0,0,0,0,0,0,0,0,0,0,0,0,0,0,0,0,0,0,0,0,0,0,0,0,0,0,0,0,0,0,0,0,0,0,0,0,0,0,0,0,0,0,0,0,0,0,0,0,0,0,0,0,0,0,0,0,0,0,0,0,0,0,0,0,0,0,0,0,0,0,0,0,0,0,0,0,0,0,0,0,0,0,0,0,0,0,0,0,0,0,0,0,0,0,0,0,0,0,0,0,0,0,0,0,0,0,0,0,0,0,0,0,0,0,0,0,0,0,0,0,0,0,0,0,0,0,0,0,0,0,0,0,0,0,0,0,0,0,0,0,0,0,0,0],"id":7,"left_children":[1,3,5,7,9,11,13,15,17,19,21,23,25,27,29,31,33,-1,35,37,39,41,43,45,47,49,51,-1,53,55,57,-1,59,61,63,65,67,69,71,73,75,77,79,-1,-1,81,83,85,87,89,91,93,95,-1,-1,97,99,101,103,105,-1,107,109,-1,111,113,115,117,119,121,123,125,127,129,131,133,135,137,139,-1,141,143,145,147,149,151,153,155,157,159,161,163,165,-1,167,169,171,173,175,177,179,181,-1,-1,183,-1,-1,-1,-1,-1,-1,-1,-1,-1,-1,-1,-1,-1,-1,-1,-1,-1,-1,-1,-1,-1,-1,-1,-1,-1,-1,-1,-1,-1,-1,-1,-1,-1,-1,-1,-1,-1,-1,-1,-1,-1,-1,-1,-1,-1,-1,-1,-1,-1,-1,-1,-1,-1,-1,-1,-1,-1,-1,-1,-1,-1,-1,-1,-1,-1,-1,-1,-1,-1,-1,-1,-1,-1,-1,-1,-1,-1,-1,-1,-1],"loss_changes":[3.258595E5,2.185561E5,7.4232516E4,1.1704367E4,8.451341E4,7.130169E4,2.5981625E4,6.256926E3,5.967172E3,4.57185E4,1.3663405E4,4.6993645E4,9.914125E3,1.0574799E4,1.6178828E4,1.7416604E4,6.085383E3,0E0,6.5669883E3,4.6237938E4,5.068014E4,1.4295669E4,6.2676846E3,1.8897633E4,3.6384027E4,4.381504E3,2.3987734E3,0E0,8.452842E2,1.0496766E4,2.2047352E4,0E0,1.3561595E4,2.2186016E3,1.0965859E3,8.987283E3,4.8704316E3,1.18216875E4,2.8634281E4,1.1270705E4,1.3117914E4,1.0843313E4,8.20655E3,0E0,0E0,8.380002E3,6.0979914E4,1.5555715E4,1.8282527E4,1.2377484E4,4.7928203E3,2.9161406E3,2.3937969E3,0E0,0E0,1.6591629E4,1.4128844E4,1.202757E4,2.106875E3,5.552539E1,0E0,3.519379E3,8.258797E3,0E0,2.689552E2,8.158457E3,5.298551E3,5.47618E3,6.474808E3,5.012225E3,1.3061719E4,1.8281312E4,1.6738266E4,6.0011914E3,5.7375947E3,1.0631146E4,1.51710625E4,7.6091484E3,9.500944E3,0E0,7.964948E3,1.9090747E2,9.938939E3,9.179281E3,2.3859346E4,5.8113203E3,3.6287473E4,1.9062418E4,5.3398145E4,1.2788873E4,9.383363E3,2.264412E3,3.8013806E3,0E0,4.661083E2,1.3284643E4,8.316406E1,1.3347471E4,1.1817463E4,1.4454844E3,1.6373143E4,8.0021094E3,0E0,0E0,1.4493203E3,0E0,0E0,0E0,0E0,0E0,0E0,0E0,0E0,0E0,0E0,0E0,0E0,0E0,0E0,0E0,0E0,0E0,0E0,0E0,0E0,0E0,0E0,0E0,0E0,0E0,0E0,0E0,0E0,0E0,0E0,0E0,0E0,0E0,0E0,0E0,0E0,0E0,0E0,0E0,0E0,0E0,0E0,0E0,0E0,0E0,0E0,0E0,0E0,0E0,0E0,0E0,0E0,0E0,0E0,0E0,0E0,0E0,0E0,0E0,0E0,0E0,0E0,0E0,0E0,0E0,0E0,0E0,0E0,0E0,0E0,0E0,0E0,0E0,0E0,0E0,0E0,0E0,0E0,0E0,0E0],"parents":[2147483647,0,0,1,1,2,2,3,3,4,4,5,5,6,6,7,7,8,8,9,9,10,10,11,11,12,12,13,13,14,14,15,15,16,16,18,18,19,19,20,20,21,21,22,22,23,23,24,24,25,25,26,26,28,28,29,29,30,30,32,32,33,33,34,34,35,35,36,36,37,37,38,38,39,39,40,40,41,41,42,42,45,45,46,46,47,47,48,48,49,49,50,50,51,51,52,52,55,55,56,56,57,57,58,58,59,59,61,61,62,62,64,64,65,65,66,66,67,67,68,68,69,69,70,70,71,71,72,72,73,73,74,74,75,75,76,76,77,77,78,78,80,80,81,81,82,82,83,83,84,84,85,85,86,86,87,87,88,88,89,89,90,90,91,91,92,92,94,94,95,95,96,96,97,97,98,98,99,99,100,100,101,101,104,104],"right_children":[2,4,6,8,10,12,14,16,18,20,22,24,26,28,30,32,34,-1,36,38,40,42,44,46,48,50,52,-1,54,56,58,-1,60,62,64,66,68,70,72,74,76,78,80,-1,-1,82,84,86,88,90,92,94,96,-1,-1,98,100,102,104,106,-1,108,110,-1,112,114,116,118,120,122,124,126,128,130,132,134,136,138,140,-1,142,144,146,148,150,152,154,156,158,160,162,164,166,-1,168,170,172,174,176,178,180,182,-1,-1,184,-1,-1,-1,-1,-1,-1,-1,-1,-1,-1,-1,-1,-1,-1,-1,-1,-1,-1,-1,-1,-1,-1,-1,-1,-1,-1,-1,-1,-1,-1,-1,-1,-1,-1,-1,-1,-1,-1,-1,-1,-1,-1,-1,-1,-1,-1,-1,-1,-1,-1,-1,-1,-1,-1,-1,-1,-1,-1,-1,-1,-1,-1,-1,-1,-1,-1,-1,-1,-1,-1,-1,-1,-1,-1,-1,-1,-1,-1,-1,-1],"split_conditions":[4.046E0,2E0,4E0,1E0,7.254E1,7.101E1,1.45E1,5.35E1,1.06E0,4E0,8.549E1,2.6E1,2E0,1E0,1E0,3.03E0,2.232E1,1.312225E0,3.068E0,5.469E1,5E0,2E0,4E0,2E0,4.192E1,8.031E1,7.239E1,-1.8991005E0,6E0,6E0,8.217E1,2.2178082E0,5.042E1,2E0,4.6E1,3.04E0,6.516E1,5E0,3.4E1,1.6E1,1.83E1,5E0,7.303E1,-3.2061691E0,6.171085E-1,2E0,3E0,5.086E0,5.257E1,7.912E1,3.11E1,5.038E0,2.4E1,3.2967174E0,1.2286533E0,6.046E0,3.6E1,2.1E1,2E0,3.716E1,1.428651E0,2E0,1.62E1,-3.5894685E0,6.027E1,7.101E1,2E0,1E0,6.913E1,4.643E1,1.18E1,3E0,4.9E1,2E0,5.495E1,2E0,6.2E1,4E0,6E0,-2.2538497E0,1E0,4.052E0,3E0,4.543E1,2E1,2.8E1,1E0,4.1E0,5.495E1,3.1E1,2E0,2E0,8.056E1,-1.9659137E0,7.212E1,7.402E1,6E1,6.036E0,2E0,1.9E1,5.7E1,1.1E1,2.8177218E0,-4.6226045E-1,5.041E0,-1.1708782E0,-2.9660685E0,2.0858764E-3,-2.3418727E0,1.1835413E0,-1.8871769E0,-1.569172E0,-2.4084778E-1,-2.2516647E-1,-1.5998867E0,-1.0064194E-1,-2.1202223E0,-1.0793463E0,7.064747E-2,1.5949285E0,-2.5335735E-1,-1.1380422E0,1.5656193E0,4.0656896E0,2.3076618E0,1.4427854E0,-2.5689197E0,-1.9135567E0,1.902049E0,1.8478814E-1,2.3278806E0,-1.6883787E0,-4.2715308E-1,8.646807E-1,-3.0051653E0,2.3529842E0,-2.3759797E0,3.53033E0,-2.0598222E-2,-1.8496048E0,1.1362392E0,-5.4612315E-1,5.000041E-1,1.1651558E0,4.13791E-1,-2.5437124E0,-3.3288738E-1,3.9214668E0,1.9428915E0,-1.1503223E0,6.077274E-1,-7.7507883E-1,-3.1098225E0,-3.6072679E0,2.7821834E0,1.7732766E0,-2.3176105E-1,-3.7791994E0,-2.763784E-1,-4.9991986E-1,-1.9750162E0,-1.858323E0,2.3197572E0,-4.1711983E-1,-2.465247E0,-2.0838463E0,8.307626E-2,5.460331E-1,-4.5079252E-1,-3.4257615E0,3.7495872E-1,-2.649033E0,-1.0789795E0,-1.2721792E0,2.8561065E0,1.7617692E0,-2.7215755E0,-3.56154E0,-1.1979576E0,-7.384577E-2,-2.942659E0,-9.4016117E-1,-1.7874634E0,-6.7692226E-1,-3.571518E0],"split_indices":[7,2,5,4,0,0,9,0,7,2,0,9,5,4,4,7,9,0,7,0,2,3,2,2,0,0,0,0,5,5,0,0,0,10,9,7,0,9,9,9,9,6,0,0,0,6,2,7,0,0,9,7,9,0,0,7,9,6,6,0,0,6,9,0,0,0,6,5,0,0,9,10,9,5,0,5,9,2,6,0,8,7,6,0,9,9,8,7,0,9,6,6,0,0,0,0,9,7,6,5,9,5,0,0,7,0,0,0,0,0,0,0,0,0,0,0,0,0,0,0,0,0,0,0,0,0,0,0,0,0,0,0,0,0,0,0,0,0,0,0,0,0,0,0,0,0,0,0,0,0,0,0,0,0,0,0,0,0,0,0,0,0,0,0,0,0,0,0,0,0,0,0,0,0,0,0,0,0,0,0,0,0,0,0,0],"split_type":[0,0,0,0,0,0,0,0,0,0,0,0,0,0,0,0,0,0,0,0,0,0,0,0,0,0,0,0,0,0,0,0,0,0,0,0,0,0,0,0,0,0,0,0,0,0,0,0,0,0,0,0,0,0,0,0,0,0,0,0,0,0,0,0,0,0,0,0,0,0,0,0,0,0,0,0,0,0,0,0,0,0,0,0,0,0,0,0,0,0,0,0,0,0,0,0,0,0,0,0,0,0,0,0,0,0,0,0,0,0,0,0,0,0,0,0,0,0,0,0,0,0,0,0,0,0,0,0,0,0,0,0,0,0,0,0,0,0,0,0,0,0,0,0,0,0,0,0,0,0,0,0,0,0,0,0,0,0,0,0,0,0,0,0,0,0,0,0,0,0,0,0,0,0,0,0,0,0,0,0,0,0,0,0,0],"sum_hessian":[1.522E3,7.81E2,7.41E2,1.77E2,6.04E2,5.05E2,2.36E2,3.6E1,1.41E2,5.02E2,1.02E2,3.78E2,1.27E2,6E0,2.3E2,1.2E1,2.4E1,3E0,1.38E2,3.79E2,1.23E2,9.7E1,5E0,1.69E2,2.09E2,9E1,3.7E1,1E0,5E0,6.2E1,1.68E2,3E0,9E0,1.6E1,8E0,7.7E1,6.1E1,1.41E2,2.38E2,6.7E1,5.6E1,1.7E1,8E1,4E0,1E0,3.3E1,1.36E2,3E1,1.79E2,6.7E1,2.3E1,5E0,3.2E1,2E0,3E0,1.7E1,4.5E1,1.55E2,1.3E1,7E0,2E0,9E0,7E0,6E0,2E0,5.4E1,2.3E1,4.1E1,2E1,5E0,1.36E2,2.25E2,1.3E1,2.2E1,4.5E1,1.7E1,3.9E1,7E0,1E1,4E0,7.6E1,7E0,2.6E1,3.7E1,9.9E1,2.3E1,7E0,4.9E1,1.3E2,6.2E1,5E0,1.5E1,8E0,2E0,3E0,8E0,2.4E1,6E0,1.1E1,2.6E1,1.9E1,1.54E2,1E0,1E0,1.2E1,2E0,5E0,2E0,7E0,3E0,4E0,1E0,1E0,4E1,1.4E1,4E0,1.9E1,2.3E1,1.8E1,6E0,1.4E1,3E0,2E0,1.3E1,1.23E2,2.23E2,2E0,1E1,3E0,1.9E1,3E0,1.2E1,3.3E1,1.6E1,1E0,3.8E1,1E0,5E0,2E0,3E0,7E0,4.8E1,2.8E1,4E0,3E0,6E0,2E1,9E0,2.8E1,2.5E1,7.4E1,4E0,1.9E1,3E0,4E0,1.8E1,3.1E1,1.1E1,1.19E2,3.8E1,2.4E1,1E0,4E0,2E0,1.3E1,2E0,6E0,2E0,1E0,3E0,5E0,2.2E1,2E0,3E0,3E0,1E0,1E1,2.4E1,2E0,1E1,9E0,1.15E2,3.9E1,1E0,1.1E1],"tree_param":{"num_deleted":"0","num_feature":"11","num_nodes":"185","size_leaf_vector":"1"}},{"base_weights":[-1.0642506E-1,1.3437481E1,-1.4380318E1,-1.5905766E1,2.204849E1,-8.960759E0,-3.1128447E1,-3.1221004E1,-1.1803163E1,2.7109735E1,-2.8821452E0,-2.3791754E0,-2.7022314E1,-5.359355E1,-2.3954863E1,-1.1951983E1,-3.9992054E1,-2.1819822E1,-7.6611414E0,3.630928E1,1.7875761E1,-1.3404056E-1,-4.72875E1,8.108725E0,-1.1178437E1,-3.5626328E1,-2.0023643E1,-5.8175564E1,-7.13517E0,-1.3822597E1,-4.2283054E1,2.1346405E0,-3.2614704E1,-2.636599E1,-6.1286617E1,-2.9401655E1,8.404659E0,-9.09073E-1,-1.9498314E1,-1.2589978E1,3.7354347E1,5.9604656E1,1.30388E1,2.4234344E1,-5.5475826E0,-3.0779223E0,6.0168076E-1,5.5213146E1,5.1687393E0,-1.3886691E1,3.405514E1,1.5790612E0,-3.7146156E1,-1.47171955E1,-3.7681976E1,-7.176517E1,-3.8334072E1,3.2880464E0,-2.0899713E0,1.5049505E0,-2.3882536E1,-4.4076046E1,1.0945122E0,-5.11261E1,1.3810292E0,-3.581855E1,-1.125454E1,-3.4356344E0,-2.3530256E1,6.823143E0,-3.463346E1,1.8995892E1,-1.9081299E0,4.483147E0,-2.554766E1,-3.6630147E0,-1.2599895E1,-2.5246496E1,1.2673153E0,3.8498665E1,-7.2157245E0,6.416063E1,-1.357366E0,7.147485E0,3.2841187E1,5.059915E1,2.8568177E0,-2.1636956E0,-3.0257745E0,6.916801E1,-2.1083856E0,8.087622E0,-4.0145786E1,-5.30579E1,-8.63184E0,-4.002693E0,2.9170814E0,-7.643183E0,-3.947735E1,2.2625224E-1,-2.4199047E1,-4.5942833E1,-1.6957245E1,-4.074297E-1,-3.7203248E0,-5.7260143E1,-4.1308704E-1,-1.7452524E1,1.5223799E1,-3.3277363E1,1.6721992E1,-2.048558E1,-4.760404E1,-2.7108634E0,-7.371983E-1,2.0163218E-3,-2.2394156E0,1.1391582E0,-1.8116897E0,-1.5299426E0,-2.3482667E-1,-2.0650701E-1,1.2659069E0,-1.8459929E0,7.346422E-1,1.2491802E0,-5.729523E-1,-1.1395021E-1,9.8663014E-1,2.594637E-1,-1.8184947E0,-9.084094E-1,5.736632E-1,-1.5307064E0,-9.4399266E-2,2.1901863E0,1.406247E0,-1.6147635E0,3.581539E0,2.368699E0,4.0609365E0,1.057712E0,-8.923749E-2,1.7651027E0,-2.3165803E0,3.3832326E0,-1.9911576E-2,-1.7802445E0,1.0865285E0,-5.193744E-1,4.75866E-1,-2.1061828E0,4.3107076E0,8.7849075E-1,-2.465513E-1,-2.4944932E0,1.23418175E-1,-7.440758E-1,-2.9810474E0,-9.514772E-1,2.8864515E-1,2.1573744E0,-3.2767684E0,1.5445684E-1,-6.890814E-1,-2.5229585E0,-1.6981115E0,-1.804415E0,8.707987E-1,-1.777792E0,1.4984004E-1,-9.4155645E-1,-3.0266876E0,-4.8304898E-1,-1.518371E0,-6.4739937E-1,-3.0055716E0,8.4789795E-1,-3.067294E-1,-1.6693099E0,1.9347519E0,1.3810056E-1,2.3997447E0,-3.346455E0,-1.3192022E0,-1.1591033E0,2.1418016E0,-2.7638967E0,1.4063127E0,-1.4663283E0,-2.7521315E0],"categories":[],"categories_nodes":[],"categories_segments":[],"categories_sizes":[],"default_left":[0,0,0,0,0,0,0,0,0,0,0,0,0,0,0,0,0,0,0,0,0,0,0,0,0,0,0,0,0,0,0,0,0,0,0,0,0,0,0,0,0,0,0,0,0,0,0,0,0,0,0,0,0,0,0,0,0,0,0,0,0,0,0,0,0,0,0,0,0,0,0,0,0,0,0,0,0,0,0,0,0,0,0,0,0,0,0,0,0,0,0,0,0,0,0,0,0,0,0,0,0,0,0,0,0,0,0,0,0,0,0,0,0,0,0,0,0,0,0,0,0,0,0,0,0,0,0,0,0,0,0,0,0,0,0,0,0,0,0,0,0,0,0,0,0,0,0,0,0,0,0,0,0,0,0,0,0,0,0,0,0,0,0,0,0,0,0,0,0,0,0,0,0,0,0,0,0,0,0,0,0,0,0,0,0,0,0,0,0,0,0],"id":8,"left_children":[1,3,5,7,9,11,13,15,17,19,21,23,25,27,29,31,33,35,37,39,41,43,45,47,49,51,53,55,57,59,61,-1,63,65,67,69,71,73,75,77,79,81,83,85,87,-1,-1,89,91,93,95,-1,97,99,101,103,105,-1,-1,107,109,111,-1,113,-1,115,117,-1,119,121,123,125,-1,127,129,-1,131,133,-1,135,137,139,-1,141,143,145,147,-1,149,151,-1,153,155,157,159,161,-1,163,165,167,169,171,173,-1,-1,175,177,179,181,183,185,187,189,-1,-1,-1,-1,-1,-1,-1,-1,-1,-1,-1,-1,-1,-1,-1,-1,-1,-1,-1,-1,-1,-1,-1,-1,-1,-1,-1,-1,-1,-1,-1,-1,-1,-1,-1,-1,-1,-1,-1,-1,-1,-1,-1,-1,-1,-1,-1,-1,-1,-1,-1,-1,-1,-1,-1,-1,-1,-1,-1,-1,-1,-1,-1,-1,-1,-1,-1,-1,-1,-1,-1,-1,-1,-1,-1,-1,-1,-1],"loss_changes":[2.9462606E5,1.979425E5,6.7070516E4,1.0815648E4,7.641706E4,6.6742695E4,2.7885281E4,5.775375E3,5.7243047E3,4.208E4,1.2562809E4,3.8204668E4,8.319125E3,8.738445E3,2.522868E4,1.6070844E4,5.6381445E3,9.642547E3,8.1346636E3,1.3297125E4,5.028861E4,1.306253E4,5.8201797E3,2.5888533E4,2.8036316E4,7.914617E3,7.4101836E3,7.7648125E3,1.5383213E4,1.4067613E4,6.602883E3,0E0,1.2562524E4,2.0251914E3,9.0660156E2,6.490506E3,5.163774E3,8.883076E3,1.2799216E4,3.520753E3,1.2824375E4,1.2018016E4,2.6364223E4,1.0000505E4,7.575286E3,0E0,0E0,1.786495E4,2.4000613E4,4.3385695E4,1.2249305E4,0E0,4.1687812E3,9.49881E3,2.4738125E3,3.0904062E3,1.2894861E4,0E0,0E0,9.888459E3,2.153745E4,3.0197031E3,0E0,1.00328125E2,0E0,3.2182617E3,7.627413E3,0E0,2.556753E2,1.1174722E3,3.8130625E3,1.7451313E3,0E0,5.7165234E3,4.1804395E3,0E0,4.7660264E3,5.6910034E2,0E0,1.1976E4,1.6155375E4,3.3110547E3,0E0,2.2182512E4,1.1766969E4,6.9893145E3,8.758799E3,0E0,7.2089385E3,2.260259E4,0E0,2.0948898E4,4.6907363E3,5.376586E3,2.841757E4,2.0235348E4,0E0,4.378518E2,1.9202578E3,1.748291E4,1.2769717E4,4.0026816E3,3.9153064E2,0E0,0E0,7.3783594E2,7.9974927E2,1.5606069E4,8.851939E3,8.672891E3,1.2455647E4,1.5085319E4,3.9600938E3,0E0,0E0,0E0,0E0,0E0,0E0,0E0,0E0,0E0,0E0,0E0,0E0,0E0,0E0,0E0,0E0,0E0,0E0,0E0,0E0,0E0,0E0,0E0,0E0,0E0,0E0,0E0,0E0,0E0,0E0,0E0,0E0,0E0,0E0,0E0,0E0,0E0,0E0,0E0,0E0,0E0,0E0,0E0,0E0,0E0,0E0,0E0,0E0,0E0,0E0,0E0,0E0,0E0,0E0,0E0,0E0,0E0,0E0,0E0,0E0,0E0,0E0,0E0,0E0,0E0,0E0,0E0,0E0,0E0,0E0,0E0,0E0,0E0,0E0,0E0,0E0,0E0,0E0],"parents":[2147483647,0,0,1,1,2,2,3,3,4,4,5,5,6,6,7,7,8,8,9,9,10,10,11,11,12,12,13,13,14,14,15,15,16,16,17,17,18,18,19,19,20,20,21,21,22,22,23,23,24,24,25,25,26,26,27,27,28,28,29,29,30,30,32,32,33,33,34,34,35,35,36,36,37,37,38,38,39,39,40,40,41,41,42,42,43,43,44,44,47,47,48,48,49,49,50,50,52,52,53,53,54,54,55,55,56,56,59,59,60,60,61,61,63,63,65,65,66,66,68,68,69,69,70,70,71,71,73,73,74,74,76,76,77,77,79,79,80,80,81,81,83,83,84,84,85,85,86,86,88,88,89,89,91,91,92,92,93,93,94,94,95,95,97,97,98,98,99,99,100,100,101,101,102,102,105,105,106,106,107,107,108,108,109,109,110,110,111,111,112,112],"right_children":[2,4,6,8,10,12,14,16,18,20,22,24,26,28,30,32,34,36,38,40,42,44,46,48,50,52,54,56,58,60,62,-1,64,66,68,70,72,74,76,78,80,82,84,86,88,-1,-1,90,92,94,96,-1,98,100,102,104,106,-1,-1,108,110,112,-1,114,-1,116,118,-1,120,122,124,126,-1,128,130,-1,132,134,-1,136,138,140,-1,142,144,146,148,-1,150,152,-1,154,156,158,160,162,-1,164,166,168,170,172,174,-1,-1,176,178,180,182,184,186,188,190,-1,-1,-1,-1,-1,-1,-1,-1,-1,-1,-1,-1,-1,-1,-1,-1,-1,-1,-1,-1,-1,-1,-1,-1,-1,-1,-1,-1,-1,-1,-1,-1,-1,-1,-1,-1,-1,-1,-1,-1,-1,-1,-1,-1,-1,-1,-1,-1,-1,-1,-1,-1,-1,-1,-1,-1,-1,-1,-1,-1,-1,-1,-1,-1,-1,-1,-1,-1,-1,-1,-1,-1,-1,-1,-1,-1,-1,-1],"split_conditions":[4.046E0,2E0,5.106E0,1E0,7.254E1,7.117E1,1E0,5.35E1,5.29E1,2E0,8.549E1,2.6E1,3E0,6.106E0,1E1,3.03E0,2.232E1,1E0,7.101E1,2E0,3E0,2E0,4E0,1.38E1,5.09E0,1.38E1,8.102E1,5.469E1,3.992E1,6.046E0,3.3E1,2.1346405E0,5.042E1,2E0,4.6E1,3.899E1,5.257E1,2.415E1,1.1E1,6.932E1,1.7E1,4E0,5E0,5E0,7.303E1,-3.0779223E0,6.0168076E-1,6.199E1,6E0,4.192E1,1E0,1.5790612E0,2E0,1E0,7E0,3E0,8E0,3.2880464E0,-2.0899713E0,1E0,1E1,3.859E1,1.0945122E0,4.883E1,1.3810292E0,2E0,1.62E1,-3.4356344E0,6.027E1,3.859E1,3.1E1,2E0,-1.9081299E0,6.611E1,2E0,-3.6630147E0,3.26E1,1E0,1.2673153E0,4.024E0,2.6E1,1.72E1,-1.357366E0,5.839E1,6.2E1,4E0,6E0,-2.1636956E0,1E0,1E0,-2.1083856E0,1E0,6.757E1,2.8E1,3.4E1,4.771E1,2.9170814E0,2.4E1,5E0,7.402E1,7E0,2.4E1,2E0,-4.074297E-1,-3.7203248E0,3E0,5.495E1,7E0,6.04E0,6.052E0,4.585E1,1E0,3.1E1,-2.7108634E0,-7.371983E-1,2.0163218E-3,-2.2394156E0,1.1391582E0,-1.8116897E0,-1.5299426E0,-2.3482667E-1,-2.0650701E-1,1.2659069E0,-1.8459929E0,7.346422E-1,1.2491802E0,-5.729523E-1,-1.1395021E-1,9.8663014E-1,2.594637E-1,-1.8184947E0,-9.084094E-1,5.736632E-1,-1.5307064E0,-9.4399266E-2,2.1901863E0,1.406247E0,-1.6147635E0,3.581539E0,2.368699E0,4.0609365E0,1.057712E0,-8.923749E-2,1.7651027E0,-2.3165803E0,3.3832326E0,-1.9911576E-2,-1.7802445E0,1.0865285E0,-5.193744E-1,4.75866E-1,-2.1061828E0,4.3107076E0,8.7849075E-1,-2.465513E-1,-2.4944932E0,1.23418175E-1,-7.440758E-1,-2.9810474E0,-9.514772E-1,2.8864515E-1,2.1573744E0,-3.2767684E0,1.5445684E-1,-6.890814E-1,-2.5229585E0,-1.6981115E0,-1.804415E0,8.707987E-1,-1.777792E0,1.4984004E-1,-9.4155645E-1,-3.0266876E0,-4.8304898E-1,-1.518371E0,-6.4739937E-1,-3.0055716E0,8.4789795E-1,-3.067294E-1,-1.6693099E0,1.9347519E0,1.3810056E-1,2.3997447E0,-3.346455E0,-1.3192022E0,-1.1591033E0,2.1418016E0,-2.7638967E0,1.4063127E0,-1.4663283E0,-2.7521315E0],"split_indices":[7,2,7,4,0,0,8,0,0,10,0,9,3,7,5,7,9,5,0,6,2,3,2,9,7,9,0,0,0,7,5,0,0,10,9,0,0,9,9,0,6,5,2,6,0,0,0,0,5,0,4,0,6,8,6,3,5,0,0,1,6,0,0,0,0,6,9,0,0,0,9,5,0,0,3,0,9,5,0,7,6,9,0,0,9,2,6,0,8,8,0,1,0,9,9,0,0,9,6,0,6,9,5,0,0,3,0,5,7,7,0,4,9,0,0,0,0,0,0,0,0,0,0,0,0,0,0,0,0,0,0,0,0,0,0,0,0,0,0,0,0,0,0,0,0,0,0,0,0,0,0,0,0,0,0,0,0,0,0,0,0,0,0,0,0,0,0,0,0,0,0,0,0,0,0,0,0,0,0,0,0,0,0,0,0,0,0,0,0,0,0],"split_type":[0,0,0,0,0,0,0,0,0,0,0,0,0,0,0,0,0,0,0,0,0,0,0,0,0,0,0,0,0,0,0,0,0,0,0,0,0,0,0,0,0,0,0,0,0,0,0,0,0,0,0,0,0,0,0,0,0,0,0,0,0,0,0,0,0,0,0,0,0,0,0,0,0,0,0,0,0,0,0,0,0,0,0,0,0,0,0,0,0,0,0,0,0,0,0,0,0,0,0,0,0,0,0,0,0,0,0,0,0,0,0,0,0,0,0,0,0,0,0,0,0,0,0,0,0,0,0,0,0,0,0,0,0,0,0,0,0,0,0,0,0,0,0,0,0,0,0,0,0,0,0,0,0,0,0,0,0,0,0,0,0,0,0,0,0,0,0,0,0,0,0,0,0,0,0,0,0,0,0,0,0,0,0,0,0,0,0,0,0,0,0],"sum_hessian":[1.522E3,7.81E2,7.41E2,1.77E2,6.04E2,5.61E2,1.8E2,3.6E1,1.41E2,5.02E2,1.02E2,4.12E2,1.49E2,4.2E1,1.38E2,1.2E1,2.4E1,4E1,1.01E2,2.5E2,2.52E2,9.7E1,5E0,1.88E2,2.24E2,6.5E1,8.4E1,3.8E1,4E0,9E1,4.8E1,3E0,9E0,1.6E1,8E0,3.2E1,8E0,6.5E1,3.6E1,5E0,2.45E2,2.5E1,2.27E2,1.7E1,8E1,4E0,1E0,1E1,1.78E2,2.12E2,1.2E1,1E0,6.4E1,6.6E1,1.8E1,2.1E1,1.7E1,1E0,3E0,3.6E1,5.4E1,4.7E1,1E0,7E0,2E0,9E0,7E0,6E0,2E0,4E0,2.8E1,7E0,1E0,5.4E1,1.1E1,3E0,3.3E1,4E0,1E0,2.39E2,6E0,2.4E1,1E0,1.76E2,5.1E1,7E0,1E1,4E0,7.6E1,9E0,1E0,1.68E2,1E1,2.4E1,1.88E2,5E0,7E0,5E0,5.9E1,2.6E1,4E1,1.2E1,6E0,1E0,2E1,1.1E1,6E0,1.5E1,2.1E1,4.4E1,1E1,7E0,4E1,6E0,1E0,2E0,7E0,3E0,4E0,1E0,1E0,3E0,1E0,2.7E1,1E0,6E0,1E0,3.8E1,1.6E1,3E0,8E0,2.7E1,6E0,3E0,1E0,1.56E2,8.3E1,5E0,1E0,1.4E1,1E1,6.8E1,1.08E2,5E1,1E0,5E0,2E0,3E0,7E0,4.8E1,2.8E1,1E0,8E0,9.7E1,7.1E1,8E0,2E0,4E0,2E1,1.09E2,7.9E1,3E0,2E0,2E0,3E0,1.7E1,4.2E1,8E0,1.8E1,2.8E1,1.2E1,5E0,7E0,5E0,1E0,1E0,1E1,1E0,5E0,1.2E1,3E0,1.6E1,5E0,6E0,3.8E1,4E0,6E0,4E0,3E0,1.3E1,2.7E1],"tree_param":{"num_deleted":"0","num_feature":"11","num_nodes":"191","size_leaf_vector":"1"}},{"base_weights":[-1.2255755E-1,1.2758791E1,-1.36981535E1,-1.5189188E1,2.0960413E1,-7.4469094E0,-2.6986893E1,-2.9877325E1,-1.1255032E1,2.577551E1,-2.7575917E0,-1.1245855E0,-2.6108736E1,2.922115E1,-2.8573341E1,-1.1349185E1,-3.8316864E1,1.2871513E0,-1.2238752E1,3.0825083E1,1.0093154E1,-1.2262196E-1,-4.5335835E1,1.0023862E1,-1.0144164E1,-2.0367004E1,-3.91716E1,-1.8149647E0,4.6191105E1,-4.1408154E1,-2.3619694E1,2.0545914E0,-3.1190672E1,-2.5218863E1,-5.880011E1,-1.7905527E1,-4.912185E0,4.4186913E1,2.2757278E1,-6.934856E0,3.0230198E1,2.3170937E1,-5.2974544E0,-2.9548056E0,5.866386E-1,-9.773082E0,1.4863805E1,-3.891976E1,-5.13201E0,-4.4516635E0,-2.3202888E1,-1.5825558E1,-4.222932E1,3.088664E0,1.1478349E0,-2.0389074E1,-4.8732834E1,-2.023734E1,-5.962164E1,-4.90008E1,1.334995E0,-3.2389343E1,-6.674755E0,-3.2883928E0,-2.2942E1,-1.0967479E1,-3.305916E1,-1.066157E1,6.8204975E0,4.1476208E1,8.440668E1,2.5206394E1,-1.8403955E1,1.0391214E1,-1.5447133E1,7.5029354E0,3.9701714E1,4.8489605E1,2.6509101E0,-2.0771477E0,-2.8750522E0,1.7758448E1,-1.7568605E1,4.6922672E1,2.5327973E0,-5.109462E1,-3.4818218E0,-1.2586399E0,-2.9096558E1,-3.0177437E1,3.916657E1,-2.5238008E1,7.5374603E-1,-3.7491573E1,4.3803425E0,-2.3373934E1,-4.7328087E1,1.6653233E1,-4.0297997E1,-6.303061E1,-2.6994196E1,-2.106306E1,2.6937337E0,-4.33477E-1,-6.287414E1,-1.0414869E0,-2.7459767E0,-9.307583E-1,-2.7641954E0,4.1560325E-1,-8.123091E-1,-1.491694E0,-2.2895603E-1,-1.9958673E-1,-1.4651673E0,-3.2977372E-2,-1.9753052E0,-9.793795E-1,5.8726825E-2,1.4921515E0,-2.1890254E-1,2.3835592E0,1.1557912E0,4.7558827E0,2.3574562E-1,1.3047911E0,-2.4803145E0,-1.8380947E0,1.8340683E0,1.544433E-1,2.2152576E0,-1.5740225E0,-3.7243965E-1,7.4711585E-1,-2.9741638E0,2.9840934E0,1.032075E0,3.2422643E0,-1.9247819E-2,-1.7134854E0,1.0389928E0,-4.939358E-1,4.5289323E-1,5.9230846E-1,1.4786099E0,-2.4321659E0,-3.186885E-1,3.6821115E0,1.8045504E0,4.880674E-1,-1.3434736E0,-7.1431273E-1,-2.904592E0,-3.3324833E0,1.9605188E0,8.848554E-1,-4.1987872E-1,-9.681172E-2,-2.7009342E0,-2.443217E0,5.034502E-1,2.466659E0,-2.9166222E-1,-1.0651417E0,-1.925457E0,-6.0058564E-1,1.0889131E0,-2.2383447E0,-5.7352334E-1,5.554081E-1,-3.950779E-1,-3.2209814E0,3.9427575E-1,-2.7855515E0,-1.8381064E0,-1.2018538E0,2.6590116E0,1.7507048E0,-2.5163827E0,-3.275063E0,-1.0715814E0,1.790586E-2,-2.719116E0,-8.9225674E-1,-1.8171291E0,-5.969252E-1,-3.306195E0],"categories":[],"categories_nodes":[],"categories_segments":[],"categories_sizes":[],"default_left":[0,0,0,0,0,0,0,0,0,0,0,0,0,0,0,0,0,0,0,0,0,0,0,0,0,0,0,0,0,0,0,0,0,0,0,0,0,0,0,0,0,0,0,0,0,0,0,0,0,0,0,0,0,0,0,0,0,0,0,0,0,0,0,0,0,0,0,0,0,0,0,0,0,0,0,0,0,0,0,0,0,0,0,0,0,0,0,0,0,0,0,0,0,0,0,0,0,0,0,0,0,0,0,0,0,0,0,0,0,0,0,0,0,0,0,0,0,0,0,0,0,0,0,0,0,0,0,0,0,0,0,0,0,0,0,0,0,0,0,0,0,0,0,0,0,0,0,0,0,0,0,0,0,0,0,0,0,0,0,0,0,0,0,0,0,0,0,0,0,0,0,0,0,0,0,0,0,0,0,0,0,0,0,0,0,0,0],"id":9,"left_children":[1,3,5,7,9,11,13,15,17,19,21,23,25,27,29,31,33,-1,35,37,39,41,43,45,47,49,51,-1,53,55,57,-1,59,61,63,65,67,69,71,73,75,77,79,-1,-1,81,83,85,87,89,91,93,95,-1,-1,97,99,101,103,105,-1,107,109,-1,111,113,115,117,119,121,123,125,127,129,131,133,135,137,139,-1,141,143,145,147,149,151,153,155,157,159,161,163,165,167,169,171,173,175,177,179,181,183,-1,-1,185,-1,-1,-1,-1,-1,-1,-1,-1,-1,-1,-1,-1,-1,-1,-1,-1,-1,-1,-1,-1,-1,-1,-1,-1,-1,-1,-1,-1,-1,-1,-1,-1,-1,-1,-1,-1,-1,-1,-1,-1,-1,-1,-1,-1,-1,-1,-1,-1,-1,-1,-1,-1,-1,-1,-1,-1,-1,-1,-1,-1,-1,-1,-1,-1,-1,-1,-1,-1,-1,-1,-1,-1,-1,-1,-1,-1,-1,-1,-1,-1,-1,-1],"loss_changes":[2.665048E5,1.7956744E5,6.143783E4,9.949535E3,6.916481E4,5.967161E4,2.19685E4,5.350789E3,5.48326E3,3.952103E4,1.1550257E4,3.8211758E4,8.802648E3,9.459858E3,1.3708734E4,1.4808282E4,5.224367E3,0E0,5.683049E3,3.9958688E4,4.2728473E4,1.1935691E4,5.405041E3,1.6434E4,3.0088086E4,4.0039023E3,2.0443516E3,0E0,7.5414355E2,8.705742E3,1.9372758E4,0E0,1.1618703E4,2.0443018E3,7.398047E2,7.838084E3,4.2549707E3,1.19805E4,2.4557156E4,1.0189447E4,1.1972035E4,9.223174E3,6.992457E3,0E0,0E0,7.609163E3,5.4039734E4,1.3197105E4,1.667162E4,1.8013637E4,3.7731328E3,2.790914E3,2.0663477E3,0E0,0E0,1.3945595E4,1.2595992E4,1.0681316E4,1.7750195E3,1.899375E2,0E0,2.755127E3,9.957108E2,0E0,2.4305139E2,6.917876E3,4.9870293E3,4.460277E3,5.544852E3,1.4253234E4,6.3801445E3,1.6332641E4,1.5506019E4,5.5591294E3,5.664545E3,9.858865E3,1.4001109E4,6.4199746E3,8.0747705E3,0E0,6.5246875E3,2.0845215E2,9.082616E3,8.340039E3,2.151586E4,5.093879E3,2.6884326E4,2.125913E4,1.6817734E4,8.012829E3,3.032746E3,2.8875703E3,2.1403071E3,5.4438477E1,4.1829343E2,1.2055572E4,1.6629297E2,1.1682361E4,1.0826428E4,1.3711719E3,1.5002048E4,6.9725547E3,0E0,0E0,1.3624492E3,0E0,0E0,0E0,0E0,0E0,0E0,0E0,0E0,0E0,0E0,0E0,0E0,0E0,0E0,0E0,0E0,0E0,0E0,0E0,0E0,0E0,0E0,0E0,0E0,0E0,0E0,0E0,0E0,0E0,0E0,0E0,0E0,0E0,0E0,0E0,0E0,0E0,0E0,0E0,0E0,0E0,0E0,0E0,0E0,0E0,0E0,0E0,0E0,0E0,0E0,0E0,0E0,0E0,0E0,0E0,0E0,0E0,0E0,0E0,0E0,0E0,0E0,0E0,0E0,0E0,0E0,0E0,0E0,0E0,0E0,0E0,0E0,0E0,0E0,0E0,0E0,0E0,0E0,0E0,0E0,0E0,0E0],"parents":[2147483647,0,0,1,1,2,2,3,3,4,4,5,5,6,6,7,7,8,8,9,9,10,10,11,11,12,12,13,13,14,14,15,15,16,16,18,18,19,19,20,20,21,21,22,22,23,23,24,24,25,25,26,26,28,28,29,29,30,30,32,32,33,33,34,34,35,35,36,36,37,37,38,38,39,39,40,40,41,41,42,42,45,45,46,46,47,47,48,48,49,49,50,50,51,51,52,52,55,55,56,56,57,57,58,58,59,59,61,61,62,62,64,64,65,65,66,66,67,67,68,68,69,69,70,70,71,71,72,72,73,73,74,74,75,75,76,76,77,77,78,78,80,80,81,81,82,82,83,83,84,84,85,85,86,86,87,87,88,88,89,89,90,90,91,91,92,92,93,93,94,94,95,95,96,96,97,97,98,98,99,99,100,100,101,101,104,104],"right_children":[2,4,6,8,10,12,14,16,18,20,22,24,26,28,30,32,34,-1,36,38,40,42,44,46,48,50,52,-1,54,56,58,-1,60,62,64,66,68,70,72,74,76,78,80,-1,-1,82,84,86,88,90,92,94,96,-1,-1,98,100,102,104,106,-1,108,110,-1,112,114,116,118,120,122,124,126,128,130,132,134,136,138,140,-1,142,144,146,148,150,152,154,156,158,160,162,164,166,168,170,172,174,176,178,180,182,184,-1,-1,186,-1,-1,-1,-1,-1,-1,-1,-1,-1,-1,-1,-1,-1,-1,-1,-1,-1,-1,-1,-1,-1,-1,-1,-1,-1,-1,-1,-1,-1,-1,-1,-1,-1,-1,-1,-1,-1,-1,-1,-1,-1,-1,-1,-1,-1,-1,-1,-1,-1,-1,-1,-1,-1,-1,-1,-1,-1,-1,-1,-1,-1,-1,-1,-1,-1,-1,-1,-1,-1,-1,-1,-1,-1,-1,-1,-1,-1,-1,-1,-1,-1,-1],"split_conditions":[4.046E0,2E0,4E0,1E0,7.254E1,7.101E1,1.45E1,5.35E1,1.06E0,4E0,8.549E1,2.6E1,2E0,1E0,1E0,3.03E0,2.232E1,1.2871513E0,3.068E0,5.469E1,5E0,2E0,4E0,2E0,4.192E1,2.232E1,7.239E1,-1.8149647E0,6E0,6E0,8.217E1,2.0545914E0,5.042E1,6.661E1,4.6E1,3.04E0,6.516E1,5.418E1,3.4E1,1.6E1,1.83E1,5E0,7.303E1,-2.9548056E0,5.866386E-1,2E0,3E0,5.076E0,1E1,6E0,5.7E1,5.038E0,2.4E1,3.088664E0,1.1478349E0,6.046E0,3.6E1,2.1E1,2E0,3.716E1,1.334995E0,5E0,7.637E1,-3.2883928E0,6.027E1,7.101E1,2E0,1E0,6.913E1,8E0,1.3E1,3E0,4.9E1,2E0,5.583E1,2E0,6E0,4E0,6E0,-2.0771477E0,1E0,5.777E1,3E0,4.543E1,6.499E1,2.8E1,1E0,5.257E1,1E0,5.041E0,7.651E1,4E0,7.822E1,7.149E1,7.212E1,7.402E1,3.6E1,6.036E0,2E0,1.9E1,5.7E1,1.5E1,2.6937337E0,-4.33477E-1,5.041E0,-1.0414869E0,-2.7459767E0,-9.307583E-1,-2.7641954E0,4.1560325E-1,-8.123091E-1,-1.491694E0,-2.2895603E-1,-1.9958673E-1,-1.4651673E0,-3.2977372E-2,-1.9753052E0,-9.793795E-1,5.8726825E-2,1.4921515E0,-2.1890254E-1,2.3835592E0,1.1557912E0,4.7558827E0,2.3574562E-1,1.3047911E0,-2.4803145E0,-1.8380947E0,1.8340683E0,1.544433E-1,2.2152576E0,-1.5740225E0,-3.7243965E-1,7.4711585E-1,-2.9741638E0,2.9840934E0,1.032075E0,3.2422643E0,-1.9247819E-2,-1.7134854E0,1.0389928E0,-4.939358E-1,4.5289323E-1,5.9230846E-1,1.4786099E0,-2.4321659E0,-3.186885E-1,3.6821115E0,1.8045504E0,4.880674E-1,-1.3434736E0,-7.1431273E-1,-2.904592E0,-3.3324833E0,1.9605188E0,8.848554E-1,-4.1987872E-1,-9.681172E-2,-2.7009342E0,-2.443217E0,5.034502E-1,2.466659E0,-2.9166222E-1,-1.0651417E0,-1.925457E0,-6.0058564E-1,1.0889131E0,-2.2383447E0,-5.7352334E-1,5.554081E-1,-3.950779E-1,-3.2209814E0,3.9427575E-1,-2.7855515E0,-1.8381064E0,-1.2018538E0,2.6590116E0,1.7507048E0,-2.5163827E0,-3.275063E0,-1.0715814E0,1.790586E-2,-2.719116E0,-8.9225674E-1,-1.8171291E0,-5.969252E-1,-3.306195E0],"split_indices":[7,2,5,4,0,0,9,0,7,2,0,9,5,4,4,7,9,0,7,0,2,3,2,2,0,9,0,0,5,5,0,0,0,0,9,7,0,0,9,9,9,6,0,0,0,6,2,7,6,6,9,7,9,0,0,7,9,6,6,0,0,6,0,0,0,0,6,5,0,6,6,10,9,5,0,5,6,2,6,0,8,0,6,0,0,9,8,0,4,7,0,2,0,0,0,0,9,7,6,5,9,5,0,0,7,0,0,0,0,0,0,0,0,0,0,0,0,0,0,0,0,0,0,0,0,0,0,0,0,0,0,0,0,0,0,0,0,0,0,0,0,0,0,0,0,0,0,0,0,0,0,0,0,0,0,0,0,0,0,0,0,0,0,0,0,0,0,0,0,0,0,0,0,0,0,0,0,0,0,0,0,0,0,0,0,0,0],"split_type":[0,0,0,0,0,0,0,0,0,0,0,0,0,0,0,0,0,0,0,0,0,0,0,0,0,0,0,0,0,0,0,0,0,0,0,0,0,0,0,0,0,0,0,0,0,0,0,0,0,0,0,0,0,0,0,0,0,0,0,0,0,0,0,0,0,0,0,0,0,0,0,0,0,0,0,0,0,0,0,0,0,0,0,0,0,0,0,0,0,0,0,0,0,0,0,0,0,0,0,0,0,0,0,0,0,0,0,0,0,0,0,0,0,0,0,0,0,0,0,0,0,0,0,0,0,0,0,0,0,0,0,0,0,0,0,0,0,0,0,0,0,0,0,0,0,0,0,0,0,0,0,0,0,0,0,0,0,0,0,0,0,0,0,0,0,0,0,0,0,0,0,0,0,0,0,0,0,0,0,0,0,0,0,0,0,0,0],"sum_hessian":[1.522E3,7.81E2,7.41E2,1.77E2,6.04E2,5.05E2,2.36E2,3.6E1,1.41E2,5.02E2,1.02E2,3.78E2,1.27E2,6E0,2.3E2,1.2E1,2.4E1,3E0,1.38E2,3.79E2,1.23E2,9.7E1,5E0,1.69E2,2.09E2,9E1,3.7E1,1E0,5E0,6.2E1,1.68E2,3E0,9E0,1.6E1,8E0,7.7E1,6.1E1,1.41E2,2.38E2,6.7E1,5.6E1,1.7E1,8E1,4E0,1E0,3.3E1,1.36E2,3E1,1.79E2,1.4E1,7.6E1,5E0,3.2E1,2E0,3E0,1.7E1,4.5E1,1.55E2,1.3E1,7E0,2E0,1.1E1,5E0,6E0,2E0,5.4E1,2.3E1,4.1E1,2E1,1.34E2,7E0,2.25E2,1.3E1,2.2E1,4.5E1,1.7E1,3.9E1,7E0,1E1,4E0,7.6E1,7E0,2.6E1,3.7E1,9.9E1,2.2E1,8E0,1.55E2,2.4E1,9E0,5E0,7E1,6E0,2E0,3E0,8E0,2.4E1,6E0,1.1E1,2.6E1,1.9E1,1.54E2,1E0,1E0,1.2E1,2E0,5E0,8E0,3E0,2E0,3E0,1E0,1E0,4E1,1.4E1,4E0,1.9E1,2.3E1,1.8E1,6E0,1.4E1,9.9E1,3.5E1,6E0,1E0,2.23E2,2E0,1E1,3E0,1.9E1,3E0,1.4E1,3.1E1,1.6E1,1E0,1.8E1,2.1E1,5E0,2E0,3E0,7E0,4.8E1,2.8E1,6E0,1E0,6E0,2E1,9E0,2.8E1,8E1,1.9E1,4E0,1.8E1,3E0,5E0,4.2E1,1.13E2,1.2E1,1.2E1,6E0,3E0,4E0,1E0,5.6E1,1.4E1,4E0,2E0,1E0,1E0,2E0,1E0,3E0,5E0,1.1E1,1.3E1,3E0,3E0,1E0,1E1,2.4E1,2E0,1E1,9E0,1.29E2,2.5E1,1E0,1.1E1],"tree_param":{"num_deleted":"0","num_feature":"11","num_nodes":"187","size_leaf_vector":"1"}},{"base_weights":[-1.3477217E-1,1.2115855E1,-1.30456295E1,-1.4494516E1,1.9924997E1,-9.154084E0,-3.2555485E1,-2.8640179E1,-1.07066E1,2.4505749E1,-2.638527E0,-3.956823E0,-2.7110386E1,-4.8085213E1,-2.4772812E1,-1.081233E1,-3.6765053E1,-2.3302305E0,-9.596539E0,2.9303173E1,9.606336E0,-1.1210053E-1,-4.3463737E1,5.1340168E1,-5.237141E0,-2.1602242E1,-4.1181976E1,-5.19521E1,