{"learner":{"attributes":{"scikit_learn":"{\"_estimator_type\": \"regressor\"}"},"feature_names":["tp53","atm","cdh1","chek2","nbn","nf1","stk11","bard1","mlh1","msh2","msh6","pms2","epcam","rad51c","rad51d","rad50","rb1","rbl1","rbl2","ccna1","ccnb1","cdk1","ccne1","cdk2","cdc25a","ccnd1","cdk4","cdk6","ccnd2","cdkn2a","cdkn2b","myc","cdkn1a","cdkn1b","e2f1","e2f2","e2f3","e2f4","e2f5","e2f6","e2f7","e2f8","src","jak1","jak2","stat1","stat2","stat3","stat5a","stat5b","mdm2","tp53bp1","adam10","adam17","aph1a","aph1b","arrdc1","cir1","ctbp1","ctbp2","cul1","dll1","dll3","dll4","dtx1","dtx2","dtx3","dtx4","ep300","fbxw7","hdac1","hdac2","hes1","hes5","heyl","itch","jag1","jag2","kdm5a","lfng","maml1","maml2","maml3","ncor2","ncstn","notch1","notch2","notch3","nrarp","numb","numbl","psen1","psen2","psenen","rbpj","rbpjl","rfng","snw1","spen","hes2","hes4","hes7","hey1","hey2","acvr1","acvr1b","acvr1c","acvr2a","acvr2b","acvrl1","akt1","akt1s1","akt2","apaf1","arl11","atr","aurka","bad","bcl2","bcl2l1","bmp10","bmp15","bmp2","bmp3","bmp4","bmp5","bmp6","bmp7","bmpr1a","bmpr1b","bmpr2","braf","casp10","casp3","casp6","casp7","casp8","casp9","chek1","csf1","csf1r","cxcl8","cxcr1","cxcr2","dab2","diras3","dlec1","dph1","egfr","eif4e","eif4ebp1","eif5a2","erbb2","erbb3","erbb4","fas","fgf1","fgfr1","folr1","folr2","folr3","foxo1","foxo3","gdf11","gdf2","gsk3b","hif1a","hla-g","hras","igf1","igf1r","inha","inhba","inhbc","itgav","itgb3","izumo1r","kdr","kit","kras","map2k1","map2k2","map2k3","map2k4","map2k5","map3k1","map3k3","map3k4","map3k5","mapk1","mapk12","mapk14","mapk3","mapk4","mapk6","mapk7","mapk8","mapk9","mdc1","mlst8","mmp1","mmp10","mmp11","mmp12","mmp13","mmp14","mmp15","mmp16","mmp17","mmp19","mmp2","mmp21","mmp23b","mmp24","mmp25","mmp26","mmp27","mmp28","mmp3","mmp7","mmp9","mtor","nfkb1","nfkb2","opcml","pdgfa","pdgfb","pdgfra","pdgfrb","pdpk1","peg3","pik3ca","pik3r1","pik3r2","plagl1","ptk2","rab25","rad51","raf1","rassf1","rheb","rictor","rps6","rps6ka1","rps6ka2","rps6kb1","rps6kb2","rptor","slc19a1","smad1","smad2","smad3","smad4","smad5","smad6","smad7","smad9","sptbn1","terc","tert","tgfb1","tgfb2","tgfb3","tgfbr1","tgfbr2","tgfbr3","tsc1","tsc2","vegfa","vegfb","wfdc2","wwox","zfyve9","arid1a","arid1b","cbfb","gata3","kmt2c","kmt2d","myh9","ncor1","pde4dip","ptprd","ros1","runx1","tbx3","abcb1","abcb11","abcc1","abcc10","bbc3","bmf","cyp2c8","cyp3a4","fgf2","fn1","map2","map4","mapt","nr1i2","slco1b3","tubb1","tubb4a","tubb4b","twist1","adgra2","afdn","aff2","agmo","agtr2","ahnak"],"feature_types":["float","float","float","float","float","float","float","float","float","float","float","float","float","float","float","float","float","float","float","float","float","float","float","float","float","float","float","float","float","float","float","float","float","float","float","float","float","float","float","float","float","float","float","float","float","float","float","float","float","float","float","float","float","float","float","float","float","float","float","float","float","float","float","float","float","float","float","float","float","float","float","float","float","float","float","float","float","float","float","float","float","float","float","float","float","float","float","float","float","float","float","float","float","float","float","float","float","float","float","float","float","float","float","float","float","float","float","float","float","float","float","float","float","float","float","float","float","float","float","float","float","float","float","float","float","float","float","float","float","float","float","float","float","float","float","float","float","float","float","float","float","float","float","float","float","float","float","float","float","float","float","float","float","float","float","float","float","float","float","float","float","float","float","float","float","float","float","float","float","float","float","float","float","float","float","float","float","float","float","float","float","float","float","float","float","float","float","float","float","float","float","float","float","float","float","float","float","float","float","float","float","float","float","float","float","float","float","float","float","float","float","float","float","float","float","float","float","float","float","float","float","float","float","float","float","float","float","float","float","float","float","float","float","float","float","float","float","float","float","float","float","float","float","float","float","float","float","float","float","float","float","float","float","float","float","float","float","float","float","float","float","float","float","float","float","float","float","float","float","float","float","float","float","float","float","float","float","float","float","float","float","float","float","float","float","float","float","float","float","float","float","float","float","float","float","float","float","float","float","float","float","float","float","float","float","float","float","float","float","float","float"],"gradient_booster":{"model":{"gbtree_model_param":{"num_parallel_tree":"1","num_trees":"500"},"iteration_indptr":[0,1,2,3,4,5,6,7,8,9,10,11,12,13,14,15,16,17,18,19,20,21,22,23,24,25,26,27,28,29,30,31,32,33,34,35,36,37,38,39,40,41,42,43,44,45,46,47,48,49,50,51,52,53,54,55,56,57,58,59,60,61,62,63,64,65,66,67,68,69,70,71,72,73,74,75,76,77,78,79,80,81,82,83,84,85,86,87,88,89,90,91,92,93,94,95,96,97,98,99,100,101,102,103,104,105,106,107,108,109,110,111,112,113,114,115,116,117,118,119,120,121,122,123,124,125,126,127,128,129,130,131,132,133,134,135,136,137,138,139,140,141,142,143,144,145,146,147,148,149,150,151,152,153,154,155,156,157,158,159,160,161,162,163,164,165,166,167,168,169,170,171,172,173,174,175,176,177,178,179,180,181,182,183,184,185,186,187,188,189,190,191,192,193,194,195,196,197,198,199,200,201,202,203,204,205,206,207,208,209,210,211,212,213,214,215,216,217,218,219,220,221,222,223,224,225,226,227,228,229,230,231,232,233,234,235,236,237,238,239,240,241,242,243,244,245,246,247,248,249,250,251,252,253,254,255,256,257,258,259,260,261,262,263,264,265,266,267,268,269,270,271,272,273,274,275,276,277,278,279,280,281,282,283,284,285,286,287,288,289,290,291,292,293,294,295,296,297,298,299,300,301,302,303,304,305,306,307,308,309,310,311,312,313,314,315,316,317,318,319,320,321,322,323,324,325,326,327,328,329,330,331,332,333,334,335,336,337,338,339,340,341,342,343,344,345,346,347,348,349,350,351,352,353,354,355,356,357,358,359,360,361,362,363,364,365,366,367,368,369,370,371,372,373,374,375,376,377,378,379,380,381,382,383,384,385,386,387,388,389,390,391,392,393,394,395,396,397,398,399,400,401,402,403,404,405,406,407,408,409,410,411,412,413,414,415,416,417,418,419,420,421,422,423,424,425,426,427,428,429,430,431,432,433,434,435,436,437,438,439,440,441,442,443,444,445,446,447,448,449,450,451,452,453,454,455,456,457,458,459,460,461,462,463,464,465,466,467,468,469,470,471,472,473,474,475,476,477,478,479,480,481,482,483,484,485,486,487,488,489,490,491,492,493,494,495,496,497,498,499,500],"tree_info":[0,0,0,0,0,0,0,0,0,0,0,0,0,0,0,0,0,0,0,0,0,0,0,0,0,0,0,0,0,0,0,0,0,0,0,0,0,0,0,0,0,0,0,0,0,0,0,0,0,0,0,0,0,0,0,0,0,0,0,0,0,0,0,0,0,0,0,0,0,0,0,0,0,0,0,0,0,0,0,0,0,0,0,0,0,0,0,0,0,0,0,0,0,0,0,0,0,0,0,0,0,0,0,0,0,0,0,0,0,0,0,0,0,0,0,0,0,0,0,0,0,0,0,0,0,0,0,0,0,0,0,0,0,0,0,0,0,0,0,0,0,0,0,0,0,0,0,0,0,0,0,0,0,0,0,0,0,0,0,0,0,0,0,0,0,0,0,0,0,0,0,0,0,0,0,0,0,0,0,0,0,0,0,0,0,0,0,0,0,0,0,0,0,0,0,0,0,0,0,0,0,0,0,0,0,0,0,0,0,0,0,0,0,0,0,0,0,0,0,0,0,0,0,0,0,0,0,0,0,0,0,0,0,0,0,0,0,0,0,0,0,0,0,0,0,0,0,0,0,0,0,0,0,0,0,0,0,0,0,0,0,0,0,0,0,0,0,0,0,0,0,0,0,0,0,0,0,0,0,0,0,0,0,0,0,0,0,0,0,0,0,0,0,0,0,0,0,0,0,0,0,0,0,0,0,0,0,0,0,0,0,0,0,0,0,0,0,0,0,0,0,0,0,0,0,0,0,0,0,0,0,0,0,0,0,0,0,0,0,0,0,0,0,0,0,0,0,0,0,0,0,0,0,0,0,0,0,0,0,0,0,0,0,0,0,0,0,0,0,0,0,0,0,0,0,0,0,0,0,0,0,0,0,0,0,0,0,0,0,0,0,0,0,0,0,0,0,0,0,0,0,0,0,0,0,0,0,0,0,0,0,0,0,0,0,0,0,0,0,0,0,0,0,0,0,0,0,0,0,0,0,0,0,0,0,0,0,0,0,0,0,0,0,0,0,0,0,0,0,0,0,0,0,0,0,0,0,0,0,0,0,0,0,0,0,0,0,0,0,0,0,0,0,0,0,0,0,0,0,0,0,0,0,0,0,0,0,0,0,0,0,0,0,0,0,0,0,0,0,0],"trees":[{"base_weights":[-1.6706521E-6,-2.9037395E1,6.3933396E0,-2.487756E0,-3.844176E1,2.2968117E1,-5.9772243E0,-4.201164E1,2.0270386E1,4.941062E1,-4.229935E1,1.7011126E1,6.888033E1,-1.9730135E1,1.4293361E1,1.3109507E1,-7.030052E1,5.8021145E1,-7.4183865E0,3.783548E0,-2.83337E1,-4.943125E1,-2.9747248E0,7.866405E1,1.2519241E1,9.717342E1,3.6405025E1,-2.1494967E1,5.6012836E1,-1.782816E1,2.4402922E1,4.1180485E1,-3.9292076E1,-4.2532477E0,2.6412525E0,9.003215E0,4.497475E0,2.853866E0,-2.3920815E1,-2.3983471E0,2.7331963E-1,-5.5183548E1,1.1770599E1,-5.660307E1,3.3874916E1,1.025649E2,-4.2000458E1,2.0887833E1,-1.8773592E1,-2.3170795E0,1.0754545E2,1.5246696E1,5.1873574E0,-9.756797E0,-3.486858E1,4.076643E0,-2.6504116E0,4.5172935E0,-5.150767E1,-1.701072E1,3.2287266E1,3.1445627E0,4.5872957E-1,-4.0918046E-1,-2.346685E0,1.4316529E0,-7.783517E-1,-3.78337E1,2.7790005E1,1.549951E1,-4.597829E1,4.795792E1,-5.7598293E1,7.380429E1,-3.7785675E1,-1.8278234E1,-7.827131E1,-3.6214756E1,6.900975E1,4.355707E1,1.3471321E2,-3.0136888E0,1.234153E0,6.4124694E0,4.2298744E1,-2.9296494E-1,-6.0185585E1,9.0998614E-1,-1.5222588E1,1.1510935E2,3.6218567E0,-3.0783813E1,3.601125E1,3.4842903E1,-1.7371553E1,3.958283E1,-3.9534603E1,6.4774117E0,-7.5084704E-1,-4.966995E1,2.4696342E1,-3.4671545E0,-7.055052E1,5.5737625E1,-3.341831E1,4.1116566E1,-4.3798137E0,-2.3741806E0,-4.6334705E-1,7.998619E-2,1.5944215E0,-3.791897E-1,2.3124795E0,-2.1035524E-1,-3.0392673E0,3.058315E0,2.0831947E-1,-3.1293287E0,-4.9127962E-2,5.6915283E-1,4.115533E0,-2.1816907E0,2.2498627E-1,2.0415306E-1,-1.1783553E0,-1.1225138E0,-4.1519284E0,3.275935E-2,-2.5546887E0,4.520601E0,1.4485883E0,3.4087856E0,1.8977968E-2,7.225419E0,2.0416484E0,3.2152405E0,-7.0161715E-2,-6.6372454E-1,2.9040487E0,-1.4731377E0,1.1683067E0,2.8414622E-1,-3.4002187E0,-2.3668042E-1,-9.050137E-1,1.6155373E0,6.0220404E0,2.3319626E-2,2.4831963E-1,-4.5902202E-1,-2.504604E0,1.8164268E-1,2.915642E0,-1.4491159E0,3.1926548E0,-1.3661683E0,8.361854E-1,3.7078927E0,-1.1826886E0,-1.2122135E0,-2.7280707E0,9.6652985E-2,3.891529E-1,-3.2563207E0,-1.2377062E-1,3.0335462E0,-1.5555233E-1,-2.281685E0,7.549765E-1,-1.1437706E0,-3.8809083E0,3.3569214E0,-3.1668034E-1,2.0903115E0,-2.3299625E0,3.0253665E0,1.1461754E0,-1.311176E0,3.3246052E0],"categories":[],"categories_nodes":[],"categories_segments":[],"categories_sizes":[],"default_left":[0,0,0,0,0,0,0,0,0,0,0,0,0,0,0,0,0,0,0,0,0,0,0,0,0,0,0,0,0,0,0,0,0,0,0,0,0,0,0,0,0,0,0,0,0,0,0,0,0,0,0,0,0,0,0,0,0,0,0,0,0,0,0,0,0,0,0,0,0,0,0,0,0,0,0,0,0,0,0,0,0,0,0,0,0,0,0,0,0,0,0,0,0,0,0,0,0,0,0,0,0,0,0,0,0,0,0,0,0,0,0,0,0,0,0,0,0,0,0,0,0,0,0,0,0,0,0,0,0,0,0,0,0,0,0,0,0,0,0,0,0,0,0,0,0,0,0,0,0,0,0,0,0,0,0,0,0,0,0,0,0,0,0,0,0,0,0,0,0,0,0,0,0,0,0,0,0,0,0],"id":0,"left_children":[1,3,5,7,9,11,13,15,17,19,21,23,25,27,29,31,33,35,37,-1,39,41,43,45,47,49,51,53,55,57,59,61,63,-1,65,67,-1,-1,69,-1,-1,71,73,75,77,79,81,83,85,87,89,91,-1,93,95,-1,97,99,101,103,105,-1,-1,-1,-1,-1,-1,107,109,111,113,115,117,119,121,123,125,127,129,131,133,-1,-1,135,137,139,141,-1,143,145,147,149,151,153,155,157,159,161,-1,163,165,167,169,171,173,175,177,-1,-1,-1,-1,-1,-1,-1,-1,-1,-1,-1,-1,-1,-1,-1,-1,-1,-1,-1,-1,-1,-1,-1,-1,-1,-1,-1,-1,-1,-1,-1,-1,-1,-1,-1,-1,-1,-1,-1,-1,-1,-1,-1,-1,-1,-1,-1,-1,-1,-1,-1,-1,-1,-1,-1,-1,-1,-1,-1,-1,-1,-1,-1,-1,-1,-1,-1,-1,-1,-1,-1,-1],"loss_changes":[2.8292447E5,6.856706E4,2.5623142E5,6.6514375E4,7.088641E4,1.4487653E5,1.9988816E5,4.302313E4,4.955822E4,2.0518365E4,5.45425E4,1.302837E5,5.2510844E4,5.828261E4,9.460806E4,1.6327705E4,1.9609672E4,3.0491398E4,3.116674E4,0E0,2.2530217E3,5.8738E4,6.3179168E4,9.6595266E4,1.16403625E5,3.3270562E4,4.11636E4,6.527817E4,1.5186965E4,5.2913555E4,7.2710016E4,4.2871055E3,5.6678906E2,0E0,2.3387966E3,8.970637E3,0E0,0E0,2.0711432E4,0E0,0E0,4.0370438E4,4.8901125E4,9.364953E3,4.9288363E4,4.5351344E4,8.798915E3,1.0820453E5,7.192242E4,1.3361658E3,2.2379031E4,2.4047834E4,0E0,7.667922E4,6.930631E4,0E0,5.487889E2,4.8244887E4,2.5370578E4,4.4833156E4,6.039658E4,0E0,0E0,0E0,0E0,0E0,0E0,3.8697217E2,7.003594E2,6.7390684E3,9.021896E3,2.0588184E3,4.1735906E4,2.7799023E3,2.421958E3,8.058219E2,2.6466406E2,3.8735957E3,8.520352E3,1.1666814E4,9.732031E3,0E0,0E0,9.5108805E4,1.24437766E5,4.623707E4,1.5321797E4,0E0,4.8723755E0,8.02725E3,1.0411613E1,2.8771216E3,1.2063684E4,6.2952816E4,6.560439E4,2.7990996E4,4.0953938E4,2.7548294E0,0E0,8.592314E3,3.220024E4,7.7350845E3,4.9634688E3,5.3788633E3,3.1694035E4,5.1529562E4,5.902355E4,0E0,0E0,0E0,0E0,0E0,0E0,0E0,0E0,0E0,0E0,0E0,0E0,0E0,0E0,0E0,0E0,0E0,0E0,0E0,0E0,0E0,0E0,0E0,0E0,0E0,0E0,0E0,0E0,0E0,0E0,0E0,0E0,0E0,0E0,0E0,0E0,0E0,0E0,0E0,0E0,0E0,0E0,0E0,0E0,0E0,0E0,0E0,0E0,0E0,0E0,0E0,0E0,0E0,0E0,0E0,0E0,0E0,0E0,0E0,0E0,0E0,0E0,0E0,0E0,0E0,0E0,0E0,0E0,0E0,0E0,0E0,0E0],"parents":[2147483647,0,0,1,1,2,2,3,3,4,4,5,5,6,6,7,7,8,8,9,9,10,10,11,11,12,12,13,13,14,14,15,15,16,16,17,17,18,18,20,20,21,21,22,22,23,23,24,24,25,25,26,26,27,27,28,28,29,29,30,30,31,31,32,32,34,34,35,35,38,38,41,41,42,42,43,43,44,44,45,45,46,46,47,47,48,48,49,49,50,50,51,51,53,53,54,54,56,56,57,57,58,58,59,59,60,60,67,67,68,68,69,69,70,70,71,71,72,72,73,73,74,74,75,75,76,76,77,77,78,78,79,79,80,80,83,83,84,84,85,85,86,86,88,88,89,89,90,90,91,91,92,92,93,93,94,94,95,95,96,96,97,97,99,99,100,100,101,101,102,102,103,103,104,104,105,105,106,106],"right_children":[2,4,6,8,10,12,14,16,18,20,22,24,26,28,30,32,34,36,38,-1,40,42,44,46,48,50,52,54,56,58,60,62,64,-1,66,68,-1,-1,70,-1,-1,72,74,76,78,80,82,84,86,88,90,92,-1,94,96,-1,98,100,102,104,106,-1,-1,-1,-1,-1,-1,108,110,112,114,116,118,120,122,124,126,128,130,132,134,-1,-1,136,138,140,142,-1,144,146,148,150,152,154,156,158,160,162,-1,164,166,168,170,172,174,176,178,-1,-1,-1,-1,-1,-1,-1,-1,-1,-1,-1,-1,-1,-1,-1,-1,-1,-1,-1,-1,-1,-1,-1,-1,-1,-1,-1,-1,-1,-1,-1,-1,-1,-1,-1,-1,-1,-1,-1,-1,-1,-1,-1,-1,-1,-1,-1,-1,-1,-1,-1,-1,-1,-1,-1,-1,-1,-1,-1,-1,-1,-1,-1,-1,-1,-1,-1,-1,-1,-1,-1,-1],"split_conditions":[-1.0342E0,-5.777E-1,-1.189E-1,-4.28E-1,-2.6295E0,1.0042E0,2.309E-1,-6.966E-1,-6.83E-1,7.342E-1,8.321E-1,-2.4118E0,6.109E-1,1.8132E0,-3.048E-1,9.95E-2,-2.66E-2,-1.5725E0,-9.916E-1,3.783548E0,-2.1222E0,5.132E-1,-2.156E-1,2.0488E0,3.471E-1,-1.3422E0,7.796E-1,1.089E-1,4.54E-2,-1.36E-1,-5.309E-1,4.694E-1,-1.1583E0,-4.2532477E0,5.95E-2,-4.786E-1,4.497475E0,2.853866E0,-3.053E-1,-2.3983471E0,2.7331963E-1,-1.0129E0,-1.96E-2,-6.15E-2,-6.863E-1,-6.903E-1,-5.066E-1,2.791E-1,2.135E-1,-1.0021E0,1.5323E0,5.136E-1,5.1873574E0,-7.785E-1,-1.1125E0,4.076643E0,-5.4E-1,-6.57E-1,-5.455E-1,-8.786E-1,5.505E-1,3.1445627E0,4.5872957E-1,-4.0918046E-1,-2.346685E0,1.4316529E0,-7.783517E-1,-1.2574E0,-1.5836E0,4.545E-1,-9.304E-1,7.002E-1,2.6992E0,-1.7162E0,7.57E-1,-1.5447E0,-2.9497E0,-1.0275E0,6.733E-1,1.8685E0,6.788E-1,-3.0136888E0,1.234153E0,-1.4394E0,-1.0998E0,-8.34E-2,-9.823E-1,9.0998614E-1,-3.858E-1,-1.4288E0,-3.96E-2,-6.332E-1,-4.2E-2,-5.569E-1,3.905E-1,5.7E-2,-3.645E-1,-1.7162E0,-7.5084704E-1,6.648E-1,-3.97E-1,-6.082E-1,-7.621E-1,-6.487E-1,-9.613E-1,3.09E-2,1.101E-1,-2.3741806E0,-4.6334705E-1,7.998619E-2,1.5944215E0,-3.791897E-1,2.3124795E0,-2.1035524E-1,-3.0392673E0,3.058315E0,2.0831947E-1,-3.1293287E0,-4.9127962E-2,5.6915283E-1,4.115533E0,-2.1816907E0,2.2498627E-1,2.0415306E-1,-1.1783553E0,-1.1225138E0,-4.1519284E0,3.275935E-2,-2.5546887E0,4.520601E0,1.4485883E0,3.4087856E0,1.8977968E-2,7.225419E0,2.0416484E0,3.2152405E0,-7.0161715E-2,-6.6372454E-1,2.9040487E0,-1.4731377E0,1.1683067E0,2.8414622E-1,-3.4002187E0,-2.3668042E-1,-9.050137E-1,1.6155373E0,6.0220404E0,2.3319626E-2,2.4831963E-1,-4.5902202E-1,-2.504604E0,1.8164268E-1,2.915642E0,-1.4491159E0,3.1926548E0,-1.3661683E0,8.361854E-1,3.7078927E0,-1.1826886E0,-1.2122135E0,-2.7280707E0,9.6652985E-2,3.891529E-1,-3.2563207E0,-1.2377062E-1,3.0335462E0,-1.5555233E-1,-2.281685E0,7.549765E-1,-1.1437706E0,-3.8809083E0,3.3569214E0,-3.1668034E-1,2.0903115E0,-2.3299625E0,3.0253665E0,1.1461754E0,-1.311176E0,3.3246052E0],"split_indices":[118,253,229,218,252,55,284,0,232,9,135,240,265,84,76,139,6,118,108,0,0,49,7,171,258,291,233,142,11,3,174,12,0,0,0,11,0,0,239,0,0,36,309,22,177,1,3,169,108,0,77,118,0,215,159,0,0,41,19,150,2,0,0,0,0,0,0,0,1,26,290,0,200,0,4,0,2,14,16,82,61,0,0,47,2,60,126,0,0,178,0,17,274,306,12,57,268,0,0,274,271,1,198,3,192,63,251,0,0,0,0,0,0,0,0,0,0,0,0,0,0,0,0,0,0,0,0,0,0,0,0,0,0,0,0,0,0,0,0,0,0,0,0,0,0,0,0,0,0,0,0,0,0,0,0,0,0,0,0,0,0,0,0,0,0,0,0,0,0,0,0,0,0,0,0,0,0,0,0],"split_type":[0,0,0,0,0,0,0,0,0,0,0,0,0,0,0,0,0,0,0,0,0,0,0,0,0,0,0,0,0,0,0,0,0,0,0,0,0,0,0,0,0,0,0,0,0,0,0,0,0,0,0,0,0,0,0,0,0,0,0,0,0,0,0,0,0,0,0,0,0,0,0,0,0,0,0,0,0,0,0,0,0,0,0,0,0,0,0,0,0,0,0,0,0,0,0,0,0,0,0,0,0,0,0,0,0,0,0,0,0,0,0,0,0,0,0,0,0,0,0,0,0,0,0,0,0,0,0,0,0,0,0,0,0,0,0,0,0,0,0,0,0,0,0,0,0,0,0,0,0,0,0,0,0,0,0,0,0,0,0,0,0,0,0,0,0,0,0,0,0,0,0,0,0,0,0,0,0,0,0],"sum_hessian":[1.522E3,2.74E2,1.248E3,7.2E1,2.02E2,5.33E2,7.15E2,2.6E1,4.6E1,8E0,1.94E2,4.73E2,6E1,4.26E2,2.89E2,9E0,1.7E1,1.9E1,2.7E1,6E0,2E0,1.64E2,3E1,3.1E1,4.42E2,3.1E1,2.9E1,4.17E2,9E0,6.9E1,2.2E2,6E0,3E0,1.4E1,3E0,8E0,1.1E1,5E0,2.2E1,1E0,1E0,1.5E2,1.4E1,1.2E1,1.8E1,2.6E1,5E0,3.49E2,9.3E1,3E0,2.8E1,2.3E1,6E0,2.23E2,1.94E2,6E0,3E0,4.2E1,2.7E1,3.5E1,1.85E2,3E0,3E0,1E0,2E0,1E0,2E0,2E0,6E0,8E0,1.4E1,3E0,1.47E2,6E0,8E0,5E0,7E0,6E0,1.2E1,1E1,1.6E1,4E0,1E0,2.09E2,1.4E2,6.5E1,2.8E1,1E0,2E0,2.6E1,2E0,7E0,1.6E1,3.2E1,1.91E2,1.1E1,1.83E2,2E0,1E0,1.1E1,3.1E1,8E0,1.9E1,6E0,2.9E1,1.49E2,3.6E1,1E0,1E0,1E0,5E0,5E0,3E0,4E0,1E1,2E0,1E0,1.35E2,1.2E1,1E0,5E0,7E0,1E0,1E0,4E0,1E0,6E0,2E0,4E0,7E0,5E0,6E0,4E0,1.4E1,2E0,2.4E1,1.85E2,3.1E1,1.09E2,2.9E1,3.6E1,3E0,2.5E1,1E0,1E0,2E0,2.4E1,1E0,1E0,4E0,3E0,7E0,9E0,1E1,2.2E1,1.48E2,4.3E1,7E0,4E0,9.2E1,9.1E1,1E0,1E0,8E0,3E0,1.3E1,1.8E1,2E0,6E0,3E0,1.6E1,5E0,1E0,4E0,2.5E1,7.1E1,7.8E1,2.8E1,8E0],"tree_param":{"num_deleted":"0","num_feature":"311","num_nodes":"179","size_leaf_vector":"1"}},{"base_weights":[2.3118505E-2,-2.7571735E1,6.098829E0,-1.0707414E0,-3.6102966E1,2.186817E1,-5.670623E0,-4.3968628E1,2.0401478E1,-4.99392E1,-1.14145155E1,1.618774E1,6.564941E1,-1.8735174E1,1.3585356E1,4.6637627E1,-5.9891445E1,5.5286804E1,-6.1951127E0,4.037818E1,-5.305275E1,3.3142006E1,-2.9029587E1,7.507195E1,1.1897712E1,9.255468E1,3.476214E1,-2.3529945E1,7.3789735E0,-1.7037516E1,2.3223434E1,2.9484963E0,2.410181E-1,-7.3324425E1,1.2171577E1,8.423819E0,4.2913404E0,5.46991E1,-2.2521029E1,2.8164876E-1,3.0832E0,-6.257749E1,-1.9535189E1,5.895866E1,-6.642635E1,-4.4930252E1,1.6367538E1,9.790684E1,-4.019702E1,1.9858826E1,-1.7871305E1,-2.2591534E0,1.0244091E2,1.4489928E1,4.9650416E0,-1.2535112E1,-3.8912445E1,3.7153183E1,-2.8396019E1,4.279755E0,-4.9166267E1,-1.6082388E1,3.0706156E1,-3.922571E0,2.1768475E-1,1.2134751E0,-6.03055E-1,-3.6887856E1,2.6639706E1,1.2154083E0,3.1908762E0,1.49393425E1,-4.4994053E1,2.257905E0,-6.523698E1,-4.3811447E1,4.1977356E1,-2.5602041E1,7.757761E1,-7.842806E-1,-3.7595067E0,-5.4403774E1,2.8150384E0,-2.7250443E1,5.793958E1,4.1690838E1,1.2852267E2,-2.8931413E0,1.2032994E0,6.106821E0,4.0199696E1,-2.829343E-1,-5.7283764E1,8.872364E-1,-1.4842023E1,1.0963676E2,3.5313084E0,-2.9615078E1,3.4392876E1,2.402002E1,-2.091471E1,-3.5490475E0,-4.8094933E1,-1.2926208E1,5.6179855E1,-4.510079E1,2.4361997E0,-4.7468124E1,2.3551468E1,-3.463429E0,-6.727423E1,-4.6866413E1,2.1080135E1,3.9088547E1,-4.106407E0,-2.3148258E0,-4.5176336E-1,7.798653E-2,1.5279874E0,-3.6339018E-1,2.2257612E0,-2.901119E0,1.0411787E-1,-3.409623E0,1.063249E0,1.0258228E0,-3.4608345E0,-8.431063E-2,3.2045085E0,-2.0045047E0,4.4655284E-1,5.3716E0,2.2868896E0,5.881435E-1,-3.2392738E0,1.511017E-1,-1.8922471E0,3.7094371E0,-1.395114E0,3.262695E0,1.8218994E-2,6.8885117E0,1.9721972E0,3.060909E0,-6.667258E-2,-6.315753E-1,2.760166E0,-1.401936E0,1.1114702E0,2.7349064E-1,-3.236747E0,-2.3076344E-1,-8.823883E-1,1.5616859E0,5.7329826E0,2.273655E-2,2.421116E-1,-2.1530724E-1,-2.1969604E0,1.736959E-1,2.784438E0,-1.4984679E0,2.276609E0,-2.5355604E0,-6.075954E-1,-2.9839535E0,1.0504808E0,-2.5876439E0,1.4710921E0,-1.4289715E0,1.0805897E0,7.0426816E-1,3.8222291E0,-2.8142354E0,1.5240982E0,-3.1115956E0,-1.1912918E-1,2.224135E0,-1.0226017E0,-2.2056289E0,7.226204E-1,-3.6982887E0,-1.1008319E0,7.3277116E-1,-3.1581419E0,2.8918169E0,-9.0091497E-1,2.8761995E0,1.0895919E0,-1.247878E0,3.1768453E0],"categories":[],"categories_nodes":[],"categories_segments":[],"categories_sizes":[],"default_left":[0,0,0,0,0,0,0,0,0,0,0,0,0,0,0,0,0,0,0,0,0,0,0,0,0,0,0,0,0,0,0,0,0,0,0,0,0,0,0,0,0,0,0,0,0,0,0,0,0,0,0,0,0,0,0,0,0,0,0,0,0,0,0,0,0,0,0,0,0,0,0,0,0,0,0,0,0,0,0,0,0,0,0,0,0,0,0,0,0,0,0,0,0,0,0,0,0,0,0,0,0,0,0,0,0,0,0,0,0,0,0,0,0,0,0,0,0,0,0,0,0,0,0,0,0,0,0,0,0,0,0,0,0,0,0,0,0,0,0,0,0,0,0,0,0,0,0,0,0,0,0,0,0,0,0,0,0,0,0,0,0,0,0,0,0,0,0,0,0,0,0,0,0,0,0,0,0,0,0,0,0,0,0,0,0,0,0,0,0,0,0],"id":1,"left_children":[1,3,5,7,9,11,13,15,17,19,21,23,25,27,29,31,33,35,37,39,41,43,45,47,49,51,53,55,57,59,61,-1,-1,63,65,67,-1,69,71,-1,-1,73,75,77,79,81,83,85,87,89,91,93,95,97,-1,99,101,103,105,107,109,111,113,-1,-1,-1,-1,115,117,-1,-1,119,121,-1,123,125,127,129,131,-1,-1,133,-1,135,137,139,141,-1,-1,143,145,147,149,-1,151,153,155,157,159,161,163,165,167,169,171,173,-1,175,177,179,181,183,185,187,189,-1,-1,-1,-1,-1,-1,-1,-1,-1,-1,-1,-1,-1,-1,-1,-1,-1,-1,-1,-1,-1,-1,-1,-1,-1,-1,-1,-1,-1,-1,-1,-1,-1,-1,-1,-1,-1,-1,-1,-1,-1,-1,-1,-1,-1,-1,-1,-1,-1,-1,-1,-1,-1,-1,-1,-1,-1,-1,-1,-1,-1,-1,-1,-1,-1,-1,-1,-1,-1,-1,-1,-1,-1,-1,-1,-1],"loss_changes":[2.555118E5,6.2135016E4,2.3193403E5,6.3532695E4,7.048178E4,1.3174106E5,1.8037914E5,3.5975453E4,4.3022727E4,3.954278E4,6.061194E4,1.18846305E5,4.747547E4,5.363886E4,8.5987914E4,1.7785557E3,2.0252898E4,2.7900918E4,2.8074033E4,3.3505479E3,3.9960312E4,6.0467895E4,4.0436848E4,8.8164484E4,1.053435E5,3.0226656E4,3.78114E4,6.056747E4,7.242154E4,4.8153234E4,6.549315E4,0E0,0E0,7.111883E3,1.4653774E3,8.411213E3,0E0,1.11416016E2,1.9192832E4,0E0,0E0,3.1598062E4,4.663792E4,3.0325895E4,1.044E3,4.2382562E4,2.8778207E4,4.111147E4,8.204071E3,9.76592E4,6.5144676E4,1.2701926E3,2.0253281E4,2.2086219E4,0E0,6.544163E4,4.8537906E4,3.598142E4,4.213392E4,4.400057E4,2.2939398E4,4.2172383E4,5.4437656E4,0E0,0E0,0E0,0E0,3.6786523E2,6.405371E2,0E0,0E0,6.2346914E3,8.707398E3,0E0,2.6504312E4,3.7373934E4,8.797792E3,2.3593162E3,9.34468E3,0E0,0E0,2.6865117E4,0E0,2.6801426E3,1.32289E4,1.0687781E4,8.569719E3,0E0,0E0,8.619077E4,1.12462266E5,4.186323E4,1.3914133E4,0E0,4.631653E0,7.0515938E3,9.897556E0,2.71102E3,1.1000131E4,4.7821688E4,4.4554203E4,4.536514E4,3.5265375E4,6.5645938E3,2.1955148E4,2.3693773E4,0E0,7.839326E3,3.0383281E4,7.191905E3,4.428383E3,2.0977398E4,2.5472979E4,4.6577297E4,5.377204E4,0E0,0E0,0E0,0E0,0E0,0E0,0E0,0E0,0E0,0E0,0E0,0E0,0E0,0E0,0E0,0E0,0E0,0E0,0E0,0E0,0E0,0E0,0E0,0E0,0E0,0E0,0E0,0E0,0E0,0E0,0E0,0E0,0E0,0E0,0E0,0E0,0E0,0E0,0E0,0E0,0E0,0E0,0E0,0E0,0E0,0E0,0E0,0E0,0E0,0E0,0E0,0E0,0E0,0E0,0E0,0E0,0E0,0E0,0E0,0E0,0E0,0E0,0E0,0E0,0E0,0E0,0E0,0E0,0E0,0E0,0E0,0E0,0E0,0E0,0E0,0E0],"parents":[2147483647,0,0,1,1,2,2,3,3,4,4,5,5,6,6,7,7,8,8,9,9,10,10,11,11,12,12,13,13,14,14,15,15,16,16,17,17,18,18,19,19,20,20,21,21,22,22,23,23,24,24,25,25,26,26,27,27,28,28,29,29,30,30,33,33,34,34,35,35,37,37,38,38,41,41,42,42,43,43,44,44,45,45,46,46,47,47,48,48,49,49,50,50,51,51,52,52,53,53,55,55,56,56,57,57,58,58,59,59,60,60,61,61,62,62,67,67,68,68,71,71,72,72,74,74,75,75,76,76,77,77,78,78,81,81,83,83,84,84,85,85,86,86,89,89,90,90,91,91,92,92,94,94,95,95,96,96,97,97,98,98,99,99,100,100,101,101,102,102,103,103,104,104,105,105,107,107,108,108,109,109,110,110,111,111,112,112,113,113,114,114],"right_children":[2,4,6,8,10,12,14,16,18,20,22,24,26,28,30,32,34,36,38,40,42,44,46,48,50,52,54,56,58,60,62,-1,-1,64,66,68,-1,70,72,-1,-1,74,76,78,80,82,84,86,88,90,92,94,96,98,-1,100,102,104,106,108,110,112,114,-1,-1,-1,-1,116,118,-1,-1,120,122,-1,124,126,128,130,132,-1,-1,134,-1,136,138,140,142,-1,-1,144,146,148,150,-1,152,154,156,158,160,162,164,166,168,170,172,174,-1,176,178,180,182,184,186,188,190,-1,-1,-1,-1,-1,-1,-1,-1,-1,-1,-1,-1,-1,-1,-1,-1,-1,-1,-1,-1,-1,-1,-1,-1,-1,-1,-1,-1,-1,-1,-1,-1,-1,-1,-1,-1,-1,-1,-1,-1,-1,-1,-1,-1,-1,-1,-1,-1,-1,-1,-1,-1,-1,-1,-1,-1,-1,-1,-1,-1,-1,-1,-1,-1,-1,-1,-1,-1,-1,-1,-1,-1,-1,-1,-1,-1],"split_conditions":[-1.0342E0,-6.177E-1,-1.189E-1,-4.28E-1,3.785E-1,1.0042E0,2.309E-1,-6.53E-1,-6.83E-1,-8.277E-1,-1.952E-1,-2.4118E0,6.109E-1,6.427E-1,-3.048E-1,4.819E-1,-1.83E-2,-1.5725E0,-9.916E-1,-1.923E-1,2.833E-1,2.0507E0,3.86E-1,2.0488E0,3.471E-1,-1.3422E0,7.796E-1,1.524E-1,-1.097E-1,-1.36E-1,-5.309E-1,2.9484963E0,2.410181E-1,7.544E-1,5.95E-2,-4.786E-1,4.2913404E0,-7.008E-1,-3.053E-1,2.8164876E-1,3.0832E0,-8.212E-1,1.256E-1,-7.336E-1,-5.479E-1,1.4531E0,-1.2145E0,-6.903E-1,-5.066E-1,2.791E-1,2.135E-1,-1.0021E0,1.5323E0,5.136E-1,4.9650416E0,-7.38E-1,-8.303E-1,-5.426E-1,8.556E-1,-6.57E-1,-5.455E-1,-3.587E-1,5.505E-1,-3.922571E0,2.1768475E-1,1.2134751E0,-6.03055E-1,-1.2574E0,-1.5836E0,1.2154083E0,3.1908762E0,4.545E-1,-5.85E-2,2.257905E0,1.7032E0,4.39E-2,-6.237E-1,-6.458E-1,-6.712E-1,-7.842806E-1,-3.7595067E0,-1.0672E0,2.8150384E0,8.547E-1,5.462E-1,1.8685E0,6.921E-1,-2.8931413E0,1.2032994E0,-1.4394E0,-1.0998E0,-8.34E-2,-9.823E-1,8.872364E-1,-3.858E-1,-1.4288E0,-3.96E-2,4.8E-2,-4.2E-2,-6.971E-1,-6.414E-1,-4.818E-1,1.8337E0,7.603E-1,-5.137E-1,6.386E-1,2.4361997E0,6.648E-1,1.26E-2,-6.082E-1,1.0158E0,-1.5198E0,-5.96E-2,3.09E-2,1.101E-1,-2.3148258E0,-4.5176336E-1,7.798653E-2,1.5279874E0,-3.6339018E-1,2.2257612E0,-2.901119E0,1.0411787E-1,-3.409623E0,1.063249E0,1.0258228E0,-3.4608345E0,-8.431063E-2,3.2045085E0,-2.0045047E0,4.4655284E-1,5.3716E0,2.2868896E0,5.881435E-1,-3.2392738E0,1.511017E-1,-1.8922471E0,3.7094371E0,-1.395114E0,3.262695E0,1.8218994E-2,6.8885117E0,1.9721972E0,3.060909E0,-6.667258E-2,-6.315753E-1,2.760166E0,-1.401936E0,1.1114702E0,2.7349064E-1,-3.236747E0,-2.3076344E-1,-8.823883E-1,1.5616859E0,5.7329826E0,2.273655E-2,2.421116E-1,-2.1530724E-1,-2.1969604E0,1.736959E-1,2.784438E0,-1.4984679E0,2.276609E0,-2.5355604E0,-6.075954E-1,-2.9839535E0,1.0504808E0,-2.5876439E0,1.4710921E0,-1.4289715E0,1.0805897E0,7.0426816E-1,3.8222291E0,-2.8142354E0,1.5240982E0,-3.1115956E0,-1.1912918E-1,2.224135E0,-1.0226017E0,-2.2056289E0,7.226204E-1,-3.6982887E0,-1.1008319E0,7.3277116E-1,-3.1581419E0,2.8918169E0,-9.0091497E-1,2.8761995E0,1.0895919E0,-1.247878E0,3.1768453E0],"split_indices":[118,253,229,218,283,55,284,17,232,36,295,240,265,89,76,1,266,118,108,3,253,71,62,171,258,291,233,63,283,3,174,0,0,1,0,11,0,1,239,0,0,62,302,38,0,15,285,1,3,169,108,0,77,118,0,215,140,81,88,41,19,130,2,0,0,0,0,0,1,0,0,26,201,0,58,21,17,0,137,0,0,211,0,3,8,82,17,0,0,47,2,60,126,0,0,178,0,118,274,114,3,101,92,6,106,114,0,274,101,1,16,10,283,63,251,0,0,0,0,0,0,0,0,0,0,0,0,0,0,0,0,0,0,0,0,0,0,0,0,0,0,0,0,0,0,0,0,0,0,0,0,0,0,0,0,0,0,0,0,0,0,0,0,0,0,0,0,0,0,0,0,0,0,0,0,0,0,0,0,0,0,0,0,0,0,0,0,0,0,0,0],"split_type":[0,0,0,0,0,0,0,0,0,0,0,0,0,0,0,0,0,0,0,0,0,0,0,0,0,0,0,0,0,0,0,0,0,0,0,0,0,0,0,0,0,0,0,0,0,0,0,0,0,0,0,0,0,0,0,0,0,0,0,0,0,0,0,0,0,0,0,0,0,0,0,0,0,0,0,0,0,0,0,0,0,0,0,0,0,0,0,0,0,0,0,0,0,0,0,0,0,0,0,0,0,0,0,0,0,0,0,0,0,0,0,0,0,0,0,0,0,0,0,0,0,0,0,0,0,0,0,0,0,0,0,0,0,0,0,0,0,0,0,0,0,0,0,0,0,0,0,0,0,0,0,0,0,0,0,0,0,0,0,0,0,0,0,0,0,0,0,0,0,0,0,0,0,0,0,0,0,0,0,0,0,0,0,0,0,0,0,0,0,0,0],"sum_hessian":[1.522E3,2.74E2,1.248E3,6.7E1,2.07E2,5.33E2,7.15E2,2.2E1,4.5E1,1.32E2,7.5E1,4.73E2,6E1,4.26E2,2.89E2,3E0,1.9E1,1.9E1,2.6E1,4E0,1.28E2,2.1E1,5.4E1,3.1E1,4.42E2,3.1E1,2.9E1,3.6E2,6.6E1,6.9E1,2.2E2,2E0,1E0,1.6E1,3E0,8E0,1.1E1,5E0,2.1E1,2E0,2E0,9.9E1,2.9E1,1.7E1,4E0,4E1,1.4E1,2.6E1,5E0,3.49E2,9.3E1,3E0,2.8E1,2.3E1,6E0,2.11E2,1.49E2,3.6E1,3E1,4.2E1,2.7E1,3.5E1,1.85E2,1.5E1,1E0,2E0,1E0,2E0,6E0,2E0,3E0,8E0,1.3E1,2E0,9.7E1,2.1E1,8E0,3E0,1.4E1,1E0,3E0,3.7E1,3E0,7E0,7E0,1E1,1.6E1,4E0,1E0,2.09E2,1.4E2,6.5E1,2.8E1,1E0,2E0,2.6E1,2E0,7E0,1.6E1,3.9E1,1.72E2,3.1E1,1.18E2,1E1,2.6E1,2.5E1,5E0,1.1E1,3.1E1,8E0,1.9E1,1.9E1,1.6E1,1.49E2,3.6E1,1E0,1E0,1E0,5E0,5E0,3E0,1E1,3E0,9.4E1,3E0,6E0,1.5E1,3E0,5E0,2E0,1E0,6E0,8E0,5E0,3.2E1,2E0,5E0,6E0,1E0,6E0,4E0,1.4E1,2E0,2.4E1,1.85E2,3.1E1,1.09E2,2.9E1,3.6E1,3E0,2.5E1,1E0,1E0,2E0,2.4E1,1E0,1E0,3E0,4E0,7E0,9E0,1.1E1,2.8E1,3.8E1,1.34E2,9E0,2.2E1,1.13E2,5E0,7E0,3E0,9E0,1.7E1,2.2E1,3E0,8E0,3E0,2.1E1,1E1,2E0,6E0,1.6E1,3E0,4E0,1.5E1,8E0,8E0,7.1E1,7.8E1,2.8E1,8E0],"tree_param":{"num_deleted":"0","num_feature":"311","num_nodes":"191","size_leaf_vector":"1"}},{"base_weights":[4.5060217E-2,-1.3706704E1,1.1065925E1,-3.1857286E1,-5.380994E0,4.7588334E0,4.3671535E1,-3.4189613E1,7.200539E1,8.245789E1,-7.6857977E0,5.4187897E1,4.4351897E-1,-2.6287455E1,5.184807E1,4.943015E1,-3.690463E1,4.0076036E0,9.854664E-1,6.6508365E0,9.729618E0,4.143157E0,-2.2654444E1,8.279226E1,-7.378306E0,3.3482887E1,-4.41769E0,-5.646354E1,1.6265717E1,1.2694417E2,4.3339127E1,2.7172342E-1,3.4519584E0,-2.0201918E1,-5.230143E1,1.7008976E0,-1.2949017E0,9.369183E0,-5.1631073E1,-5.395396E1,-1.3794739E1,9.5309044E1,-5.055687E1,4.921916E0,-3.337132E1,-1.3363236E1,4.83311E1,1.8063541E1,-9.462897E0,-2.4422799E-1,-3.115017E0,4.025176E1,-1.3790528E0,2.7737262E0,7.2301774E0,6.279056E1,1.1850758E1,-1.7569104E-1,1.960703E-1,1.0279142E1,-3.703186E1,3.391112E1,-5.6951168E1,1.6971853E1,-2.6832943E1,-6.9229904E1,6.837461E0,-6.671255E1,2.3014662E1,4.380784E1,-1.882925E1,1.10994125E2,-1.615406E0,-3.2377293E0,-1.9909286E-1,-7.247821E1,5.0982904E0,5.3971954E1,-3.2381634E1,2.6039643E0,6.616772E1,4.521377E1,-7.4405527E0,-6.7064624E0,-6.0062653E1,5.6591034E-1,2.4529717E0,2.9133224E-1,-8.125066E0,7.631923E1,1.6919392E1,3.6734837E1,-2.613374E1,-3.786812E-1,4.2661276E0,-5.4607534E-1,-2.9874592E0,3.0159996E0,2.813343E-1,-1.2631863E0,-3.4461591E0,-1.2610158E0,1.2575428E0,-2.5323608E0,1.7035593E-1,-4.360986E0,-1.5535096E0,-2.4101411E-1,1.0050982E0,-1.4223247E0,-3.8803654E0,-1.3194991E0,2.402726E0,4.0191045E0,4.8766382E-2,4.4548078E0,-1.124842E0,1.5975475E0,5.6281934E0,1.2565845E0,-1.8369865E0,-7.551102E-1,-3.9258664E0,1.8625975E0,-8.5935986E-1,3.1891828E0,3.6812934E-1,-6.4503396E-1,-3.2973301E0,-7.564754E-1,3.6443431E0,8.337695E-2,3.985141E0,-2.3492733E-1,3.5154061E0,1.2952945E0,-1.6108935E0,1.9720215E0,-4.953656E-1,-4.8211828E-1,-4.0128374E0,-4.8992616E-1,-1.1945381E-1,4.1918044E0,-6.304879E-1,1.6463225E0,-2.1667583E0,2.6070757E0,-7.366513E-1,2.6916509E0,-2.2857978E0],"categories":[],"categories_nodes":[],"categories_segments":[],"categories_sizes":[],"default_left":[0,0,0,0,0,0,0,0,0,0,0,0,0,0,0,0,0,0,0,0,0,0,0,0,0,0,0,0,0,0,0,0,0,0,0,0,0,0,0,0,0,0,0,0,0,0,0,0,0,0,0,0,0,0,0,0,0,0,0,0,0,0,0,0,0,0,0,0,0,0,0,0,0,0,0,0,0,0,0,0,0,0,0,0,0,0,0,0,0,0,0,0,0,0,0,0,0,0,0,0,0,0,0,0,0,0,0,0,0,0,0,0,0,0,0,0,0,0,0,0,0,0,0,0,0,0,0,0,0,0,0,0,0,0,0,0,0,0,0,0,0,0,0,0,0,0,0,0,0,0,0],"id":2,"left_children":[1,3,5,7,9,11,13,15,17,19,21,23,25,27,29,31,33,-1,-1,-1,35,37,39,41,43,45,47,49,51,53,55,57,-1,59,61,-1,-1,63,65,67,69,71,73,-1,75,77,79,81,83,-1,-1,85,87,-1,-1,89,91,-1,-1,93,95,97,99,101,103,105,107,109,111,113,115,117,119,-1,-1,121,123,125,127,129,131,133,135,137,139,-1,-1,-1,141,143,145,147,149,-1,-1,-1,-1,-1,-1,-1,-1,-1,-1,-1,-1,-1,-1,-1,-1,-1,-1,-1,-1,-1,-1,-1,-1,-1,-1,-1,-1,-1,-1,-1,-1,-1,-1,-1,-1,-1,-1,-1,-1,-1,-1,-1,-1,-1,-1,-1,-1,-1,-1,-1,-1,-1,-1,-1,-1,-1,-1],"loss_changes":[2.3097197E5,1.02285555E5,1.7376916E5,5.405928E4,9.497611E4,1.5142034E5,7.9729984E4,4.927328E4,5.504551E2,4.283047E4,8.065772E4,1.00991375E5,1.0518769E5,2.0179742E4,7.309391E4,6.728879E3,5.1148594E4,0E0,0E0,0E0,6.073016E3,7.481051E4,5.499393E4,6.991353E4,5.554438E4,5.907468E4,6.4935168E4,2.4051973E3,3.018107E3,7.1235E3,6.785522E4,5.5227215E1,0E0,5.11671E4,4.4022188E4,0E0,0E0,6.4859875E4,2.3110871E4,4.474385E4,4.664501E4,5.490897E4,2.3871914E3,0E0,2.4440348E4,2.8640453E4,5.2027203E4,7.304283E4,6.4731977E4,0E0,0E0,2.0924658E2,2.9039053E2,0E0,0E0,4.152847E4,4.254923E4,0E0,0E0,4.8876562E4,3.7309523E4,4.142359E3,3.619497E4,6.758175E4,2.9698508E4,8.960344E3,1.0247021E3,1.3634531E4,9.927752E3,2.0286973E4,5.9795004E4,2.4984375E2,6.560174E3,0E0,0E0,1.5862148E3,7.0892964E3,1.8169727E3,1.0265166E4,2.478358E4,4.002586E4,6.4208727E4,4.627757E4,6.597366E4,2.366275E4,0E0,0E0,0E0,5.38739E0,3.6485812E4,1.7823344E4,2.2177816E4,3.0647705E4,0E0,0E0,0E0,0E0,0E0,0E0,0E0,0E0,0E0,0E0,0E0,0E0,0E0,0E0,0E0,0E0,0E0,0E0,0E0,0E0,0E0,0E0,0E0,0E0,0E0,0E0,0E0,0E0,0E0,0E0,0E0,0E0,0E0,0E0,0E0,0E0,0E0,0E0,0E0,0E0,0E0,0E0,0E0,0E0,0E0,0E0,0E0,0E0,0E0,0E0,0E0,0E0,0E0,0E0,0E0,0E0,0E0,0E0],"parents":[2147483647,0,0,1,1,2,2,3,3,4,4,5,5,6,6,7,7,8,8,9,9,10,10,11,11,12,12,13,13,14,14,15,15,16,16,20,20,21,21,22,22,23,23,24,24,25,25,26,26,27,27,28,28,29,29,30,30,31,31,33,33,34,34,37,37,38,38,39,39,40,40,41,41,42,42,44,44,45,45,46,46,47,47,48,48,51,51,52,52,55,55,56,56,59,59,60,60,61,61,62,62,63,63,64,64,65,65,66,66,67,67,68,68,69,69,70,70,71,71,72,72,75,75,76,76,77,77,78,78,79,79,80,80,81,81,82,82,83,83,84,84,88,88,89,89,90,90,91,91,92,92],"right_children":[2,4,6,8,10,12,14,16,18,20,22,24,26,28,30,32,34,-1,-1,-1,36,38,40,42,44,46,48,50,52,54,56,58,-1,60,62,-1,-1,64,66,68,70,72,74,-1,76,78,80,82,84,-1,-1,86,88,-1,-1,90,92,-1,-1,94,96,98,100,102,104,106,108,110,112,114,116,118,120,-1,-1,122,124,126,128,130,132,134,136,138,140,-1,-1,-1,142,144,146,148,150,-1,-1,-1,-1,-1,-1,-1,-1,-1,-1,-1,-1,-1,-1,-1,-1,-1,-1,-1,-1,-1,-1,-1,-1,-1,-1,-1,-1,-1,-1,-1,-1,-1,-1,-1,-1,-1,-1,-1,-1,-1,-1,-1,-1,-1,-1,-1,-1,-1,-1,-1,-1,-1,-1,-1,-1,-1,-1],"split_conditions":[-1.312E-1,-1.0342E0,1.1322E0,1.9805E0,-2.484E0,-1.5138E0,-1.189E0,-8.277E-1,1.357E-1,3.384E-1,8.81E-2,4.57E-1,-1.2056E0,1.1025E0,-1.519E0,-2.513E-1,2.1E-2,4.0076036E0,9.854664E-1,6.6508365E0,-1.0455E0,1.7093E0,-1.115E0,1.0238E0,-5.224E-1,-6.637E-1,-7.867E-1,-2.292E-1,-1.9391E0,3.312E-1,1.294E-1,-1.38E0,3.4519584E0,-2.775E-1,-1.2516E0,1.7008976E0,-1.2949017E0,9.706E-1,6.61E-1,1.7268E0,-1.1163E0,1.0286E0,5.627E-1,4.921916E0,-4.159E-1,-9.862E-1,-2.6E-1,-2.891E-1,1.0663E0,-2.4422799E-1,-3.115017E0,-1.1347E0,-4.98E-2,2.7737262E0,7.2301774E0,6.648E-1,-8.5E-3,-1.7569104E-1,1.960703E-1,7.53E-2,1.039E-1,-1.91E-1,-5.436E-1,-6.002E-1,-8.8E-2,3.329E-1,-3.858E-1,-9.762E-1,-1.6406E0,-5.408E-1,-1.1285E0,-1.5218E0,-1.694E-1,-3.2377293E0,-1.9909286E-1,-8.93E-1,-3.97E-2,1.1465E0,-7.3E-2,8.029E-1,-1.1371E0,-4.865E-1,-3.718E-1,-1.3791E0,-1.781E-1,5.6591034E-1,2.4529717E0,2.9133224E-1,-3.499E-1,1.131E0,1.0331E0,3.226E-1,-1.3032E0,-3.786812E-1,4.2661276E0,-5.4607534E-1,-2.9874592E0,3.0159996E0,2.813343E-1,-1.2631863E0,-3.4461591E0,-1.2610158E0,1.2575428E0,-2.5323608E0,1.7035593E-1,-4.360986E0,-1.5535096E0,-2.4101411E-1,1.0050982E0,-1.4223247E0,-3.8803654E0,-1.3194991E0,2.402726E0,4.0191045E0,4.8766382E-2,4.4548078E0,-1.124842E0,1.5975475E0,5.6281934E0,1.2565845E0,-1.8369865E0,-7.551102E-1,-3.9258664E0,1.8625975E0,-8.5935986E-1,3.1891828E0,3.6812934E-1,-6.4503396E-1,-3.2973301E0,-7.564754E-1,3.6443431E0,8.337695E-2,3.985141E0,-2.3492733E-1,3.5154061E0,1.2952945E0,-1.6108935E0,1.9720215E0,-4.953656E-1,-4.8211828E-1,-4.0128374E0,-4.8992616E-1,-1.1945381E-1,4.1918044E0,-6.304879E-1,1.6463225E0,-2.1667583E0,2.6070757E0,-7.366513E-1,2.6916509E0,-2.2857978E0],"split_indices":[49,118,284,58,8,229,161,36,0,172,142,284,165,266,194,1,63,0,0,0,0,7,298,254,212,34,255,6,8,223,154,0,0,111,132,0,0,229,130,36,82,4,0,0,292,299,228,56,148,0,0,0,1,0,0,274,68,0,0,75,127,2,253,11,243,82,0,107,5,154,40,60,1,0,0,3,33,1,220,4,24,240,179,124,231,0,0,0,0,270,130,168,42,0,0,0,0,0,0,0,0,0,0,0,0,0,0,0,0,0,0,0,0,0,0,0,0,0,0,0,0,0,0,0,0,0,0,0,0,0,0,0,0,0,0,0,0,0,0,0,0,0,0,0,0,0,0,0,0,0,0],"split_type":[0,0,0,0,0,0,0,0,0,0,0,0,0,0,0,0,0,0,0,0,0,0,0,0,0,0,0,0,0,0,0,0,0,0,0,0,0,0,0,0,0,0,0,0,0,0,0,0,0,0,0,0,0,0,0,0,0,0,0,0,0,0,0,0,0,0,0,0,0,0,0,0,0,0,0,0,0,0,0,0,0,0,0,0,0,0,0,0,0,0,0,0,0,0,0,0,0,0,0,0,0,0,0,0,0,0,0,0,0,0,0,0,0,0,0,0,0,0,0,0,0,0,0,0,0,0,0,0,0,0,0,0,0,0,0,0,0,0,0,0,0,0,0,0,0,0,0,0,0,0,0],"sum_hessian":[1.522E3,6.77E2,8.45E2,2.12E2,4.65E2,7.09E2,1.36E2,2.08E2,4E0,1.1E1,4.54E2,5.6E1,6.53E2,1.4E1,1.22E2,6E0,2.02E2,3E0,1E0,6E0,5E0,2.54E2,2E2,3.8E1,1.8E1,8.3E1,5.7E2,8E0,6E0,1.1E1,1.11E2,2E0,4E0,9.8E1,1.04E2,3E0,2E0,2.33E2,2.1E1,4.3E1,1.57E2,3.5E1,3E0,3E0,1.5E1,2E1,6.3E1,1.04E2,4.66E2,1E0,7E0,2E0,4E0,3E0,8E0,6.8E1,4.3E1,1E0,1E0,3.5E1,6.3E1,5E0,9.9E1,1.93E2,4E1,1.6E1,5E0,3.7E1,6E0,1.2E1,1.45E2,3E1,5E0,2E0,1E0,7E0,8E0,4E0,1.6E1,1.8E1,4.5E1,5E1,5.4E1,4.43E2,2.3E1,1E0,1E0,2E0,2E0,5.2E1,1.6E1,2.6E1,1.7E1,2.9E1,6E0,3E1,3.3E1,2E0,3E0,2.8E1,7.1E1,3.1E1,1.62E2,2.2E1,1.8E1,1E1,6E0,3E0,2E0,9E0,2.8E1,2E0,4E0,6E0,6E0,4E0,1.41E2,1E0,2.9E1,3E0,2E0,1E0,6E0,3E0,5E0,3E0,1E0,1.1E1,5E0,1.5E1,3E0,8E0,3.7E1,1.7E1,3.3E1,2.3E1,3.1E1,2.8E1,4.15E2,7E0,1.6E1,1E0,1E0,4.8E1,4E0,1.3E1,3E0,2E1,6E0,3E0,1.4E1],"tree_param":{"num_deleted":"0","num_feature":"311","num_nodes":"151","size_leaf_vector":"1"}},{"base_weights":[6.628755E-2,-1.3006433E1,1.0542929E1,-3.0229647E1,-5.1061087E0,4.536344E0,4.1594986E1,-3.2468582E1,6.940373E1,7.892307E1,-7.311041E0,5.155662E1,4.3131018E-1,-2.5016975E1,4.9380226E1,4.7454685E1,-3.5064613E1,3.8573189E0,9.6082956E-1,6.3658004E0,9.310802E0,3.9065263E0,-2.1505909E1,7.873492E1,-6.943909E0,-1.538518E1,1.0005432E1,-5.401361E1,1.5838264E1,1.2143062E2,4.1219646E1,2.6493073E-1,3.3138802E0,-1.9188248E1,-4.9699806E1,1.6371139E0,-1.2517384E0,9.018992E0,-4.805483E1,4.6306534E0,-2.3702726E1,9.072819E1,-4.888823E1,4.737344E0,-3.1932611E1,-2.8674192E1,4.1085806E0,2.144233E1,-9.602018E0,-2.3812218E-1,-2.978735E0,3.9245464E1,-1.3737091E0,2.6697118E0,6.9088364E0,5.9695107E1,1.1309954E1,-1.7129879E-1,1.9116859E-1,9.873171E0,-3.5235477E1,3.2765118E1,-5.4150703E1,1.63157E1,-2.5548903E1,-6.361104E1,6.622935E0,-3.454003E1,-3.3925147E0,1.0567751E2,-1.6313692E0,-3.1298048E0,-1.9411564E-1,-6.943942E1,4.954846E0,7.109775E1,-3.2687977E1,4.7566143E1,-1.4055801E1,4.3381653E0,3.9890877E1,-3.938031E1,4.6575766E0,5.517626E-1,2.3916473E0,2.8162107E-1,-7.921936E0,7.2570465E1,1.604281E1,5.1514717E1,-1.1261984E1,-3.6037818E-1,4.0832934E0,-5.1965237E-1,-2.8424797E0,2.915466E0,2.707841E-1,-3.627278E0,-1.6762257E0,-1.1999353E0,1.2089163E0,-2.4112477E0,1.6228658E-1,-4.16276E0,-1.4324471E0,-2.3197614E-1,9.71595E-1,-2.3369708E0,-4.0785167E-1,3.0403376E0,-6.9306844E-1,1.5576088E0,5.3561645E0,1.2094625E0,-1.7757536E0,-7.362324E-1,-3.7576149E0,1.79275E0,-8.235532E-1,3.8524995E0,1.0334139E0,-1.9977715E0,-1.4960992E-1,-9.661957E-2,3.4435909E0,-1.366826E0,2.4160526E0,2.4130447E0,-2.7967116E-1,2.3360693E0,-1.1012554E0,-2.362229E0,1.9637111E0,-2.0771244E0,8.8593054E-1,-4.776779E-1,-1.1646729E-1,1.0190777E0,4.287686E0,1.5698863E0,-2.085505E0,3.365181E0,1.6592118E-1,1.405836E0,-1.6733723E0],"categories":[],"categories_nodes":[],"categories_segments":[],"categories_sizes":[],"default_left":[0,0,0,0,0,0,0,0,0,0,0,0,0,0,0,0,0,0,0,0,0,0,0,0,0,0,0,0,0,0,0,0,0,0,0,0,0,0,0,0,0,0,0,0,0,0,0,0,0,0,0,0,0,0,0,0,0,0,0,0,0,0,0,0,0,0,0,0,0,0,0,0,0,0,0,0,0,0,0,0,0,0,0,0,0,0,0,0,0,0,0,0,0,0,0,0,0,0,0,0,0,0,0,0,0,0,0,0,0,0,0,0,0,0,0,0,0,0,0,0,0,0,0,0,0,0,0,0,0,0,0,0,0,0,0,0,0,0,0,0,0,0,0,0,0],"id":3,"left_children":[1,3,5,7,9,11,13,15,17,19,21,23,25,27,29,31,33,-1,-1,-1,35,37,39,41,43,45,47,49,51,53,55,57,-1,59,61,-1,-1,63,65,-1,67,69,71,-1,73,75,77,79,81,-1,-1,83,85,-1,-1,87,89,-1,-1,91,93,95,97,99,101,103,105,107,109,111,113,-1,-1,115,117,119,121,123,125,127,129,131,133,-1,-1,-1,135,137,139,141,143,-1,-1,-1,-1,-1,-1,-1,-1,-1,-1,-1,-1,-1,-1,-1,-1,-1,-1,-1,-1,-1,-1,-1,-1,-1,-1,-1,-1,-1,-1,-1,-1,-1,-1,-1,-1,-1,-1,-1,-1,-1,-1,-1,-1,-1,-1,-1,-1,-1,-1,-1,-1,-1,-1],"loss_changes":[2.0872447E5,9.210042E4,1.5760453E5,4.976789E4,8.691685E4,1.3702184E5,7.22822E4,4.5028E4,4.6041406E2,3.9239492E4,7.253452E4,9.117356E4,9.918851E4,1.862545E4,6.731534E4,6.2001826E3,4.621417E4,0E0,0E0,0E0,5.6483E3,6.8174336E4,5.25856E4,6.4129688E4,5.130681E4,6.410385E4,9.1699234E4,2.181289E3,2.8741008E3,6.294297E3,6.121553E4,5.2500404E1,0E0,4.6517062E4,4.0313734E4,0E0,0E0,5.918687E4,1.9984598E4,0E0,4.346421E4,4.9878094E4,2.2247217E3,0E0,2.2480555E4,6.1192125E4,8.039594E4,8.123808E4,6.4301996E4,0E0,0E0,1.9891553E2,2.7400833E2,0E0,0E0,3.7616453E4,4.0510137E4,0E0,0E0,4.4734402E4,3.3773773E4,3.875933E3,3.5509562E4,6.1756816E4,2.6927416E4,9.97725E3,9.557174E2,4.113822E4,4.788936E4,3E0,6.108471E3,0E0,0E0,1.3940352E3,6.549145E3,2.0852148E2,3.0525844E4,3.1771086E4,6.0966414E4,5.9159977E4,5.3470844E4,3.2164977E4,6.28884E4,0E0,0E0,0E0,5.1214294E0,3.471722E4,1.6385049E4,1.1952113E4,2.629924E4,0E0,0E0,0E0,0E0,0E0,0E0,0E0,0E0,0E0,0E0,0E0,0E0,0E0,0E0,0E0,0E0,0E0,0E0,0E0,0E0,0E0,0E0,0E0,0E0,0E0,0E0,0E0,0E0,0E0,0E0,0E0,0E0,0E0,0E0,0E0,0E0,0E0,0E0,0E0,0E0,0E0,0E0,0E0,0E0,0E0,0E0,0E0,0E0,0E0,0E0,0E0,0E0,0E0,0E0],"parents":[2147483647,0,0,1,1,2,2,3,3,4,4,5,5,6,6,7,7,8,8,9,9,10,10,11,11,12,12,13,13,14,14,15,15,16,16,20,20,21,21,22,22,23,23,24,24,25,25,26,26,27,27,28,28,29,29,30,30,31,31,33,33,34,34,37,37,38,38,40,40,41,41,42,42,44,44,45,45,46,46,47,47,48,48,51,51,52,52,55,55,56,56,59,59,60,60,61,61,62,62,63,63,64,64,65,65,66,66,67,67,68,68,69,69,70,70,73,73,74,74,75,75,76,76,77,77,78,78,79,79,80,80,81,81,82,82,86,86,87,87,88,88,89,89,90,90],"right_children":[2,4,6,8,10,12,14,16,18,20,22,24,26,28,30,32,34,-1,-1,-1,36,38,40,42,44,46,48,50,52,54,56,58,-1,60,62,-1,-1,64,66,-1,68,70,72,-1,74,76,78,80,82,-1,-1,84,86,-1,-1,88,90,-1,-1,92,94,96,98,100,102,104,106,108,110,112,114,-1,-1,116,118,120,122,124,126,128,130,132,134,-1,-1,-1,136,138,140,142,144,-1,-1,-1,-1,-1,-1,-1,-1,-1,-1,-1,-1,-1,-1,-1,-1,-1,-1,-1,-1,-1,-1,-1,-1,-1,-1,-1,-1,-1,-1,-1,-1,-1,-1,-1,-1,-1,-1,-1,-1,-1,-1,-1,-1,-1,-1,-1,-1,-1,-1,-1,-1,-1,-1],"split_conditions":[-1.312E-1,-1.0342E0,1.1322E0,1.9805E0,-2.484E0,-1.5138E0,-1.189E0,-8.277E-1,1.357E-1,3.384E-1,8.81E-2,4.57E-1,-3.021E-1,1.1025E0,-1.519E0,-2.513E-1,2.1E-2,3.8573189E0,9.6082956E-1,6.3658004E0,-1.0455E0,1.6653E0,-1.804E0,1.0238E0,-5.224E-1,6.82E-2,1.222E-1,-2.292E-1,-1.9391E0,3.312E-1,1.294E-1,-1.38E0,3.3138802E0,-2.775E-1,-1.2516E0,1.6371139E0,-1.2517384E0,9.706E-1,6.61E-1,4.6306534E0,5.262E-1,1.0286E0,5.627E-1,4.737344E0,-4.159E-1,-1.3668E0,-3.954E-1,-2.378E-1,-3.896E-1,-2.3812218E-1,-2.978735E0,-1.1347E0,-4.98E-2,2.6697118E0,6.9088364E0,6.648E-1,-4.171E-1,-1.7129879E-1,1.9116859E-1,7.53E-2,1.039E-1,-1.91E-1,1.0204E0,-6.002E-1,-8.8E-2,3.329E-1,-3.858E-1,1.236E-1,-8.037E-1,-1.5218E0,-1.694E-1,-3.1298048E0,-1.9411564E-1,-8.93E-1,-3.97E-2,2.344E-1,5.449E-1,3.5E-3,1.342E0,-6.234E-1,1.2061E0,6.495E-1,-7.662E-1,5.517626E-1,2.3916473E0,2.8162107E-1,-3.499E-1,-1.305E-1,1.0331E0,-1.21E-2,-4.672E-1,-3.6037818E-1,4.0832934E0,-5.1965237E-1,-2.8424797E0,2.915466E0,2.707841E-1,-3.627278E0,-1.6762257E0,-1.1999353E0,1.2089163E0,-2.4112477E0,1.6228658E-1,-4.16276E0,-1.4324471E0,-2.3197614E-1,9.71595E-1,-2.3369708E0,-4.0785167E-1,3.0403376E0,-6.9306844E-1,1.5576088E0,5.3561645E0,1.2094625E0,-1.7757536E0,-7.362324E-1,-3.7576149E0,1.79275E0,-8.235532E-1,3.8524995E0,1.0334139E0,-1.9977715E0,-1.4960992E-1,-9.661957E-2,3.4435909E0,-1.366826E0,2.4160526E0,2.4130447E0,-2.7967116E-1,2.3360693E0,-1.1012554E0,-2.362229E0,1.9637111E0,-2.0771244E0,8.8593054E-1,-4.776779E-1,-1.1646729E-1,1.0190777E0,4.287686E0,1.5698863E0,-2.085505E0,3.365181E0,1.6592118E-1,1.405836E0,-1.6733723E0],"split_indices":[49,118,284,58,8,229,161,36,0,172,142,284,266,266,194,1,63,0,0,0,0,7,283,254,212,131,163,6,8,223,154,0,0,111,132,0,0,229,130,0,170,4,0,0,292,159,72,237,193,0,0,0,1,0,0,274,168,0,0,75,127,2,148,11,243,82,0,48,13,60,1,0,0,3,33,3,104,223,11,16,130,10,84,0,0,0,0,183,130,57,176,0,0,0,0,0,0,0,0,0,0,0,0,0,0,0,0,0,0,0,0,0,0,0,0,0,0,0,0,0,0,0,0,0,0,0,0,0,0,0,0,0,0,0,0,0,0,0,0,0,0,0,0,0,0],"split_type":[0,0,0,0,0,0,0,0,0,0,0,0,0,0,0,0,0,0,0,0,0,0,0,0,0,0,0,0,0,0,0,0,0,0,0,0,0,0,0,0,0,0,0,0,0,0,0,0,0,0,0,0,0,0,0,0,0,0,0,0,0,0,0,0,0,0,0,0,0,0,0,0,0,0,0,0,0,0,0,0,0,0,0,0,0,0,0,0,0,0,0,0,0,0,0,0,0,0,0,0,0,0,0,0,0,0,0,0,0,0,0,0,0,0,0,0,0,0,0,0,0,0,0,0,0,0,0,0,0,0,0,0,0,0,0,0,0,0,0,0,0,0,0,0,0],"sum_hessian":[1.522E3,6.77E2,8.45E2,2.12E2,4.65E2,7.09E2,1.36E2,2.08E2,4E0,1.1E1,4.54E2,5.6E1,6.53E2,1.4E1,1.22E2,6E0,2.02E2,3E0,1E0,6E0,5E0,2.54E2,2E2,3.8E1,1.8E1,2.46E2,4.07E2,8E0,6E0,1.1E1,1.11E2,2E0,4E0,9.8E1,1.04E2,3E0,2E0,2.32E2,2.2E1,3E0,1.97E2,3.5E1,3E0,3E0,1.5E1,1.46E2,1E2,2.57E2,1.5E2,1E0,7E0,2E0,4E0,3E0,8E0,6.8E1,4.3E1,1E0,1E0,3.5E1,6.3E1,5E0,9.9E1,1.92E2,4E1,1.7E1,5E0,1.28E2,6.9E1,3E1,5E0,2E0,1E0,7E0,8E0,5E0,1.41E2,2.9E1,7.1E1,1.34E2,1.23E2,4.8E1,1.02E2,1E0,1E0,2E0,2E0,5.2E1,1.6E1,1.5E1,2.8E1,2.9E1,6E0,3E1,3.3E1,2E0,3E0,5.1E1,4.8E1,3.1E1,1.61E2,2.2E1,1.8E1,1E1,7E0,3E0,2E0,8.7E1,4.1E1,9E0,6E1,1E0,2.9E1,3E0,2E0,1E0,6E0,3E0,5E0,4E0,1E0,1.13E2,2.8E1,9E0,2E1,5.9E1,1.2E1,2.4E1,1.1E2,1.11E2,1.2E1,4.4E1,4E0,2.2E1,8E1,1E0,1E0,1.1E1,4.1E1,1.3E1,3E0,1.1E1,4E0,1E1,1.8E1],"tree_param":{"num_deleted":"0","num_feature":"311","num_nodes":"145","size_leaf_vector":"1"}},{"base_weights":[8.955235E-2,-1.2966231E1,9.930115E0,3.3237898E0,-2.270862E1,3.2166378E1,-1.6128172E0,-2.616772E1,1.8229105E1,-1.5032433E1,-4.2751053E1,4.469915E1,9.162049E0,-1.43814535E1,1.2972315E1,-3.055437E0,-6.909903E1,3.680213E1,-2.4853443E1,-4.0095192E1,-7.305683E0,-4.792894E1,3.1199835E1,1.4614945E1,5.6670074E1,3.0086918E1,-2.4745348E1,1.550742E1,-2.0704052E1,-1.4965211E0,3.6165077E1,1.9333649E1,-4.3203022E1,-2.0039875E1,-8.1025764E1,4.6751053E1,-3.8311577E1,4.653785E1,-3.7557556E1,-1.1762207E1,-5.462192E1,-2.5466623E1,6.474766E0,-6.5870026E1,-2.8745028E1,4.696046E1,-1.978114E0,-5.696966E0,7.59576E1,6.994621E1,2.8885834E1,-1.414929E1,5.5701637E1,5.4660084E1,-3.7292217E1,3.511369E1,-3.7809795E1,3.3735352E0,-2.9220064E1,6.672213E1,-8.21878E0,-1.0959117E1,4.9850273E1,5.4916035E1,-1.1878061E1,-7.398446E0,-6.64562E1,1.036784E0,-4.0497234E1,-1.6943444E0,-4.458311E0,2.3802307E1,7.646071E1,2.1164188E0,-3.9520962E0,3.1961641E0,-3.7456257E0,-5.4213108E1,2.282707E1,-4.439784E1,2.729288E1,-6.442834E1,2.1492226E1,-3.2260307E1,4.605468E1,4.783544E1,-4.2225003E0,-8.775677E0,-7.1516884E1,8.964578E0,-4.1224766E1,2.8313477E0,7.598078E-1,-1.9564987E1,4.154166E0,8.915433E1,-2.148496E0,1.0570186E1,7.958315E1,3.507599E-2,6.035779E1,4.197602E1,-3.83078E1,7.432449E1,2.950795E0,4.617039E0,-1.3800873E1,2.2010254E1,-5.236558E1,5.3792717E1,-2.630267E1,2.0751297E0,-6.1096443E1,2.2716778E1,-2.800299E1,-3.547027E1,1.0847349E1,-2.32679E-1,7.8060974E1,-9.744159E-1,-5.5982857E1,2.250105E1,-5.25485E1,1.2193553E1,6.5771126E1,6.745825E-1,4.128197E0,-2.1589031E0,1.1869873E0,1.2302372E0,-1.3750416E0,-1.6701642E-1,-3.5945172E0,-2.630971E0,-7.4379843E-1,4.9009833E-1,5.024644E0,-7.0290387E-1,4.171346E0,1.2567943E0,-8.36122E-1,1.1277523E-1,-3.9369717E-1,-3.192756E0,1.7032868E0,-1.7584122E0,2.6353118E0,-2.9137113E0,-8.091807E-1,-1.0717453E0,2.2958565E0,-3.5437858E0,6.464456E-1,-7.4221367E-1,1.586419E0,-2.57611E0,2.4319386E-1,3.8780506E0,2.6687065E-1,3.8234067E0,5.559034E-1,2.8234265E0,-6.706098E-1,8.038601E-1,-1.2610708E0,-3.7584474E0,-5.819456E-1,-2.1514184E0,1.7032298E0,-7.1985096E-1,-3.1260164E0,1.2042522E0,-2.1613204E0,2.6378284E0,5.380804E0,-1.5160237E-1,-9.534836E-3,3.675333E0,-1.6280965E0,4.775959E-1,4.260415E0,-7.259177E-1,3.0576234E0,4.1683517E0,-7.447345E-1,2.6297977E0,-8.0908793E-1,-5.074622E-1,-2.5770655E0,4.129778E0,-1.0770588E-1,-1.922459E0,1.9007473E0,-1.204257E0,1.6919155E-1,-1.7613868E-1,2.4211986E0,-6.5856606E-1,-3.1008751E0,3.5572312E0,-2.4935451E-1,-2.0293674E0,1.027868E0,-3.8341718E0,-5.375797E-1,3.3420613E0,2.4517727E-1,-1.9510224E0,3.4735482E0,-1.8929917E0,3.419124E0,1.5809044E0,-2.5023618E0,4.193669E0,1.5364269E0,-7.1127206E-1,1.0305042E0,-3.2229462E0,6.767248E-1,5.114873E-2,2.5483997E0,-3.2421863E0,-7.4104655E-1,-2.2507534E0,1.6314324E0,4.1732976E-1,3.9036636E0],"categories":[],"categories_nodes":[],"categories_segments":[],"categories_sizes":[],"default_left":[0,0,0,0,0,0,0,0,0,0,0,0,0,0,0,0,0,0,0,0,0,0,0,0,0,0,0,0,0,0,0,0,0,0,0,0,0,0,0,0,0,0,0,0,0,0,0,0,0,0,0,0,0,0,0,0,0,0,0,0,0,0,0,0,0,0,0,0,0,0,0,0,0,0,0,0,0,0,0,0,0,0,0,0,0,0,0,0,0,0,0,0,0,0,0,0,0,0,0,0,0,0,0,0,0,0,0,0,0,0,0,0,0,0,0,0,0,0,0,0,0,0,0,0,0,0,0,0,0,0,0,0,0,0,0,0,0,0,0,0,0,0,0,0,0,0,0,0,0,0,0,0,0,0,0,0,0,0,0,0,0,0,0,0,0,0,0,0,0,0,0,0,0,0,0,0,0,0,0,0,0,0,0,0,0,0,0,0,0,0,0,0,0,0,0,0,0,0,0,0,0,0,0,0,0,0,0,0,0,0,0,0,0,0,0,0,0,0,0,0,0,0,0,0,0,0,0],"id":4,"left_children":[1,3,5,7,9,11,13,15,17,19,21,23,25,27,29,31,33,35,37,39,41,43,45,47,49,51,53,55,57,59,61,63,65,67,69,71,73,75,77,79,81,83,85,87,89,91,-1,93,95,97,99,101,103,105,107,109,111,113,115,117,119,121,123,125,127,129,131,-1,133,-1,-1,135,137,139,-1,-1,141,143,145,147,149,151,153,155,157,159,161,163,165,167,169,-1,-1,171,-1,173,175,177,179,181,183,185,187,189,191,-1,193,195,197,199,201,-1,203,205,207,209,211,-1,213,215,217,219,221,223,225,-1,-1,-1,-1,-1,-1,-1,-1,-1,-1,-1,-1,-1,-1,-1,-1,-1,-1,-1,-1,-1,-1,-1,-1,-1,-1,-1,-1,-1,-1,-1,-1,-1,-1,-1,-1,-1,-1,-1,-1,-1,-1,-1,-1,-1,-1,-1,-1,-1,-1,-1,-1,-1,-1,-1,-1,-1,-1,-1,-1,-1,-1,-1,-1,-1,-1,-1,-1,-1,-1,-1,-1,-1,-1,-1,-1,-1,-1,-1,-1,-1,-1,-1,-1,-1,-1,-1,-1,-1,-1,-1,-1,-1,-1,-1,-1,-1,-1,-1,-1,-1,-1],"loss_changes":[1.957981E5,1.0402642E5,2.2309953E5,1.0861375E5,6.243561E4,8.521797E4,1.0689763E5,8.214484E4,1.3214311E5,5.741586E4,4.476414E4,6.831781E4,7.5952336E4,5.8147527E4,8.9987484E4,5.0272996E4,1.5344594E4,8.7730625E4,4.7096008E4,2.8168508E4,5.7475785E4,3.458964E4,1.0779906E4,7.0207984E4,4.8514344E4,7.557261E4,4.2886266E4,5.7776633E4,5.197497E4,7.667322E4,6.697141E4,4.063343E4,1.6159734E4,6.6788594E3,5.8042812E3,6.772359E4,2.3220332E4,7.2330312E3,4.4484305E4,3.307643E4,3.5719438E4,4.958915E4,5.816243E4,1.6782219E4,2.5311684E4,1.288833E3,0E0,5.4567418E4,1.4621977E4,5.18015E4,4.1765418E4,3.55056E4,4.104028E4,1.6752322E4,3.333254E4,4.730281E4,3.0239455E4,4.130003E4,4.721508E4,1.2503031E4,5.254054E4,3.4580504E4,4.716017E4,1.8356137E4,2.3321785E4,6.4667153E3,3.875629E3,0E0,7.7016406E2,0E0,0E0,6.2362926E4,2.8918031E4,3.889617E3,0E0,0E0,9.2083435E1,3.1115578E4,1.9182102E4,4.5380703E3,1.187445E4,2.1365172E4,2.702661E3,6.5323062E4,1.11316875E4,2.7535387E4,5.931923E4,2.8578337E3,9.840344E3,1.9736076E4,2.1952367E4,0E0,0E0,4.028833E4,0E0,2.3861484E3,4.611247E0,4.0397684E4,3.0307062E4,2.3124523E4,3.933478E4,5.7921494E3,6.1843535E3,1.9787281E4,1.8881504E4,0E0,6.1169635E2,5.5659644E3,1.0153836E4,3.1973E4,7.528173E3,0E0,8.59223E3,3.2684201E4,3.0632574E4,4.279133E4,3.446786E4,0E0,9.991875E2,3.8333414E4,1.2657098E4,8.507672E3,4.1415137E3,3.069537E4,3.8909266E4,0E0,0E0,0E0,0E0,0E0,0E0,0E0,0E0,0E0,0E0,0E0,0E0,0E0,0E0,0E0,0E0,0E0,0E0,0E0,0E0,0E0,0E0,0E0,0E0,0E0,0E0,0E0,0E0,0E0,0E0,0E0,0E0,0E0,0E0,0E0,0E0,0E0,0E0,0E0,0E0,0E0,0E0,0E0,0E0,0E0,0E0,0E0,0E0,0E0,0E0,0E0,0E0,0E0,0E0,0E0,0E0,0E0,0E0,0E0,0E0,0E0,0E0,0E0,0E0,0E0,0E0,0E0,0E0,0E0,0E0,0E0,0E0,0E0,0E0,0E0,0E0,0E0,0E0,0E0,0E0,0E0,0E0,0E0,0E0,0E0,0E0,0E0,0E0,0E0,0E0,0E0,0E0,0E0,0E0,0E0,0E0,0E0,0E0,0E0,0E0,0E0,0E0],"parents":[2147483647,0,0,1,1,2,2,3,3,4,4,5,5,6,6,7,7,8,8,9,9,10,10,11,11,12,12,13,13,14,14,15,15,16,16,17,17,18,18,19,19,20,20,21,21,22,22,23,23,24,24,25,25,26,26,27,27,28,28,29,29,30,30,31,31,32,32,33,33,34,34,35,35,36,36,37,37,38,38,39,39,40,40,41,41,42,42,43,43,44,44,45,45,47,47,48,48,49,49,50,50,51,51,52,52,53,53,54,54,55,55,56,56,57,57,58,58,59,59,60,60,61,61,62,62,63,63,64,64,65,65,66,66,68,68,71,71,72,72,73,73,76,76,77,77,78,78,79,79,80,80,81,81,82,82,83,83,84,84,85,85,86,86,87,87,88,88,89,89,90,90,93,93,95,95,96,96,97,97,98,98,99,99,100,100,101,101,102,102,103,103,104,104,106,106,107,107,108,108,109,109,110,110,112,112,113,113,114,114,115,115,116,116,118,118,119,119,120,120,121,121,122,122,123,123,124,124],"right_children":[2,4,6,8,10,12,14,16,18,20,22,24,26,28,30,32,34,36,38,40,42,44,46,48,50,52,54,56,58,60,62,64,66,68,70,72,74,76,78,80,82,84,86,88,90,92,-1,94,96,98,100,102,104,106,108,110,112,114,116,118,120,122,124,126,128,130,132,-1,134,-1,-1,136,138,140,-1,-1,142,144,146,148,150,152,154,156,158,160,162,164,166,168,170,-1,-1,172,-1,174,176,178,180,182,184,186,188,190,192,-1,194,196,198,200,202,-1,204,206,208,210,212,-1,214,216,218,220,222,224,226,-1,-1,-1,-1,-1,-1,-1,-1,-1,-1,-1,-1,-1,-1,-1,-1,-1,-1,-1,-1,-1,-1,-1,-1,-1,-1,-1,-1,-1,-1,-1,-1,-1,-1,-1,-1,-1,-1,-1,-1,-1,-1,-1,-1,-1,-1,-1,-1,-1,-1,-1,-1,-1,-1,-1,-1,-1,-1,-1,-1,-1,-1,-1,-1,-1,-1,-1,-1,-1,-1,-1,-1,-1,-1,-1,-1,-1,-1,-1,-1,-1,-1,-1,-1,-1,-1,-1,-1,-1,-1,-1,-1,-1,-1,-1,-1,-1,-1,-1,-1,-1,-1],"split_conditions":[-1.087E-1,-3.277E-1,-1.75E-1,-4.226E-1,4.44E-2,1.33E-1,2.449E-1,7.154E-1,4.345E-1,-6.578E-1,1.376E0,-4.361E-1,3.818E-1,-6.886E-1,8.41E-2,-1.223E-1,-7.616E-1,1.3306E0,-1.1515E0,-3.631E-1,-1.932E-1,-7.958E-1,2.0361E0,8.329E-1,1.512E-1,-3.116E-1,-7.411E-1,4.213E-1,-5.38E-1,-1.299E0,-2.892E-1,-5.858E-1,-3.387E-1,-1.2574E0,-4.448E-1,5.52E-1,-3.37E-1,-9.4E-3,7.781E-1,-3.061E-1,5.577E-1,9.912E-1,-5.685E-1,-1.1019E0,-6.798E-1,9.13E-2,-1.978114E0,5.646E-1,1.659E-1,-1.0713E0,3.994E-1,1.213E-1,1.447E-1,-3.43E-1,-9.4E-1,3.283E-1,-1.4852E0,2.059E-1,4.204E-1,-2.1389E0,1.2641E0,4.01E-1,-5E-1,6.302E-1,-3.012E-1,-5.176E-1,-1.38E0,1.036784E0,8E-4,-1.6943444E0,-4.458311E0,1.0162E0,-1.576E-1,5.145E-1,-3.9520962E0,3.1961641E0,-4.855E-1,9.591E-1,-5.389E-1,4.08E-1,1.514E-1,1.6604E0,5.008E-1,6.964E-1,-4.04E-2,-4.969E-1,-8.575E-1,-7.624E-1,1.4062E0,-6.549E-1,-2.018E-1,2.8313477E0,7.598078E-1,-4.695E-1,4.154166E0,-1.719E-1,5.95E-2,-4.275E-1,-1.622E0,5.42E-1,4.361E-1,2.248E-1,-6.185E-1,1.0385E0,5.306E-1,4.617039E0,-9.477E-1,-5.19E-1,-1.4366E0,-7.88E-2,-3.118E-1,2.0751297E0,1.904E-1,-3.223E-1,9.117E-1,1.8686E0,5.235E-1,-2.32679E-1,2.498E-1,1.1242E0,1.0272E0,3.598E-1,3.02E-1,-2E-1,-6.179E-1,6.745825E-1,4.128197E0,-2.1589031E0,1.1869873E0,1.2302372E0,-1.3750416E0,-1.6701642E-1,-3.5945172E0,-2.630971E0,-7.4379843E-1,4.9009833E-1,5.024644E0,-7.0290387E-1,4.171346E0,1.2567943E0,-8.36122E-1,1.1277523E-1,-3.9369717E-1,-3.192756E0,1.7032868E0,-1.7584122E0,2.6353118E0,-2.9137113E0,-8.091807E-1,-1.0717453E0,2.2958565E0,-3.5437858E0,6.464456E-1,-7.4221367E-1,1.586419E0,-2.57611E0,2.4319386E-1,3.8780506E0,2.6687065E-1,3.8234067E0,5.559034E-1,2.8234265E0,-6.706098E-1,8.038601E-1,-1.2610708E0,-3.7584474E0,-5.819456E-1,-2.1514184E0,1.7032298E0,-7.1985096E-1,-3.1260164E0,1.2042522E0,-2.1613204E0,2.6378284E0,5.380804E0,-1.5160237E-1,-9.534836E-3,3.675333E0,-1.6280965E0,4.775959E-1,4.260415E0,-7.259177E-1,3.0576234E0,4.1683517E0,-7.447345E-1,2.6297977E0,-8.0908793E-1,-5.074622E-1,-2.5770655E0,4.129778E0,-1.0770588E-1,-1.922459E0,1.9007473E0,-1.204257E0,1.6919155E-1,-1.7613868E-1,2.4211986E0,-6.5856606E-1,-3.1008751E0,3.5572312E0,-2.4935451E-1,-2.0293674E0,1.027868E0,-3.8341718E0,-5.375797E-1,3.3420613E0,2.4517727E-1,-1.9510224E0,3.4735482E0,-1.8929917E0,3.419124E0,1.5809044E0,-2.5023618E0,4.193669E0,1.5364269E0,-7.1127206E-1,1.0305042E0,-3.2229462E0,6.767248E-1,5.114873E-2,2.5483997E0,-3.2421863E0,-7.4104655E-1,-2.2507534E0,1.6314324E0,4.1732976E-1,3.9036636E0],"split_indices":[170,197,229,4,230,179,284,206,142,294,88,73,113,108,286,72,101,23,135,10,137,118,1,153,85,102,251,53,258,165,80,79,173,0,40,94,117,9,68,111,183,232,290,112,124,5,0,158,103,49,260,185,50,1,142,268,39,237,227,144,147,106,164,133,171,17,0,0,0,0,0,176,220,19,0,0,0,135,10,164,124,60,0,53,6,75,81,5,54,259,72,0,0,35,0,46,0,293,183,94,301,3,63,184,224,0,0,15,91,163,30,0,186,134,132,84,208,0,64,183,31,52,197,222,183,0,0,0,0,0,0,0,0,0,0,0,0,0,0,0,0,0,0,0,0,0,0,0,0,0,0,0,0,0,0,0,0,0,0,0,0,0,0,0,0,0,0,0,0,0,0,0,0,0,0,0,0,0,0,0,0,0,0,0,0,0,0,0,0,0,0,0,0,0,0,0,0,0,0,0,0,0,0,0,0,0,0,0,0,0,0,0,0,0,0,0,0,0,0,0,0,0,0,0,0,0,0],"split_type":[0,0,0,0,0,0,0,0,0,0,0,0,0,0,0,0,0,0,0,0,0,0,0,0,0,0,0,0,0,0,0,0,0,0,0,0,0,0,0,0,0,0,0,0,0,0,0,0,0,0,0,0,0,0,0,0,0,0,0,0,0,0,0,0,0,0,0,0,0,0,0,0,0,0,0,0,0,0,0,0,0,0,0,0,0,0,0,0,0,0,0,0,0,0,0,0,0,0,0,0,0,0,0,0,0,0,0,0,0,0,0,0,0,0,0,0,0,0,0,0,0,0,0,0,0,0,0,0,0,0,0,0,0,0,0,0,0,0,0,0,0,0,0,0,0,0,0,0,0,0,0,0,0,0,0,0,0,0,0,0,0,0,0,0,0,0,0,0,0,0,0,0,0,0,0,0,0,0,0,0,0,0,0,0,0,0,0,0,0,0,0,0,0,0,0,0,0,0,0,0,0,0,0,0,0,0,0,0,0,0,0,0,0,0,0,0,0,0,0,0,0,0,0,0,0,0,0],"sum_hessian":[1.522E3,6.54E2,8.68E2,2.45E2,4.09E2,2.96E2,5.72E2,8.2E1,1.63E2,2.97E2,1.12E2,1.91E2,1.05E2,3.05E2,2.67E2,5.4E1,2.8E1,1.14E2,4.9E1,6.9E1,2.28E2,1.05E2,7E0,5.5E1,1.36E2,6.5E1,4E1,5.3E1,2.52E2,1.65E2,1.02E2,3.5E1,1.9E1,6E0,2.2E1,1.01E2,1.3E1,7E0,4.2E1,2.4E1,4.5E1,9.8E1,1.3E2,5.3E1,5.2E1,6E0,1E0,4.2E1,1.3E1,9.1E1,4.5E1,2.4E1,4.1E1,5E0,3.5E1,3.9E1,1.4E1,6.6E1,1.86E2,1.4E1,1.51E2,2.3E1,7.9E1,1.6E1,1.9E1,8E0,1.1E1,2E0,4E0,4E0,1.8E1,5.8E1,4.3E1,7E0,6E0,5E0,2E0,3.3E1,9E0,1.3E1,1.1E1,4E1,5E0,9E1,8E0,2.6E1,1.04E2,5E0,4.8E1,1.3E1,3.9E1,4E0,2E0,3.7E1,5E0,1.1E1,2E0,1.3E1,7.8E1,2.4E1,2.1E1,7E0,1.7E1,3E1,1.1E1,3E0,2E0,7E0,2.8E1,3E1,9E0,3E0,1.1E1,4.1E1,2.5E1,1.61E2,2.5E1,2E0,1.2E1,1.32E2,1.9E1,1.3E1,1E1,2.4E1,5.5E1,7E0,9E0,1E1,9E0,3E0,5E0,1E0,1E1,2E0,2E0,5E1,8E0,3E0,4E1,3E0,4E0,1E0,1E0,3E1,3E0,3E0,6E0,8E0,5E0,3E0,8E0,3.7E1,3E0,1E0,4E0,5.9E1,3.1E1,4E0,4E0,1.4E1,1.2E1,1.3E1,9.1E1,2E0,3E0,4.5E1,3E0,4E0,9E0,1.8E1,2.1E1,1.3E1,2.4E1,5E0,6E0,1E0,1E0,5E0,8E0,6E0,7.2E1,2E1,4E0,1.6E1,5E0,6E0,1E0,6E0,1.1E1,2.7E1,3E0,5E0,6E0,1E0,1E0,4E0,3E0,6E0,2.2E1,2.3E1,7E0,7E0,2E0,8E0,3E0,1.1E1,3E1,2.3E1,2E0,1.58E2,3E0,1.9E1,6E0,1E1,2E0,8.2E1,5E1,1.7E1,2E0,8E0,5E0,7E0,3E0,6E0,1.8E1,1E1,4.5E1],"tree_param":{"num_deleted":"0","num_feature":"311","num_nodes":"227","size_leaf_vector":"1"}},{"base_weights":[1.0819584E-1,-1.2324787E1,9.479307E0,3.154302E0,-2.158218E1,3.0653679E1,-1.5124338E0,-2.496254E1,1.7364933E1,-1.42680855E1,-4.0679684E1,4.2587082E1,8.74927E0,-1.3643675E1,1.2344552E1,-2.9040375E0,-6.593685E1,3.5009434E1,-2.3564718E1,-2.9531261E1,-2.118342E0,-4.5618267E1,2.9841475E1,1.4081602E1,5.3928104E1,2.8624035E1,-2.3457651E1,1.0670869E1,-2.103518E1,-1.4019923E0,3.4379326E1,1.847338E1,-4.1238186E1,-1.937188E1,-7.724198E1,4.450157E1,-3.6648243E1,4.4575363E1,-3.5693924E1,-3.6237926E1,4.0555214E1,9.111887E0,-3.5758595E1,-6.266537E1,-2.7388798E1,4.512546E1,-1.928661E0,-5.3377657E0,7.272098E1,6.652265E1,2.7566658E1,-1.3492377E1,5.3011803E1,5.252408E1,-3.5469673E1,5.7253548E1,-1.560356E0,-3.1038666E0,-3.361658E1,6.375252E1,-7.82249E0,-1.0468814E1,4.740403E1,5.2452747E1,-1.1332752E1,-5.0673622E1,1.4560245E0,1.0022247E0,-3.9147327E1,-1.6265706E0,-4.247128E0,-1.0528277E1,5.5631405E1,2.0631819E0,-3.7827206E0,3.0629904E0,-3.6519852E0,-5.154626E1,2.1773407E1,-3.8801044E1,3.8755918E0,6.7690674E1,-1.0972569E1,-2.6826384E1,2.0622038E1,-5.1654057E1,1.3733536E1,-8.413096E0,-6.802962E1,-9.447187E0,-5.224074E1,2.7180939E0,7.344808E-1,-1.8611923E1,3.981076E0,8.536484E1,-2.0947826E0,1.0187907E1,7.566396E1,1.2659027E-1,5.7495525E1,4.010481E1,-3.6563774E1,7.0738014E1,2.801448E0,4.4439006E0,-1.3455852E1,2.119037E1,-4.9876934E1,-2.7111721E1,8.060417E1,-1.4022841E1,4.7381077E1,1.7579916E1,-2.9968702E1,-3.5752045E1,3.7198353E0,-2.2492294E-1,7.459871E1,-9.232934E-1,-5.3311028E1,2.1561682E1,-5.0283188E1,1.1559098E1,6.255973E1,3.3587384E0,-6.09376E-1,-2.060771E0,1.1335729E0,-8.305937E-1,-3.3160088E0,-2.543272E0,-7.190052E-1,3.2015426E0,-1.4854414E0,3.1990268E0,-1.6363262E0,1.2096646E0,-8.026771E-1,1.0995579E-1,-3.838547E-1,-3.0382679E0,1.6394135E0,-1.6924715E0,2.52237E0,-8.670832E-1,-2.535718E0,8.36084E-1,3.6291578E0,-1.5256599E0,6.112792E-1,7.0907444E-1,-2.6736245E0,-7.003831E-1,1.7543662E0,1.2249403E0,-3.1703997E0,-2.0658026E0,1.9770819E0,7.770647E-1,-1.2137808E0,-3.5746105E0,-5.601226E-1,1.9124651E0,-1.09626E0,4.0337774E-1,-3.1093857E0,7.8161794E-1,-2.353894E0,2.5279186E0,5.150199E0,-1.4781228E-1,-9.296417E-3,3.522194E0,-1.5557365E0,4.0311623E0,9.4441034E-2,2.9557445E0,-6.9621354E-1,3.972194E0,-7.137039E-1,2.5170925E0,-7.888609E-1,-4.8571387E-1,-2.4589498E0,4.0699444E0,6.3756126E-1,-1.8423566E0,1.819287E0,-1.1741507E0,1.6496181E-1,-1.6909318E-1,2.3304036E0,-1.2740754E0,-3.2799165E0,-1.7230905E0,-1.2653637E-1,4.2868166E0,6.037615E-1,3.7929344E0,-9.8516625E-1,2.9476817E0,-3.4939003E-1,1.4964437E0,-2.5117264E0,-2.2892523E0,1.340187E0,-1.5585885E0,-4.024196E0,4.0030475E0,1.4852127E0,4.4928476E-1,-1.3936057E0,-3.2728307E0,-1.8914704E-1,-4.400912E-1,1.9704138E0,-3.2569432E0,-9.714306E-1,-2.1542926E0,1.5541538E0,3.4840374E0,-1.20054E0],"categories":[],"categories_nodes":[],"categories_segments":[],"categories_sizes":[],"default_left":[0,0,0,0,0,0,0,0,0,0,0,0,0,0,0,0,0,0,0,0,0,0,0,0,0,0,0,0,0,0,0,0,0,0,0,0,0,0,0,0,0,0,0,0,0,0,0,0,0,0,0,0,0,0,0,0,0,0,0,0,0,0,0,0,0,0,0,0,0,0,0,0,0,0,0,0,0,0,0,0,0,0,0,0,0,0,0,0,0,0,0,0,0,0,0,0,0,0,0,0,0,0,0,0,0,0,0,0,0,0,0,0,0,0,0,0,0,0,0,0,0,0,0,0,0,0,0,0,0,0,0,0,0,0,0,0,0,0,0,0,0,0,0,0,0,0,0,0,0,0,0,0,0,0,0,0,0,0,0,0,0,0,0,0,0,0,0,0,0,0,0,0,0,0,0,0,0,0,0,0,0,0,0,0,0,0,0,0,0,0,0,0,0,0,0,0,0,0,0,0,0,0,0,0,0,0,0,0,0,0,0,0,0,0,0,0,0,0,0,0,0,0,0],"id":5,"left_children":[1,3,5,7,9,11,13,15,17,19,21,23,25,27,29,31,33,35,37,39,41,43,45,47,49,51,53,55,57,59,61,63,65,67,69,71,73,75,77,79,81,83,85,87,89,91,-1,93,95,97,99,101,103,105,107,109,111,113,115,117,119,121,123,125,127,129,-1,-1,131,-1,-1,133,135,137,-1,-1,139,141,143,145,-1,147,149,151,153,155,157,159,161,163,165,-1,-1,167,-1,169,171,173,175,177,179,181,183,185,187,-1,189,191,193,195,197,199,201,203,205,207,-1,-1,209,211,213,215,217,219,221,-1,-1,-1,-1,-1,-1,-1,-1,-1,-1,-1,-1,-1,-1,-1,-1,-1,-1,-1,-1,-1,-1,-1,-1,-1,-1,-1,-1,-1,-1,-1,-1,-1,-1,-1,-1,-1,-1,-1,-1,-1,-1,-1,-1,-1,-1,-1,-1,-1,-1,-1,-1,-1,-1,-1,-1,-1,-1,-1,-1,-1,-1,-1,-1,-1,-1,-1,-1,-1,-1,-1,-1,-1,-1,-1,-1,-1,-1,-1,-1,-1,-1,-1,-1,-1,-1,-1,-1,-1,-1,-1,-1,-1,-1,-1,-1,-1,-1],"loss_changes":[1.7756289E5,9.392696E4,2.0230019E5,9.872476E4,5.6688766E4,7.72615E4,9.649112E4,7.482658E4,1.19263055E5,5.5199664E4,4.071633E4,6.1310594E4,6.852258E4,5.5219105E4,8.1225945E4,4.5833484E4,1.3769945E4,7.9852125E4,4.291533E4,6.3515766E4,6.341638E4,3.1224188E4,1.0105828E4,6.4157586E4,4.3651625E4,6.850553E4,3.928347E4,4.1112285E4,5.2911914E4,6.9940555E4,6.0662023E4,3.7055E4,1.47529375E4,6.241022E3,5.155547E3,6.305797E4,2.1295871E4,6.6608945E3,4.0294965E4,3.8285625E4,1.7521502E4,5.267374E4,3.375081E4,1.5142891E4,2.313832E4,1.1692715E3,0E0,4.9975715E4,1.3422266E4,4.6606688E4,3.7770227E4,3.2380434E4,3.718347E4,1.5587705E4,3.0444297E4,3.173505E4,3.6040465E4,5.4982156E4,3.4490703E4,1.143952E4,4.7653605E4,3.169077E4,4.2737266E4,1.6996496E4,2.1257146E4,8.491379E3,0E0,0E0,7.196758E2,0E0,0E0,2.7643814E4,6.4799312E4,3.5957886E3,0E0,0E0,8.753676E1,2.8426977E4,1.7656902E4,2.954314E4,0E0,7.8120703E2,2.6395742E3,3.4632016E4,4.8580625E4,3.0196492E4,1.7261684E4,2.657136E3,8.840797E3,1.9883658E4,1.3699176E4,0E0,0E0,3.77782E4,0E0,2.15975E3,4.3835716E0,3.703407E4,2.8751594E4,2.1544043E4,3.578893E4,5.370785E3,5.619084E3,1.8125953E4,1.7319543E4,0E0,5.814939E2,5.154179E3,9.45082E3,6.354763E2,3.185125E3,2.5491486E4,7.9621973E3,4.8399977E4,3.98383E4,2.5355453E4,0E0,0E0,8.0977344E2,3.576618E4,1.1783336E4,7.9332573E3,3.7764648E3,2.8011406E4,3.6195438E4,0E0,0E0,0E0,0E0,0E0,0E0,0E0,0E0,0E0,0E0,0E0,0E0,0E0,0E0,0E0,0E0,0E0,0E0,0E0,0E0,0E0,0E0,0E0,0E0,0E0,0E0,0E0,0E0,0E0,0E0,0E0,0E0,0E0,0E0,0E0,0E0,0E0,0E0,0E0,0E0,0E0,0E0,0E0,0E0,0E0,0E0,0E0,0E0,0E0,0E0,0E0,0E0,0E0,0E0,0E0,0E0,0E0,0E0,0E0,0E0,0E0,0E0,0E0,0E0,0E0,0E0,0E0,0E0,0E0,0E0,0E0,0E0,0E0,0E0,0E0,0E0,0E0,0E0,0E0,0E0,0E0,0E0,0E0,0E0,0E0,0E0,0E0,0E0,0E0,0E0,0E0,0E0,0E0,0E0,0E0,0E0,0E0,0E0],"parents":[2147483647,0,0,1,1,2,2,3,3,4,4,5,5,6,6,7,7,8,8,9,9,10,10,11,11,12,12,13,13,14,14,15,15,16,16,17,17,18,18,19,19,20,20,21,21,22,22,23,23,24,24,25,25,26,26,27,27,28,28,29,29,30,30,31,31,32,32,33,33,34,34,35,35,36,36,37,37,38,38,39,39,40,40,41,41,42,42,43,43,44,44,45,45,47,47,48,48,49,49,50,50,51,51,52,52,53,53,54,54,55,55,56,56,57,57,58,58,59,59,60,60,61,61,62,62,63,63,64,64,65,65,68,68,71,71,72,72,73,73,76,76,77,77,78,78,79,79,81,81,82,82,83,83,84,84,85,85,86,86,87,87,88,88,89,89,90,90,93,93,95,95,96,96,97,97,98,98,99,99,100,100,101,101,102,102,103,103,104,104,106,106,107,107,108,108,109,109,110,110,111,111,112,112,113,113,114,114,115,115,118,118,119,119,120,120,121,121,122,122,123,123,124,124],"right_children":[2,4,6,8,10,12,14,16,18,20,22,24,26,28,30,32,34,36,38,40,42,44,46,48,50,52,54,56,58,60,62,64,66,68,70,72,74,76,78,80,82,84,86,88,90,92,-1,94,96,98,100,102,104,106,108,110,112,114,116,118,120,122,124,126,128,130,-1,-1,132,-1,-1,134,136,138,-1,-1,140,142,144,146,-1,148,150,152,154,156,158,160,162,164,166,-1,-1,168,-1,170,172,174,176,178,180,182,184,186,188,-1,190,192,194,196,198,200,202,204,206,208,-1,-1,210,212,214,216,218,220,222,-1,-1,-1,-1,-1,-1,-1,-1,-1,-1,-1,-1,-1,-1,-1,-1,-1,-1,-1,-1,-1,-1,-1,-1,-1,-1,-1,-1,-1,-1,-1,-1,-1,-1,-1,-1,-1,-1,-1,-1,-1,-1,-1,-1,-1,-1,-1,-1,-1,-1,-1,-1,-1,-1,-1,-1,-1,-1,-1,-1,-1,-1,-1,-1,-1,-1,-1,-1,-1,-1,-1,-1,-1,-1,-1,-1,-1,-1,-1,-1,-1,-1,-1,-1,-1,-1,-1,-1,-1,-1,-1,-1,-1,-1,-1,-1,-1,-1],"split_conditions":[-1.087E-1,-3.277E-1,-1.75E-1,-4.226E-1,4.44E-2,1.33E-1,2.449E-1,7.154E-1,4.345E-1,-8.28E-2,1.376E0,-4.361E-1,3.818E-1,-3.294E-1,8.41E-2,-1.223E-1,-7.616E-1,1.3306E0,-1.1515E0,1.4819E0,5.335E-1,-7.958E-1,2.0361E0,8.329E-1,1.512E-1,-3.116E-1,-7.411E-1,-1.2056E0,1.778E-1,-1.299E0,-2.892E-1,-5.858E-1,-1.148E-1,-1.2574E0,-4.448E-1,-7.305E-1,-3.37E-1,-9.4E-3,7.781E-1,2.5667E0,1.0144E0,-6.622E-1,3.88E-2,-1.1019E0,3.863E-1,9.13E-2,-1.928661E0,5.646E-1,1.659E-1,-1.0713E0,3.994E-1,1.213E-1,1.447E-1,-3.43E-1,-9.4E-1,-6.901E-1,1.1949E0,1.812E-1,1.6663E0,-2.1389E0,1.2641E0,4.01E-1,-5E-1,1.5931E0,-3.012E-1,-1.1126E0,1.4560245E0,1.0022247E0,8E-4,-1.6265706E0,-4.247128E0,-9.144E-1,1.6998E0,5.145E-1,-3.7827206E0,3.0629904E0,-4.855E-1,9.591E-1,-5.389E-1,-2.338E-1,3.8755918E0,-3.863E-1,1.8049E0,-4.89E-2,-7.575E-1,-7.026E-1,-3.643E-1,-7.624E-1,1.4062E0,-9.876E-1,-8.74E-1,2.7180939E0,7.344808E-1,5.4E-3,3.981076E0,-1.719E-1,5.95E-2,-4.275E-1,4.854E-1,-8.154E-1,4.361E-1,2.248E-1,-6.185E-1,1.3834E0,5.306E-1,4.4439006E0,-9.477E-1,-5.19E-1,-7.926E-1,6.44E-2,9.887E-1,-1.6085E0,5.759E-1,6.757E-1,9.086E-1,1.1975E0,3.7198353E0,-2.2492294E-1,2.498E-1,1.995E-1,4.695E-1,1.108E-1,1.305E-1,-2E-1,1.2374E0,3.3587384E0,-6.09376E-1,-2.060771E0,1.1335729E0,-8.305937E-1,-3.3160088E0,-2.543272E0,-7.190052E-1,3.2015426E0,-1.4854414E0,3.1990268E0,-1.6363262E0,1.2096646E0,-8.026771E-1,1.0995579E-1,-3.838547E-1,-3.0382679E0,1.6394135E0,-1.6924715E0,2.52237E0,-8.670832E-1,-2.535718E0,8.36084E-1,3.6291578E0,-1.5256599E0,6.112792E-1,7.0907444E-1,-2.6736245E0,-7.003831E-1,1.7543662E0,1.2249403E0,-3.1703997E0,-2.0658026E0,1.9770819E0,7.770647E-1,-1.2137808E0,-3.5746105E0,-5.601226E-1,1.9124651E0,-1.09626E0,4.0337774E-1,-3.1093857E0,7.8161794E-1,-2.353894E0,2.5279186E0,5.150199E0,-1.4781228E-1,-9.296417E-3,3.522194E0,-1.5557365E0,4.0311623E0,9.4441034E-2,2.9557445E0,-6.9621354E-1,3.972194E0,-7.137039E-1,2.5170925E0,-7.888609E-1,-4.8571387E-1,-2.4589498E0,4.0699444E0,6.3756126E-1,-1.8423566E0,1.819287E0,-1.1741507E0,1.6496181E-1,-1.6909318E-1,2.3304036E0,-1.2740754E0,-3.2799165E0,-1.7230905E0,-1.2653637E-1,4.2868166E0,6.037615E-1,3.7929344E0,-9.8516625E-1,2.9476817E0,-3.4939003E-1,1.4964437E0,-2.5117264E0,-2.2892523E0,1.340187E0,-1.5585885E0,-4.024196E0,4.0030475E0,1.4852127E0,4.4928476E-1,-1.3936057E0,-3.2728307E0,-1.8914704E-1,-4.400912E-1,1.9704138E0,-3.2569432E0,-9.714306E-1,-2.1542926E0,1.5541538E0,3.4840374E0,-1.20054E0],"split_indices":[170,197,229,4,230,179,284,206,142,106,88,73,113,105,286,72,101,23,135,53,190,118,1,153,85,102,251,165,91,165,80,79,79,0,40,60,117,9,68,160,20,294,277,112,132,5,0,158,103,49,260,185,50,1,142,30,199,237,261,144,147,106,164,47,171,56,0,0,0,0,0,90,291,19,0,0,0,135,10,17,0,2,3,273,5,36,27,5,54,96,273,0,0,291,0,46,0,293,53,107,301,3,63,185,224,0,0,15,91,0,4,254,15,297,55,98,0,0,64,94,18,84,13,222,75,0,0,0,0,0,0,0,0,0,0,0,0,0,0,0,0,0,0,0,0,0,0,0,0,0,0,0,0,0,0,0,0,0,0,0,0,0,0,0,0,0,0,0,0,0,0,0,0,0,0,0,0,0,0,0,0,0,0,0,0,0,0,0,0,0,0,0,0,0,0,0,0,0,0,0,0,0,0,0,0,0,0,0,0,0,0,0,0,0,0,0,0,0,0,0,0,0,0],"split_type":[0,0,0,0,0,0,0,0,0,0,0,0,0,0,0,0,0,0,0,0,0,0,0,0,0,0,0,0,0,0,0,0,0,0,0,0,0,0,0,0,0,0,0,0,0,0,0,0,0,0,0,0,0,0,0,0,0,0,0,0,0,0,0,0,0,0,0,0,0,0,0,0,0,0,0,0,0,0,0,0,0,0,0,0,0,0,0,0,0,0,0,0,0,0,0,0,0,0,0,0,0,0,0,0,0,0,0,0,0,0,0,0,0,0,0,0,0,0,0,0,0,0,0,0,0,0,0,0,0,0,0,0,0,0,0,0,0,0,0,0,0,0,0,0,0,0,0,0,0,0,0,0,0,0,0,0,0,0,0,0,0,0,0,0,0,0,0,0,0,0,0,0,0,0,0,0,0,0,0,0,0,0,0,0,0,0,0,0,0,0,0,0,0,0,0,0,0,0,0,0,0,0,0,0,0,0,0,0,0,0,0,0,0,0,0,0,0,0,0,0,0,0,0],"sum_hessian":[1.522E3,6.54E2,8.68E2,2.45E2,4.09E2,2.96E2,5.72E2,8.2E1,1.63E2,2.97E2,1.12E2,1.91E2,1.05E2,3.05E2,2.67E2,5.4E1,2.8E1,1.14E2,4.9E1,1.31E2,1.66E2,1.05E2,7E0,5.5E1,1.36E2,6.5E1,4E1,7.1E1,2.34E2,1.65E2,1.02E2,3.5E1,1.9E1,6E0,2.2E1,1.01E2,1.3E1,7E0,4.2E1,1.2E2,1.1E1,1.25E2,4.1E1,5.3E1,5.2E1,6E0,1E0,4.2E1,1.3E1,9.1E1,4.5E1,2.4E1,4.1E1,5E0,3.5E1,1.4E1,5.7E1,9.7E1,1.37E2,1.4E1,1.51E2,2.3E1,7.9E1,1.6E1,1.9E1,1.7E1,2E0,2E0,4E0,4E0,1.8E1,1.7E1,8.4E1,7E0,6E0,5E0,2E0,3.3E1,9E0,1.18E2,2E0,7E0,4E0,3E1,9.5E1,3.1E1,1E1,5E0,4.8E1,3.1E1,2.1E1,4E0,2E0,3.7E1,5E0,1.1E1,2E0,1.3E1,7.8E1,2.4E1,2.1E1,7E0,1.7E1,3E1,1.1E1,3E0,2E0,7E0,2.8E1,3E0,1.1E1,4.6E1,1.1E1,5.5E1,4.2E1,1.35E2,2E0,2E0,1.2E1,1.32E2,1.9E1,1.3E1,1E1,2.4E1,5.5E1,1.3E1,3E0,1E1,9E0,6E0,1.1E1,2E0,2E0,3E0,1.4E1,7.7E1,7E0,3E0,4E0,1E0,1E0,3E1,3E0,3E0,6E0,4.3E1,7.5E1,1E0,6E0,2E0,2E0,1.2E1,1.8E1,2.8E1,6.7E1,4E0,2.7E1,3E0,7E0,2E0,3E0,4.5E1,3E0,6E0,2.5E1,3E0,1.8E1,1.7E1,2E1,5E0,6E0,1E0,1E0,5E0,8E0,7.3E1,5E0,4E0,2E1,1.6E1,5E0,6E0,1E0,6E0,1.1E1,2.5E1,5E0,5E0,6E0,1E0,1E0,4E0,3E0,1.2E1,1.6E1,2E0,1E0,1E1,1E0,2E0,4.4E1,9E0,2E0,4.7E1,8E0,3.3E1,9E0,1.24E2,1.1E1,1E1,2E0,9.7E1,3.5E1,1.5E1,4E0,5E0,8E0,6E0,4E0,6E0,1.8E1,5.1E1,4E0],"tree_param":{"num_deleted":"0","num_feature":"311","num_nodes":"223","size_leaf_vector":"1"}},{"base_weights":[1.157704E-1,-2.196596E1,4.9775476E0,-7.8732215E-2,-2.9728529E1,1.5559112E1,-6.9441743E0,-3.2207157E1,1.8379698E1,-4.152524E1,-9.041799E0,2.3893925E1,-1.7613556E0,-1.7225807E1,9.020193E0,-4.4192715E1,2.3878982E0,-1.3930713E1,3.8914806E1,-3.1401934E1,-7.123022E1,2.927062E1,-2.4483122E1,3.6931274E1,9.00448E0,-5.2614226E0,7.932478E1,7.588899E0,-2.3828959E1,-1.9194094E1,1.8590265E1,-2.4215689E0,-6.1250153E1,-3.234695E1,2.2260977E1,-2.752634E0,4.791435E1,-4.8332985E1,-9.524436E0,2.5476558E0,-7.6233665E1,-2.4925829E1,6.870861E1,-3.5765152E1,3.590094E1,6.905219E1,2.8875992E1,4.204429E1,-2.6119047E-1,-4.310769E1,2.3815706E0,4.7275243E0,1.8327521E0,3.2498062E1,-1.6876154E1,-1.1234029E1,-3.590855E1,3.2770863E1,-3.608921E1,-1.2337821E1,2.7095243E1,-3.0648209E1,2.0644056E1,-3.3743057E0,-4.826815E-1,-5.2327633E1,-1.3318071E1,6.7720795E-1,3.0759045E1,5.981552E1,-3.7090073E0,4.8709173E0,-5.8848335E1,1.992033E1,-4.2722054E1,-5.057171E-1,6.967913E-1,-3.990368E0,-8.7339944E-1,2.3669285E1,-3.0633726E0,1.3723992E0,4.5532756E0,-4.284364E1,2.463494E0,-1.05288515E1,2.533536E0,-2.4071186E0,7.813688E1,1.051336E1,4.3364876E1,-3.6139789E0,6.89341E1,2.004963E1,-1.915194E1,-5.3122566E1,2.3894117E0,5.2004074E1,-4.769257E0,5.552746E1,-6.51551E0,-4.707333E1,8.597724E0,5.0822994E1,-1.7448929E1,-4.1606472E1,6.2883725E0,6.1588776E1,-1.4341259E-1,1.3480248E0,-5.485276E1,3.4174797E1,-3.255314E1,4.2403564E1,6.9979806E0,-2.3470937E-1,-1.886741E0,4.7812834E-1,1.6242504E0,-2.9138536E0,-5.6451094E-1,-1.5342205E-2,-8.802003E-1,-1.4207612E-1,1.9286671E-1,4.5196095E-1,1.6964598E0,4.0135002E-1,3.3785093E0,1.3447444E0,-1.2867339E0,-2.109026E0,1.5530804E0,-3.2446194E0,1.845675E-1,1.728734E0,-3.099755E0,-2.5666032E0,3.3517534E-1,1.3731156E-1,1.8351288E0,-2.6243453E0,7.12421E-1,-6.7723274E-1,-1.12431146E-1,4.936179E0,1.3485416E0,1.6055056E0,-4.938619E-1,-2.572855E-1,2.7990549E0,2.9686038E0,-1.2925428E0,4.116252E-1,4.7919097E0,2.1090102E0,-6.3739306E-1,-2.4308016E0,-2.0448439E-1,-5.1191145E-1,-3.4729125E0,3.683727E0,-9.0314645E-1,-6.54362E-1,2.2677715E0,3.8091457E0,2.3468342E-1,-2.4072852E0,6.4998114E-1,-3.3344986E0,-7.10814E-1,2.6656249E0,-7.9116684E-1,-4.4177523E-1,3.4802048E0,7.712185E-1,-1.6841344E0,-1.0720971E0,-2.699952E0,-9.8324347E-1,3.8849888E0,3.3581827E0,5.641171E-1,8.103571E-1,-6.597587E-1,1.4602449E0,-2.497379E0,-3.3569696E0,-1.5413933E0,2.5440643E0,3.0473098E-2,1.7007157E0,-2.4614105E0,1.422682E0,3.912421E0,1.4950751E0,-1.1051338E0],"categories":[],"categories_nodes":[],"categories_segments":[],"categories_sizes":[],"default_left":[0,0,0,0,0,0,0,0,0,0,0,0,0,0,0,0,0,0,0,0,0,0,0,0,0,0,0,0,0,0,0,0,0,0,0,0,0,0,0,0,0,0,0,0,0,0,0,0,0,0,0,0,0,0,0,0,0,0,0,0,0,0,0,0,0,0,0,0,0,0,0,0,0,0,0,0,0,0,0,0,0,0,0,0,0,0,0,0,0,0,0,0,0,0,0,0,0,0,0,0,0,0,0,0,0,0,0,0,0,0,0,0,0,0,0,0,0,0,0,0,0,0,0,0,0,0,0,0,0,0,0,0,0,0,0,0,0,0,0,0,0,0,0,0,0,0,0,0,0,0,0,0,0,0,0,0,0,0,0,0,0,0,0,0,0,0,0,0,0,0,0,0,0,0,0,0,0,0,0,0,0,0,0,0,0,0,0,0,0,0,0,0,0,0,0,0,0],"id":6,"left_children":[1,3,5,7,9,11,13,15,17,19,21,23,25,27,29,31,-1,33,35,37,39,41,43,45,47,49,51,53,55,57,59,61,63,65,67,-1,69,71,73,75,77,79,81,83,85,87,89,91,93,95,97,-1,-1,99,101,103,105,107,109,111,113,115,117,-1,-1,119,121,123,125,127,129,131,133,135,137,-1,-1,-1,-1,139,-1,-1,-1,141,-1,143,-1,-1,145,147,149,151,153,155,157,159,-1,161,163,165,167,169,171,173,175,177,179,181,183,185,187,189,191,193,195,-1,-1,-1,-1,-1,-1,-1,-1,-1,-1,-1,-1,-1,-1,-1,-1,-1,-1,-1,-1,-1,-1,-1,-1,-1,-1,-1,-1,-1,-1,-1,-1,-1,-1,-1,-1,-1,-1,-1,-1,-1,-1,-1,-1,-1,-1,-1,-1,-1,-1,-1,-1,-1,-1,-1,-1,-1,-1,-1,-1,-1,-1,-1,-1,-1,-1,-1,-1,-1,-1,-1,-1,-1,-1,-1,-1,-1,-1,-1,-1,-1,-1],"loss_changes":[1.6361322E5,4.672047E4,1.5766997E5,4.38839E4,4.916375E4,9.56103E4,9.666956E4,2.7988068E4,3.1726506E4,3.6555156E4,4.5086215E4,8.643861E4,6.1719656E4,5.8841E4,6.2729773E4,1.6951883E4,0E0,1.3383855E4,2.7162078E4,3.5839742E4,1.20068125E4,4.87354E4,3.8071766E4,5.9586906E4,6.429954E4,6.0268496E4,2.381336E3,4.686314E4,4.2652688E4,5.2981957E4,4.5840684E4,5.8412236E3,4.818336E3,4.245828E3,1.2631118E3,0E0,1.6810074E4,3.1056812E4,4.3860863E4,5.735426E2,4.9062344E3,1.911041E4,9.492406E3,2.97992E4,6.705325E3,5.3801438E4,5.062647E4,5.6725266E4,6.369228E4,3.439952E4,6.199052E4,0E0,0E0,3.4503234E4,3.0405053E4,5.4881758E4,3.4884234E4,1.4236644E4,3.1684441E4,3.6842656E4,4.154439E4,5.5857007E2,3.45437E2,0E0,0E0,8.0693555E2,4.4072058E2,4.4530716E1,3.758252E1,8.292867E3,4.7365586E3,1.3633292E4,1.7627219E4,3.095348E4,9.28075E3,0E0,0E0,0E0,0E0,1.2626875E3,0E0,0E0,0E0,2.4421672E4,0E0,4.4457794E1,0E0,0E0,4.3684344E4,3.818904E4,6.5774234E4,2.6745857E4,4.6571516E4,5.8603895E4,3.7967594E4,2.170632E4,0E0,3.473524E4,6.438483E4,2.4842305E4,1.2812155E4,1.0653723E4,2.4867188E4,1.5180871E4,6.882764E4,3.0578219E4,3.488839E4,1.4858516E3,1.9210844E3,2.4321674E4,6.785797E3,6.6980967E3,3.1644926E4,3.627608E4,4.0651348E4,0E0,0E0,0E0,0E0,0E0,0E0,0E0,0E0,0E0,0E0,0E0,0E0,0E0,0E0,0E0,0E0,0E0,0E0,0E0,0E0,0E0,0E0,0E0,0E0,0E0,0E0,0E0,0E0,0E0,0E0,0E0,0E0,0E0,0E0,0E0,0E0,0E0,0E0,0E0,0E0,0E0,0E0,0E0,0E0,0E0,0E0,0E0,0E0,0E0,0E0,0E0,0E0,0E0,0E0,0E0,0E0,0E0,0E0,0E0,0E0,0E0,0E0,0E0,0E0,0E0,0E0,0E0,0E0,0E0,0E0,0E0,0E0,0E0,0E0,0E0,0E0,0E0,0E0,0E0,0E0,0E0,0E0],"parents":[2147483647,0,0,1,1,2,2,3,3,4,4,5,5,6,6,7,7,8,8,9,9,10,10,11,11,12,12,13,13,14,14,15,15,17,17,18,18,19,19,20,20,21,21,22,22,23,23,24,24,25,25,26,26,27,27,28,28,29,29,30,30,31,31,32,32,33,33,34,34,36,36,37,37,38,38,39,39,40,40,41,41,42,42,43,43,44,44,45,45,46,46,47,47,48,48,49,49,50,50,53,53,54,54,55,55,56,56,57,57,58,58,59,59,60,60,61,61,62,62,65,65,66,66,67,67,68,68,69,69,70,70,71,71,72,72,73,73,74,74,79,79,83,83,85,85,88,88,89,89,90,90,91,91,92,92,93,93,94,94,95,95,97,97,98,98,99,99,100,100,101,101,102,102,103,103,104,104,105,105,106,106,107,107,108,108,109,109,110,110,111,111,112,112,113,113,114,114],"right_children":[2,4,6,8,10,12,14,16,18,20,22,24,26,28,30,32,-1,34,36,38,40,42,44,46,48,50,52,54,56,58,60,62,64,66,68,-1,70,72,74,76,78,80,82,84,86,88,90,92,94,96,98,-1,-1,100,102,104,106,108,110,112,114,116,118,-1,-1,120,122,124,126,128,130,132,134,136,138,-1,-1,-1,-1,140,-1,-1,-1,142,-1,144,-1,-1,146,148,150,152,154,156,158,160,-1,162,164,166,168,170,172,174,176,178,180,182,184,186,188,190,192,194,196,-1,-1,-1,-1,-1,-1,-1,-1,-1,-1,-1,-1,-1,-1,-1,-1,-1,-1,-1,-1,-1,-1,-1,-1,-1,-1,-1,-1,-1,-1,-1,-1,-1,-1,-1,-1,-1,-1,-1,-1,-1,-1,-1,-1,-1,-1,-1,-1,-1,-1,-1,-1,-1,-1,-1,-1,-1,-1,-1,-1,-1,-1,-1,-1,-1,-1,-1,-1,-1,-1,-1,-1,-1,-1,-1,-1,-1,-1,-1,-1,-1,-1],"split_conditions":[-1.0342E0,-5.777E-1,1.484E-1,-4.28E-1,3.785E-1,1.08E-1,2.449E-1,2.0797E0,-3.407E-1,3.814E-1,-8.243E-1,-3.23E-2,2.5837E0,-7.84E-1,-2.617E-1,-6.966E-1,2.3878982E0,2.657E-1,-1.0408E0,-4.33E-2,-1.7144E0,-4.716E-1,2.0798E0,-1.1222E0,-3.57E-1,-1.153E0,2.2847E0,-2.787E-1,1.089E-1,-4.095E-1,-6.674E-1,-5.78E-2,-2.66E-2,-5.66E-1,-1.2102E0,-2.752634E0,7.661E-1,-7.478E-1,-4.624E-1,-1.2799E0,1.4582E0,-5.958E-1,-2.618E-1,4.267E-1,-8.681E-1,-1.487E0,2.668E-1,-5.157E-1,-5.786E-1,3.646E-1,-1.0504E0,4.7275243E0,1.8327521E0,-6.632E-1,-8.966E-1,-1.3927E0,8.362E-1,-6.077E-1,-5.718E-1,-7.604E-1,1.887E-1,-1.1583E0,-9.074E-1,-3.3743057E0,-4.826815E-1,8.776E-1,-1.1683E0,-1.38E0,-1.4976E0,-5.35E-1,-9.014E-1,-2.546E-1,1.2236E0,1.0505E0,1.0598E0,-5.057171E-1,6.967913E-1,-3.990368E0,-8.7339944E-1,-1.3586E0,-3.0633726E0,1.3723992E0,4.5532756E0,6.325E-1,2.463494E0,-1.9148E0,2.533536E0,-2.4071186E0,6.174E-1,-4.513E-1,-7.075E-1,-7.36E-1,-2.928E-1,-3.048E-1,-7.122E-1,-1.4241E0,2.3894117E0,2.621E-1,9.378E-1,3.82E-1,-7.882E-1,-1.203E-1,2.658E-1,-1.0769E0,-6.385E-1,-4.738E-1,4.506E-1,-3.25E-1,-5.796E-1,-2.26E-1,6.538E-1,1.879E-1,-1.4459E0,2.246E-1,8.04E-2,-2.3470937E-1,-1.886741E0,4.7812834E-1,1.6242504E0,-2.9138536E0,-5.6451094E-1,-1.5342205E-2,-8.802003E-1,-1.4207612E-1,1.9286671E-1,4.5196095E-1,1.6964598E0,4.0135002E-1,3.3785093E0,1.3447444E0,-1.2867339E0,-2.109026E0,1.5530804E0,-3.2446194E0,1.845675E-1,1.728734E0,-3.099755E0,-2.5666032E0,3.3517534E-1,1.3731156E-1,1.8351288E0,-2.6243453E0,7.12421E-1,-6.7723274E-1,-1.12431146E-1,4.936179E0,1.3485416E0,1.6055056E0,-4.938619E-1,-2.572855E-1,2.7990549E0,2.9686038E0,-1.2925428E0,4.116252E-1,4.7919097E0,2.1090102E0,-6.3739306E-1,-2.4308016E0,-2.0448439E-1,-5.1191145E-1,-3.4729125E0,3.683727E0,-9.0314645E-1,-6.54362E-1,2.2677715E0,3.8091457E0,2.3468342E-1,-2.4072852E0,6.4998114E-1,-3.3344986E0,-7.10814E-1,2.6656249E0,-7.9116684E-1,-4.4177523E-1,3.4802048E0,7.712185E-1,-1.6841344E0,-1.0720971E0,-2.699952E0,-9.8324347E-1,3.8849888E0,3.3581827E0,5.641171E-1,8.103571E-1,-6.597587E-1,1.4602449E0,-2.497379E0,-3.3569696E0,-1.5413933E0,2.5440643E0,3.0473098E-2,1.7007157E0,-2.4614105E0,1.422682E0,3.912421E0,1.4950751E0,-1.1051338E0],"split_indices":[118,253,229,218,283,138,284,246,41,307,137,290,17,159,76,0,0,281,188,253,106,292,158,280,144,92,10,302,142,142,29,1,6,14,6,0,77,64,83,0,221,34,257,310,5,291,170,157,191,206,183,0,0,27,219,228,164,269,201,245,164,0,0,0,0,7,9,0,1,186,7,14,47,172,130,0,0,0,0,0,0,0,0,18,0,0,0,0,34,306,286,198,266,23,31,87,0,295,106,15,254,299,5,49,24,271,79,9,13,209,55,42,36,214,2,0,0,0,0,0,0,0,0,0,0,0,0,0,0,0,0,0,0,0,0,0,0,0,0,0,0,0,0,0,0,0,0,0,0,0,0,0,0,0,0,0,0,0,0,0,0,0,0,0,0,0,0,0,0,0,0,0,0,0,0,0,0,0,0,0,0,0,0,0,0,0,0,0,0,0,0,0,0,0,0,0,0],"split_type":[0,0,0,0,0,0,0,0,0,0,0,0,0,0,0,0,0,0,0,0,0,0,0,0,0,0,0,0,0,0,0,0,0,0,0,0,0,0,0,0,0,0,0,0,0,0,0,0,0,0,0,0,0,0,0,0,0,0,0,0,0,0,0,0,0,0,0,0,0,0,0,0,0,0,0,0,0,0,0,0,0,0,0,0,0,0,0,0,0,0,0,0,0,0,0,0,0,0,0,0,0,0,0,0,0,0,0,0,0,0,0,0,0,0,0,0,0,0,0,0,0,0,0,0,0,0,0,0,0,0,0,0,0,0,0,0,0,0,0,0,0,0,0,0,0,0,0,0,0,0,0,0,0,0,0,0,0,0,0,0,0,0,0,0,0,0,0,0,0,0,0,0,0,0,0,0,0,0,0,0,0,0,0,0,0,0,0,0,0,0,0,0,0,0,0,0,0],"sum_hessian":[1.522E3,2.74E2,1.248E3,7.2E1,2.02E2,6.61E2,5.87E2,2.6E1,4.6E1,1.28E2,7.4E1,4.46E2,2.15E2,3.57E2,2.3E2,2.3E1,3E0,1.8E1,2.8E1,9.7E1,3.1E1,2.1E1,5.3E1,2.37E2,2.09E2,2.07E2,8E0,7.5E1,2.82E2,5.8E1,1.72E2,7E0,1.6E1,1.2E1,6E0,2E0,2.6E1,5.4E1,4.3E1,2E0,2.9E1,9E0,1.2E1,4.5E1,8E0,4.6E1,1.91E2,4.5E1,1.64E2,3.4E1,1.73E2,5E0,3E0,3.7E1,3.8E1,1.39E2,1.43E2,1.4E1,4.4E1,3.7E1,1.35E2,3E0,4E0,1.4E1,2E0,5E0,7E0,2E0,4E0,2.1E1,5E0,9E0,4.5E1,2.3E1,2E1,1E0,1E0,2.7E1,2E0,4E0,5E0,5E0,7E0,4.2E1,3E0,2E0,6E0,3E0,4.3E1,8.5E1,1.06E2,1.7E1,2.8E1,7.9E1,8.5E1,3.1E1,3E0,2.1E1,1.52E2,2.3E1,1.4E1,1.7E1,2.1E1,1.2E1,1.27E2,1.26E2,1.7E1,7E0,7E0,1.5E1,2.9E1,1.1E1,2.6E1,7.6E1,5.9E1,1E0,2E0,3E0,1E0,4E0,1E0,2E0,5E0,1E0,1E0,1E0,3E0,3E0,1.8E1,2E0,3E0,3E0,6E0,4.1E1,4E0,2E1,3E0,1.7E1,3E0,2E0,2E0,3.6E1,6E0,1E0,1E0,3E1,1.3E1,4.1E1,4.4E1,2.2E1,8.4E1,4E0,1.3E1,9E0,1.9E1,4.7E1,3.2E1,2.8E1,5.7E1,9E0,2.2E1,1.6E1,5E0,1.31E2,2.1E1,1.6E1,7E0,4E0,1E1,1E1,7E0,7E0,1.4E1,3E0,9E0,4.2E1,8.5E1,4.9E1,7.7E1,1.3E1,4E0,6E0,1E0,3E0,4E0,1E1,5E0,1.8E1,1.1E1,7E0,4E0,5E0,2.1E1,5.6E1,2E1,3.3E1,2.6E1],"tree_param":{"num_deleted":"0","num_feature":"311","num_nodes":"197","size_leaf_vector":"1"}},{"base_weights":[1.246337E-1,-1.0996017E1,9.036781E0,5.846834E0,-1.1737847E1,2.8349752E1,1.9511672E0,-2.2864508E1,-3.6956513E0,5.4500153E1,1.508804E1,-9.106306E0,1.6224836E1,-3.457617E1,-6.433508E0,8.416854E0,-1.4620013E1,-2.1373539E1,6.3740784E1,-8.789158E0,3.0755661E1,-2.4178007E1,3.7129064E0,2.0406075E0,3.794608E1,2.9484285E1,-3.8899326E1,5.653872E1,-1.4024213E1,3.641272E-2,4.021862E1,-2.358953E1,1.3278702E1,-3.3482578E0,1.2583129E1,6.912724E1,-3.972442E1,2.7119871E1,-2.327946E1,-7.1704354E0,4.7460365E1,7.5500937E0,-3.1802017E1,-4.5091473E1,8.769357E0,-8.786642E0,3.3958187E1,5.1263596E1,3.6430182E0,6.704212E1,-1.2987601E1,-4.1328644E1,3.1569772E0,-2.4256165E0,8.0049126E1,-6.584733E0,-5.9214043E1,-1.2026062E1,2.211233E1,-2.5963583E0,5.529674E1,5.1819004E1,-2.692907E1,-8.8490095E0,3.93202E0,1.2309526E0,-3.8295734E-1,1.8824678E1,7.79309E1,-3.5687733E-1,-2.4103763E0,-2.6055792E1,4.957634E1,-3.9269196E1,1.0251969E1,5.267527E1,-3.2477146E1,5.4338707E1,-4.4571815E1,-1.809148E1,3.4322388E1,1.797195E1,-3.6553997E1,6.897316E0,-6.0438076E1,2.3835567E1,-9.043057E0,-1.708235E1,3.7957134E1,5.8042908E1,-1.8357178E1,7.310356E1,3.0304026E1,-5.135108E1,2.1822592E1,4.014166E0,1.3519913E0,5.823933E-1,-1.0122133E0,-3.3306534E0,-1.6006333E0,4.2488294E0,7.6936305E-1,-1.2993873E0,5.684372E-1,-3.4599042E0,1.8940634E-1,-8.6879504E-1,2.4831436E0,-1.174236E0,2.214831E0,3.852288E0,9.361723E-1,-4.896834E-1,3.9211404E0,8.3266085E-1,-1.6108868E0,1.8333384E0,-1.5218136E0,-6.310997E-1,2.9542544E0,4.4650145E0,1.9128132E0,-1.5178754E0,-5.817453E-1,1.8187425E-1,3.4794724E0,2.0443861E0,-2.3227482E0,2.5671237E0,-7.7137643E-1,3.307059E0,-1.3763008E0,-3.5832676E-1,-2.7417645E0,1.3386595E0,4.144104E0,-2.7337034E0,-1.0407009E-1,7.556407E-1,-2.4642806E0,-1.3126839E0,2.5160496E0,-1.9891733E0,2.5911298E0,-4.3674856E-1,-2.334294E0,-2.5337172E-1,1.3689079E0,-3.4545555E0,-1.0766358E0,3.5046497E-1,2.270782E0,-2.0894766E0,4.2137948E-1,-2.8744468E-1,-2.155566E0,3.1776114E0,-7.49953E-1,-8.389024E-1,3.7164845E0,-2.698807E0,1.2486329E0,7.603347E-1,3.9830282E0,2.6052222E0,-1.3361175E0,-1.3131708E0,-3.05755E0,2.4012675E0,-1.359241E0],"categories":[],"categories_nodes":[],"categories_segments":[],"categories_sizes":[],"default_left":[0,0,0,0,0,0,0,0,0,0,0,0,0,0,0,0,0,0,0,0,0,0,0,0,0,0,0,0,0,0,0,0,0,0,0,0,0,0,0,0,0,0,0,0,0,0,0,0,0,0,0,0,0,0,0,0,0,0,0,0,0,0,0,0,0,0,0,0,0,0,0,0,0,0,0,0,0,0,0,0,0,0,0,0,0,0,0,0,0,0,0,0,0,0,0,0,0,0,0,0,0,0,0,0,0,0,0,0,0,0,0,0,0,0,0,0,0,0,0,0,0,0,0,0,0,0,0,0,0,0,0,0,0,0,0,0,0,0,0,0,0,0,0,0,0,0,0,0,0,0,0,0,0,0,0,0,0,0,0,0,0,0,0,0,0,0,0,0,0,0,0],"id":7,"left_children":[1,3,5,-1,7,9,11,13,15,17,19,21,23,25,27,29,31,33,35,37,39,41,43,45,47,49,51,53,55,57,59,61,63,-1,65,67,69,71,73,75,77,79,81,83,85,87,89,91,93,95,97,99,-1,-1,101,103,105,107,109,-1,111,113,115,117,-1,-1,-1,119,121,-1,-1,123,125,127,129,131,133,135,137,139,141,143,145,147,149,151,153,155,157,159,161,163,165,167,169,-1,-1,-1,-1,-1,-1,-1,-1,-1,-1,-1,-1,-1,-1,-1,-1,-1,-1,-1,-1,-1,-1,-1,-1,-1,-1,-1,-1,-1,-1,-1,-1,-1,-1,-1,-1,-1,-1,-1,-1,-1,-1,-1,-1,-1,-1,-1,-1,-1,-1,-1,-1,-1,-1,-1,-1,-1,-1,-1,-1,-1,-1,-1,-1,-1,-1,-1,-1,-1,-1,-1,-1,-1,-1,-1,-1],"loss_changes":[1.5104222E5,6.571765E4,1.1571494E5,0E0,6.031639E4,7.790109E4,9.80028E4,5.423647E4,5.212536E4,5.4647547E4,5.7133344E4,6.771234E4,8.341742E4,4.6842547E4,5.767534E4,4.9836438E4,5.2112504E4,1.4775887E4,4.064322E4,3.2371637E4,5.86264E4,3.9185258E4,4.7283035E4,5.7319008E4,4.8694234E4,1.841739E4,4.1031594E4,3.599067E4,3.55823E4,3.994316E4,5.7057438E4,4.0932703E4,7.445742E4,0E0,1.6503679E3,2.7318E4,7.6166846E2,2.2786227E4,2.3993564E4,4.5631188E4,4.293583E4,2.2588422E4,3.1405188E4,1.4778184E4,4.6642793E4,4.873222E4,5.398555E4,3.303189E4,3.2113463E4,1.0072246E3,1.3084307E3,3.3671E4,0E0,0E0,2.1972578E3,3.269214E4,9.697371E3,3.2875438E4,5.4651824E4,0E0,2.5602172E4,1.2241965E4,3.5340844E4,3.943588E4,0E0,0E0,0E0,1.4672388E4,2.1392906E4,0E0,0E0,1.9000488E1,1.1698799E4,1.9179113E4,1.661984E4,1.1540455E4,1.1490883E4,4.4989734E4,2.0324453E3,1.835309E4,1.6827234E4,2.5522379E4,3.3133438E4,1.3639778E3,3.225371E3,3.38142E4,4.6120348E4,3.1021967E4,2.670618E4,3.658629E4,2.295502E4,1.2834922E4,5.2363496E4,3.6082227E2,3.2124664E4,0E0,0E0,0E0,0E0,0E0,0E0,0E0,0E0,0E0,0E0,0E0,0E0,0E0,0E0,0E0,0E0,0E0,0E0,0E0,0E0,0E0,0E0,0E0,0E0,0E0,0E0,0E0,0E0,0E0,0E0,0E0,0E0,0E0,0E0,0E0,0E0,0E0,0E0,0E0,0E0,0E0,0E0,0E0,0E0,0E0,0E0,0E0,0E0,0E0,0E0,0E0,0E0,0E0,0E0,0E0,0E0,0E0,0E0,0E0,0E0,0E0,0E0,0E0,0E0,0E0,0E0,0E0,0E0,0E0,0E0,0E0,0E0,0E0,0E0,0E0,0E0],"parents":[2147483647,0,0,1,1,2,2,4,4,5,5,6,6,7,7,8,8,9,9,10,10,11,11,12,12,13,13,14,14,15,15,16,16,17,17,18,18,19,19,20,20,21,21,22,22,23,23,24,24,25,25,26,26,27,27,28,28,29,29,30,30,31,31,32,32,34,34,35,35,36,36,37,37,38,38,39,39,40,40,41,41,42,42,43,43,44,44,45,45,46,46,47,47,48,48,49,49,50,50,51,51,54,54,55,55,56,56,57,57,58,58,60,60,61,61,62,62,63,63,67,67,68,68,71,71,72,72,73,73,74,74,75,75,76,76,77,77,78,78,79,79,80,80,81,81,82,82,83,83,84,84,85,85,86,86,87,87,88,88,89,89,90,90,91,91,92,92,93,93,94,94],"right_children":[2,4,6,-1,8,10,12,14,16,18,20,22,24,26,28,30,32,34,36,38,40,42,44,46,48,50,52,54,56,58,60,62,64,-1,66,68,70,72,74,76,78,80,82,84,86,88,90,92,94,96,98,100,-1,-1,102,104,106,108,110,-1,112,114,116,118,-1,-1,-1,120,122,-1,-1,124,126,128,130,132,134,136,138,140,142,144,146,148,150,152,154,156,158,160,162,164,166,168,170,-1,-1,-1,-1,-1,-1,-1,-1,-1,-1,-1,-1,-1,-1,-1,-1,-1,-1,-1,-1,-1,-1,-1,-1,-1,-1,-1,-1,-1,-1,-1,-1,-1,-1,-1,-1,-1,-1,-1,-1,-1,-1,-1,-1,-1,-1,-1,-1,-1,-1,-1,-1,-1,-1,-1,-1,-1,-1,-1,-1,-1,-1,-1,-1,-1,-1,-1,-1,-1,-1,-1,-1,-1,-1,-1,-1],"split_conditions":[-1.312E-1,-3.2672E0,-5.737E-1,5.846834E0,-6.886E-1,-5.842E-1,2.824E-1,5.2E-1,-2.525E-1,-1.0383E0,-2.275E-1,-4.67E-2,5.68E-1,-1.4116E0,-1.3782E0,7.58E-1,5.463E-1,-2.322E-1,1.8698E0,-6.111E-1,-2.396E-1,-6.808E-1,-9.287E-1,5.759E-1,-1.895E-1,-4.671E-1,2.805E0,2.396E-1,9.604E-1,5.095E-1,-5.821E-1,-1.1625E0,7.105E-1,-3.3482578E0,-4.465E-1,-1.0919E0,4.193E-1,-2.675E-1,8.833E-1,-5.905E-1,2.0038E0,-2.18E-1,-7.828E-1,-8.367E-1,4.57E-1,1.1459E0,1.992E-1,1.697E-1,-4.539E-1,1.357E-1,-2.7133E0,-6.654E-1,3.1569772E0,-2.4256165E0,8.426E-1,-3.269E-1,1.263E-1,1.3385E0,-7.264E-1,-2.5963583E0,5.722E-1,-1.1153E0,-8.879E-1,-6.499E-1,3.93202E0,1.2309526E0,-3.8295734E-1,-2.43E-1,1.649E-1,-3.5687733E-1,-2.4103763E0,9.104E-1,-3.835E-1,-1.0231E0,-8.81E-2,5.754E-1,4.21E-2,-4.193E-1,7.37E-2,1.479E-1,-8.169E-1,-5.397E-1,-6.205E-1,-1.0455E0,7.319E-1,1.584E-1,1.458E-1,-1.015E-1,1.793E-1,-9.856E-1,3.851E-1,-8.645E-1,2.514E-1,9.317E-1,4.514E-1,4.014166E0,1.3519913E0,5.823933E-1,-1.0122133E0,-3.3306534E0,-1.6006333E0,4.2488294E0,7.6936305E-1,-1.2993873E0,5.684372E-1,-3.4599042E0,1.8940634E-1,-8.6879504E-1,2.4831436E0,-1.174236E0,2.214831E0,3.852288E0,9.361723E-1,-4.896834E-1,3.9211404E0,8.3266085E-1,-1.6108868E0,1.8333384E0,-1.5218136E0,-6.310997E-1,2.9542544E0,4.4650145E0,1.9128132E0,-1.5178754E0,-5.817453E-1,1.8187425E-1,3.4794724E0,2.0443861E0,-2.3227482E0,2.5671237E0,-7.7137643E-1,3.307059E0,-1.3763008E0,-3.5832676E-1,-2.7417645E0,1.3386595E0,4.144104E0,-2.7337034E0,-1.0407009E-1,7.556407E-1,-2.4642806E0,-1.3126839E0,2.5160496E0,-1.9891733E0,2.5911298E0,-4.3674856E-1,-2.334294E0,-2.5337172E-1,1.3689079E0,-3.4545555E0,-1.0766358E0,3.5046497E-1,2.270782E0,-2.0894766E0,4.2137948E-1,-2.8744468E-1,-2.155566E0,3.1776114E0,-7.49953E-1,-8.389024E-1,3.7164845E0,-2.698807E0,1.2486329E0,7.603347E-1,3.9830282E0,2.6052222E0,-1.3361175E0,-1.3131708E0,-3.05755E0,2.4012675E0,-1.359241E0],"split_indices":[49,18,68,0,118,94,80,200,108,185,214,185,184,132,137,266,288,5,75,171,89,62,0,139,275,3,275,21,307,204,104,10,82,0,0,177,1,286,74,106,78,73,183,41,68,186,154,79,8,0,1,181,0,0,11,88,6,308,158,0,143,1,82,164,0,0,0,123,295,0,0,10,207,99,129,0,293,37,0,209,216,147,69,0,135,231,178,304,197,295,144,297,123,5,191,0,0,0,0,0,0,0,0,0,0,0,0,0,0,0,0,0,0,0,0,0,0,0,0,0,0,0,0,0,0,0,0,0,0,0,0,0,0,0,0,0,0,0,0,0,0,0,0,0,0,0,0,0,0,0,0,0,0,0,0,0,0,0,0,0,0,0,0,0,0,0,0,0,0,0,0],"split_type":[0,0,0,0,0,0,0,0,0,0,0,0,0,0,0,0,0,0,0,0,0,0,0,0,0,0,0,0,0,0,0,0,0,0,0,0,0,0,0,0,0,0,0,0,0,0,0,0,0,0,0,0,0,0,0,0,0,0,0,0,0,0,0,0,0,0,0,0,0,0,0,0,0,0,0,0,0,0,0,0,0,0,0,0,0,0,0,0,0,0,0,0,0,0,0,0,0,0,0,0,0,0,0,0,0,0,0,0,0,0,0,0,0,0,0,0,0,0,0,0,0,0,0,0,0,0,0,0,0,0,0,0,0,0,0,0,0,0,0,0,0,0,0,0,0,0,0,0,0,0,0,0,0,0,0,0,0,0,0,0,0,0,0,0,0,0,0,0,0,0,0],"sum_hessian":[1.522E3,6.77E2,8.45E2,3E0,6.74E2,2.26E2,6.19E2,2.82E2,3.92E2,7.5E1,1.51E2,3.49E2,2.7E2,1.64E2,1.18E2,1.86E2,2.06E2,8E0,6.7E1,6E1,9.1E1,1.6E2,1.89E2,1.64E2,1.06E2,1E1,1.54E2,1.2E1,1.06E2,1.48E2,3.8E1,1.56E2,5E1,3E0,5E0,6.4E1,3E0,1.7E1,4.3E1,2.8E1,6.3E1,3.1E1,1.29E2,1.7E1,1.72E2,1.23E2,4.1E1,7.6E1,3E1,5E0,5E0,1.51E2,3E0,2E0,1E1,9.2E1,1.4E1,9.6E1,5.2E1,5E0,3.3E1,6E0,1.5E2,3.8E1,1.2E1,3E0,2E0,1E1,5.4E1,1E0,2E0,5E0,1.2E1,2.9E1,1.4E1,8E0,2E1,5.9E1,4E0,1.6E1,1.5E1,1.1E1,1.18E2,4E0,1.3E1,9.3E1,7.9E1,1.05E2,1.8E1,2.8E1,1.3E1,3.6E1,4E1,7E0,2.3E1,3E0,2E0,1E0,4E0,3.9E1,1.12E2,9E0,1E0,4.4E1,4.8E1,1.2E1,2E0,8.9E1,7E0,1.7E1,3.5E1,2E1,1.3E1,2E0,4E0,1.6E1,1.34E2,1.2E1,2.6E1,6E0,4E0,4.1E1,1.3E1,3E0,2E0,4E0,8E0,2E0,2.7E1,5E0,9E0,7E0,1E0,1E1,1E1,3.1E1,2.8E1,3E0,1E0,8E0,8E0,3E0,1.2E1,4E0,7E0,3.2E1,8.6E1,3E0,1E0,1E1,3E0,5.3E1,4E1,2.7E1,5.2E1,7.4E1,3.1E1,1.2E1,6E0,5E0,2.3E1,7E0,6E0,4E0,3.2E1,2.9E1,1.1E1,3E0,4E0,1.5E1,8E0],"tree_param":{"num_deleted":"0","num_feature":"311","num_nodes":"171","size_leaf_vector":"1"}},{"base_weights":[1.3566451E-1,-1.0828998E1,8.400012E0,2.98319E0,-1.9089897E1,2.7163565E1,-1.3402586E0,-2.2589016E1,1.5907031E1,-8.991124E0,-3.132359E1,3.794455E1,7.3794813E0,-1.2052941E1,1.0896388E1,-2.5925012E0,-5.973451E1,3.1692486E1,-2.0717657E1,5.2477936E1,-1.2683211E1,-3.4743385E1,3.9412758E1,4.824384E1,1.2070497E1,2.5565187E1,-2.2075058E1,1.3116334E1,-1.7992193E1,-1.2837915E0,3.042079E1,1.6359201E1,-3.657594E1,-1.8179308E1,-6.978459E1,4.019323E1,-3.2505238E1,4.1215675E1,-3.175833E1,-1.1196127E1,8.202153E1,4.804853E1,-1.5583866E1,-9.787603E0,-4.395338E1,7.9675393E0,3.8363698E0,5.596596E1,2.7112922E-1,-2.4791808E0,2.1890137E1,-1.2820007E1,4.780482E1,4.7463535E1,-3.305163E1,-3.485216E1,3.3361965E1,-6.0673447E0,-3.8859512E1,5.745037E1,-7.07148E0,-1.0640996E1,4.2359066E1,4.746143E1,-1.0895655E1,-4.9838357E0,-5.7222023E1,8.7561846E-1,-3.595845E1,-3.0116035E1,-3.8275406E0,2.0004557E1,6.635092E1,3.5136414E0,-3.4513035E0,2.8659751E0,-4.730532E0,2.413717E0,-4.1204613E1,4.3087616E0,-1.8303921E0,1.6097351E0,4.5829263E0,-1.1494833E1,3.7604618E0,1.2390988E1,-2.181875E1,8.364256E0,-6.0697697E1,-3.1286814E1,-6.0966454E1,1.4463591E1,-6.1281794E-1,6.223677E1,-1.0689799E1,4.1747078E1,-3.7458927E1,8.9732765E1,1.0336915E1,3.5664818E1,-3.3656597E1,-8.234203E0,6.123266E1,4.045331E0,-1.2948413E1,1.9263397E1,-4.6343647E1,1.652196E1,-5.588236E1,6.89809E1,6.381852E0,-1.1760008E1,3.649754E1,-1.1194702E1,-4.93276E1,-4.3826194E0,6.730026E1,-8.6716664E-1,-4.797659E1,1.7985186E1,-4.6106956E1,9.66294E0,5.619914E1,3.8923402E0,9.2034954E-1,-1.872435E0,9.701131E-1,1.1244376E0,-1.1234127E0,-9.8508455E-2,-3.1032906E0,-2.341417E0,-6.551205E-1,-1.6546776E0,-4.5514926E-1,1.7669449E0,-1.5904298E0,-7.08564E-1,3.6294212E0,1.1847321E0,-6.6669434E-1,-2.287674E-3,-3.5250226E-1,-2.6807768E0,6.7948264E-1,-6.278331E-2,5.250511E-1,-8.118102E-1,6.823196E-2,-5.272177E-1,2.6230943E0,-1.6401503E0,-2.9860914E-1,3.217903E0,-3.4231165E-1,-1.2806095E0,-3.672273E0,-2.0591638E0,5.852172E-1,1.5961426E0,-3.257651E0,1.6849366E-1,8.197276E-1,3.3968694E0,7.676236E-1,-1.7955567E0,2.1212661E0,2.9874282E0,-9.614659E-3,-3.3000553E0,4.9959537E-1,1.1668606E0,4.845458E0,1.2334818E0,-1.680048E0,2.4789705E0,-2.0263202E-1,-2.6510856E-1,-2.2077143E0,9.9408704E-1,-1.28029E0,8.548709E-2,3.6963253E0,-1.1479996E0,1.7686863E-1,4.6303306E-2,2.4758463E0,-9.0078604E-1,-2.9095213E0,-8.244485E-1,1.8574833E0,-9.507764E-1,-3.5077393E0,7.0555335E-1,3.950707E0,-1.4380077E0,1.58636E0,5.411135E-1,-1.1229091E0,2.6012561E0,-8.6923546E-1,-2.5522633E0,6.452659E-1,1.2860942E-2,-2.7658203E0,-1.7564965E-2,-3.1113148E-1,1.6625799E0,3.7094853E0,-6.3378364E-1,9.183801E-1,-2.7895632E0,7.451827E-1,1.5391922E-1,2.7241297E0,-2.8305092E0,-6.7868817E-1,-2.014115E0,1.3777622E0,1.9126001E-1,3.3750813E0],"categories":[],"categories_nodes":[],"categories_segments":[],"categories_sizes":[],"default_left":[0,0,0,0,0,0,0,0,0,0,0,0,0,0,0,0,0,0,0,0,0,0,0,0,0,0,0,0,0,0,0,0,0,0,0,0,0,0,0,0,0,0,0,0,0,0,0,0,0,0,0,0,0,0,0,0,0,0,0,0,0,0,0,0,0,0,0,0,0,0,0,0,0,0,0,0,0,0,0,0,0,0,0,0,0,0,0,0,0,0,0,0,0,0,0,0,0,0,0,0,0,0,0,0,0,0,0,0,0,0,0,0,0,0,0,0,0,0,0,0,0,0,0,0,0,0,0,0,0,0,0,0,0,0,0,0,0,0,0,0,0,0,0,0,0,0,0,0,0,0,0,0,0,0,0,0,0,0,0,0,0,0,0,0,0,0,0,0,0,0,0,0,0,0,0,0,0,0,0,0,0,0,0,0,0,0,0,0,0,0,0,0,0,0,0,0,0,0,0,0,0,0,0,0,0,0,0,0,0,0,0,0,0,0,0,0,0,0,0,0,0],"id":8,"left_children":[1,3,5,7,9,11,13,15,17,19,21,23,25,27,29,31,33,35,37,39,41,43,45,47,49,51,53,55,57,59,61,63,65,67,69,71,73,75,77,79,81,83,85,87,89,91,-1,93,95,-1,97,99,101,103,105,107,109,111,113,115,117,119,121,123,125,127,129,-1,131,133,-1,135,137,139,-1,-1,141,-1,143,145,-1,-1,-1,147,-1,149,151,153,155,157,159,161,-1,163,165,167,169,171,173,175,177,179,181,-1,183,185,187,189,191,193,195,197,199,201,203,205,207,209,211,213,215,217,219,-1,-1,-1,-1,-1,-1,-1,-1,-1,-1,-1,-1,-1,-1,-1,-1,-1,-1,-1,-1,-1,-1,-1,-1,-1,-1,-1,-1,-1,-1,-1,-1,-1,-1,-1,-1,-1,-1,-1,-1,-1,-1,-1,-1,-1,-1,-1,-1,-1,-1,-1,-1,-1,-1,-1,-1,-1,-1,-1,-1,-1,-1,-1,-1,-1,-1,-1,-1,-1,-1,-1,-1,-1,-1,-1,-1,-1,-1,-1,-1,-1,-1,-1,-1,-1,-1,-1,-1,-1,-1,-1,-1,-1,-1,-1,-1,-1,-1],"loss_changes":[1.380988E5,7.479318E4,1.5885666E5,8.166015E4,5.037192E4,6.3067688E4,7.524437E4,6.1495914E4,9.5471125E4,5.1956086E4,4.612153E4,5.0582656E4,5.734342E4,4.59789E4,6.3772324E4,3.6020773E4,1.0842727E4,6.4065242E4,3.5498227E4,2.5373414E4,3.8447418E4,4.0251953E4,9.948973E3,5.0736656E4,3.4988984E4,5.6955254E4,3.286385E4,5.846074E4,6.1476453E4,5.6835473E4,5.0942062E4,3.1033844E4,1.2759875E4,5.0716904E3,3.8679375E3,5.253775E4,1.8658686E4,6.1904307E3,3.449761E4,2.1277634E3,1.370707E3,1.703691E4,3.6026453E4,4.578922E4,2.5891719E4,9.655238E2,0E0,4.9987562E4,3.2861598E4,0E0,3.7478684E4,2.6456814E4,3.2108492E4,1.3169781E4,2.592614E4,2.0370629E4,3.9921906E4,3.8956113E4,2.5511578E4,9.430676E3,3.8534188E4,2.5195363E4,3.5658297E4,1.3575184E4,1.6816629E4,4.828363E3,3.0892617E3,0E0,6.286499E2,1.1583008E1,0E0,4.800079E4,2.3128016E4,3.0359414E3,0E0,0E0,3.227665E1,0E0,2.725046E4,1.5101132E2,0E0,0E0,0E0,2.6604272E2,0E0,3.5476688E4,2.9046625E4,3.1953256E4,3.9333008E3,3.2817E4,2.3079781E4,5.1860107E1,0E0,2.7822125E4,1.6259518E4,7.561201E3,1.5557329E4,1.0737773E3,2.7908139E4,4.6221455E3,5.1236914E3,4.9048574E3,2.5563148E4,0E0,5.7636426E2,4.392296E3,8.683906E3,4.6981987E3,5.506297E3,8.794414E3,2.3179639E4,3.4307117E4,1.6801002E4,2.5629139E4,1.931625E4,2.0067009E1,5.825625E2,3.0441627E4,1.0659266E4,7.4491167E3,2.9903262E3,2.3450877E4,3.2891297E4,0E0,0E0,0E0,0E0,0E0,0E0,0E0,0E0,0E0,0E0,0E0,0E0,0E0,0E0,0E0,0E0,0E0,0E0,0E0,0E0,0E0,0E0,0E0,0E0,0E0,0E0,0E0,0E0,0E0,0E0,0E0,0E0,0E0,0E0,0E0,0E0,0E0,0E0,0E0,0E0,0E0,0E0,0E0,0E0,0E0,0E0,0E0,0E0,0E0,0E0,0E0,0E0,0E0,0E0,0E0,0E0,0E0,0E0,0E0,0E0,0E0,0E0,0E0,0E0,0E0,0E0,0E0,0E0,0E0,0E0,0E0,0E0,0E0,0E0,0E0,0E0,0E0,0E0,0E0,0E0,0E0,0E0,0E0,0E0,0E0,0E0,0E0,0E0,0E0,0E0,0E0,0E0,0E0,0E0,0E0,0E0,0E0,0E0],"parents":[2147483647,0,0,1,1,2,2,3,3,4,4,5,5,6,6,7,7,8,8,9,9,10,10,11,11,12,12,13,13,14,14,15,15,16,16,17,17,18,18,19,19,20,20,21,21,22,22,23,23,24,24,25,25,26,26,27,27,28,28,29,29,30,30,31,31,32,32,33,33,34,34,35,35,36,36,37,37,38,38,39,39,40,40,41,41,42,42,43,43,44,44,45,45,47,47,48,48,50,50,51,51,52,52,53,53,54,54,55,55,56,56,57,57,58,58,59,59,60,60,61,61,62,62,63,63,64,64,65,65,66,66,68,68,69,69,71,71,72,72,73,73,76,76,78,78,79,79,83,83,85,85,86,86,87,87,88,88,89,89,90,90,91,91,93,93,94,94,95,95,96,96,97,97,98,98,99,99,100,100,101,101,102,102,104,104,105,105,106,106,107,107,108,108,109,109,110,110,111,111,112,112,113,113,114,114,115,115,116,116,117,117,118,118,119,119,120,120,121,121,122,122],"right_children":[2,4,6,8,10,12,14,16,18,20,22,24,26,28,30,32,34,36,38,40,42,44,46,48,50,52,54,56,58,60,62,64,66,68,70,72,74,76,78,80,82,84,86,88,90,92,-1,94,96,-1,98,100,102,104,106,108,110,112,114,116,118,120,122,124,126,128,130,-1,132,134,-1,136,138,140,-1,-1,142,-1,144,146,-1,-1,-1,148,-1,150,152,154,156,158,160,162,-1,164,166,168,170,172,174,176,178,180,182,-1,184,186,188,190,192,194,196,198,200,202,204,206,208,210,212,214,216,218,220,-1,-1,-1,-1,-1,-1,-1,-1,-1,-1,-1,-1,-1,-1,-1,-1,-1,-1,-1,-1,-1,-1,-1,-1,-1,-1,-1,-1,-1,-1,-1,-1,-1,-1,-1,-1,-1,-1,-1,-1,-1,-1,-1,-1,-1,-1,-1,-1,-1,-1,-1,-1,-1,-1,-1,-1,-1,-1,-1,-1,-1,-1,-1,-1,-1,-1,-1,-1,-1,-1,-1,-1,-1,-1,-1,-1,-1,-1,-1,-1,-1,-1,-1,-1,-1,-1,-1,-1,-1,-1,-1,-1,-1,-1,-1,-1,-1,-1],"split_conditions":[-1.087E-1,-3.277E-1,-1.75E-1,-4.226E-1,1.995E-1,1.33E-1,2.449E-1,7.154E-1,4.345E-1,-1.3053E0,1.439E0,2.237E-1,3.818E-1,-7.298E-1,8.41E-2,-1.223E-1,-7.616E-1,1.3306E0,-1.1515E0,-1.0452E0,-1.4353E0,-4.254E-1,-8.21E-2,2.392E-1,-9.359E-1,-3.116E-1,-7.411E-1,-6.085E-1,1.139E-1,-1.299E0,-2.892E-1,-5.858E-1,-3.387E-1,-1.2574E0,-4.448E-1,5.52E-1,-3.37E-1,-9.4E-3,-1.5014E0,-1.62E-1,-4.67E-1,-4.947E-1,-9.62E-1,3.163E-1,1.444E-1,1.3494E0,3.8363698E0,1.2931E0,-6.05E-2,-2.4791808E0,-1.4088E0,1.213E-1,-9.177E-1,-3.43E-1,-9.4E-1,1.397E-1,-5.763E-1,6.448E-1,-6.994E-1,-2.1389E0,1.2641E0,4.01E-1,-5E-1,-4.776E-1,-3.012E-1,-5.176E-1,-1.38E0,8.7561846E-1,8E-4,3.135E-1,-3.8275406E0,5.431E-1,-1.576E-1,5.145E-1,-3.4513035E0,2.8659751E0,-4.855E-1,2.413717E0,6.953E-1,-7.358E-1,-1.8303921E0,1.6097351E0,4.5829263E0,4.524E-1,3.7604618E0,3.841E-1,1.84E-1,-5.468E-1,1.2E-1,1.034E0,-1.89E0,-1.0787E0,-6.1281794E-1,1.1879E0,2.891E-1,5.424E-1,-1.93E-2,-1.5527E0,5.008E-1,7.577E-1,-6.066E-1,-3.174E-1,-1.1216E0,4.045331E0,-9.477E-1,2.978E-1,-8.179E-1,-1.545E-1,-4.934E-1,-6.801E-1,-5.519E-1,-6.545E-1,4.496E-1,-2.671E-1,-1.3598E0,1.268E0,-6.575E-1,1.1242E0,1.0272E0,1.54E-1,3.02E-1,-2E-1,-6.179E-1,3.8923402E0,9.2034954E-1,-1.872435E0,9.701131E-1,1.1244376E0,-1.1234127E0,-9.8508455E-2,-3.1032906E0,-2.341417E0,-6.551205E-1,-1.6546776E0,-4.5514926E-1,1.7669449E0,-1.5904298E0,-7.08564E-1,3.6294212E0,1.1847321E0,-6.6669434E-1,-2.287674E-3,-3.5250226E-1,-2.6807768E0,6.7948264E-1,-6.278331E-2,5.250511E-1,-8.118102E-1,6.823196E-2,-5.272177E-1,2.6230943E0,-1.6401503E0,-2.9860914E-1,3.217903E0,-3.4231165E-1,-1.2806095E0,-3.672273E0,-2.0591638E0,5.852172E-1,1.5961426E0,-3.257651E0,1.6849366E-1,8.197276E-1,3.3968694E0,7.676236E-1,-1.7955567E0,2.1212661E0,2.9874282E0,-9.614659E-3,-3.3000553E0,4.9959537E-1,1.1668606E0,4.845458E0,1.2334818E0,-1.680048E0,2.4789705E0,-2.0263202E-1,-2.6510856E-1,-2.2077143E0,9.9408704E-1,-1.28029E0,8.548709E-2,3.6963253E0,-1.1479996E0,1.7686863E-1,4.6303306E-2,2.4758463E0,-9.0078604E-1,-2.9095213E0,-8.244485E-1,1.8574833E0,-9.507764E-1,-3.5077393E0,7.0555335E-1,3.950707E0,-1.4380077E0,1.58636E0,5.411135E-1,-1.1229091E0,2.6012561E0,-8.6923546E-1,-2.5522633E0,6.452659E-1,1.2860942E-2,-2.7658203E0,-1.7564965E-2,-3.1113148E-1,1.6625799E0,3.7094853E0,-6.3378364E-1,9.183801E-1,-2.7895632E0,7.451827E-1,1.5391922E-1,2.7241297E0,-2.8305092E0,-6.7868817E-1,-2.014115E0,1.3777622E0,1.9126001E-1,3.3750813E0],"split_indices":[170,197,229,4,63,179,284,206,142,91,222,85,113,215,286,72,101,23,135,156,283,78,66,138,50,102,251,156,53,165,80,79,173,0,40,94,117,9,105,1,10,19,109,36,236,0,0,45,1,0,39,185,155,1,142,207,142,169,202,144,147,106,164,297,171,17,0,0,0,1,0,224,220,19,0,0,0,0,295,0,0,0,0,0,0,80,222,217,212,3,299,1,0,134,4,16,32,1,90,5,291,10,135,0,0,8,115,0,133,38,122,159,121,108,221,0,150,183,31,119,197,222,183,0,0,0,0,0,0,0,0,0,0,0,0,0,0,0,0,0,0,0,0,0,0,0,0,0,0,0,0,0,0,0,0,0,0,0,0,0,0,0,0,0,0,0,0,0,0,0,0,0,0,0,0,0,0,0,0,0,0,0,0,0,0,0,0,0,0,0,0,0,0,0,0,0,0,0,0,0,0,0,0,0,0,0,0,0,0,0,0,0,0,0,0,0,0,0,0,0,0],"split_type":[0,0,0,0,0,0,0,0,0,0,0,0,0,0,0,0,0,0,0,0,0,0,0,0,0,0,0,0,0,0,0,0,0,0,0,0,0,0,0,0,0,0,0,0,0,0,0,0,0,0,0,0,0,0,0,0,0,0,0,0,0,0,0,0,0,0,0,0,0,0,0,0,0,0,0,0,0,0,0,0,0,0,0,0,0,0,0,0,0,0,0,0,0,0,0,0,0,0,0,0,0,0,0,0,0,0,0,0,0,0,0,0,0,0,0,0,0,0,0,0,0,0,0,0,0,0,0,0,0,0,0,0,0,0,0,0,0,0,0,0,0,0,0,0,0,0,0,0,0,0,0,0,0,0,0,0,0,0,0,0,0,0,0,0,0,0,0,0,0,0,0,0,0,0,0,0,0,0,0,0,0,0,0,0,0,0,0,0,0,0,0,0,0,0,0,0,0,0,0,0,0,0,0,0,0,0,0,0,0,0,0,0,0,0,0,0,0,0,0,0,0],"sum_hessian":[1.522E3,6.54E2,8.68E2,2.45E2,4.09E2,2.96E2,5.72E2,8.2E1,1.63E2,2.25E2,1.84E2,1.91E2,1.05E2,3.05E2,2.67E2,5.4E1,2.8E1,1.14E2,4.9E1,1.2E1,2.13E2,1.76E2,8E0,1.36E2,5.5E1,6.5E1,4E1,5.8E1,2.47E2,1.65E2,1.02E2,3.5E1,1.9E1,6E0,2.2E1,1.01E2,1.3E1,7E0,4.2E1,4E0,8E0,9E0,2.04E2,4.8E1,1.28E2,5E0,3E0,1.17E2,1.9E1,7E0,4.8E1,2.4E1,4.1E1,5E0,3.5E1,1.7E1,4.1E1,1.58E2,8.9E1,1.4E1,1.51E2,2.3E1,7.9E1,1.6E1,1.9E1,8E0,1.1E1,2E0,4E0,4E0,1.8E1,5.8E1,4.3E1,7E0,6E0,5E0,2E0,4E0,3.8E1,3E0,1E0,2E0,6E0,3E0,6E0,3.7E1,1.67E2,3.6E1,1.2E1,7.5E1,5.3E1,4E0,1E0,1.07E2,1E1,9E0,1E1,6E0,4.2E1,7E0,1.7E1,8E0,3.3E1,3E0,2E0,7E0,2.8E1,5E0,1.2E1,1.7E1,2.4E1,1.4E2,1.8E1,2.5E1,6.4E1,2E0,1.2E1,1.32E2,1.9E1,1.3E1,1E1,2.4E1,