{"learner":{"attributes":{"scikit_learn":"{\"_estimator_type\": \"regressor\"}"},"feature_names":["pik3ca_mut","tp53_mut","muc16_mut","ahnak2_mut","kmt2c_mut","syne1_mut","gata3_mut","map3k1_mut","ahnak_mut","dnah11_mut","cdh1_mut","dnah2_mut","kmt2d_mut","ush2a_mut","ryr2_mut","dnah5_mut","herc2_mut","pde4dip_mut","akap9_mut","tg_mut","birc6_mut","utrn_mut","tbx3_mut","col6a3_mut","arid1a_mut","lama2_mut","notch1_mut","cbfb_mut","ncor2_mut","col12a1_mut","col22a1_mut","pten_mut","akt1_mut","atr_mut","thada_mut","ncor1_mut","stab2_mut","myh9_mut","runx1_mut","nf1_mut","map2k4_mut","ros1_mut","lamb3_mut","arid1b_mut","erbb2_mut","sf3b1_mut","shank2_mut","ep300_mut","ptprd_mut","usp9x_mut","setd2_mut","setd1a_mut","thsd7a_mut","afdn_mut","erbb3_mut","rb1_mut","myo1a_mut","alk_mut","fanca_mut","adgra2_mut","ubr5_mut","pik3r1_mut","myo3a_mut","asxl2_mut","apc_mut","ctcf_mut","asxl1_mut","fancd2_mut","taf1_mut","kdm6a_mut","ctnna3_mut","brca1_mut","ptprm_mut","foxo3_mut","usp28_mut","gldc_mut","brca2_mut","cacna2d3_mut","arid2_mut","aff2_mut","lifr_mut","sbno1_mut","kdm3a_mut","ncoa3_mut","bap1_mut","l1cam_mut","pbrm1_mut","chd1_mut","jak1_mut","setdb1_mut","fam20c_mut","arid5b_mut","egfr_mut","map3k10_mut","smarcc2_mut","erbb4_mut","npnt_mut","nek1_mut","agmo_mut","zfp36l1_mut","smad4_mut","sik1_mut","casp8_mut","prkcq_mut","smarcc1_mut","palld_mut","dcaf4l2_mut","bcas3_mut","cdkn1b_mut","gps2_mut","men1_mut","stk11_mut","sik2_mut","ptpn22_mut","brip1_mut","flt3_mut","nrg3_mut","fbxw7_mut","ttyh1_mut","taf4b_mut","or6a2_mut","map3k13_mut","hdac9_mut","prkacg_mut","rpgr_mut","large1_mut","foxp1_mut","clk3_mut","prkcz_mut","lipi_mut","ppp2r2a_mut","prkce_mut","gh1_mut","gpr32_mut","kras_mut","nf2_mut","chek2_mut","ldlrap1_mut","clrn2_mut","acvrl1_mut","agtr2_mut","cdkn2a_mut","ctnna1_mut","magea8_mut","prr16_mut","dtwd2_mut","akt2_mut","braf_mut","foxo1_mut","nt5e_mut","ccnd3_mut","nr3c1_mut","prkg1_mut","tbl1xr1_mut","frmd3_mut","smad2_mut","sgcd_mut","spaca1_mut","rasgef1b_mut","hist1h2bc_mut","nr2f1_mut","klrg1_mut","mbl2_mut","mtap_mut","ppp2cb_mut","smarcd1_mut","nras_mut","ndfip1_mut","hras_mut","prps2_mut","smarcb1_mut","stmn2_mut","siah1_mut"],"feature_types":["int","int","int","int","int","int","int","int","int","int","int","int","int","int","int","int","int","int","int","int","int","int","int","int","int","int","int","int","int","int","int","int","int","int","int","int","int","int","int","int","int","int","int","int","int","int","int","int","int","int","int","int","int","int","int","int","int","int","int","int","int","int","int","int","int","int","int","int","int","int","int","int","int","int","int","int","int","int","int","int","int","int","int","int","int","int","int","int","int","int","int","int","int","int","int","int","int","int","int","int","int","int","int","int","int","int","int","int","int","int","int","int","int","int","int","int","int","int","int","int","int","int","int","int","int","int","int","int","int","int","int","int","int","int","int","int","int","int","int","int","int","int","int","int","int","int","int","int","int","int","int","int","int","int","int","int","int","int","int","int","int","int","int","int","int","int","int","int","int","int","int","int","int"],"gradient_booster":{"model":{"gbtree_model_param":{"num_parallel_tree":"1","num_trees":"500"},"iteration_indptr":[0,1,2,3,4,5,6,7,8,9,10,11,12,13,14,15,16,17,18,19,20,21,22,23,24,25,26,27,28,29,30,31,32,33,34,35,36,37,38,39,40,41,42,43,44,45,46,47,48,49,50,51,52,53,54,55,56,57,58,59,60,61,62,63,64,65,66,67,68,69,70,71,72,73,74,75,76,77,78,79,80,81,82,83,84,85,86,87,88,89,90,91,92,93,94,95,96,97,98,99,100,101,102,103,104,105,106,107,108,109,110,111,112,113,114,115,116,117,118,119,120,121,122,123,124,125,126,127,128,129,130,131,132,133,134,135,136,137,138,139,140,141,142,143,144,145,146,147,148,149,150,151,152,153,154,155,156,157,158,159,160,161,162,163,164,165,166,167,168,169,170,171,172,173,174,175,176,177,178,179,180,181,182,183,184,185,186,187,188,189,190,191,192,193,194,195,196,197,198,199,200,201,202,203,204,205,206,207,208,209,210,211,212,213,214,215,216,217,218,219,220,221,222,223,224,225,226,227,228,229,230,231,232,233,234,235,236,237,238,239,240,241,242,243,244,245,246,247,248,249,250,251,252,253,254,255,256,257,258,259,260,261,262,263,264,265,266,267,268,269,270,271,272,273,274,275,276,277,278,279,280,281,282,283,284,285,286,287,288,289,290,291,292,293,294,295,296,297,298,299,300,301,302,303,304,305,306,307,308,309,310,311,312,313,314,315,316,317,318,319,320,321,322,323,324,325,326,327,328,329,330,331,332,333,334,335,336,337,338,339,340,341,342,343,344,345,346,347,348,349,350,351,352,353,354,355,356,357,358,359,360,361,362,363,364,365,366,367,368,369,370,371,372,373,374,375,376,377,378,379,380,381,382,383,384,385,386,387,388,389,390,391,392,393,394,395,396,397,398,399,400,401,402,403,404,405,406,407,408,409,410,411,412,413,414,415,416,417,418,419,420,421,422,423,424,425,426,427,428,429,430,431,432,433,434,435,436,437,438,439,440,441,442,443,444,445,446,447,448,449,450,451,452,453,454,455,456,457,458,459,460,461,462,463,464,465,466,467,468,469,470,471,472,473,474,475,476,477,478,479,480,481,482,483,484,485,486,487,488,489,490,491,492,493,494,495,496,497,498,499,500],"tree_info":[0,0,0,0,0,0,0,0,0,0,0,0,0,0,0,0,0,0,0,0,0,0,0,0,0,0,0,0,0,0,0,0,0,0,0,0,0,0,0,0,0,0,0,0,0,0,0,0,0,0,0,0,0,0,0,0,0,0,0,0,0,0,0,0,0,0,0,0,0,0,0,0,0,0,0,0,0,0,0,0,0,0,0,0,0,0,0,0,0,0,0,0,0,0,0,0,0,0,0,0,0,0,0,0,0,0,0,0,0,0,0,0,0,0,0,0,0,0,0,0,0,0,0,0,0,0,0,0,0,0,0,0,0,0,0,0,0,0,0,0,0,0,0,0,0,0,0,0,0,0,0,0,0,0,0,0,0,0,0,0,0,0,0,0,0,0,0,0,0,0,0,0,0,0,0,0,0,0,0,0,0,0,0,0,0,0,0,0,0,0,0,0,0,0,0,0,0,0,0,0,0,0,0,0,0,0,0,0,0,0,0,0,0,0,0,0,0,0,0,0,0,0,0,0,0,0,0,0,0,0,0,0,0,0,0,0,0,0,0,0,0,0,0,0,0,0,0,0,0,0,0,0,0,0,0,0,0,0,0,0,0,0,0,0,0,0,0,0,0,0,0,0,0,0,0,0,0,0,0,0,0,0,0,0,0,0,0,0,0,0,0,0,0,0,0,0,0,0,0,0,0,0,0,0,0,0,0,0,0,0,0,0,0,0,0,0,0,0,0,0,0,0,0,0,0,0,0,0,0,0,0,0,0,0,0,0,0,0,0,0,0,0,0,0,0,0,0,0,0,0,0,0,0,0,0,0,0,0,0,0,0,0,0,0,0,0,0,0,0,0,0,0,0,0,0,0,0,0,0,0,0,0,0,0,0,0,0,0,0,0,0,0,0,0,0,0,0,0,0,0,0,0,0,0,0,0,0,0,0,0,0,0,0,0,0,0,0,0,0,0,0,0,0,0,0,0,0,0,0,0,0,0,0,0,0,0,0,0,0,0,0,0,0,0,0,0,0,0,0,0,0,0,0,0,0,0,0,0,0,0,0,0,0,0,0,0,0,0,0,0,0,0,0,0,0,0,0,0,0,0,0,0,0,0,0,0,0,0,0,0,0,0,0,0,0,0,0,0,0,0],"trees":[{"base_weights":[-1.6706521E-6,6.4509907E0,-1.216892E1,4.0129356E0,3.864565E1,-1.4776415E1,3.3207516E1,2.055163E0,2.6888042E1,4.6707523E1,-2.118567E1,-1.6052977E1,7.742334E1,2.3699472E1,5.3855376E0,9.197972E-1,3.6838978E1,3.4557274E1,-2.4883827E1,4.9196182E1,-2.6275136E0,-4.995761E1,5.3010746E1,-1.6961432E1,3.8093114E0,5.2424774E0,-2.178347E0,1.19161415E1,8.8474594E1,2.7127436E-1,5.9977287E1,4.739114E1,-3.5683746E1,2.6831644E1,4.6816435E0,-3.969308E1,2.7099862E0,5.441037E1,1.1995294E0,-6.415377E1,-9.644809E0,3.4308197E0,5.4498637E-1,-1.776393E1,4.2491465E0,2.0011599E1,-2.5711296E0,5.209982E0,1.0324863E0,-5.9034564E-2,4.5177593E0,7.803702E1,-2.1125138E0,6.024781E1,-1.3513774E1,-2.5889072E0,3.1498644E-1,3.1906868E1,-3.3347107E1,-4.8746315E1,8.1831974E-1,5.771707E1,-2.2144812E1,8.399543E0,-1.0500138E0,-3.9637706E0,-9.168034E-2,3.308197E-1,-1.0541804E0,-1.676077E1,-4.2078805E0,3.4503407E1,-2.438379E1,-1.1375518E-1,6.016919E-1,4.5345E0,-2.6334706E-1,3.2319038E0,-5.7918036E-1,-3.100574E0,1.9744262E0,1.8530064E0,-1.3003553E0,-2.5537708E0,9.391529E-1,-2.7697856E0,-5.5013657E-2,3.0403652E0,-7.0279604E-1,-1.5291804E0,-1.3168049E-1,1.3311386E-2,1.226653E0,-9.271135E-1,8.2377356E-1,2.2458634E0,-1.4533516E0,-3.8612707E0,2.7099817E0],"categories":[],"categories_nodes":[],"categories_segments":[],"categories_sizes":[],"default_left":[0,0,0,0,0,0,0,0,0,0,0,0,0,0,0,0,0,0,0,0,0,0,0,0,0,0,0,0,0,0,0,0,0,0,0,0,0,0,0,0,0,0,0,0,0,0,0,0,0,0,0,0,0,0,0,0,0,0,0,0,0,0,0,0,0,0,0,0,0,0,0,0,0,0,0,0,0,0,0,0,0,0,0,0,0,0,0,0,0,0,0,0,0,0,0,0,0,0,0],"id":0,"left_children":[1,3,5,7,9,11,13,15,17,19,21,23,25,27,-1,29,31,33,35,37,-1,39,41,43,-1,-1,-1,45,47,49,51,53,55,57,-1,59,-1,61,63,65,67,-1,-1,69,-1,71,-1,-1,-1,73,-1,75,-1,77,79,-1,-1,81,83,85,-1,87,89,91,-1,-1,-1,-1,-1,93,-1,95,97,-1,-1,-1,-1,-1,-1,-1,-1,-1,-1,-1,-1,-1,-1,-1,-1,-1,-1,-1,-1,-1,-1,-1,-1,-1,-1],"loss_changes":[1.1963644E5,7.8023305E4,6.296304E4,4.1459754E4,3.475421E4,6.009225E4,1.7990336E4,3.3732074E4,2.984459E4,1.7900422E4,2.1861266E4,4.2687055E4,2.7796102E4,1.9553924E4,0E0,3.173454E4,2.2353422E4,2.6697016E4,1.3863037E4,1.5200828E4,0E0,3.3872578E3,1.2236094E3,4.1596547E4,0E0,0E0,0E0,1.3335192E4,2.114504E3,2.4434615E4,1.9912902E4,1.9607004E4,3.028984E3,1.8778402E4,0E0,5.3654766E3,0E0,1.5201109E4,1.2952648E3,4.5665547E3,6.975233E2,0E0,0E0,3.1025328E4,0E0,1.499545E4,0E0,0E0,0E0,2.1975465E4,0E0,8.910012E3,0E0,7.055922E3,1.5301188E4,0E0,0E0,1.7079902E4,5.58025E3,2.4735898E3,0E0,1.2609844E4,4.1340796E2,7.807825E2,0E0,0E0,0E0,0E0,0E0,2.8785672E4,0E0,1.2559846E4,2.9100445E4,0E0,0E0,0E0,0E0,0E0,0E0,0E0,0E0,0E0,0E0,0E0,0E0,0E0,0E0,0E0,0E0,0E0,0E0,0E0,0E0,0E0,0E0,0E0,0E0,0E0,0E0],"parents":[2147483647,0,0,1,1,2,2,3,3,4,4,5,5,6,6,7,7,8,8,9,9,10,10,11,11,12,12,13,13,15,15,16,16,17,17,18,18,19,19,21,21,22,22,23,23,27,27,28,28,29,29,30,30,31,31,32,32,33,33,35,35,37,37,38,38,39,39,40,40,43,43,45,45,49,49,51,51,53,53,54,54,57,57,58,58,59,59,61,61,62,62,63,63,69,69,71,71,72,72],"right_children":[2,4,6,8,10,12,14,16,18,20,22,24,26,28,-1,30,32,34,36,38,-1,40,42,44,-1,-1,-1,46,48,50,52,54,56,58,-1,60,-1,62,64,66,68,-1,-1,70,-1,72,-1,-1,-1,74,-1,76,-1,78,80,-1,-1,82,84,86,-1,88,90,92,-1,-1,-1,-1,-1,94,-1,96,98,-1,-1,-1,-1,-1,-1,-1,-1,-1,-1,-1,-1,-1,-1,-1,-1,-1,-1,-1,-1,-1,-1,-1,-1,-1,-1],"split_conditions":[1E0,1E0,1E0,1E0,1E0,1E0,1E0,1E0,1E0,1E0,1E0,1E0,1E0,1E0,5.3855376E0,1E0,1E0,1E0,1E0,1E0,-2.6275136E0,1E0,1E0,1E0,3.8093114E0,5.2424774E0,-2.178347E0,1E0,1E0,1E0,1E0,1E0,1E0,1E0,4.6816435E0,1E0,2.7099862E0,1E0,1E0,1E0,1E0,3.4308197E0,5.4498637E-1,1E0,4.2491465E0,1E0,-2.5711296E0,5.209982E0,1.0324863E0,1E0,4.5177593E0,1E0,-2.1125138E0,1E0,1E0,-2.5889072E0,3.1498644E-1,1E0,1E0,1E0,8.1831974E-1,1E0,1E0,1E0,-1.0500138E0,-3.9637706E0,-9.168034E-2,3.308197E-1,-1.0541804E0,1E0,-4.2078805E0,1E0,1E0,-1.1375518E-1,6.016919E-1,4.5345E0,-2.6334706E-1,3.2319038E0,-5.7918036E-1,-3.100574E0,1.9744262E0,1.8530064E0,-1.3003553E0,-2.5537708E0,9.391529E-1,-2.7697856E0,-5.5013657E-2,3.0403652E0,-7.0279604E-1,-1.5291804E0,-1.3168049E-1,1.3311386E-2,1.226653E0,-9.271135E-1,8.2377356E-1,2.2458634E0,-1.4533516E0,-3.8612707E0,2.7099817E0],"split_indices":[1,27,25,8,20,125,43,53,6,135,2,155,4,28,0,112,17,25,16,5,0,6,4,161,0,0,0,30,3,148,14,96,100,61,0,19,0,58,21,7,0,0,0,96,0,13,0,0,0,6,0,9,0,103,54,0,0,34,48,5,0,99,4,3,0,0,0,0,0,15,0,47,79,0,0,0,0,0,0,0,0,0,0,0,0,0,0,0,0,0,0,0,0,0,0,0,0,0,0],"split_type":[0,0,0,0,0,0,0,0,0,0,0,0,0,0,0,0,0,0,0,0,0,0,0,0,0,0,0,0,0,0,0,0,0,0,0,0,0,0,0,0,0,0,0,0,0,0,0,0,0,0,0,0,0,0,0,0,0,0,0,0,0,0,0,0,0,0,0,0,0,0,0,0,0,0,0,0,0,0,0,0,0,0,0,0,0,0,0,0,0,0,0,0,0,0,0,0,0,0,0],"sum_hessian":[1.522E3,9.95E2,5.27E2,9.26E2,6.9E1,4.99E2,2.8E1,8.54E2,7.2E1,6.1E1,8E0,4.93E2,6E0,2.6E1,2E0,8.28E2,2.6E1,6.3E1,9E0,6E1,1E0,6E0,2E0,4.89E2,4E0,5E0,1E0,2.3E1,3E0,8.2E2,8E0,2.3E1,3E0,5.7E1,6E0,8E0,1E0,5.4E1,6E0,4E0,2E0,1E0,1E0,4.86E2,3E0,2.1E1,2E0,2E0,1E0,8.18E2,2E0,7E0,1E0,1.9E1,4E0,2E0,1E0,5.3E1,4E0,7E0,1E0,5.2E1,2E0,5E0,1E0,3E0,1E0,1E0,1E0,4.8E2,6E0,1.6E1,5E0,6.92E2,1.26E2,6E0,1E0,1.8E1,1E0,2E0,2E0,4.9E1,4E0,3E0,1E0,6E0,1E0,5E1,2E0,1E0,1E0,4E0,1E0,4.56E2,2.4E1,1.4E1,2E0,3E0,2E0],"tree_param":{"num_deleted":"0","num_feature":"173","num_nodes":"99","size_leaf_vector":"1"}},{"base_weights":[1.5550955E-2,6.1366496E0,-1.1531096E1,3.8238738E0,3.6676743E1,-1.4023969E1,3.1847075E1,1.9599092E0,2.560286E1,4.434375E1,-2.021561E1,-1.524274E1,7.398991E1,2.2637186E1,5.2060194E0,8.824487E-1,3.496935E1,3.2885963E1,-2.3569288E1,4.6750584E1,-2.561826E0,-4.814242E1,5.1685482E1,-1.6113485E1,3.656939E0,5.0240407E0,-2.1238885E0,1.2757003E1,4.8713164E0,2.6380697E-1,5.721827E1,4.508519E1,-3.446804E1,2.5471748E1,4.4810014E0,-3.793137E1,2.6422365E0,5.170216E1,1.166687E0,-6.1757175E1,-9.403687E0,3.3450494E0,5.3136176E-1,-1.6884583E1,4.089803E0,2.801048E1,-5.3859005E1,-5.548782E-2,4.3671675E0,7.466906E1,-2.059701E0,5.7368057E1,-1.3063316E1,-2.5026104E0,3.0711174E-1,3.0321754E1,-3.2002674E1,-4.66621E1,7.978617E-1,5.4875328E1,-2.1591188E1,8.186225E0,-1.0237635E0,-3.8151295E0,-8.938827E-2,3.2254925E-1,-1.0278257E0,-1.5922943E1,-4.0275435E0,3.8807663E1,-2.4854252E0,-3.716473E0,7.005703E-1,3.5810024E-2,-1.7217703E0,4.3401647E0,-2.5676346E-1,3.2523944E0,5.193383E-1,-2.9972217E0,1.9086119E0,1.7622089E0,-1.2483412E0,-2.4580042E0,9.1567403E-1,-2.6510806E0,-5.363827E-2,3.189072E0,1.2754817E0,-1.4909508E0,-1.283884E-1,1.2778855E-2,1.1959866E0,-5.406327E-1,-1.3403832E0,2.4165883E0,-1.4049065E0],"categories":[],"categories_nodes":[],"categories_segments":[],"categories_sizes":[],"default_left":[0,0,0,0,0,0,0,0,0,0,0,0,0,0,0,0,0,0,0,0,0,0,0,0,0,0,0,0,0,0,0,0,0,0,0,0,0,0,0,0,0,0,0,0,0,0,0,0,0,0,0,0,0,0,0,0,0,0,0,0,0,0,0,0,0,0,0,0,0,0,0,0,0,0,0,0,0,0,0,0,0,0,0,0,0,0,0,0,0,0,0,0,0,0,0,0,0],"id":1,"left_children":[1,3,5,7,9,11,13,15,17,19,21,23,25,27,-1,29,31,33,35,37,-1,39,41,43,-1,-1,-1,45,-1,47,49,51,53,55,-1,57,-1,59,61,63,65,-1,-1,67,-1,69,71,73,-1,75,-1,77,79,-1,-1,81,83,85,-1,87,89,91,-1,-1,-1,-1,-1,93,-1,95,-1,-1,-1,-1,-1,-1,-1,-1,-1,-1,-1,-1,-1,-1,-1,-1,-1,-1,-1,-1,-1,-1,-1,-1,-1,-1,-1],"loss_changes":[1.0771362E5,7.020962E4,5.7542555E4,3.758162E4,3.1430016E4,5.476221E4,1.6946252E4,3.0378385E4,2.6918285E4,1.6658172E4,2.0559977E4,3.919564E4,2.5865543E4,1.8708252E4,0E0,2.8876957E4,2.0519277E4,2.4638086E4,1.2979117E4,1.3708125E4,0E0,3.1111826E3,1.1631929E3,3.8375047E4,0E0,0E0,0E0,2.6911764E4,0E0,2.2831965E4,1.8532266E4,1.7890945E4,2.838942E3,1.7137957E4,0E0,4.9789785E3,0E0,1.3976281E4,1.2310309E3,4.2249883E3,6.6308307E2,0E0,0E0,2.8533484E4,0E0,1.955114E4,7.9881504E3,2.1753209E4,0E0,8.192672E3,0E0,6.5405234E3,1.4298112E4,0E0,0E0,1.5576238E4,5.216767E3,2.2625254E3,0E0,1.2234266E4,3.9299585E2,7.42548E2,0E0,0E0,0E0,0E0,0E0,2.6465312E4,0E0,1.3465162E4,0E0,0E0,0E0,0E0,0E0,0E0,0E0,0E0,0E0,0E0,0E0,0E0,0E0,0E0,0E0,0E0,0E0,0E0,0E0,0E0,0E0,0E0,0E0,0E0,0E0,0E0,0E0],"parents":[2147483647,0,0,1,1,2,2,3,3,4,4,5,5,6,6,7,7,8,8,9,9,10,10,11,11,12,12,13,13,15,15,16,16,17,17,18,18,19,19,21,21,22,22,23,23,27,27,29,29,30,30,31,31,32,32,33,33,35,35,37,37,38,38,39,39,40,40,43,43,45,45,46,46,47,47,49,49,51,51,52,52,55,55,56,56,57,57,59,59,60,60,61,61,67,67,69,69],"right_children":[2,4,6,8,10,12,14,16,18,20,22,24,26,28,-1,30,32,34,36,38,-1,40,42,44,-1,-1,-1,46,-1,48,50,52,54,56,-1,58,-1,60,62,64,66,-1,-1,68,-1,70,72,74,-1,76,-1,78,80,-1,-1,82,84,86,-1,88,90,92,-1,-1,-1,-1,-1,94,-1,96,-1,-1,-1,-1,-1,-1,-1,-1,-1,-1,-1,-1,-1,-1,-1,-1,-1,-1,-1,-1,-1,-1,-1,-1,-1,-1,-1],"split_conditions":[1E0,1E0,1E0,1E0,1E0,1E0,1E0,1E0,1E0,1E0,1E0,1E0,1E0,1E0,5.2060194E0,1E0,1E0,1E0,1E0,1E0,-2.561826E0,1E0,1E0,1E0,3.656939E0,5.0240407E0,-2.1238885E0,1E0,4.8713164E0,1E0,1E0,1E0,1E0,1E0,4.4810014E0,1E0,2.6422365E0,1E0,1E0,1E0,1E0,3.3450494E0,5.3136176E-1,1E0,4.089803E0,1E0,1E0,1E0,4.3671675E0,1E0,-2.059701E0,1E0,1E0,-2.5026104E0,3.0711174E-1,1E0,1E0,1E0,7.978617E-1,1E0,1E0,1E0,-1.0237635E0,-3.8151295E0,-8.938827E-2,3.2254925E-1,-1.0278257E0,1E0,-4.0275435E0,1E0,-2.4854252E0,-3.716473E0,7.005703E-1,3.5810024E-2,-1.7217703E0,4.3401647E0,-2.5676346E-1,3.2523944E0,5.193383E-1,-2.9972217E0,1.9086119E0,1.7622089E0,-1.2483412E0,-2.4580042E0,9.1567403E-1,-2.6510806E0,-5.363827E-2,3.189072E0,1.2754817E0,-1.4909508E0,-1.283884E-1,1.2778855E-2,1.1959866E0,-5.406327E-1,-1.3403832E0,2.4165883E0,-1.4049065E0],"split_indices":[1,27,25,8,20,125,43,53,6,135,2,155,4,6,0,112,17,25,16,5,0,6,4,161,0,0,0,13,0,148,14,96,100,61,0,19,0,58,21,7,0,0,0,96,0,30,12,49,0,9,0,9,54,0,0,34,48,5,0,4,4,3,0,0,0,0,0,0,0,47,0,0,0,0,0,0,0,0,0,0,0,0,0,0,0,0,0,0,0,0,0,0,0,0,0,0,0],"split_type":[0,0,0,0,0,0,0,0,0,0,0,0,0,0,0,0,0,0,0,0,0,0,0,0,0,0,0,0,0,0,0,0,0,0,0,0,0,0,0,0,0,0,0,0,0,0,0,0,0,0,0,0,0,0,0,0,0,0,0,0,0,0,0,0,0,0,0,0,0,0,0,0,0,0,0,0,0,0,0,0,0,0,0,0,0,0,0,0,0,0,0,0,0,0,0,0,0],"sum_hessian":[1.522E3,9.95E2,5.27E2,9.26E2,6.9E1,4.99E2,2.8E1,8.54E2,7.2E1,6.1E1,8E0,4.93E2,6E0,2.6E1,2E0,8.28E2,2.6E1,6.3E1,9E0,6E1,1E0,6E0,2E0,4.89E2,4E0,5E0,1E0,2.4E1,2E0,8.2E2,8E0,2.3E1,3E0,5.7E1,6E0,8E0,1E0,5.4E1,6E0,4E0,2E0,1E0,1E0,4.86E2,3E0,2E1,4E0,8.18E2,2E0,7E0,1E0,1.9E1,4E0,2E0,1E0,5.3E1,4E0,7E0,1E0,5.2E1,2E0,5E0,1E0,3E0,1E0,1E0,1E0,4.8E2,6E0,1.8E1,2E0,3E0,1E0,8.01E2,1.7E1,6E0,1E0,1.6E1,3E0,2E0,2E0,4.9E1,4E0,3E0,1E0,6E0,1E0,3.9E1,1.3E1,1E0,1E0,4E0,1E0,3.28E2,1.52E2,1.6E1,2E0],"tree_param":{"num_deleted":"0","num_feature":"173","num_nodes":"97","size_leaf_vector":"1"}},{"base_weights":[2.7537586E-2,5.8389673E0,-1.0934984E1,3.6427972E0,3.4839123E1,-1.33132925E1,3.0447395E1,3.2308366E0,4.894749E0,4.2134117E1,-1.9286316E1,-1.4476881E1,7.070471E1,2.1519459E1,5.0324855E0,1.7139448E0,2.4663029E1,4.446273E1,-2.4977803E0,-4.639384E1,5.0393345E1,-1.5311522E1,3.5106614E0,4.8147054E0,-2.0707912E0,1.0345165E1,8.318535E1,1.123811E0,5.7651783E1,2.788039E1,-2.3416383E0,4.916878E1,1.134782E0,-5.945022E1,-9.168594E0,3.261423E0,5.1807785E-1,-1.6052485E1,3.9364357E0,1.783812E1,-2.4025776E0,4.9148507E0,9.462593E-1,4.5638207E-1,4.4368908E1,7.48993E1,-2.0082085E0,1.2845946E1,4.6468494E1,5.2215797E1,-2.1051409E1,7.9783745E0,-9.9816936E-1,-3.672062E0,-8.715363E-2,3.1448555E-1,-1.0021302E0,-1.7780235E1,1.6587536E1,6.2821565E0,3.4134705E0,-3.132318E-3,2.7351341E0,2.8134887E0,-7.028618E-1,4.752084E0,4.8240572E-1,3.8795674E-1,4.5177684E0,2.6189404E0,-2.532232E0,2.7593899E0,-7.856721E-1,-1.453677E0,-1.2517872E-1,1.22676855E-2,1.166087E0,-9.4297355E-1,2.297937E0,1.5426029E0,-1.6862735E0,8.983246E-1,-1.5013641E0],"categories":[],"categories_nodes":[],"categories_segments":[],"categories_sizes":[],"default_left":[0,0,0,0,0,0,0,0,0,0,0,0,0,0,0,0,0,0,0,0,0,0,0,0,0,0,0,0,0,0,0,0,0,0,0,0,0,0,0,0,0,0,0,0,0,0,0,0,0,0,0,0,0,0,0,0,0,0,0,0,0,0,0,0,0,0,0,0,0,0,0,0,0,0,0,0,0,0,0,0,0,0,0],"id":2,"left_children":[1,3,5,7,9,11,13,15,-1,17,19,21,23,25,-1,27,29,31,-1,33,35,37,-1,-1,-1,39,41,43,45,47,-1,49,51,53,55,-1,-1,57,-1,59,-1,-1,-1,61,63,65,-1,67,69,71,73,75,-1,-1,-1,-1,-1,77,79,81,-1,-1,-1,-1,-1,-1,-1,-1,-1,-1,-1,-1,-1,-1,-1,-1,-1,-1,-1,-1,-1,-1,-1],"loss_changes":[9.7091016E4,6.330761E4,5.2371145E4,3.5677438E4,2.845175E4,4.9904773E4,1.6010164E4,2.9997264E4,0E0,1.5516523E4,1.9337527E4,3.5993844E4,2.4071777E4,1.7744398E4,0E0,2.8456547E4,1.5337418E4,1.2382328E4,0E0,2.8571143E3,1.1057603E3,3.5407195E4,0E0,0E0,0E0,1.1358684E4,2.0240234E3,2.4686508E4,1.8192006E4,1.58913125E4,0E0,1.2867109E4,1.1699862E3,3.9088945E3,6.303433E2,0E0,0E0,2.7758703E4,0E0,1.2392328E4,0E0,0E0,0E0,2.376656E4,9.830176E3,9.597535E3,0E0,1.2704297E4,1.7575895E4,1.1567125E4,3.7359167E2,7.061813E2,0E0,0E0,0E0,0E0,0E0,3.2716234E4,1.8982775E4,8.600266E3,0E0,0E0,0E0,0E0,0E0,0E0,0E0,0E0,0E0,0E0,0E0,0E0,0E0,0E0,0E0,0E0,0E0,0E0,0E0,0E0,0E0,0E0,0E0],"parents":[2147483647,0,0,1,1,2,2,3,3,4,4,5,5,6,6,7,7,9,9,10,10,11,11,12,12,13,13,15,15,16,16,17,17,19,19,20,20,21,21,25,25,26,26,27,27,28,28,29,29,31,31,32,32,33,33,34,34,37,37,39,39,43,43,44,44,45,45,47,47,48,48,49,49,50,50,51,51,57,57,58,58,59,59],"right_children":[2,4,6,8,10,12,14,16,-1,18,20,22,24,26,-1,28,30,32,-1,34,36,38,-1,-1,-1,40,42,44,46,48,-1,50,52,54,56,-1,-1,58,-1,60,-1,-1,-1,62,64,66,-1,68,70,72,74,76,-1,-1,-1,-1,-1,78,80,82,-1,-1,-1,-1,-1,-1,-1,-1,-1,-1,-1,-1,-1,-1,-1,-1,-1,-1,-1,-1,-1,-1,-1],"split_conditions":[1E0,1E0,1E0,1E0,1E0,1E0,1E0,1E0,4.894749E0,1E0,1E0,1E0,1E0,1E0,5.0324855E0,1E0,1E0,1E0,-2.4977803E0,1E0,1E0,1E0,3.5106614E0,4.8147054E0,-2.0707912E0,1E0,1E0,1E0,1E0,1E0,-2.3416383E0,1E0,1E0,1E0,1E0,3.261423E0,5.1807785E-1,1E0,3.9364357E0,1E0,-2.4025776E0,4.9148507E0,9.462593E-1,1E0,1E0,1E0,-2.0082085E0,1E0,1E0,1E0,1E0,1E0,-9.9816936E-1,-3.672062E0,-8.715363E-2,3.1448555E-1,-1.0021302E0,1E0,1E0,1E0,3.4134705E0,-3.132318E-3,2.7351341E0,2.8134887E0,-7.028618E-1,4.752084E0,4.8240572E-1,3.8795674E-1,4.5177684E0,2.6189404E0,-2.532232E0,2.7593899E0,-7.856721E-1,-1.453677E0,-1.2517872E-1,1.22676855E-2,1.166087E0,-9.4297355E-1,2.297937E0,1.5426029E0,-1.6862735E0,8.983246E-1,-1.5013641E0],"split_indices":[1,27,25,148,20,125,43,19,0,135,2,155,4,28,0,112,41,5,0,6,4,161,0,0,0,30,3,81,14,0,0,58,21,7,0,0,0,15,0,9,0,0,0,124,78,4,0,38,10,99,4,3,0,0,0,0,0,75,18,18,0,0,0,0,0,0,0,0,0,0,0,0,0,0,0,0,0,0,0,0,0,0,0],"split_type":[0,0,0,0,0,0,0,0,0,0,0,0,0,0,0,0,0,0,0,0,0,0,0,0,0,0,0,0,0,0,0,0,0,0,0,0,0,0,0,0,0,0,0,0,0,0,0,0,0,0,0,0,0,0,0,0,0,0,0,0,0,0,0,0,0,0,0,0,0,0,0,0,0,0,0,0,0,0,0,0,0,0,0],"sum_hessian":[1.522E3,9.95E2,5.27E2,9.26E2,6.9E1,4.99E2,2.8E1,9.23E2,3E0,6.1E1,8E0,4.93E2,6E0,2.6E1,2E0,8.63E2,6E1,6E1,1E0,6E0,2E0,4.89E2,4E0,5E0,1E0,2.3E1,3E0,8.55E2,8E0,5.8E1,2E0,5.4E1,6E0,4E0,2E0,1E0,1E0,4.86E2,3E0,2.1E1,2E0,2E0,1E0,8.43E2,1.2E1,7E0,1E0,3.3E1,2.5E1,5.2E1,2E0,5E0,1E0,3E0,1E0,1E0,1E0,4.62E2,2.4E1,1.8E1,3E0,8.36E2,7E0,1E1,2E0,5E0,2E0,3.2E1,1E0,2.4E1,1E0,5E1,2E0,1E0,1E0,4E0,1E0,4.55E2,7E0,1.9E1,5E0,1.4E1,4E0],"tree_param":{"num_deleted":"0","num_feature":"173","num_nodes":"83","size_leaf_vector":"1"}},{"base_weights":[4.9620736E-2,5.5600986E0,-1.0345238E1,3.4775043E0,3.306017E1,-1.26248255E1,2.931473E1,1.723783E0,2.3970026E1,3.9996407E1,-1.8396152E1,-1.3735513E1,6.756146E1,2.0675667E1,4.864736E0,7.0255136E-1,3.3015533E1,3.0833557E1,-2.2353575E1,4.2249023E1,-2.4353359E0,-4.4709415E1,4.913351E1,-1.4535442E1,3.3702347E0,4.6140924E0,-2.0190217E0,1.1164807E1,4.652047E0,1.3612552E-1,5.2295113E1,4.2593567E1,-3.2706535E1,2.3717464E1,4.2695336E0,-3.6287342E1,2.5762584E0,4.671753E1,1.1037827E0,-5.7229553E1,-8.93938E0,3.1798875E0,5.051258E-1,-1.5247376E1,3.78882E0,2.5560013E1,-5.1528023E1,7.50167E-1,-4.132302E1,6.862202E1,-1.9580033E0,5.4288174E1,-1.2703585E1,-2.3801105E0,2.995123E-1,1.7445974E1,7.516272E1,-4.4664345E1,7.682163E-1,4.9642254E1,-2.0525126E1,7.775847E0,-9.732151E-1,-3.5343597E0,-8.497486E-2,3.0662346E-1,-9.7707695E-1,-1.4327316E1,-3.814521E0,3.5584724E1,-2.3224916E0,-3.5508003E0,6.605976E-1,2.253274E-2,4.058437E0,-2.4625309E0,1.1470133E0,3.9962308E0,-2.6240444E-1,2.919242E0,-5.8870965E-1,-2.8972096E0,1.8385775E0,5.297683E-1,3.4671593E0,4.631828E0,-3.0516186E-1,-2.5373285E0,-5.221901E-2,2.9079473E0,1.0881486E0,-1.4173352E0,-1.2204933E-1,1.1776962E-2,1.1369346E0,-7.474124E-1,3.1727836E0,2.226445E0,-1.3480256E0],"categories":[],"categories_nodes":[],"categories_segments":[],"categories_sizes":[],"default_left":[0,0,0,0,0,0,0,0,0,0,0,0,0,0,0,0,0,0,0,0,0,0,0,0,0,0,0,0,0,0,0,0,0,0,0,0,0,0,0,0,0,0,0,0,0,0,0,0,0,0,0,0,0,0,0,0,0,0,0,0,0,0,0,0,0,0,0,0,0,0,0,0,0,0,0,0,0,0,0,0,0,0,0,0,0,0,0,0,0,0,0,0,0,0,0,0,0,0,0],"id":3,"left_children":[1,3,5,7,9,11,13,15,17,19,21,23,25,27,-1,29,31,33,35,37,-1,39,41,43,-1,-1,-1,45,-1,47,49,51,53,55,-1,57,-1,59,61,63,65,-1,-1,67,-1,69,71,73,75,77,-1,79,81,-1,-1,83,85,87,-1,89,91,93,-1,-1,-1,-1,-1,95,-1,97,-1,-1,-1,-1,-1,-1,-1,-1,-1,-1,-1,-1,-1,-1,-1,-1,-1,-1,-1,-1,-1,-1,-1,-1,-1,-1,-1,-1,-1],"loss_changes":[8.729594E4,5.692743E4,4.810571E4,3.3273367E4,2.571971E4,4.5458914E4,1.5019582E4,2.7299295E4,2.389911E4,1.4446305E4,1.8189062E4,3.3043555E4,2.240494E4,1.7544125E4,0E0,2.4219045E4,1.8389264E4,2.2821688E4,1.2163804E4,1.116375E4,0E0,2.6233252E3,1.0511636E3,3.2660469E4,0E0,0E0,0E0,2.3878963E4,0E0,2.0931719E4,1.6125863E4,1.6209941E4,2.590808E3,1.7401738E4,0E0,4.580412E3,0E0,1.1835555E4,1.1119727E3,3.6163848E3,5.992203E2,0E0,0E0,2.6258469E4,0E0,1.6812342E4,7.2465166E3,1.947336E4,7.2432637E3,7.0988477E3,0E0,6.1001367E3,1.3322123E4,0E0,0E0,1.8108242E4,9.085555E3,2.0694531E3,0E0,1.131857E4,3.551455E2,6.715908E2,0E0,0E0,0E0,0E0,0E0,2.417979E4,0E0,1.1829412E4,0E0,0E0,0E0,0E0,0E0,0E0,0E0,0E0,0E0,0E0,0E0,0E0,0E0,0E0,0E0,0E0,0E0,0E0,0E0,0E0,0E0,0E0,0E0,0E0,0E0,0E0,0E0,0E0,0E0],"parents":[2147483647,0,0,1,1,2,2,3,3,4,4,5,5,6,6,7,7,8,8,9,9,10,10,11,11,12,12,13,13,15,15,16,16,17,17,18,18,19,19,21,21,22,22,23,23,27,27,29,29,30,30,31,31,32,32,33,33,35,35,37,37,38,38,39,39,40,40,43,43,45,45,46,46,47,47,48,48,49,49,51,51,52,52,55,55,56,56,57,57,59,59,60,60,61,61,67,67,69,69],"right_children":[2,4,6,8,10,12,14,16,18,20,22,24,26,28,-1,30,32,34,36,38,-1,40,42,44,-1,-1,-1,46,-1,48,50,52,54,56,-1,58,-1,60,62,64,66,-1,-1,68,-1,70,72,74,76,78,-1,80,82,-1,-1,84,86,88,-1,90,92,94,-1,-1,-1,-1,-1,96,-1,98,-1,-1,-1,-1,-1,-1,-1,-1,-1,-1,-1,-1,-1,-1,-1,-1,-1,-1,-1,-1,-1,-1,-1,-1,-1,-1,-1,-1,-1],"split_conditions":[1E0,1E0,1E0,1E0,1E0,1E0,1E0,1E0,1E0,1E0,1E0,1E0,1E0,1E0,4.864736E0,1E0,1E0,1E0,1E0,1E0,-2.4353359E0,1E0,1E0,1E0,3.3702347E0,4.6140924E0,-2.0190217E0,1E0,4.652047E0,1E0,1E0,1E0,1E0,1E0,4.2695336E0,1E0,2.5762584E0,1E0,1E0,1E0,1E0,3.1798875E0,5.051258E-1,1E0,3.78882E0,1E0,1E0,1E0,1E0,1E0,-1.9580033E0,1E0,1E0,-2.3801105E0,2.995123E-1,1E0,1E0,1E0,7.682163E-1,1E0,1E0,1E0,-9.732151E-1,-3.5343597E0,-8.497486E-2,3.0662346E-1,-9.7707695E-1,1E0,-3.814521E0,1E0,-2.3224916E0,-3.5508003E0,6.605976E-1,2.253274E-2,4.058437E0,-2.4625309E0,1.1470133E0,3.9962308E0,-2.6240444E-1,2.919242E0,-5.8870965E-1,-2.8972096E0,1.8385775E0,5.297683E-1,3.4671593E0,4.631828E0,-3.0516186E-1,-2.5373285E0,-5.221901E-2,2.9079473E0,1.0881486E0,-1.4173352E0,-1.2204933E-1,1.1776962E-2,1.1369346E0,-7.474124E-1,3.1727836E0,2.226445E0,-1.3480256E0],"split_indices":[1,27,25,8,20,125,43,53,6,135,2,155,4,6,0,112,17,25,16,5,0,6,4,161,0,0,0,13,0,90,14,96,100,17,0,19,0,58,21,7,0,0,0,96,0,30,12,148,7,9,0,26,54,0,0,40,19,5,0,4,4,3,0,0,0,0,0,112,0,47,0,0,0,0,0,0,0,0,0,0,0,0,0,0,0,0,0,0,0,0,0,0,0,0,0,0,0,0,0],"split_type":[0,0,0,0,0,0,0,0,0,0,0,0,0,0,0,0,0,0,0,0,0,0,0,0,0,0,0,0,0,0,0,0,0,0,0,0,0,0,0,0,0,0,0,0,0,0,0,0,0,0,0,0,0,0,0,0,0,0,0,0,0,0,0,0,0,0,0,0,0,0,0,0,0,0,0,0,0,0,0,0,0,0,0,0,0,0,0,0,0,0,0,0,0,0,0,0,0,0,0],"sum_hessian":[1.522E3,9.95E2,5.27E2,9.26E2,6.9E1,4.99E2,2.8E1,8.54E2,7.2E1,6.1E1,8E0,4.93E2,6E0,2.6E1,2E0,8.28E2,2.6E1,6.3E1,9E0,6E1,1E0,6E0,2E0,4.89E2,4E0,5E0,1E0,2.4E1,2E0,8.2E2,8E0,2.3E1,3E0,5.7E1,6E0,8E0,1E0,5.4E1,6E0,4E0,2E0,1E0,1E0,4.86E2,3E0,2E1,4E0,8.09E2,1.1E1,7E0,1E0,1.9E1,4E0,2E0,1E0,5.2E1,5E0,7E0,1E0,5.2E1,2E0,5E0,1E0,3E0,1E0,1E0,1E0,4.8E2,6E0,1.8E1,2E0,3E0,1E0,8.07E2,2E0,1E1,1E0,6E0,1E0,1.8E1,1E0,2E0,2E0,4.7E1,5E0,4E0,1E0,6E0,1E0,3.9E1,1.3E1,1E0,1E0,4E0,1E0,4.77E2,3E0,1.6E1,2E0],"tree_param":{"num_deleted":"0","num_feature":"173","num_nodes":"99","size_leaf_vector":"1"}},{"base_weights":[6.698418E-2,5.2988358E0,-9.802317E0,3.322057E0,3.1401333E1,-1.1976853E1,2.8027702E1,2.937484E0,4.5663958E0,3.7999763E1,-1.7543541E1,-1.3037056E1,6.4554115E1,1.9653656E1,4.702578E0,1.3698573E0,2.1468708E1,4.0179726E1,-2.3744524E0,-4.308677E1,4.790517E1,-1.3803772E1,3.2354252E0,4.4218388E0,-1.9685459E0,1.04332E1,4.4969783E0,-1.0548666E0,1.4388001E1,3.1107185E1,-2.068407E1,4.4426323E1,1.0736629E0,-5.509194E1,-8.715897E0,3.1003902E0,4.9249765E-1,-1.4487859E1,3.6467392E0,2.4213251E1,-4.9529655E1,-2.4724498E0,2.1321327E1,1.7086836E1,-5.865929E1,3.620685E1,-3.1210531E1,-3.8716457E1,3.407601E1,4.7235542E1,-2.0012E1,7.578505E0,-9.488848E-1,-3.4018211E0,-8.2850456E-2,2.9895782E-1,-9.5265007E-1,-1.6119686E1,1.6313114E1,3.3851727E1,-4.49015E1,-3.417645E0,6.4408267E-1,-2.0326543E-1,9.7502106E-1,7.804753E-1,4.6137877E0,9.73794E-1,-2.3267221E0,-3.9517376E0,5.710638E-1,2.0922084E0,-8.402633E-1,-2.3904665E0,8.796162E-1,-2.2756932E0,7.314396E-1,2.3641078E0,-1.385603E-1,2.5047731E0,-8.5641444E-1,-1.3819017E0,-1.1899815E-1,1.1305771E-2,1.1085113E0,-5.23169E-1,-1.4351993E0,1.5048312E0,-1.6175381E0,2.1216714E0,-1.3030914E0,-2.6646397E0,-7.02973E-1],"categories":[],"categories_nodes":[],"categories_segments":[],"categories_sizes":[],"default_left":[0,0,0,0,0,0,0,0,0,0,0,0,0,0,0,0,0,0,0,0,0,0,0,0,0,0,0,0,0,0,0,0,0,0,0,0,0,0,0,0,0,0,0,0,0,0,0,0,0,0,0,0,0,0,0,0,0,0,0,0,0,0,0,0,0,0,0,0,0,0,0,0,0,0,0,0,0,0,0,0,0,0,0,0,0,0,0,0,0,0,0,0,0],"id":4,"left_children":[1,3,5,7,9,11,13,15,-1,17,19,21,23,25,-1,27,29,31,-1,33,35,37,-1,-1,-1,39,-1,41,43,45,47,49,51,53,55,-1,-1,57,-1,59,61,63,65,67,69,71,73,75,77,79,81,83,-1,-1,-1,-1,-1,85,87,89,91,-1,-1,-1,-1,-1,-1,-1,-1,-1,-1,-1,-1,-1,-1,-1,-1,-1,-1,-1,-1,-1,-1,-1,-1,-1,-1,-1,-1,-1,-1,-1,-1],"loss_changes":[7.869162E4,5.1288145E4,4.377043E4,3.1105742E4,2.3273805E4,4.141075E4,1.4185262E4,2.6812828E4,0E0,1.346257E4,1.7110021E4,3.0339938E4,2.0855875E4,1.655948E4,0E0,2.6940467E4,2.98962E4,1.008243E4,0E0,2.4082217E3,9.992622E2,3.0131672E4,0E0,0E0,0E0,2.1856557E4,0E0,2.28912E4,2.7419402E4,1.98802E4,1.5143674E4,1.0901453E4,1.0568391E3,3.3457012E3,5.696338E2,0E0,0E0,2.4740508E4,0E0,1.5509371E4,6.754413E3,2.380906E4,1.5986611E4,2.0665527E4,8.042297E3,1.7139734E4,4.89142E3,4.6545137E3,2.0774673E3,1.0614039E4,3.376101E2,6.3869116E2,0E0,0E0,0E0,0E0,0E0,3.2656305E4,1.774262E4,1.0874936E4,2.7145508E1,0E0,0E0,0E0,0E0,0E0,0E0,0E0,0E0,0E0,0E0,0E0,0E0,0E0,0E0,0E0,0E0,0E0,0E0,0E0,0E0,0E0,0E0,0E0,0E0,0E0,0E0,0E0,0E0,0E0,0E0,0E0,0E0],"parents":[2147483647,0,0,1,1,2,2,3,3,4,4,5,5,6,6,7,7,9,9,10,10,11,11,12,12,13,13,15,15,16,16,17,17,19,19,20,20,21,21,25,25,27,27,28,28,29,29,30,30,31,31,32,32,33,33,34,34,37,37,39,39,40,40,41,41,42,42,43,43,44,44,45,45,46,46,47,47,48,48,49,49,50,50,51,51,57,57,58,58,59,59,60,60],"right_children":[2,4,6,8,10,12,14,16,-1,18,20,22,24,26,-1,28,30,32,-1,34,36,38,-1,-1,-1,40,-1,42,44,46,48,50,52,54,56,-1,-1,58,-1,60,62,64,66,68,70,72,74,76,78,80,82,84,-1,-1,-1,-1,-1,86,88,90,92,-1,-1,-1,-1,-1,-1,-1,-1,-1,-1,-1,-1,-1,-1,-1,-1,-1,-1,-1,-1,-1,-1,-1,-1,-1,-1,-1,-1,-1,-1,-1,-1],"split_conditions":[1E0,1E0,1E0,1E0,1E0,1E0,1E0,1E0,4.5663958E0,1E0,1E0,1E0,1E0,1E0,4.702578E0,1E0,1E0,1E0,-2.3744524E0,1E0,1E0,1E0,3.2354252E0,4.4218388E0,-1.9685459E0,1E0,4.4969783E0,1E0,1E0,1E0,1E0,1E0,1E0,1E0,1E0,3.1003902E0,4.9249765E-1,1E0,3.6467392E0,1E0,1E0,1E0,1E0,1E0,1E0,1E0,1E0,1E0,1E0,1E0,1E0,1E0,-9.488848E-1,-3.4018211E0,-8.2850456E-2,2.9895782E-1,-9.5265007E-1,1E0,1E0,1E0,1E0,-3.417645E0,6.4408267E-1,-2.0326543E-1,9.7502106E-1,7.804753E-1,4.6137877E0,9.73794E-1,-2.3267221E0,-3.9517376E0,5.710638E-1,2.0922084E0,-8.402633E-1,-2.3904665E0,8.796162E-1,-2.2756932E0,7.314396E-1,2.3641078E0,-1.385603E-1,2.5047731E0,-8.5641444E-1,-1.3819017E0,-1.1899815E-1,1.1305771E-2,1.1085113E0,-5.23169E-1,-1.4351993E0,1.5048312E0,-1.6175381E0,2.1216714E0,-1.3030914E0,-2.6646397E0,-7.02973E-1],"split_indices":[1,27,25,148,20,125,43,8,0,135,2,155,4,6,0,6,3,5,0,6,4,161,0,0,0,13,0,22,25,61,4,58,21,7,0,0,0,15,0,30,12,12,144,62,4,65,48,58,14,99,4,3,0,0,0,0,0,0,18,47,0,0,0,0,0,0,0,0,0,0,0,0,0,0,0,0,0,0,0,0,0,0,0,0,0,0,0,0,0,0,0,0,0],"split_type":[0,0,0,0,0,0,0,0,0,0,0,0,0,0,0,0,0,0,0,0,0,0,0,0,0,0,0,0,0,0,0,0,0,0,0,0,0,0,0,0,0,0,0,0,0,0,0,0,0,0,0,0,0,0,0,0,0,0,0,0,0,0,0,0,0,0,0,0,0,0,0,0,0,0,0,0,0,0,0,0,0,0,0,0,0,0,0,0,0,0,0,0,0],"sum_hessian":[1.522E3,9.95E2,5.27E2,9.26E2,6.9E1,4.99E2,2.8E1,9.23E2,3E0,6.1E1,8E0,4.93E2,6E0,2.6E1,2E0,8.52E2,7.1E1,6E1,1E0,6E0,2E0,4.89E2,4E0,5E0,1E0,2.4E1,2E0,7.19E2,1.33E2,5.8E1,1.3E1,5.4E1,6E0,4E0,2E0,1E0,1E0,4.86E2,3E0,2E1,4E0,6.77E2,4.2E1,1.29E2,4E0,5.4E1,4E0,1E1,3E0,5.2E1,2E0,5E0,1E0,3E0,1E0,1E0,1E0,4.62E2,2.4E1,1.8E1,2E0,3E0,1E0,6.32E2,4.5E1,4E1,2E0,1.25E2,4E0,3E0,1E0,4.9E1,5E0,3E0,1E0,9E0,1E0,2E0,1E0,5E1,2E0,1E0,1E0,4E0,1E0,3.2E2,1.42E2,1.9E1,5E0,1.6E1,2E0,1E0,1E0],"tree_param":{"num_deleted":"0","num_feature":"173","num_nodes":"93","size_leaf_vector":"1"}},{"base_weights":[7.345686E-2,5.037727E0,-9.2911005E0,3.162879E0,2.97941E1,-1.1363482E1,2.6760006E1,2.7926152E0,4.3951564E0,3.606661E1,-1.672697E1,-1.2375464E1,6.1676872E1,1.8640394E1,4.5458255E0,1.3766233E0,2.280285E1,3.8175957E1,-2.3150911E0,-4.1523624E1,4.6707546E1,-1.3110368E1,3.1060083E0,4.237595E0,-1.9193325E0,9.698635E0,4.3470793E0,8.3615166E-1,5.262852E1,1.7791712E1,7.5369255E1,4.2207684E1,1.0443987E0,-5.3034275E1,-8.497996E0,3.0228806E0,4.8018533E-1,-1.3767718E1,3.5099862E0,2.2881205E1,-4.7607887E1,2.033465E-1,4.185549E1,6.8726944E1,-1.9039717E0,2.0857792E1,-2.2175155E0,4.2921724E0,8.368126E-1,5.044122E1,1.6888842E1,7.3862166E0,-9.2516273E-1,-3.2742527E0,-8.077927E-2,2.914841E-1,-9.288338E-1,-1.2887102E1,-3.615591E0,3.220222E1,-4.3778965E1,-3.2894828E0,6.279804E-1,-1.4219982E-2,2.5604184E0,2.6498213E0,-6.4732194E-1,4.38617E0,3.912528E-1,3.528911E-1,1.9875444E0,2.7150795E0,-8.278672E-1,1.0873858E0,-1.2783842E0,1.0853501E-2,1.0807987E0,-7.449576E-1,5.8300835E-1,2.021828E0,-1.259655E0,-2.5980237E0,-6.853987E-1],"categories":[],"categories_nodes":[],"categories_segments":[],"categories_sizes":[],"default_left":[0,0,0,0,0,0,0,0,0,0,0,0,0,0,0,0,0,0,0,0,0,0,0,0,0,0,0,0,0,0,0,0,0,0,0,0,0,0,0,0,0,0,0,0,0,0,0,0,0,0,0,0,0,0,0,0,0,0,0,0,0,0,0,0,0,0,0,0,0,0,0,0,0,0,0,0,0,0,0,0,0,0,0],"id":5,"left_children":[1,3,5,7,9,11,13,15,-1,17,19,21,23,25,-1,27,29,31,-1,33,35,37,-1,-1,-1,39,-1,41,43,45,47,49,51,53,55,-1,-1,57,-1,59,61,63,65,67,-1,69,-1,-1,-1,71,73,75,-1,-1,-1,-1,-1,77,-1,79,81,-1,-1,-1,-1,-1,-1,-1,-1,-1,-1,-1,-1,-1,-1,-1,-1,-1,-1,-1,-1,-1,-1],"loss_changes":[7.084831E4,4.6134535E4,3.9751844E4,2.88403E4,2.1029555E4,3.772103E4,1.3412131E4,2.614953E4,0E0,1.2539727E4,1.609614E4,2.7859484E4,1.9416123E4,1.564657E4,0E0,2.3888963E4,1.472752E4,9.087883E3,0E0,2.2103398E3,9.4992334E2,2.7800844E4,0E0,0E0,0E0,1.9975506E4,0E0,2.2210893E4,1.5759377E4,1.1785395E4,1.6339688E3,1.0613594E4,1.00444257E3,3.0952168E3,5.415083E2,0E0,0E0,2.4175344E4,0E0,1.4457931E4,6.2960537E3,2.1011176E4,8.623195E3,8.568918E3,0E0,1.4059271E4,0E0,0E0,0E0,1.1503305E4,3.6504019E3,6.073991E2,0E0,0E0,0E0,0E0,0E0,2.3930469E4,0E0,9.998357E3,2.5805176E1,0E0,0E0,0E0,0E0,0E0,0E0,0E0,0E0,0E0,0E0,0E0,0E0,0E0,0E0,0E0,0E0,0E0,0E0,0E0,0E0,0E0,0E0],"parents":[2147483647,0,0,1,1,2,2,3,3,4,4,5,5,6,6,7,7,9,9,10,10,11,11,12,12,13,13,15,15,16,16,17,17,19,19,20,20,21,21,25,25,27,27,28,28,29,29,30,30,31,31,32,32,33,33,34,34,37,37,39,39,40,40,41,41,42,42,43,43,45,45,49,49,50,50,51,51,57,57,59,59,60,60],"right_children":[2,4,6,8,10,12,14,16,-1,18,20,22,24,26,-1,28,30,32,-1,34,36,38,-1,-1,-1,40,-1,42,44,46,48,50,52,54,56,-1,-1,58,-1,60,62,64,66,68,-1,70,-1,-1,-1,72,74,76,-1,-1,-1,-1,-1,78,-1,80,82,-1,-1,-1,-1,-1,-1,-1,-1,-1,-1,-1,-1,-1,-1,-1,-1,-1,-1,-1,-1,-1,-1],"split_conditions":[1E0,1E0,1E0,1E0,1E0,1E0,1E0,1E0,4.3951564E0,1E0,1E0,1E0,1E0,1E0,4.5458255E0,1E0,1E0,1E0,-2.3150911E0,1E0,1E0,1E0,3.1060083E0,4.237595E0,-1.9193325E0,1E0,4.3470793E0,1E0,1E0,1E0,1E0,1E0,1E0,1E0,1E0,3.0228806E0,4.8018533E-1,1E0,3.5099862E0,1E0,1E0,1E0,1E0,1E0,-1.9039717E0,1E0,-2.2175155E0,4.2921724E0,8.368126E-1,1E0,1E0,1E0,-9.2516273E-1,-3.2742527E0,-8.077927E-2,2.914841E-1,-9.288338E-1,1E0,-3.615591E0,1E0,1E0,-3.2894828E0,6.279804E-1,-1.4219982E-2,2.5604184E0,2.6498213E0,-6.4732194E-1,4.38617E0,3.912528E-1,3.528911E-1,1.9875444E0,2.7150795E0,-8.278672E-1,1.0873858E0,-1.2783842E0,1.0853501E-2,1.0807987E0,-7.449576E-1,5.8300835E-1,2.021828E0,-1.259655E0,-2.5980237E0,-6.853987E-1],"split_indices":[1,27,25,148,20,125,43,19,0,135,2,155,4,6,0,112,43,5,0,6,4,161,0,0,0,13,0,81,14,41,39,4,21,7,0,0,0,96,0,30,12,124,78,4,0,0,0,0,0,99,15,3,0,0,0,0,0,16,0,47,0,0,0,0,0,0,0,0,0,0,0,0,0,0,0,0,0,0,0,0,0,0,0],"split_type":[0,0,0,0,0,0,0,0,0,0,0,0,0,0,0,0,0,0,0,0,0,0,0,0,0,0,0,0,0,0,0,0,0,0,0,0,0,0,0,0,0,0,0,0,0,0,0,0,0,0,0,0,0,0,0,0,0,0,0,0,0,0,0,0,0,0,0,0,0,0,0,0,0,0,0,0,0,0,0,0,0,0,0],"sum_hessian":[1.522E3,9.95E2,5.27E2,9.26E2,6.9E1,4.99E2,2.8E1,9.23E2,3E0,6.1E1,8E0,4.93E2,6E0,2.6E1,2E0,8.63E2,6E1,6E1,1E0,6E0,2E0,4.89E2,4E0,5E0,1E0,2.4E1,2E0,8.55E2,8E0,5.6E1,4E0,5.4E1,6E0,4E0,2E0,1E0,1E0,4.86E2,3E0,2E1,4E0,8.43E2,1.2E1,7E0,1E0,5.4E1,2E0,3E0,1E0,4E1,1.4E1,5E0,1E0,3E0,1E0,1E0,1E0,4.8E2,6E0,1.8E1,2E0,3E0,1E0,8.36E2,7E0,1E1,2E0,5E0,2E0,3.2E1,2.2E1,3.8E1,2E0,1.3E1,1E0,4E0,1E0,4.44E2,3.6E1,1.6E1,2E0,1E0,1E0],"tree_param":{"num_deleted":"0","num_feature":"173","num_nodes":"83","size_leaf_vector":"1"}},{"base_weights":[8.619595E-2,4.802034E0,-8.809752E0,3.0231495E0,2.8290945E1,-1.0784995E1,2.5549938E1,1.4426746E0,2.1492777E1,3.4255985E1,-1.5944991E1,-1.1750945E1,5.8924213E1,1.767742E1,4.394298E0,4.7845566E-1,3.0994335E1,2.6698391E1,-3.1402782E1,3.791753E1,-1.5069122E1,-4.0017784E1,4.5539856E1,-1.2455396E1,5.963536E1,4.061029E0,-1.871349E0,7.5650363E0,7.393236E1,1.2239536E0,-3.3178364E1,4.0014862E1,-3.0877422E1,2.980194E1,-2.4722342E0,-5.1010956E1,2.1561565E0,4.03849E1,-2.0779188E1,3.735735E0,-2.2572138E0,-5.105357E1,-8.285548E0,2.9473083E0,4.6818087E-1,-1.308709E1,3.378362E0,3.2879074E0,8.786049E-1,1.40733795E1,-4.268449E1,4.4199214E0,7.633541E-1,-1.109189E0,1.3935422E1,-4.840077E1,2.9533622E0,5.106273E1,-1.2179567E1,-2.2568026E0,2.974615E-1,3.421635E1,-3.0014223E1,-2.9214535E0,-3.4800988E-1,4.5088852E1,1.0159618E0,-1.4152311E0,-1.4320794E-1,-7.8466363E0,9.6207124E-1,-3.1514683E0,-7.875977E-2,2.8419685E-1,-9.0561295E-1,-1.2243084E1,-3.4606369E0,3.4677336E0,6.093185E1,-2.5330732E0,-6.682636E-1,-1.0652764E-1,2.2394974E0,8.351715E-1,-2.8195543E0,-2.8174846E0,1.7708267E0,2.7585232E0,-6.746069E-1,-2.7933865E0,1.7784226E0,1.8629875E0,-1.8521317E0,-2.3048794E0,8.5798115E-1,2.3983946E0,-8.002717E-1,3.5994232E-1,-9.020336E-1,-5.6459564E-1,-2.3902131E-2,-6.4206344E-1,3.1150386E0,-2.0851286E-1,2.2796886E0,3.4606748E0,9.0217286E-1],"categories":[],"categories_nodes":[],"categories_segments":[],"categories_sizes":[],"default_left":[0,0,0,0,0,0,0,0,0,0,0,0,0,0,0,0,0,0,0,0,0,0,0,0,0,0,0,0,0,0,0,0,0,0,0,0,0,0,0,0,0,0,0,0,0,0,0,0,0,0,0,0,0,0,0,0,0,0,0,0,0,0,0,0,0,0,0,0,0,0,0,0,0,0,0,0,0,0,0,0,0,0,0,0,0,0,0,0,0,0,0,0,0,0,0,0,0,0,0,0,0,0,0,0,0,0,0],"id":6,"left_children":[1,3,5,7,9,11,13,15,17,19,21,23,25,27,-1,29,31,33,35,37,39,41,43,45,47,-1,-1,49,51,53,55,57,59,61,-1,63,-1,65,67,69,-1,71,73,-1,-1,75,-1,-1,-1,77,79,-1,-1,81,83,85,-1,87,89,-1,-1,91,93,-1,-1,95,97,-1,-1,99,-1,-1,-1,-1,-1,101,-1,103,105,-1,-1,-1,-1,-1,-1,-1,-1,-1,-1,-1,-1,-1,-1,-1,-1,-1,-1,-1,-1,-1,-1,-1,-1,-1,-1,-1,-1],"loss_changes":[6.3934973E4,4.15314E4,3.611024E4,2.7028844E4,1.901705E4,3.4360227E4,1.2677906E4,2.4347771E4,2.0939238E4,1.1768953E4,1.5143411E4,2.558511E4,1.807781E4,1.4800228E4,0E0,2.0841121E4,1.63046875E4,1.7306578E4,1.2428971E4,9.239094E3,2.9964417E3,2.0283242E3,9.030205E2,2.565368E4,1.3221484E2,0E0,0E0,8.449702E3,2.0450371E3,2.4097486E4,2.8134498E4,1.4461211E4,2.3689148E3,1.8190414E4,0E0,1.5539619E3,0E0,1.03248125E4,3.2338635E2,8.693511E2,0E0,2.8634316E3,5.147712E2,0E0,0E0,2.2221984E4,0E0,0E0,0E0,1.072192E4,2.4531738E1,0E0,0E0,3.2301791E4,2.546964E4,1.2655824E4,0E0,6.0478555E3,1.2417244E4,0E0,0E0,1.460925E4,4.5845884E3,0E0,0E0,9.562398E3,9.5464685E2,0E0,0E0,7.07625E1,0E0,0E0,0E0,0E0,0E0,2.224829E4,0E0,6.303545E3,1.7189453E2,0E0,0E0,0E0,0E0,0E0,0E0,0E0,0E0,0E0,0E0,0E0,0E0,0E0,0E0,0E0,0E0,0E0,0E0,0E0,0E0,0E0,0E0,0E0,0E0,0E0,0E0,0E0,0E0],"parents":[2147483647,0,0,1,1,2,2,3,3,4,4,5,5,6,6,7,7,8,8,9,9,10,10,11,11,12,12,13,13,15,15,16,16,17,17,18,18,19,19,20,20,21,21,22,22,23,23,24,24,27,27,28,28,29,29,30,30,31,31,32,32,33,33,35,35,37,37,38,38,39,39,41,41,42,42,45,45,49,49,50,50,53,53,54,54,55,55,57,57,58,58,61,61,62,62,65,65,66,66,69,69,75,75,77,77,78,78],"right_children":[2,4,6,8,10,12,14,16,18,20,22,24,26,28,-1,30,32,34,36,38,40,42,44,46,48,-1,-1,50,52,54,56,58,60,62,-1,64,-1,66,68,70,-1,72,74,-1,-1,76,-1,-1,-1,78,80,-1,-1,82,84,86,-1,88,90,-1,-1,92,94,-1,-1,96,98,-1,-1,100,-1,-1,-1,-1,-1,102,-1,104,106,-1,-1,-1,-1,-1,-1,-1,-1,-1,-1,-1,-1,-1,-1,-1,-1,-1,-1,-1,-1,-1,-1,-1,-1,-1,-1,-1,-1],"split_conditions":[1E0,1E0,1E0,1E0,1E0,1E0,1E0,1E0,1E0,1E0,1E0,1E0,1E0,1E0,4.394298E0,1E0,1E0,1E0,1E0,1E0,1E0,1E0,1E0,1E0,1E0,4.061029E0,-1.871349E0,1E0,1E0,1E0,1E0,1E0,1E0,1E0,-2.4722342E0,1E0,2.1561565E0,1E0,1E0,1E0,-2.2572138E0,1E0,1E0,2.9473083E0,4.6818087E-1,1E0,3.378362E0,3.2879074E0,8.786049E-1,1E0,1E0,4.4199214E0,7.633541E-1,1E0,1E0,1E0,2.9533622E0,1E0,1E0,-2.2568026E0,2.974615E-1,1E0,1E0,-2.9214535E0,-3.4800988E-1,1E0,1E0,-1.4152311E0,-1.4320794E-1,1E0,9.6207124E-1,-3.1514683E0,-7.875977E-2,2.8419685E-1,-9.0561295E-1,1E0,-3.4606369E0,1E0,1E0,-2.5330732E0,-6.682636E-1,-1.0652764E-1,2.2394974E0,8.351715E-1,-2.8195543E0,-2.8174846E0,1.7708267E0,2.7585232E0,-6.746069E-1,-2.7933865E0,1.7784226E0,1.8629875E0,-1.8521317E0,-2.3048794E0,8.5798115E-1,2.3983946E0,-8.002717E-1,3.5994232E-1,-9.020336E-1,-5.6459564E-1,-2.3902131E-2,-6.4206344E-1,3.1150386E0,-2.0851286E-1,2.2796886E0,3.4606748E0,9.0217286E-1],"split_indices":[1,27,25,8,20,125,43,53,10,35,2,155,4,28,0,49,17,92,7,58,10,6,4,161,8,0,0,30,3,6,45,96,100,61,0,58,0,5,4,3,0,7,0,0,0,96,0,0,0,9,0,0,0,48,25,25,0,103,54,0,0,47,48,0,0,99,21,0,0,4,0,0,0,0,0,112,0,79,0,0,0,0,0,0,0,0,0,0,0,0,0,0,0,0,0,0,0,0,0,0,0,0,0,0,0,0,0],"split_type":[0,0,0,0,0,0,0,0,0,0,0,0,0,0,0,0,0,0,0,0,0,0,0,0,0,0,0,0,0,0,0,0,0,0,0,0,0,0,0,0,0,0,0,0,0,0,0,0,0,0,0,0,0,0,0,0,0,0,0,0,0,0,0,0,0,0,0,0,0,0,0,0,0,0,0,0,0,0,0,0,0,0,0,0,0,0,0,0,0,0,0,0,0,0,0,0,0,0,0,0,0,0,0,0,0,0,0],"sum_hessian":[1.522E3,9.95E2,5.27E2,9.26E2,6.9E1,4.99E2,2.8E1,8.54E2,7.2E1,6.1E1,8E0,4.93E2,6E0,2.6E1,2E0,8.28E2,2.6E1,6.6E1,6E0,5.7E1,4E0,6E0,2E0,4.89E2,4E0,5E0,1E0,2.3E1,3E0,8.11E2,1.7E1,2.3E1,3E0,6.4E1,2E0,5E0,1E0,5.5E1,2E0,3E0,1E0,4E0,2E0,1E0,1E0,4.86E2,3E0,3E0,1E0,2.1E1,2E0,2E0,1E0,6.86E2,1.25E2,1.5E1,2E0,1.9E1,4E0,2E0,1E0,6E1,4E0,4E0,1E0,4.9E1,6E0,1E0,1E0,2E0,1E0,3E0,1E0,1E0,1E0,4.8E2,6E0,1.8E1,3E0,1E0,1E0,6.72E2,1.4E1,1.21E2,4E0,1.4E1,1E0,1.8E1,1E0,2E0,2E0,5.8E1,2E0,3E0,1E0,4.7E1,2E0,5E0,1E0,1E0,1E0,4.77E2,3E0,1.6E1,2E0,2E0,1E0],"tree_param":{"num_deleted":"0","num_feature":"173","num_nodes":"107","size_leaf_vector":"1"}},{"base_weights":[9.165641E-2,4.555227E0,-8.328434E0,2.8678317E0,2.6836082E1,-1.0228249E1,2.4714172E1,2.5126655E0,4.209713E0,3.2504704E1,-1.5196203E1,-1.1150121E1,5.6290806E1,1.5895565E1,7.5856575E1,1.1725464E0,2.1452835E1,3.4480705E1,-2.2007835E0,-3.8567127E1,4.4401356E1,-1.1827744E1,5.74869E1,3.891819E0,-1.8245655E0,2.5415592E1,-2.0073792E1,5.4914765E0,-6.5155697E-1,6.5798306E-1,4.9982952E1,1.6580069E1,7.271181E1,3.6679695E1,-2.0259706E1,-4.9146935E1,-8.078407E0,2.8736255E0,4.564762E-1,-1.243476E1,3.2516735E0,3.1646113E0,8.5663986E-1,3.1625864E1,-2.4697464E0,-3.1583085E0,4.4073975E1,1.3356535E0,-3.2865616E1,6.549937E1,-1.8537092E0,1.9478481E1,-2.1042097E0,4.13521E0,8.185555E-1,4.071487E1,8.877236E-1,-1.3798504E0,-1.3962765E-1,-3.0332882E0,-7.679081E-2,2.7709198E-1,-8.8297254E-1,-1.3968189E1,1.6461735E1,3.9175568E1,-2.421432E1,5.5528873E-1,2.7502594E0,2.8452685E-2,2.038999E0,-2.1348882E0,3.111217E0,4.1835914E0,3.6606702E-1,3.264222E-1,1.8606039E0,2.4255521E0,7.7659464E-1,3.4494483E-1,-8.7948287E-1,-7.497758E-1,2.3167732E0,1.4925954E0,-1.54579E0,2.2857344E0,-1.7997363E0,-1.765541E0,-5.0533105E-2],"categories":[],"categories_nodes":[],"categories_segments":[],"categories_sizes":[],"default_left":[0,0,0,0,0,0,0,0,0,0,0,0,0,0,0,0,0,0,0,0,0,0,0,0,0,0,0,0,0,0,0,0,0,0,0,0,0,0,0,0,0,0,0,0,0,0,0,0,0,0,0,0,0,0,0,0,0,0,0,0,0,0,0,0,0,0,0,0,0,0,0,0,0,0,0,0,0,0,0,0,0,0,0,0,0,0,0,0,0],"id":7,"left_children":[1,3,5,7,9,11,13,15,-1,17,19,21,23,25,27,29,31,33,-1,35,37,39,41,-1,-1,43,45,-1,-1,47,49,51,53,55,57,59,61,-1,-1,63,-1,-1,-1,65,-1,-1,67,69,71,73,-1,75,-1,-1,-1,77,79,-1,-1,-1,-1,-1,-1,81,83,85,87,-1,-1,-1,-1,-1,-1,-1,-1,-1,-1,-1,-1,-1,-1,-1,-1,-1,-1,-1,-1,-1,-1],"loss_changes":[5.727786E4,3.7369258E4,3.339789E4,2.6564285E4,1.7172508E4,3.1288703E4,1.1873354E4,2.342789E4,0E0,1.0892352E4,1.4248084E4,2.3655867E4,1.6833658E4,9.413347E3,1.3510314E4,2.1667377E4,1.4030586E4,8.085922E3,0E0,1.8609248E3,8.584341E2,2.367014E4,8.697266E1,0E0,0E0,1.1318625E4,1.9369662E4,0E0,0E0,1.9490467E4,1.4585666E4,1.0511631E4,1.4609355E3,8.485039E3,3.074192E2,2.6489502E3,4.8935437E2,0E0,0E0,2.1809258E4,0E0,0E0,0E0,9.380148E3,0E0,0E0,4.7027246E2,2.5376725E4,1.8550787E4,7.8453047E3,0E0,1.2387854E4,0E0,0E0,0E0,9.652055E3,8.9884436E2,0E0,0E0,0E0,0E0,0E0,0E0,2.9378398E4,1.6782729E4,1.0493344E4,7.3675085E2,0E0,0E0,0E0,0E0,0E0,0E0,0E0,0E0,0E0,0E0,0E0,0E0,0E0,0E0,0E0,0E0,0E0,0E0,0E0,0E0,0E0,0E0],"parents":[2147483647,0,0,1,1,2,2,3,3,4,4,5,5,6,6,7,7,9,9,10,10,11,11,12,12,13,13,14,14,15,15,16,16,17,17,19,19,20,20,21,21,22,22,25,25,26,26,29,29,30,30,31,31,32,32,33,33,34,34,35,35,36,36,39,39,43,43,46,46,47,47,48,48,49,49,51,51,55,55,56,56,63,63,64,64,65,65,66,66],"right_children":[2,4,6,8,10,12,14,16,-1,18,20,22,24,26,28,30,32,34,-1,36,38,40,42,-1,-1,44,46,-1,-1,48,50,52,54,56,58,60,62,-1,-1,64,-1,-1,-1,66,-1,-1,68,70,72,74,-1,76,-1,-1,-1,78,80,-1,-1,-1,-1,-1,-1,82,84,86,88,-1,-1,-1,-1,-1,-1,-1,-1,-1,-1,-1,-1,-1,-1,-1,-1,-1,-1,-1,-1,-1,-1],"split_conditions":[1E0,1E0,1E0,1E0,1E0,1E0,1E0,1E0,4.209713E0,1E0,1E0,1E0,1E0,1E0,1E0,1E0,1E0,1E0,-2.2007835E0,1E0,1E0,1E0,1E0,3.891819E0,-1.8245655E0,1E0,1E0,5.4914765E0,-6.5155697E-1,1E0,1E0,1E0,1E0,1E0,1E0,1E0,1E0,2.8736255E0,4.564762E-1,1E0,3.2516735E0,3.1646113E0,8.5663986E-1,1E0,-2.4697464E0,-3.1583085E0,1E0,1E0,1E0,1E0,-1.8537092E0,1E0,-2.1042097E0,4.13521E0,8.185555E-1,1E0,1E0,-1.3798504E0,-1.3962765E-1,-3.0332882E0,-7.679081E-2,2.7709198E-1,-8.8297254E-1,1E0,1E0,1E0,1E0,5.5528873E-1,2.7502594E0,2.8452685E-2,2.038999E0,-2.1348882E0,3.111217E0,4.1835914E0,3.6606702E-1,3.264222E-1,1.8606039E0,2.4255521E0,7.7659464E-1,3.4494483E-1,-8.7948287E-1,-7.497758E-1,2.3167732E0,1.4925954E0,-1.54579E0,2.2857344E0,-1.7997363E0,-1.765541E0,-5.0533105E-2],"split_indices":[1,27,25,148,20,125,66,19,0,135,2,155,4,13,0,112,43,58,0,6,4,161,8,0,0,5,79,0,0,61,14,41,39,5,4,7,0,0,0,15,0,0,0,47,0,0,3,48,59,4,0,0,0,0,0,4,21,0,0,0,0,0,0,75,18,133,2,0,0,0,0,0,0,0,0,0,0,0,0,0,0,0,0,0,0,0,0,0,0],"split_type":[0,0,0,0,0,0,0,0,0,0,0,0,0,0,0,0,0,0,0,0,0,0,0,0,0,0,0,0,0,0,0,0,0,0,0,0,0,0,0,0,0,0,0,0,0,0,0,0,0,0,0,0,0,0,0,0,0,0,0,0,0,0,0,0,0,0,0,0,0,0,0,0,0,0,0,0,0,0,0,0,0,0,0,0,0,0,0,0,0],"sum_hessian":[1.522E3,9.95E2,5.27E2,9.26E2,6.9E1,4.99E2,2.8E1,9.23E2,3E0,6.1E1,8E0,4.93E2,6E0,2.5E1,3E0,8.63E2,6E1,6E1,1E0,6E0,2E0,4.89E2,4E0,5E0,1E0,2E1,5E0,2E0,1E0,8.55E2,8E0,5.6E1,4E0,5.8E1,2E0,4E0,2E0,1E0,1E0,4.86E2,3E0,3E0,1E0,1.9E1,1E0,3E0,2E0,8.39E2,1.6E1,7E0,1E0,5.4E1,2E0,3E0,1E0,5.2E1,6E0,1E0,1E0,3E0,1E0,1E0,1E0,4.62E2,2.4E1,1.7E1,2E0,1E0,1E0,8.24E2,1.5E1,1.5E1,1E0,5E0,2E0,3.2E1,2.2E1,3.9E1,1.3E1,5E0,1E0,4.55E2,7E0,1.9E1,5E0,1.6E1,1E0,1E0,1E0],"tree_param":{"num_deleted":"0","num_feature":"173","num_nodes":"89","size_leaf_vector":"1"}},{"base_weights":[1.03876375E-1,4.341068E0,-7.889204E0,2.7406068E0,2.5473728E1,-9.695126E0,2.3519405E1,2.3986955E0,4.051849E0,3.086249E1,-1.4479269E1,-1.0574825E1,5.377159E1,1.6110025E1,4.1182013E0,1.1205629E0,2.0462759E1,3.431661E1,-1.5377779E1,-3.716963E1,4.329132E1,-1.1226628E1,5.54168E1,3.72966E0,-1.7789513E0,7.911258E0,3.9531543E0,6.286404E-1,4.778335E1,1.5752517E1,7.006697E1,3.660041E1,-1.9753214E1,-2.799603E1,8.773808E-1,-4.7311607E1,-7.8764496E0,2.801785E0,4.4506416E-1,-6.494153E0,-2.1412983E1,3.0459383E0,8.352238E-1,1.9967379E1,-4.4306694E1,3.6773477E-2,3.9006104E1,6.2793106E1,-1.8073666E0,1.1412767E1,5.860335E1,3.98014E0,7.9809153E-1,4.0885082E1,7.6697433E-1,-1.3453541E0,-1.3613701E-1,-1.8379223E0,-4.271965E-2,-2.9195402E0,-7.487106E-2,2.701645E-1,-8.608982E-1,-7.9865637E0,7.6919525E1,-2.5185291E1,2.1729557E1,2.8476091E1,-4.057694E1,-3.039872E0,5.4140663E-1,-2.1293847E-2,2.421849E0,2.4838064E0,-6.5596735E-1,4.009275E0,3.5386467E-1,6.842117E-1,-2.6675875E0,3.3398254E0,6.4576817E-1,2.1828344E0,-8.5444754E-1,3.3057207E-1,-8.574957E-1,-2.9604378E-1,-2.9030511E0,4.3607373E0,6.360859E-1,-1.3482924E0,1.4675604E0,3.2625558E0,-1.244811E0,1.7996254E0,-1.1804482E0,-2.4080026E0,-6.3526803E-1],"categories":[],"categories_nodes":[],"categories_segments":[],"categories_sizes":[],"default_left":[0,0,0,0,0,0,0,0,0,0,0,0,0,0,0,0,0,0,0,0,0,0,0,0,0,0,0,0,0,0,0,0,0,0,0,0,0,0,0,0,0,0,0,0,0,0,0,0,0,0,0,0,0,0,0,0,0,0,0,0,0,0,0,0,0,0,0,0,0,0,0,0,0,0,0,0,0,0,0,0,0,0,0,0,0,0,0,0,0,0,0,0,0,0,0,0,0],"id":8,"left_children":[1,3,5,7,9,11,13,15,-1,17,19,21,23,25,-1,27,29,31,33,35,37,39,41,-1,-1,43,-1,45,47,49,51,53,55,57,-1,59,61,-1,-1,63,65,-1,-1,67,69,71,73,75,-1,77,79,-1,-1,81,83,-1,-1,-1,-1,-1,-1,-1,-1,85,87,89,91,93,95,-1,-1,-1,-1,-1,-1,-1,-1,-1,-1,-1,-1,-1,-1,-1,-1,-1,-1,-1,-1,-1,-1,-1,-1,-1,-1,-1,-1],"loss_changes":[5.1615535E4,3.36169E4,3.0176957E4,2.4621793E4,1.5517672E4,2.8484465E4,1.1317176E4,2.131063E4,0E0,1.04303125E4,1.3406642E4,2.1870824E4,1.5676918E4,1.3310224E4,0E0,1.980263E4,1.3148785E4,7.8850938E3,2.5685684E3,1.7069873E3,8.160493E2,2.3482207E4,4.7351562E1,0E0,0E0,1.6623336E4,0E0,1.944205E4,1.3607811E4,9.930999E3,1.3090801E3,8.56657E3,2.9224023E2,9.198989E2,0E0,2.4504854E3,4.6519226E2,0E0,0E0,4.2442113E4,2.5773047E4,0E0,0E0,1.1973712E4,5.2043936E3,1.8919795E4,7.8820547E3,7.184754E3,0E0,8.526932E3,1.00894336E3,0E0,0E0,8.780102E3,8.4638824E2,0E0,0E0,0E0,0E0,0E0,0E0,0E0,0E0,3.3894273E4,2.8560586E3,1.4677531E4,2.800445E4,8.288112E3,2.2168945E1,0E0,0E0,0E0,0E0,0E0,0E0,0E0,0E0,0E0,0E0,0E0,0E0,0E0,0E0,0E0,0E0,0E0,0E0,0E0,0E0,0E0,0E0,0E0,0E0,0E0,0E0,0E0,0E0],"parents":[2147483647,0,0,1,1,2,2,3,3,4,4,5,5,6,6,7,7,9,9,10,10,11,11,12,12,13,13,15,15,16,16,17,17,18,18,19,19,20,20,21,21,22,22,25,25,27,27,28,28,29,29,30,30,31,31,32,32,33,33,35,35,36,36,39,39,40,40,43,43,44,44,45,45,46,46,47,47,49,49,50,50,53,53,54,54,63,63,64,64,65,65,66,66,67,67,68,68],"right_children":[2,4,6,8,10,12,14,16,-1,18,20,22,24,26,-1,28,30,32,34,36,38,40,42,-1,-1,44,-1,46,48,50,52,54,56,58,-1,60,62,-1,-1,64,66,-1,-1,68,70,72,74,76,-1,78,80,-1,-1,82,84,-1,-1,-1,-1,-1,-1,-1,-1,86,88,90,92,94,96,-1,-1,-1,-1,-1,-1,-1,-1,-1,-1,-1,-1,-1,-1,-1,-1,-1,-1,-1,-1,-1,-1,-1,-1,-1,-1,-1,-1],"split_conditions":[1E0,1E0,1E0,1E0,1E0,1E0,1E0,1E0,4.051849E0,1E0,1E0,1E0,1E0,1E0,4.1182013E0,1E0,1E0,1E0,1E0,1E0,1E0,1E0,1E0,3.72966E0,-1.7789513E0,1E0,3.9531543E0,1E0,1E0,1E0,1E0,1E0,1E0,1E0,8.773808E-1,1E0,1E0,2.801785E0,4.4506416E-1,1E0,1E0,3.0459383E0,8.352238E-1,1E0,1E0,1E0,1E0,1E0,-1.8073666E0,1E0,1E0,3.98014E0,7.9809153E-1,1E0,1E0,-1.3453541E0,-1.3613701E-1,-1.8379223E0,-4.271965E-2,-2.9195402E0,-7.487106E-2,2.701645E-1,-8.608982E-1,1E0,1E0,1E0,1E0,1E0,1E0,-3.039872E0,5.4140663E-1,-2.1293847E-2,2.421849E0,2.4838064E0,-6.5596735E-1,4.009275E0,3.5386467E-1,6.842117E-1,-2.6675875E0,3.3398254E0,6.4576817E-1,2.1828344E0,-8.5444754E-1,3.3057207E-1,-8.574957E-1,-2.9604378E-1,-2.9030511E0,4.3607373E0,6.360859E-1,-1.3482924E0,1.4675604E0,3.2625558E0,-1.244811E0,1.7996254E0,-1.1804482E0,-2.4080026E0,-6.3526803E-1],"split_indices":[1,27,25,148,20,125,43,19,0,35,2,155,4,6,0,112,43,58,3,6,4,0,8,0,0,13,0,81,14,40,39,5,4,4,0,7,0,0,0,75,15,0,0,30,12,124,78,4,0,68,65,0,0,99,21,0,0,0,0,0,0,0,0,22,8,42,9,47,0,0,0,0,0,0,0,0,0,0,0,0,0,0,0,0,0,0,0,0,0,0,0,0,0,0,0,0,0],"split_type":[0,0,0,0,0,0,0,0,0,0,0,0,0,0,0,0,0,0,0,0,0,0,0,0,0,0,0,0,0,0,0,0,0,0,0,0,0,0,0,0,0,0,0,0,0,0,0,0,0,0,0,0,0,0,0,0,0,0,0,0,0,0,0,0,0,0,0,0,0,0,0,0,0,0,0,0,0,0,0,0,0,0,0,0,0,0,0,0,0,0,0,0,0,0,0,0,0],"sum_hessian":[1.522E3,9.95E2,5.27E2,9.26E2,6.9E1,4.99E2,2.8E1,9.23E2,3E0,6.1E1,8E0,4.93E2,6E0,2.6E1,2E0,8.63E2,6E1,5.7E1,4E0,6E0,2E0,4.89E2,4E0,5E0,1E0,2.4E1,2E0,8.55E2,8E0,5.6E1,4E0,5.5E1,2E0,3E0,1E0,4E0,2E0,1E0,1E0,3.35E2,1.54E2,3E0,1E0,2E1,4E0,8.43E2,1.2E1,7E0,1E0,5.2E1,4E0,3E0,1E0,4.9E1,6E0,1E0,1E0,2E0,1E0,3E0,1E0,1E0,1E0,3.3E2,5E0,1.42E2,1.2E1,1.8E1,2E0,3E0,1E0,8.36E2,7E0,1E1,2E0,5E0,2E0,5.1E1,1E0,3E0,1E0,4.7E1,2E0,5E0,1E0,3.18E2,1.2E1,4E0,1E0,1.38E2,4E0,6E0,6E0,1.6E1,2E0,1E0,1E0],"tree_param":{"num_deleted":"0","num_feature":"173","num_nodes":"97","size_leaf_vector":"1"}},{"base_weights":[1.174031E-1,-2.0159936E0,1.4571654E1,-3.2012935E0,2.069688E1,1.6737766E1,-4.6304474E1,-3.5639443E0,6.2377773E1,2.7778517E1,-3.4117294E1,1.4294848E1,6.427925E1,-6.474993E1,1.6092068E0,2.1230188E-1,-9.677185E0,7.398403E1,-1.8149434E-1,2.0819162E1,6.954201E1,-5.4953865E1,9.4641393E-1,1.5869031E1,-4.4605022E1,7.672029E1,-8.812277E-1,-3.5733337E0,-7.791548E-1,8.0679643E-1,-2.8554323E0,-8.228093E0,-5.7323532E1,4.0385146E0,1.0013192E0,2.6751799E1,-2.9123014E1,3.8815064E0,3.2313004E-1,-3.0494773E0,-6.193863E-1,1.8642296E1,-1.7949373E1,-2.6733284E0,-2.2897092E-1,4.331548E0,1.8364067E-1,-7.379437E-1,2.2629362E1,-9.388952E0,3.303491E1,-6.537821E1,1.1846821E0,3.2641705E1,-1.893618E1,-4.2832657E1,9.8563004E-1,2.0969452E1,-2.4025032E1,-2.6755165E1,2.4131486E0,7.4626575E-3,-1.9919691E0,8.9872974E-1,4.555705E0,-4.146405E-1,-2.8669007E0,2.0750396E0,-1.7138928E0,-3.4215448E0,-7.186514E-1,1.9706957E0,-7.2802657E-1,-1.4089193E0,6.8187124E-1,-2.667162E0,-1.9758606E-2,9.294346E-1,4.4813423E0,-2.1055133E0,3.0164208E0,-1.9950224E0,1.5181297E0],"categories":[],"categories_nodes":[],"categories_segments":[],"categories_sizes":[],"default_left":[0,0,0,0,0,0,0,0,0,0,0,0,0,0,0,0,0,0,0,0,0,0,0,0,0,0,0,0,0,0,0,0,0,0,0,0,0,0,0,0,0,0,0,0,0,0,0,0,0,0,0,0,0,0,0,0,0,0,0,0,0,0,0,0,0,0,0,0,0,0,0,0,0,0,0,0,0,0,0,0,0,0,0],"id":9,"left_children":[1,3,5,7,9,11,13,15,17,19,21,23,25,27,-1,29,31,33,-1,35,37,39,-1,41,43,45,-1,-1,-1,47,-1,49,51,-1,-1,53,55,-1,-1,-1,-1,57,59,-1,-1,-1,-1,61,63,65,67,69,-1,71,73,75,-1,77,79,81,-1,-1,-1,-1,-1,-1,-1,-1,-1,-1,-1,-1,-1,-1,-1,-1,-1,-1,-1,-1,-1,-1,-1],"loss_changes":[4.6993594E4,3.5818098E4,2.6620477E4,3.0259363E4,2.6567213E4,2.114773E4,1.2218228E4,2.9020027E4,5.6312695E3,1.5700367E4,9.882485E3,1.7582727E4,1.0522883E4,8.677754E2,0E0,2.6557973E4,3.2669426E4,5.7948047E2,0E0,1.6186109E4,3.5798594E3,7.8597266E2,0E0,1.702877E4,1.5285986E3,5.473418E3,0E0,0E0,0E0,2.6007258E4,0E0,2.2679707E4,1.0684992E4,0E0,0E0,1.3265707E4,4.8614556E3,0E0,0E0,0E0,0E0,1.6887227E4,9.454014E3,0E0,0E0,0E0,0E0,2.5017922E4,1.4620066E4,2.3438855E4,8.830766E3,1.0405742E3,0E0,1.399975E4,2.190592E3,2.2091338E3,0E0,2.399668E4,1.6270411E4,1.0972261E4,0E0,0E0,0E0,0E0,0E0,0E0,0E0,0E0,0E0,0E0,0E0,0E0,0E0,0E0,0E0,0E0,0E0,0E0,0E0,0E0,0E0,0E0,0E0],"parents":[2147483647,0,0,1,1,2,2,3,3,4,4,5,5,6,6,7,7,8,8,9,9,10,10,11,11,12,12,13,13,15,15,16,16,17,17,19,19,20,20,21,21,23,23,24,24,25,25,29,29,31,31,32,32,35,35,36,36,41,41,42,42,47,47,48,48,49,49,50,50,51,51,53,53,54,54,55,55,57,57,58,58,59,59],"right_children":[2,4,6,8,10,12,14,16,18,20,22,24,26,28,-1,30,32,34,-1,36,38,40,-1,42,44,46,-1,-1,-1,48,-1,50,52,-1,-1,54,56,-1,-1,-1,-1,58,60,-1,-1,-1,-1,62,64,66,68,70,-1,72,74,76,-1,78,80,82,-1,-1,-1,-1,-1,-1,-1,-1,-1,-1,-1,-1,-1,-1,-1,-1,-1,-1,-1,-1,-1,-1,-1],"split_conditions":[1E0,1E0,1E0,1E0,1E0,1E0,1E0,1E0,1E0,1E0,1E0,1E0,1E0,1E0,1.6092068E0,1E0,1E0,1E0,-1.8149434E-1,1E0,1E0,1E0,9.4641393E-1,1E0,1E0,1E0,-8.812277E-1,-3.5733337E0,-7.791548E-1,1E0,-2.8554323E0,1E0,1E0,4.0385146E0,1.0013192E0,1E0,1E0,3.8815064E0,3.2313004E-1,-3.0494773E0,-6.193863E-1,1E0,1E0,-2.6733284E0,-2.2897092E-1,4.331548E0,1.8364067E-1,1E0,1E0,1E0,1E0,1E0,1.1846821E0,1E0,1E0,1E0,9.8563004E-1,1E0,1E0,1E0,2.4131486E0,7.4626575E-3,-1.9919691E0,8.9872974E-1,4.555705E0,-4.146405E-1,-2.8669007E0,2.0750396E0,-1.7138928E0,-3.4215448E0,-7.186514E-1,1.9706957E0,-7.2802657E-1,-1.4089193E0,6.8187124E-1,-2.667162E0,-1.9758606E-2,9.294346E-1,4.4813423E0,-2.1055133E0,3.0164208E0,-1.9950224E0,1.5181297E0],"split_indices":[6,25,63,136,18,28,4,1,3,8,2,62,0,5,0,110,22,0,0,16,1,30,0,8,2,19,0,0,0,19,0,57,14,0,0,13,23,0,0,0,0,40,16,0,0,0,0,52,52,68,56,79,0,5,11,2,0,51,11,19,0,0,0,0,0,0,0,0,0,0,0,0,0,0,0,0,0,0,0,0,0,0,0],"split_type":[0,0,0,0,0,0,0,0,0,0,0,0,0,0,0,0,0,0,0,0,0,0,0,0,0,0,0,0,0,0,0,0,0,0,0,0,0,0,0,0,0,0,0,0,0,0,0,0,0,0,0,0,0,0,0,0,0,0,0,0,0,0,0,0,0,0,0,0,0,0,0,0,0,0,0,0,0,0,0,0,0,0,0],"sum_hessian":[1.522E3,1.327E3,1.95E2,1.262E3,6.5E1,1.89E2,6E0,1.256E3,6E0,5.8E1,7E0,1.81E2,8E0,5E0,1E0,7.77E2,4.79E2,5E0,1E0,5.1E1,7E0,5E0,2E0,1.77E2,4E0,7E0,1E0,4E0,1E0,7.7E2,7E0,4.66E2,1.3E1,4E0,1E0,4.6E1,5E0,6E0,1E0,4E0,1E0,1.64E2,1.3E1,3E0,1E0,6E0,1E0,7.2E2,5E1,4.54E2,1.2E1,1.2E1,1E0,4.1E1,5E0,4E0,1E0,1.56E2,8E0,1.2E1,1E0,7.05E2,1.5E1,4.8E1,2E0,4.45E2,9E0,1.1E1,1E0,1.1E1,1E0,3.6E1,5E0,4E0,1E0,3E0,1E0,1.52E2,4E0,7E0,1E0,1E1,2E0],"tree_param":{"num_deleted":"0","num_feature":"173","num_nodes":"83","size_leaf_vector":"1"}},{"base_weights":[1.15566105E-1,-1.9152727E0,1.3874946E1,-3.0415463E0,1.9666529E1,1.5948196E1,-4.4381145E1,-3.3899312E0,5.995293E1,2.6440758E1,-3.2751736E1,1.3609537E1,6.1469063E1,-6.223785E1,1.5689766E0,2.0247807E-1,-9.205565E0,7.11248E1,-1.7695713E-1,1.97554E1,6.659049E1,-5.281765E1,9.148669E-1,1.1905153E1,7.1563705E1,7.3448685E1,-8.591971E-1,-3.4304006E0,-7.59676E-1,-1.9928005E-1,3.8996246E0,-7.8229403E0,-5.466846E1,3.8769739E0,9.7628635E-1,2.5425177E1,-2.7950413E1,3.7151563E0,3.1505165E-1,-2.9274986E0,-6.039017E-1,1.341318E1,-4.2955227E1,4.031344E0,8.827755E-1,4.1459103E0,1.7904969E-1,3.6775926E-1,-2.7305074E0,-3.1100268E0,-1.8061188E1,-6.2427773E1,1.155065E0,3.1039204E1,-1.8110544E1,-4.122841E1,9.609894E-1,1.5202942E1,-3.145726E1,-2.5730784E0,-2.2324657E-1,-5.706184E-2,1.0802423E0,-2.5291383E-1,3.249567E0,-1.0853142E0,1.0590519E0,-3.2647235E0,-7.0068514E-1,1.8748238E0,-6.976921E-1,-1.3525625E0,6.648245E-1,-2.5671432E0,-1.9264603E-2,6.5706414E-1,3.0371897E0,-2.2364893E0,1.2044472E0],"categories":[],"categories_nodes":[],"categories_segments":[],"categories_sizes":[],"default_left":[0,0,0,0,0,0,0,0,0,0,0,0,0,0,0,0,0,0,0,0,0,0,0,0,0,0,0,0,0,0,0,0,0,0,0,0,0,0,0,0,0,0,0,0,0,0,0,0,0,0,0,0,0,0,0,0,0,0,0,0,0,0,0,0,0,0,0,0,0,0,0,0,0,0,0,0,0,0,0],"id":10,"left_children":[1,3,5,7,9,11,13,15,17,19,21,23,25,27,-1,29,31,33,-1,35,37,39,-1,41,43,45,-1,-1,-1,47,-1,49,51,-1,-1,53,55,-1,-1,-1,-1,57,59,-1,-1,-1,-1,61,-1,63,65,67,-1,69,71,73,-1,75,77,-1,-1,-1,-1,-1,-1,-1,-1,-1,-1,-1,-1,-1,-1,-1,-1,-1,-1,-1,-1],"loss_changes":[4.258389E4,3.2339531E4,2.4380582E4,2.7921441E4,2.4302145E4,1.9390414E4,1.1422845E4,2.6263281E4,5.216996E3,1.4520988E4,9.161191E3,1.712529E4,9.74223E3,7.5568164E2,0E0,2.4330197E4,2.9744246E4,4.7193164E2,0E0,1.4775672E4,3.2517383E3,6.9402734E2,0E0,1.5302275E4,1.0193867E3,4.9959844E3,0E0,0E0,0E0,2.3931234E4,0E0,2.24775E4,9.890324E3,0E0,0E0,1.2049441E4,4.5503564E3,0E0,0E0,0E0,0E0,1.4451727E4,1.4072852E3,0E0,0E0,0E0,0E0,2.4636508E4,0E0,4.291854E4,2.1486875E4,8.892344E2,0E0,1.2725574E4,2.0444926E3,2.045748E3,0E0,1.4975227E4,6.2381626E3,0E0,0E0,0E0,0E0,0E0,0E0,0E0,0E0,0E0,0E0,0E0,0E0,0E0,0E0,0E0,0E0,0E0,0E0,0E0,0E0],"parents":[2147483647,0,0,1,1,2,2,3,3,4,4,5,5,6,6,7,7,8,8,9,9,10,10,11,11,12,12,13,13,15,15,16,16,17,17,19,19,20,20,21,21,23,23,24,24,25,25,29,29,31,31,32,32,35,35,36,36,41,41,42,42,47,47,49,49,50,50,51,51,53,53,54,54,55,55,57,57,58,58],"right_children":[2,4,6,8,10,12,14,16,18,20,22,24,26,28,-1,30,32,34,-1,36,38,40,-1,42,44,46,-1,-1,-1,48,-1,50,52,-1,-1,54,56,-1,-1,-1,-1,58,60,-1,-1,-1,-1,62,-1,64,66,68,-1,70,72,74,-1,76,78,-1,-1,-1,-1,-1,-1,-1,-1,-1,-1,-1,-1,-1,-1,-1,-1,-1,-1,-1,-1],"split_conditions":[1E0,1E0,1E0,1E0,1E0,1E0,1E0,1E0,1E0,1E0,1E0,1E0,1E0,1E0,1.5689766E0,1E0,1E0,1E0,-1.7695713E-1,1E0,1E0,1E0,9.148669E-1,1E0,1E0,1E0,-8.591971E-1,-3.4304006E0,-7.59676E-1,1E0,3.8996246E0,1E0,1E0,3.8769739E0,9.7628635E-1,1E0,1E0,3.7151563E0,3.1505165E-1,-2.9274986E0,-6.039017E-1,1E0,1E0,4.031344E0,8.827755E-1,4.1459103E0,1.7904969E-1,1E0,-2.7305074E0,1E0,1E0,1E0,1.155065E0,1E0,1E0,1E0,9.609894E-1,1E0,1E0,-2.5730784E0,-2.2324657E-1,-5.706184E-2,1.0802423E0,-2.5291383E-1,3.249567E0,-1.0853142E0,1.0590519E0,-3.2647235E0,-7.0068514E-1,1.8748238E0,-6.976921E-1,-1.3525625E0,6.648245E-1,-2.5671432E0,-1.9264603E-2,6.5706414E-1,3.0371897E0,-2.2364893E0,1.2044472E0],"split_indices":[6,25,63,136,18,28,4,1,3,8,2,59,0,5,0,148,22,0,0,16,1,30,0,62,12,19,0,0,0,110,0,0,14,0,0,13,23,0,0,0,0,46,2,0,0,0,0,19,0,48,15,79,0,5,11,2,0,70,114,0,0,0,0,0,0,0,0,0,0,0,0,0,0,0,0,0,0,0,0],"split_type":[0,0,0,0,0,0,0,0,0,0,0,0,0,0,0,0,0,0,0,0,0,0,0,0,0,0,0,0,0,0,0,0,0,0,0,0,0,0,0,0,0,0,0,0,0,0,0,0,0,0,0,0,0,0,0,0,0,0,0,0,0,0,0,0,0,0,0,0,0,0,0,0,0,0,0,0,0,0,0],"sum_hessian":[1.522E3,1.327E3,1.95E2,1.262E3,6.5E1,1.89E2,6E0,1.256E3,6E0,5.8E1,7E0,1.81E2,8E0,5E0,1E0,7.77E2,4.79E2,5E0,1E0,5.1E1,7E0,5E0,2E0,1.77E2,4E0,7E0,1E0,4E0,1E0,7.74E2,3E0,4.66E2,1.3E1,4E0,1E0,4.6E1,5E0,6E0,1E0,4E0,1E0,1.73E2,4E0,3E0,1E0,6E0,1E0,7.67E2,7E0,3.2E2,1.46E2,1.2E1,1E0,4.1E1,5E0,4E0,1E0,1.67E2,6E0,3E0,1E0,7.17E2,5E1,3.12E2,8E0,1.34E2,1.2E1,1.1E1,1E0,3.6E1,5E0,4E0,1E0,3E0,1E0,1.61E2,6E0,5E0,1E0],"tree_param":{"num_deleted":"0","num_feature":"173","num_nodes":"79","size_leaf_vector":"1"}},{"base_weights":[1.18278414E-1,-1.8140078E0,1.32099E1,-2.8839047E0,1.8687412E1,1.519419E1,-4.2536533E1,-3.218564E0,5.7623333E1,2.516778E1,-3.1441217E1,1.3665901E1,4.1421576E0,-5.9824306E1,1.5297524E0,1.9517112E-1,-8.744954E0,6.837744E1,-1.7253323E-1,1.8745789E1,6.376475E1,-5.0765335E1,8.843712E-1,1.6535988E1,-2.6021114E1,-3.2931848E0,-7.4068415E-1,-1.9151995E-1,3.7533886E0,-7.4254327E0,-5.2135777E1,3.721895E0,9.5187914E-1,1.5185661E1,5.0078073E0,3.5559356E0,3.0717546E-1,-2.8103986E0,-5.8880407E-1,1.8132349E1,-4.136673E1,-3.8637444E1,1.4456234E0,3.5070267E-1,-2.6110475E0,-2.9451897E0,-1.7158308E1,-5.9611416E1,1.1261883E0,1.1087838E1,3.8527439E0,2.0309149E1,-2.330662E1,-2.476588E0,-2.1766548E-1,-4.9528652E1,6.9153237E0,-5.4212756E-2,1.027289E0,-2.4030852E-1,3.1051419E0,-1.0314505E0,1.0101726E0,-3.1150904E0,-6.8316805E-1,8.002805E-1,-1.3411897E0,9.065442E-1,4.2758064E0,-2.0421433E0,2.924584E0,-2.7569447E0,-1.16167836E-1,-4.2469826E-1,9.433476E-1],"categories":[],"categories_nodes":[],"categories_segments":[],"categories_sizes":[],"default_left":[0,0,0,0,0,0,0,0,0,0,0,0,0,0,0,0,0,0,0,0,0,0,0,0,0,0,0,0,0,0,0,0,0,0,0,0,0,0,0,0,0,0,0,0,0,0,0,0,0,0,0,0,0,0,0,0,0,0,0,0,0,0,0,0,0,0,0,0,0,0,0,0,0,0,0],"id":11,"left_children":[1,3,5,7,9,11,13,15,17,19,21,23,-1,25,-1,27,29,31,-1,33,35,37,-1,39,41,-1,-1,43,-1,45,47,-1,-1,49,-1,-1,-1,-1,-1,51,53,55,-1,57,-1,59,61,63,-1,65,-1,67,69,-1,-1,71,73,-1,-1,-1,-1,-1,-1,-1,-1,-1,-1,-1,-1,-1,-1,-1,-1,-1,-1],"loss_changes":[3.8550926E4,2.9182785E4,2.2327262E4,2.576034E4,2.2231531E4,1.851143E4,1.0680302E4,2.3715809E4,4.8335215E3,1.3428977E4,8.492849E3,2.1730555E4,0E0,6.55334E2,0E0,2.2539475E4,2.709532E4,3.7701758E2,0E0,1.3550285E4,2.953037E3,6.113174E2,0E0,1.692596E4,1.0126887E4,0E0,0E0,2.1882252E4,0E0,2.03133E4,9.156465E3,0E0,0E0,1.2075615E4,0E0,0E0,0E0,0E0,0E0,1.5898277E4,1.2954512E3,5.799879E3,0E0,2.2278213E4,0E0,3.9156535E4,1.9478484E4,7.5578906E2,0E0,9.564928E3,0E0,2.160171E4,1.5298883E4,0E0,0E0,2.2553906E3,7.1275354E2,0E0,0E0,0E0,0E0,0E0,0E0,0E0,0E0,0E0,0E0,0E0,0E0,0E0,0E0,0E0,0E0,0E0,0E0],"parents":[2147483647,0,0,1,1,2,2,3,3,4,4,5,5,6,6,7,7,8,8,9,9,10,10,11,11,13,13,15,15,16,16,17,17,19,19,20,20,21,21,23,23,24,24,27,27,29,29,30,30,33,33,39,39,40,40,41,41,43,43,45,45,46,46,47,47,49,49,51,51,52,52,55,55,56,56],"right_children":[2,4,6,8,10,12,14,16,18,20,22,24,-1,26,-1,28,30,32,-1,34,36,38,-1,40,42,-1,-1,44,-1,46,48,-1,-1,50,-1,-1,-1,-1,-1,52,54,56,-1,58,-1,60,62,64,-1,66,-1,68,70,-1,-1,72,74,-1,-1,-1,-1,-1,-1,-1,-1,-1,-1,-1,-1,-1,-1,-1,-1,-1,-1],"split_conditions":[1E0,1E0,1E0,1E0,1E0,1E0,1E0,1E0,1E0,1E0,1E0,1E0,4.1421576E0,1E0,1.5297524E0,1E0,1E0,1E0,-1.7253323E-1,1E0,1E0,1E0,8.843712E-1,1E0,1E0,-3.2931848E0,-7.4068415E-1,1E0,3.7533886E0,1E0,1E0,3.721895E0,9.5187914E-1,1E0,5.0078073E0,3.5559356E0,3.0717546E-1,-2.8103986E0,-5.8880407E-1,1E0,1E0,1E0,1.4456234E0,1E0,-2.6110475E0,1E0,1E0,1E0,1.1261883E0,1E0,3.8527439E0,1E0,1E0,-2.476588E0,-2.1766548E-1,1E0,1E0,-5.4212756E-2,1.027289E0,-2.4030852E-1,3.1051419E0,-1.0314505E0,1.0101726E0,-3.1150904E0,-6.8316805E-1,8.002805E-1,-1.3411897E0,9.065442E-1,4.2758064E0,-2.0421433E0,2.924584E0,-2.7569447E0,-1.16167836E-1,-4.2469826E-1,9.433476E-1],"split_indices":[6,25,63,136,18,55,4,1,3,8,2,8,0,5,0,148,22,0,0,144,1,30,0,62,19,0,0,110,0,0,14,0,0,43,0,0,0,0,0,40,2,24,0,19,0,48,15,79,0,16,0,51,11,0,0,39,0,0,0,0,0,0,0,0,0,0,0,0,0,0,0,0,0,0,0],"split_type":[0,0,0,0,0,0,0,0,0,0,0,0,0,0,0,0,0,0,0,0,0,0,0,0,0,0,0,0,0,0,0,0,0,0,0,0,0,0,0,0,0,0,0,0,0,0,0,0,0,0,0,0,0,0,0,0,0,0,0,0,0,0,0,0,0,0,0,0,0,0,0,0,0,0,0],"sum_hessian":[1.522E3,1.327E3,1.95E2,1.262E3,6.5E1,1.89E2,6E0,1.256E3,6E0,5.8E1,7E0,1.86E2,3E0,5E0,1E0,7.77E2,4.79E2,5E0,1E0,5.1E1,7E0,5E0,2E0,1.74E2,1.2E1,4E0,1E0,7.74E2,3E0,4.66E2,1.3E1,4E0,1E0,5E1,1E0,6E0,1E0,4E0,1E0,1.7E2,4E0,1E1,2E0,7.67E2,7E0,3.2E2,1.46E2,1.2E1,1E0,4.8E1,2E0,1.62E2,8E0,3E0,1E0,8E0,2E0,7.17E2,5E1,3.12E2,8E0,1.34E2,1.2E1,1.1E1,1E0,4.3E1,5E0,1.58E2,4E0,7E0,1E0,7E0,1E0,1E0,1E0],"tree_param":{"num_deleted":"0","num_feature":"173","num_nodes":"75","size_leaf_vector":"1"}},{"base_weights":[1.258631E-1,-1.7109143E0,1.2570325E1,-3.1714506E0,1.2623378E1,1.446924E1,-4.076744E1,-3.6485887E0,4.8994774E1,2.524991E1,-1.7407211E1,1.2256139E1,5.761537E1,-5.75054E1,1.4915085E0,-2.9189475E0,-3.6370174E1,7.373298E1,-4.1551426E1,2.7952274E1,-2.9866831E0,-3.3615364E1,2.9716331E1,1.0632794E1,6.759599E1,6.91192E1,-8.6038077E-1,-3.1614575E0,-7.22167E-1,-3.4790368E0,3.3151165E1,-4.6645077E1,2.8976226E0,8.9046364E1,1.3424083E1,-5.508238E-1,-2.5655334E0,3.337448E1,-2.1543547E1,-4.5800014E1,3.159404E1,3.9305634E1,-1.4146844E0,6.474122E0,3.0144108E1,3.8057282E0,8.3804244E-1,3.9062657E0,1.5191002E-1,-4.461826E0,1.5870326E1,4.229857E1,-3.0588667E0,-6.055023E1,1.8304531E1,4.8889937E0,9.161335E-1,-1.005333E-1,1.1073395E0,3.5342815E1,-2.905468E0,-4.9337517E1,1.0559133E1,-5.1471287E1,5.5279976E-1,4.9278847E1,-9.786299E-1,2.485677E0,-1.0989411E0,4.528519E0,5.1765305E1,3.4309185E1,-2.0166351E1,-2.4691038E-1,1.7857121E0,1.0732603E0,-1.3180144E0,2.354643E0,-8.602522E-1,-3.2578933E0,6.7487335E-1,2.2785285E0,-2.2689903E0,1.8925213E0,-1.9146284E0,-2.9151485E0,-3.3689308E-1,2.7159264E0,-1.8359988E0,-2.7725153E0,8.0220336E-1,3.5466676E0,-3.9211637E-1,1.14559054E-1,2.3834743E0,3.466955E0,-9.0259117E-1,1.9507414E0,-9.738986E-1,-1.7070906E0,1.9461422E-1],"categories":[],"categories_nodes":[],"categories_segments":[],"categories_sizes":[],"default_left":[0,0,0,0,0,0,0,0,0,0,0,0,0,0,0,0,0,0,0,0,0,0,0,0,0,0,0,0,0,0,0,0,0,0,0,0,0,0,0,0,0,0,0,0,0,0,0,0,0,0,0,0,0,0,0,0,0,0,0,0,0,0,0,0,0,0,0,0,0,0,0,0,0,0,0,0,0,0,0,0,0,0,0,0,0,0,0,0,0,0,0,0,0,0,0,0,0,0,0,0,0],"id":12,"left_children":[1,3,5,7,9,11,13,15,17,19,21,23,25,27,-1,29,31,33,35,37,-1,39,41,43,45,47,-1,-1,-1,49,51,53,-1,55,57,-1,-1,59,61,63,65,67,-1,69,71,-1,-1,-1,-1,73,75,77,-1,79,81,-1,-1,-1,-1,83,-1,85,87,89,-1,91,-1,-1,-1,93,95,97,99,-1,-1,-1,-1,-1,-1,-1,-1,-1,-1,-1,-1,-1,-1,-1,-1,-1,-1,-1,-1,-1,-1,-1,-1,-1,-1,-1,-1],"loss_changes":[3.4833793E4,2.7842719E4,2.0441527E4,3.019669E4,4.7078945E4,1.7436344E4,9.987017E3,2.8448355E4,2.770316E4,2.1649797E4,2.925899E4,1.5631357E4,8.936129E3,5.656172E2,0E0,2.3772445E4,2.7901246E4,7.1164336E3,3.2873145E2,2.3531023E4,0E0,2.3694516E4,6.6748564E3,1.4247969E4,8.894707E2,4.523703E3,0E0,0E0,0E0,2.2015674E4,1.8119207E4,2.2783566E4,0E0,2.5320703E3,4.4842816E2,0E0,0E0,1.591918E4,8.551311E3,8.307766E3,5.488876E3,6.8332324E3,0E0,1.280714E4,7.1878516E3,0E0,0E0,0E0,0E0,2.121029E4,1.3797239E4,5.659957E3,0E0,7.7031562E3,1.0750082E4,0E0,0E0,0E0,0E0,1.5482719E4,0E0,1.5167881E3,1.23391E4,6.79984E3,0E0,5.504004E3,0E0,0E0,0E0,1.3693271E4,8.613405E3,8.099918E3,1.1415813E3,0E0,0E0,0E0,0E0,0E0,0E0,0E0,0E0,0E0,0E0,0E0,0E0,0E0,0E0,0E0,0E0,0E0,0E0,0E0,0E0,0E0,0E0,0E0,0E0,0E0,0E0,0E0,0E0],"parents":[2147483647,0,0,1,1,2,2,3,3,4,4,5,5,6,6,7,7,8,8,9,9,10,10,11,11,12,12,13,13,15,15,16,16,17,17,18,18,19,19,21,21,22,22,23,23,24,24,25,25,29,29,30,30,31,31,33,33,34,34,37,37,38,38,39,39,40,40,41,41,43,43,44,44,49,49,50,50,51,51,53,53,54,54,59,59,61,61,62,62,63,63,65,65,69,69,70,70,71,71,72,72],"right_children":[2,4,6,8,10,12,14,16,18,20,22,24,26,28,-1,30,32,34,36,38,-1,40,42,44,46,48,-1,-1,-1,50,52,54,-1,56,58,-1,-1,60,62,64,66,68,-1,70,72,-1,-1,-1,-1,74,76,78,-1,80,82,-1,-1,-1,-1,84,-1,86,88,90,-1,92,-1,-1,-1,94,96,98,100,-1,-1,-1,-1,-1,-1,-1,-1,-1,-1,-1,-1,-1,-1,-1,-1,-1,-1,-1,-1,-1,-1,-1,-1,-1,-1,-1,-1],"split_conditions":[1E0,1E0,1E0,1E0,1E0,1E0,1E0,1E0,1E0,1E0,1E0,1E0,1E0,1E0,1.4915085E0,1E0,1E0,1E0,1E0,1E0,-2.9866831E0,1E0,1E0,1E0,1E0,1E0,-8.6038077E-1,-3.1614575E0,-7.22167E-1,1E0,1E0,1E0,2.8976226E0,1E0,1E0,-5.508238E-1,-2.5655334E0,1E0,1E0,1E0,1E0,1E0,-1.4146844E0,1E0,1E0,3.8057282E0,8.3804244E-1,3.9062657E0,1.5191002E-1,1E0,1E0,1E0,-3.0588667E0,1E0,1E0,4.8889937E0,9.161335E-1,-1.005333E-1,1.1073395E0,1E0,-2.905468E0,1E0,1E0,1E0,5.5279976E-1,1E0,-9.786299E-1,2.485677E0,-1.0989411E0,1E0,1E0,1E0,1E0,-2.4691038E-1,1.7857121E0,1.0732603E0,-1.3180144E0,2.354643E0,-8.602522E-1,-3.2578933E0,6.7487335E-1,2.2785285E0,-2.2689903E0,1.8925213E0,-1.9146284E0,-2.9151485E0,-3.3689308E-1,2.7159264E0,-1.8359988E0,-2.7725153E0,8.0220336E-1,3.5466676E0,-3.9211637E-1,1.14559054E-1,2.3834743E0,3.466955E0,-9.0259117E-1,1.9507414E0,-9.738986E-1,-1.7070906E0,1.9461422E-1],"split_indices":[6,8,63,125,2,28,4,68,23,47,4,59,0,5,0,65,7,18,0,10,0,23,13,27,12,19,0,0,0,25,69,28,0,65,0,0,0,26,0,12,1,28,0,33,7,0,0,0,0,116,13,4,0,22,35,0,0,0,0,45,0,58,4,86,0,3,0,0,0,51,49,22,1,0,0,0,0,0,0,0,0,0,0,0,0,0,0,0,0,0,0,0,0,0,0,0,0,0,0,0,0],"split_type":[0,0,0,0,0,0,0,0,0,0,0,0,0,0,0,0,0,0,0,0,0,0,0,0,0,0,0,0,0,0,0,0,0,0,0,0,0,0,0,0,0,0,0,0,0,0,0,0,0,0,0,0,0,0,0,0,0,0,0,0,0,0,0,0,0,0,0,0,0,0,0,0,0,0,0,0,0,0,0,0,0,0,0,0,0,0,0,0,0,0,0,0,0,0,0,0,0,0,0,0,0],"sum_hessian":[1.522E3,1.327E3,1.95E2,1.205E3,1.22E2,1.89E2,6E0,1.195E3,1E1,8.6E1,3.6E1,1.81E2,8E0,5E0,1E0,1.17E3,2.5E1,8E0,2E0,8.4E1,2E0,2.7E1,9E0,1.77E2,4E0,7E0,1E0,4E0,1E0,1.153E3,1.7E1,2.3E1,2E0,6E0,2E0,1E0,1E0,7.6E1,8E0,2.3E1,4E0,8E0,1E0,1.47E2,3E1,3E0,1E0,6E0,1E0,1.098E3,5.5E1,1.6E1,1E0,1.9E1,4E0,5E0,1E0,1E0,1E0,7.5E1,1E0,4E0,4E0,2.1E1,2E0,3E0,1E0,7E0,1E0,1.42E2,5E0,2.8E1,2E0,1.086E3,1.2E1,4.9E1,6E0,1.5E1,1E0,1.8E1,1E0,3E0,1E0,7.3E1,2E0,3E0,1E0,2E0,2E0,2E1,1E0,2E0,1E0,1.36E2,6E0,4E0,1E0,2.6E1,2E0,1E0,1E0],"tree_param":{"num_deleted":"0","num_feature":"173","num_nodes":"101","size_leaf_vector":"1"}},{"base_weights":[1.23621315E-1,-1.9285797E-1,6.869154E1,3.2935379E0,-6.8059964E0,3.7437642E0,7.8972703E-1,1.8971744E0,2.1698433E1,-8.3660755E0,2.0111422E1,1.3188137E0,3.9437737E1,2.6759954E1,-1.558077E1,-9.165596E0,4.8795536E1,1.4555158E1,4.39217E0,4.282315E-1,2.5027706E1,4.9224617E1,-6.4278543E-1,2.9994251E1,-1.610987E1,-3.696512E1,3.9509632E1,-9.74512E0,3.1841419E0,3.432771E0,-1.7590939E0,7.592112E0,3.5024915E0,-5.681542E-1,2.6850208E1,3.257047E1,-3.0628371E0,5.5089813E1,-3.8231334E-1,3.164914E1,-1.6083593E0,7.7313805E-1,-2.0910478E0,-4.5944637E1,-9.677544E0,2.5205166E0,4.4270593E-1,-8.967508E0,-3.0892994E0,1.7347322E1,-3.6849236E1,2.2834217E-2,-2.3953454E0,8.120643E-1,4.8526173E0,2.0125196E0,-1.4665812E0,3.0494075E0,-9.733849E-2,1.923993E0,5.8702177E-1,-4.446921E-1,7.44352E-1,-2.7635522E0,-2.1597576E-1,1.523159E-1,-8.781317E-1,-5.41357E-1,6.820348E-1,1.250094E0,-1.9732754E0,-2.6080031E0,6.0985184E-1],"categories":[],"categories_nodes":[],"categories_segments":[],"categories_sizes":[],"default_left":[0,0,0,0,0,0,0,0,0,0,0,0,0,0,0,0,0,0,0,0,0,0,0,0,0,0,0,0,0,0,0,0,0,0,0,0,0,0,0,0,0,0,0,0,0,0,0,0,0,0,0,0,0,0,0,0,0,0,0,0,0,0,0,0,0,0,0,0,0,0,0,0,0],"id":13,"left_children":[1,3,5,7,9,-1,-1,11,13,15,17,19,21,23,25,27,29,31,-1,33,35,37,-1,39,41,43,45,47,-1,-1,-1,49,-1,51,53,55,-1,57,-1,59,-1,61,-1,63,65,-1,-1,67,-1,69,71,-1,-1,-1,-1,-1,-1,-1,-1,-1,-1,-1,-1,-1,-1,-1,-1,-1,-1,-1,-1,-1,-1],"loss_changes":[3.3062844E4,3.49984E4,1.1070859E3,2.5504557E4,2.2172738E4,0E0,0E0,2.0031576E4,1.3625207E4,2.3115383E4,9.635191E3,1.9245904E4,7.797877E3,9.079734E3,1.2063129E4,2.1307125E4,1.4089896E4,1.0287709E4,0E0,2.3182557E4,2.3472322E4,4.4239375E3,0E0,6.984539E3,2.2027354E3,1.2705742E3,5.5616064E2,1.9153648E4,0E0,0E0,0E0,1.1911137E4,0E0,4.121076E4,2.2256357E4,1.5918113E4,0E0,3.8193555E3,0E0,7.299703E3,0E0,6.7815814E2,0E0,1.7023193E3,3.5448776E2,0E0,0E0,2.0370336E4,0E0,1.0554008E4,4.390892E3,0E0,0E0,0E0,0E0,0E0,0E0,0E0,0E0,0E0,0E0,0E0,0E0,0E0,0E0,0E0,0E0,0E0,0E0,0E0,0E0,0E0,0E0],"parents":[2147483647,0,0,1,1,2,2,3,3,4,4,7,7,8,8,9,9,10,10,11,11,12,12,13,13,14,14,15,15,16,16,17,17,19,19,20,20,21,21,23,23,24,24,25,25,26,26,27,27,31,31,33,33,34,34,35,35,37,37,39,39,41,41,43,43,44,44,47,47,49,49,50,50],"right_children":[2,4,6,8,10,-1,-1,12,14,16,18,20,22,24,26,28,30,32,-1,34,36,38,-1,40,42,44,46,48,-1,-1,-1,50,-1,52,54,56,-1,58,-1,60,-1,62,-1,64,66,-1,-1,68,-1,70,72,-1,-1,-1,-1,-1,-1,-1,-1,-1,-1,-1,-1,-1,-1,-1,-1,-1,-1,-1,-1,-1,-1],"split_conditions":[1E0,1E0,1E0,1E0,1E0,3.7437642E0,7.8972703E-1,1E0,1E0,1E0,1E0,1E0,1E0,1E0,1E0,1E0,1E0,1E0,4.39217E0,1E0,1E0,1E0,-6.4278543E-1,1E0,1E0,1E0,1E0,1E0,3.1841419E0,3.432771E0,-1.7590939E0,1E0,3.5024915E0,1E0,1E0,1E0,-3.0628371E0,1E0,-3.8231334E-1,1E0,-1.6083593E0,1E0,-2.0910478E0,1E0,1E0,2.5205166E0,4.4270593E-1,1E0,-3.0892994E0,1E0,1E0,2.2834217E-2,-2.3953454E0,8.120643E-1,4.8526173E0,2.0125196E0,-1.4665812E0,3.0494075E0,-9.733849E-2,1.923993E0,5.8702177E-1,-4.446921E-1,7.44352E-1,-2.7635522E0,-2.1597576E-1,1.523159E-1,-8.781317E-1,-5.41357E-1,6.820348E-1,1.250094E0,-1.9732754E0,-2.6080031E0,6.0985184E-1],"split_indices":[155,1,8,27,25,0,0,81,20,125,63,43,92,35,2,161,4,6,0,29,134,22,0,52,10,6,4,96,0,0,0,13,0,52,18,29,0,4,0,4,0,3,0,7,0,0,0,16,0,30,12,0,0,0,0,0,0,0,0,0,0,0,0,0,0,0,0,0,0,0,0,0,0],"split_type":[0,0,0,0,0,0,0,0,0,0,0,0,0,0,0,0,0,0,0,0,0,0,0,0,0,0,0,0,0,0,0,0,0,0,0,0,0,0,0,0,0,0,0,0,0,0,0,0,0,0,0,0,0,0,0,0,0,0,0,0,0,0,0,0,0,0,0,0,0,0,0,0,0],"sum_hessian":[1.522E3,1.516E3,6E0,9.93E2,5.23E2,5E0,1E0,9.24E2,6.9E1,4.95E2,2.8E1,9.11E2,1.3E1,6.1E1,8E0,4.89E2,6E0,2.7E1,1E0,8.79E2,3.2E1,1.1E1,2E0,5.7E1,4E0,6E0,2E0,4.86E2,3E0,5E0,1E0,2.5E1,2E0,8.48E2,3.1E1,3E1,2E0,1E1,1E0,5.6E1,1E0,3E0,1E0,4E0,2E0,1E0,1E0,4.8E2,6E0,2.1E1,4E0,8.31E2,1.7E1,2.8E1,3E0,2.7E1,3E0,9E0,1E0,4.1E1,1.5E1,2E0,1E0,3E0,1E0,1E0,1E0,4.44E2,3.6E1,1.9E1,2E0,3E0,1E0],"tree_param":{"num_deleted":"0","num_feature":"173","num_nodes":"73","size_leaf_vector":"1"}},{"base_weights":[1.2577224E-1,-1.778386E-1,6.590461E1,3.1299403E0,-6.452179E0,3.5877743E0,7.699837E-1,2.77791E0,3.6102955E0,-2.2606921E0,-1.5804386E1,1.5025256E0,1.9779745E1,-4.206405E0,5.0447468E1,-1.819709E1,2.689349E1,2.4636053E-1,1.632883E1,2.4569838E1,-1.4884191E1,-5.6781497E0,6.893049E1,6.494568E1,-1.9528471E1,-1.9579828E1,3.8550552E1,3.729718E1,-1.4084009E0,-1.073254E0,1.8999338E1,2.4363268E1,-1.8696928E1,2.6338516E1,-2.0387714E0,-3.56462E1,3.8521893E1,-4.5094705E0,-6.146446E1,7.635823E1,6.091011E-1,7.539146E1,5.9798944E-1,-1.5964106E0,1.3177529E-1,-2.1186966E1,3.1585993E1,3.8934155E0,-1.9850676E0,5.3592617E1,-7.726084E0,-1.2125675E-1,9.1578406E-1,7.5315475E-1,4.175931E0,1.4336505E0,-1.3958272E0,-1.73685E0,1.5043749E0,1.3924043E0,-1.5681505E0,-2.2121656E0,-4.7178027E-1,2.4575036E0,4.3163833E-1,-3.197916E-1,1.4742979E0,-3.4171746E0,-5.0475657E-1,4.21653E0,9.1241074E-1,4.1137166E0,5.082119E-1,-1.1436E0,1.5621202E0,2.821977E0,-1.6957047E0,3.1039784E0,2.789467E-1,-1.6870072E0,1.1075509E0],"categories":[],"categories_nodes":[],"categories_segments":[],"categories_sizes":[],"default_left":[0,0,0,0,0,0,0,0,0,0,0,0,0,0,0,0,0,0,0,0,0,0,0,0,0,0,0,0,0,0,0,0,0,0,0,0,0,0,0,0,0,0,0,0,0,0,0,0,0,0,0,0,0,0,0,0,0,0,0,0,0,0,0,0,0,0,0,0,0,0,0,0,0,0,0,0,0,0,0,0,0],"id":14,"left_children":[1,3,5,7,9,-1,-1,11,-1,13,15,17,19,21,23,25,27,29,31,33,35,37,39,41,43,45,47,49,-1,51,53,55,57,59,-1,61,63,65,67,69,-1,71,-1,-1,-1,73,75,-1,-1,77,79,-1,-1,-1,-1,-1,-1,-1,-1,-1,-1,-1,-1,-1,-1,-1,-1,-1,-1,-1,-1,-1,-1,-1,-1,-1,-1,-1,-1,-1,-1],"loss_changes":[3.0427807E4,3.150421E4,9.634785E2,2.397034E4,2.050489E4,0E0,0E0,2.1437318E4,0E0,3.7439652E4,1.7039848E4,1.716757E4,1.1822705E4,3.8172625E4,1.4457129E4,1.2838754E4,6.206174E3,2.1079834E4,2.0717197E4,8.1240195E3,1.1352517E4,2.2215555E4,2.0203984E3,5.1866016E3,9.0862976E2,1.3086023E4,1.5398233E4,6.283449E3,0E0,2.0908799E4,1.2963916E4,1.4093891E4,1.2000228E4,6.099664E3,0E0,1.1598857E3,5.287002E2,2.192786E4,1.7836641E3,1.2407617E3,0E0,3.2043008E3,0E0,0E0,0E0,1.3701336E4,1.0053643E4,0E0,0E0,2.0986016E3,3.0790522E3,0E0,0E0,0E0,0E0,0E0,0E0,0E0,0E0,0E0,0E0,0E0,0E0,0E0,0E0,0E0,0E0,0E0,0E0,0E0,0E0,0E0,0E0,0E0,0E0,0E0,0E0,0E0,0E0,0E0,0E0],"parents":[2147483647,0,0,1,1,2,2,3,3,4,4,7,7,9,9,10,10,11,11,12,12,13,13,14,14,15,15,16,16,17,17,18,18,19,19,20,20,21,21,22,22,23,23,24,24,25,25,26,26,27,27,29,29,30,30,31,31,32,32,33,33,35,35,36,36,37,37,38,38,39,39,41,41,45,45,46,46,49,49,50,50],"right_children":[2,4,6,8,10,-1,-1,12,-1,14,16,18,20,22,24,26,28,30,32,34,36,38,40,42,44,46,48,50,-1,52,54,56,58,60,-1,62,64,66,68,70,-1,72,-1,-1,-1,74,76,-1,-1,78,80,-1,-1,-1,-1,-1,-1,-1,-1,-1,-1,-1,-1,-1,-1,-1,-1,-1,-1,-1,-1,-1,-1,-1,-1,-1,-1,-1,-1,-1,-1],"split_conditions":[1E0,1E0,1E0,1E0,1E0,3.5877743E0,7.699837E-1,1E0,3.6102955E0,1E0,1E0,1E0,1E0,1E0,1E0,1E0,1E0,1E0,1E0,1E0,1E0,1E0,1E0,1E0,1E0,1E0,1E0,1E0,-1.4084009E0,1E0,1E0,1E0,1E0,1E0,-2.0387714E0,1E0,1E0,1E0,1E0,1E0,6.091011E-1,1E0,5.9798944E-1,-1.5964106E0,1.3177529E-1,1E0,1E0,3.8934155E0,-1.9850676E0,1E0,1E0,-1.2125675E-1,9.1578406E-1,7.5315475E-1,4.175931E0,1.4336505E0,-1.3958272E0,-1.73685E0,1.5043749E0,1.3924043E0,-1.5681505E0,-2.2121656E0,-4.7178027E-1,2.4575036E0,4.3163833E-1,-3.197916E-1,1.4742979E0,-3.4171746E0,-5.0475657E-1,4.21653E0,9.1241074E-1,4.1137166E0,5.082119E-1,-1.1436E0,1.5621202E0,2.821977E0,-1.6957047E0,3.1039784E0,2.789467E-1,-1.6870072E0,1.1075509E0],"split_indices":[155,1,8,148,0,0,0,27,0,48,61,8,20,75,19,82,26,22,3,135,2,59,8,130,5,120,3,4,0,12,144,61,4,52,0,6,4,31,55,16,0,37,0,0,0,26,2,0,0,3,2,0,0,0,0,0,0,0,0,0,0,0,0,0,0,0,0,0,0,0,0,0,0,0,0,0,0,0,0,0,0],"split_type":[0,0,0,0,0,0,0,0,0,0,0,0,0,0,0,0,0,0,0,0,0,0,0,0,0,0,0,0,0,0,0,0,0,0,0,0,0,0,0,0,0,0,0,0,0,0,0,0,0,0,0,0,0,0,0,0,0,0,0,0,0,0,0,0,0,0,0,0,0,0,0,0,0,0,0,0,0,0,0,0,0],"sum_hessian":[1.522E3,1.516E3,6E0,9.93E2,5.23E2,5E0,1E0,9.89E2,4E0,3.62E2,1.61E2,9.21E2,6.8E1,3.5E2,1.2E1,1.53E2,8E0,8.5E2,7.1E1,6E1,8E0,3.44E2,6E0,1E1,2E0,1.5E2,3E0,7E0,1E0,7.95E2,5.5E1,5.8E1,1.3E1,5.9E1,1E0,6E0,2E0,3.38E2,6E0,5E0,1E0,8E0,2E0,1E0,1E0,1.46E2,4E0,2E0,1E0,5E0,2E0,7.44E2,5.1E1,5.3E1,2E0,5.4E1,4E0,1E1,3E0,5.8E1,1E0,4E0,2E0,1E0,1E0,3.21E2,1.7E1,5E0,1E0,4E0,1E0,7E0,1E0,1.42E2,4E0,3E0,1E0,4E0,1E0,1E0,1E0],"tree_param":{"num_deleted":"0","num_feature":"173","num_nodes":"81","size_leaf_vector":"1"}},{"base_weights":[1.3462563E-1,-1.5311277E0,1.1420267E1,-9.1629976E-1,-3.0043983E1,1.3225383E1,-3.9207188E1,-1.9751818E0,1.9580767E1,-3.8826557E1,2.804316E0,1.1158078E1,5.3561375E1,-5.545293E1,1.4566818E0,-2.6863737E0,2.5802074E1,2.4600689E1,-2.481013E1,-5.3591007E1,1.932011E1,9.655908E0,6.240375E1,6.44386E1,-8.364107E-1,-3.0230892E0,-7.602167E-1,-3.9815962E0,1.6128794E1,3.4764942E1,-3.4719827E0,2.9403938E1,-1.4594966E1,-4.4356224E1,8.0183715E-1,-6.2649433E1,5.696602E-1,4.0710026E1,-2.1907368E0,1.1032018E1,-4.0163902E1,3.5034215E0,7.93626E-1,3.639185E0,1.5057297E-1,-3.166857E0,-3.7178093E1,9.576837E0,7.2261314E1,4.4989433E1,-2.331052E1,3.461555E1,-1.6321033E1,-3.980268E1,1.614144E0,-2.5107675E0,-5.229935E-1,-7.1253784E1,4.123571E0,7.690609E-1,-1.0966253E0,2.4639394E0,1.6087475E-1,1.2691697E1,-3.037629E1,-2.3941865E0,-2.3211479E-1,-1.1478686E-1,-1.3459297E0,-2.0858307E0,2.0205858E0,6.275982E-1,-1.6102623E0,4.1869125E0,1.2610168E0,2.590712E0,-1.1165276E0,-1.521148E0,1.2848091E-1,1.4041516E0,4.193607E0,-1.8812035E-1,-1.9778541E0,-2.4699962E0,-3.5342216E-2,-3.7532887E0,-3.5184726E-1,6.386021E-1,-3.2933426E-1,5.380513E-1,2.777992E0,-2.1557066E0,1.1512692E0],"categories":[],"categories_nodes":[],"categories_segments":[],"categories_sizes":[],"default_left":[0,0,0,0,0,0,0,0,0,0,0,0,0,0,0,0,0,0,0,0,0,0,0,0,0,0,0,0,0,0,0,0,0,0,0,0,0,0,0,0,0,0,0,0,0,0,0,0,0,0,0,0,0,0,0,0,0,0,0,0,0,0,0,0,0,0,0,0,0,0,0,0,0,0,0,0,0,0,0,0,0,0,0,0,0,0,0,0,0,0,0,0,0],"id":15,"left_children":[1,3,5,7,9,11,13,15,17,19,-1,21,23,25,-1,27,29,31,33,35,37,39,41,43,-1,-1,-1,45,47,49,-1,51,53,55,-1,57,59,61,-1,63,65,-1,-1,-1,-1,67,69,71,73,75,77,79,81,83,-1,-1,-1,85,87,-1,-1,-1,-1,89,91,-1,-1,-1,-1,-1,-1,-1,-1,-1,-1,-1,-1,-1,-1,-1,-1,-1,-1,-1,-1,-1,-1,-1,-1,-1,-1,-1,-1],"loss_changes":[2.8648506E4,2.3252975E4,1.843065E4,2.827555E4,2.3358115E4,1.5245844E4,9.387277E3,2.4525953E4,1.4872029E4,2.335648E4,0E0,1.3407752E4,7.9589453E3,2.9031445E2,0E0,2.9502973E4,2.8876863E4,1.1348602E4,6.300107E3,1.0338504E4,9.886394E3,1.2646332E4,6.710703E2,3.8817383E3,0E0,0E0,0E0,3.0471846E4,2.7994643E4,1.8268703E4,0E0,1.2956617E4,9.556729E3,4.6776855E2,0E0,1.0635508E4,1.6705172E3,1.4477676E3,0E0,1.234359E4,1.1488125E3,0E0,0E0,0E0,0E0,2.2801316E4,1.1193699E4,9.230039E3,2.2071836E3,1.26431875E4,9.985298E2,1.2767789E4,1.6020474E3,1.8411436E3,0E0,0E0,0E0,3.3884688E3,3.6200742E2,0E0,0E0,0E0,0E0,1.330652E4,5.754274E3,0E0,0E0,0E0,0E0,0E0,0E0,0E0,0E0,0E0,0E0,0E0,0E0,0E0,0E0,0E0,0E0,0E0,0E0,0E0,0E0,0E0,0E0,0E0,0E0,0E0,0E0,0E0,0E0],"parents":[2147483647,0,0,1,1,2,2,3,3,4,4,5,5,6,6,7,7,8,8,9,9,11,11,12,12,13,13,15,15,16,16,17,17,18,18,19,19,20,20,21,21,22,22,23,23,27,27,28,28,29,29,31,31,32,32,33,33,35,35,36,36,37,37,39,39,40,40,45,45,46,46,47,47,48,48,49,49,50,50,51,51,52,52,53,53,57,57,58,58,63,63,64,64],"right_children":[2,4,6,8,10,12,14,16,18,20,-1,22,24,26,-1,28,30,32,34,36,38,40,42,44,-1,-1,-1,46,48,50,-1,52,54,56,-1,58,60,62,-1,64,66,-1,-1,-1,-1,68,70,72,74,76,78,80,82,84,-1,-1,-1,86,88,-1,-1,-1,-1,90,92,-1,-1,-1,-1,-1,-1,-1,-1,-1,-1,-1,-1,-1,-1,-1,-1,-1,-1,-1,-1,-1,-1,-1,-1,-1,-1,-1,-1],"split_conditions":[1E0,1E0,1E0,1E0,1E0,1E0,1E0,1E0,1E0,1E0,2.804316E0,1E0,1E0,1E0,1.4566818E0,1E0,1E0,1E0,1E0,1E0,1E0,1E0,1E0,1E0,-8.364107E-1,-3.0230892E0,-7.602167E-1,1E0,1E0,1E0,-3.4719827E0,1E0,1E0,1E0,8.0183715E-1,1E0,1E0,1E0,-2.1907368E0,1E0,1E0,3.5034215E0,7.93626E-1,3.639185E0,1.5057297E-1,1E0,1E0,1E0,1E0,1E0,1E0,1E0,1E0,1E0,1.614144E0,-2.5107675E0,-5.229935E-1,1E0,1E0,7.690609E-1,-1.0966253E0,2.4639394E0,1.6087475E-1,1E0,1E0,-2.3941865E0,-2.3211479E-1,-1.1478686E-1,-1.3459297E0,-2.0858307E0,2.0205858E0,6.275982E-1,-1.6102623E0,4.1869125E0,1.2610168E0,2.590712E0,-1.1165276E0,-1.521148E0,1.2848091E-1,1.4041516E0,4.193607E0,-1.8812035E-1,-1.9778541E0,-2.4699962E0,-3.5342216E-2,-3.7532887E0,-3.5184726E-1,6.386021E-1,-3.2933426E-1,5.380513E-1,2.777992E0,-2.1557066E0,1.1512692E0],"split_indices":[6,68,63,25,7,28,4,48,18,14,0,59,0,5,0,19,54,16,2,40,24,62,12,19,0,0,0,52,43,19,0,10,41,0,0,22,5,130,0,46,2,0,0,0,0,38,13,41,7,44,5,20,93,2,0,0,0,35,2,0,0,0,0,70,114,0,0,0,0,0,0,0,0,0,0,0,0,0,0,0,0,0,0,0,0,0,0,0,0,0,0,0,0],"split_type":[0,0,0,0,0,0,0,0,0,0,0,0,0,0,0,0,0,0,0,0,0,0,0,0,0,0,0,0,0,0,0,0,0,0,0,0,0,0,0,0,0,0,0,0,0,0,0,0,0,0,0,0,0,0,0,0,0,0,0,0,0,0,0,0,0,0,0,0,0,0,0,0,0,0,0,0,0,0,0,0,0,0,0,0,0,0,0,0,0,0,0,0,0],"sum_hessian":[1.522E3,1.327E3,1.95E2,1.3E3,2.7E1,1.89E2,6E0,1.237E3,6.3E1,2.5E1,2E0,1.81E2,8E0,5E0,1E0,1.207E3,3E1,5.7E1,6E0,2E1,5E0,1.77E2,4E0,7E0,1E0,4E0,1E0,1.13E3,7.7E1,2.8E1,2E0,5.1E1,6E0,4E0,2E0,1.7E1,3E0,4E0,1E0,1.73E2,4E0,3E0,1E0,6E0,1E0,1.104E3,2.6E1,7E1,7E0,2.4E1,4E0,4.6E1,5E0,4E0,2E0,3E0,1E0,1.5E1,2E0,2E0,1E0,3E0,1E0,1.67E2,6E0,3E0,1E0,1.066E3,3.8E1,2.5E1,1E0,6.6E1,4E0,5E0,2E0,2.2E1,2E0,3E0,1E0,4.2E1,4E0,4E0,1E0,3E0,1E0,1.4E1,1E0,1E0,1E0,1.61E2,6E0,5E0,1E0],"tree_param":{"num_deleted":"0","num_feature":"173","num_nodes":"93","size_leaf_vector":"1"}},{"base_weights":[1.3024506E-1,-1.5848503E-1,6.268357E1,2.932727E0,-6.0220466E0,3.3889153E0,8.0287975E-1,2.5976782E0,3.4342935E0,-5.2959557E0,-2.944625E0,3.2011352E0,-2.8410635E1,-1.2455003E0,-1.4351065E1,1.9941381E0,1.9217772E1,-3.8730957E1,3.954139E1,-2.5822618E0,6.63434E1,-1.6606062E1,2.5327888E1,6.7700106E-1,1.819659E1,2.3870428E1,-1.3935257E1,-4.43683E1,1.286665E0,3.0788467E0,-1.1324253E-1,-4.4457364E0,4.649675E1,7.342234E1,5.967434E-1,-1.7776157E1,2.371705E0,3.534548E1,-1.3703213E0,-2.7689207E-2,8.936963E-1,1.3495277E0,-8.8254446E-1,1.3514407E0,-8.138782E-1,-1.6970074E0,1.8693955E0,-2.475013E0,8.1527597E-1,-3.1613964E-1,1.4794129E0,3.0008447E0,-9.2880183E-1,4.065642E0,8.492466E-1,-1.0235589E0,6.099946E-1,2.578623E0,-4.4451523E-1],"categories":[],"categories_nodes":[],"categories_segments":[],"categories_sizes":[],"default_left":[0,0,0,0,0,0,0,0,0,0,0,0,0,0,0,0,0,0,0,0,0,0,0,0,0,0,0,0,0,0,0,0,0,0,0,0,0,0,0,0,0,0,0,0,0,0,0,0,0,0,0,0,0,0,0,0,0,0,0],"id":16,"left_children":[1,3,5,7,9,-1,-1,11,-1,13,-1,15,17,19,21,23,25,27,29,31,33,35,37,39,41,43,45,47,-1,-1,-1,49,51,53,-1,55,-1,57,-1,-1,-1,-1,-1,-1,-1,-1,-1,-1,-1,-1,-1,-1,-1,-1,-1,-1,-1,-1,-1],"loss_changes":[2.7516879E4,2.751406E4,5.7447266E2,2.1719914E4,1.980382E4,0E0,0E0,1.8616012E4,0E0,1.8980977E4,0E0,1.8752414E4,1.4855923E4,3.260705E4,1.4736742E4,1.9301148E4,1.0821617E4,7.319666E3,2.9031328E3,3.2491209E4,1.8197969E3,1.2233035E4,5.723131E3,1.7746773E4,2.1912828E4,8.0481367E3,1.050938E4,5.789131E3,0E0,0E0,0E0,2.197143E4,1.2552191E4,1.2908223E3,0E0,1.2367645E4,0E0,6.201001E3,0E0,0E0,0E0,0E0,0E0,0E0,0E0,0E0,0E0,0E0,0E0,0E0,0E0,0E0,0E0,0E0,0E0,0E0,0E0,0E0,0E0],"parents":[2147483647,0,0,1,1,2,2,3,3,4,4,7,7,9,9,11,11,12,12,13,13,14,14,15,15,16,16,17,17,18,18,19,19,20,20,21,21,22,22,23,23,24,24,25,25,26,26,27,27,31,31,32,32,33,33,35,35,37,37],"right_children":[2,4,6,8,10,-1,-1,12,-1,14,-1,16,18,20,22,24,26,28,30,32,34,36,38,40,42,44,46,48,-1,-1,-1,50,52,54,-1,56,-1,58,-1,-1,-1,-1,-1,-1,-1,-1,-1,-1,-1,-1,-1,-1,-1,-1,-1,-1,-1,-1,-1],"split_conditions":[1E0,1E0,1E0,1E0,1E0,3.3889153E0,8.0287975E-1,1E0,3.4342935E0,1E0,-2.944625E0,1E0,1E0,1E0,1E0,1E0,1E0,1E0,1E0,1E0,1E0,1E0,1E0,1E0,1E0,1E0,1E0,1E0,1.286665E0,3.0788467E0,-1.1324253E-1,1E0,1E0,1E0,5.967434E-1,1E0,2.371705E0,1E0,-1.3703213E0,-2.7689207E-2,8.936963E-1,1.3495277E0,-8.8254446E-1,1.3514407E0,-8.138782E-1,-1.6970074E0,1.8693955E0,-2.475013E0,8.1527597E-1,-3.1613964E-1,1.4794129E0,3.0008447E0,-9.2880183E-1,4.065642E0,8.492466E-1,-1.0235589E0,6.099946E-1,2.578623E0,-4.4451523E-1],"split_indices":[155,1,8,148,96,0,0,61,0,0,0,27,59,75,61,8,20,75,2,48,8,157,26,22,3,35,2,95,0,0,0,31,19,16,0,15,0,4,0,0,0,0,0,0,0,0,0,0,0,0,0,0,0,0,0,0,0,0,0],"split_type":[0,0,0,0,0,0,0,0,0,0,0,0,0,0,0,0,0,0,0,0,0,0,0,0,0,0,0,0,0,0,0,0,0,0,0,0,0,0,0,0,0,0,0,0,0,0,0,0,0,0,0,0,0,0,0,0,0,0,0],"sum_hessian":[1.522E3,1.516E3,6E0,9.93E2,5.23E2,5E0,1E0,9.89E2,4E0,5.17E2,6E0,9.71E2,1.8E1,3.58E2,1.59E2,9.04E2,6.7E1,1.6E1,2E0,3.52E2,6E0,1.51E2,8E0,8.37E2,6.7E1,5.9E1,8E0,1.5E1,1E0,1E0,1E0,3.4E2,1.2E1,5E0,1E0,1.49E2,2E0,7E0,1E0,7.82E2,5.5E1,5.4E1,1.3E1,5.5E1,4E0,6E0,2E0,1.4E1,1E0,3.23E2,1.7E1,1E1,2E0,4E0,1E0,1.37E2,1.2E1,5E0,2E0],"tree_param":{"num_deleted":"0","num_feature":"173","num_nodes":"59","size_leaf_vector":"1"}},{"base_weights":[1.373807E-1,-2.889042E-1,4.0306145E1,-5.703762E-1,6.014822E1,5.2584488E1,-1.5214081E0,2.3775291E0,-6.1583695E0,6.495421E1,7.828075E-1,6.18931E1,-1.7106879E0,2.0508127E0,3.2969215E0,-7.622466E0,1.884266E1,3.7741456E0,1.4632268E0,7.669152E1,2.2877327E1,8.813095E-1,1.7478872E1,-8.169001E0,3.0480182E0,1.3425384E1,4.2631607E0,4.100238E0,8.546414E-1,-2.6108876E-1,1.5603774E0,1.4052701E0,-3.8532837E1,2.1721579E1,-1.3219341E1,-8.834491E0,4.6764423E1,7.0546956E0,3.208144E0,2.8935714E-2,1.1232712E0,-2.309255E0,1.1410497E0,1.1696665E0,-1.9645855E0,-1.6242787E0,1.8070822E0,-4.7239456E-1,2.5848103E0,3.4844048E0,-1.6963485E0,8.154357E-1,-1.7536961E0],"categories":[],"categories_nodes":[],"categories_segments":[],"categories_sizes":[],"default_left":[0,0,0,0,0,0,0,0,0,0,0,0,0,0,0,0,0,0,0,0,0,0,0,0,0,0,0,0,0,0,0,0,0,0,0,0,0,0,0,0,0,0,0,0,0,0,0,0,0,0,0,0,0],"id":17,"left_children":[1,3,5,7,9,11,-1,13,15,17,-1,19,-1,21,-1,23,25,-1,-1,27,29,31,33,35,-1,37,-1,-1,-1,-1,-1,39,41,43,45,47,49,51,-1,-1,-1,-1,-1,-1,-1,-1,-1,-1,-1,-1,-1,-1,-1],"loss_changes":[2.6090486E4,2.5687438E4,1.5496049E4,2.4756902E4,4.798672E2,1.3429199E4,0E0,2.02989E4,1.9141062E4,4.561914E1,0E0,5.751336E3,0E0,1.7666898E4,0E0,1.8902082E4,9.290047E3,0E0,0E0,1.4482617E3,1.3333174E3,1.8888281E4,9.273947E3,1.8253266E4,0E0,8.597867E3,0E0,0E0,0E0,0E0,0E0,1.5671062E4,6.6879336E3,7.1410996E3,9.733083E3,1.8422004E4,1.3462764E4,1.0708343E4,0E0,0E0,0E0,0E0,0E0,0E0,0E0,0E0,0E0,0E0,0E0,0E0,0E0,0E0,0E0],"parents":[2147483647,0,0,1,1,2,2,3,3,4,4,5,5,7,7,8,8,9,9,11,11,13,13,15,15,16,16,19,19,20,20,21,21,22,22,23,23,25,25,31,31,32,32,33,33,34,34,35,35,36,36,37,37],"right_children":[2,4,6,8,10,12,-1,14,16,18,-1,20,-1,22,-1,24,26,-1,-1,28,30,32,34,36,-1,38,-1,-1,-1,-1,-1,40,42,44,46,48,50,52,-1,-1,-1,-1,-1,-1,-1,-1,-1,-1,-1,-1,-1,-1,-1],"split_conditions":[1E0,1E0,1E0,1E0,1E0,1E0,-1.5214081E0,1E0,1E0,1E0,7.828075E-1,1E0,-1.7106879E0,1E0,3.2969215E0,1E0,1E0,3.7741456E0,1.4632268E0,1E0,1E0,1E0,1E0,1E0,3.0480182E0,1E0,4.2631607E0,4.100238E0,8.546414E-1,-2.6108876E-1,1.5603774E0,1E0,1E0,1E0,1E0,1E0,1E0,1E0,3.208144E0,2.8935714E-2,1.1232712E0,-2.309255E0,1.1410497E0,1.1696665E0,-1.9645855E0,-1.6242787E0,1.8070822E0,-4.7239456E-1,2.5848103E0,3.4844048E0,-1.6963485E0,8.154357E-1,-1.7536961E0],"split_indices":[112,155,23,1,8,33,0,148,25,5,0,4,0,27,0,161,63,0,0,18,0,90,20,125,0,6,0,0,0,0,0,43,7,135,2,90,4,13,0,0,0,0,0,0,0,0,0,0,0,0,0,0,0],"split_type":[0,0,0,0,0,0,0,0,0,0,0,0,0,0,0,0,0,0,0,0,0,0,0,0,0,0,0,0,0,0,0,0,0,0,0,0,0,0,0,0,0,0,0,0,0,0,0,0,0,0,0,0,0],"sum_hessian":[1.522E3,1.507E3,1.5E1,1.501E3,6E0,1.3E1,2E0,9.83E2,5.18E2,5E0,1E0,1.2E1,1E0,9.79E2,4E0,4.9E2,2.8E1,3E0,2E0,8E0,4E0,9.11E2,6.8E1,4.87E2,3E0,2.7E1,1E0,7E0,1E0,1E0,3E0,9E2,1.1E1,6E1,8E0,4.82E2,5E0,2.5E1,2E0,8.67E2,3.3E1,1E1,1E0,5.9E1,1E0,6E0,2E0,4.78E2,4E0,4E0,1E0,2.1E1,4E0],"tree_param":{"num_deleted":"0","num_feature":"173","num_nodes":"53","size_leaf_vector":"1"}},{"base_weights":[1.4705423E-1,-2.597559E-1,3.8479717E1,-5.3110373E-1,5.8000835E1,5.0279797E1,-1.4706944E0,2.2613654E0,-5.824473E0,6.2579395E1,7.632374E-1,5.9279537E1,-1.6679207E0,1.9476317E0,3.1650448E0,-5.036442E0,-4.9919968E1,3.3775375E0,9.4306487E-1,7.3407486E1,2.1993317E1,2.5173123E0,-2.6998705E1,-4.096366E0,-4.3786564E1,-5.869634E1,-6.400889E-1,7.841705E1,8.3327526E-1,-2.5456163E-1,1.5018631E0,1.6834191E0,2.3319145E1,-3.6975063E1,3.8533566E1,-4.766985E0,4.381539E1,-1.3960512E1,-3.5642934E0,-3.1781158E0,-7.3751205E-1,4.1469364E0,1.1691326E0,3.8185358E-2,1.4105878E0,1.6055895E0,-1.9688065E0,-2.121022E0,1.2537749E0,3.0011525E0,-1.1113491E-1,-2.783597E-1,1.9486983E0,3.093579E0,-1.6130437E0,3.286273E-1,-2.1764386E0],"categories":[],"categories_nodes":[],"categories_segments":[],"categories_sizes":[],"default_left":[0,0,0,0,0,0,0,0,0,0,0,0,0,0,0,0,0,0,0,0,0,0,0,0,0,0,0,0,0,0,0,0,0,0,0,0,0,0,0,0,0,0,0,0,0,0,0,0,0,0,0,0,0,0,0,0,0],"id":18,"left_children":[1,3,5,7,9,11,-1,13,15,17,-1,19,-1,21,-1,23,25,-1,-1,27,29,31,33,35,37,39,-1,41,-1,-1,-1,43,45,47,49,51,53,55,-1,-1,-1,-1,-1,-1,-1,-1,-1,-1,-1,-1,-1,-1,-1,-1,-1,-1,-1],"loss_changes":[2.3759834E4,2.3870602E4,1.4297324E4,2.221509E4,4.1442773E2,1.2515582E4,0E0,1.8720469E4,1.7783115E4,2.9935547E1,0E0,5.2336367E3,0E0,1.6228328E4,0E0,1.8435371E4,2.1804512E3,0E0,0E0,1.2514102E3,1.24226E3,1.6648086E4,1.3846478E4,1.6274144E4,8.847162E3,5.593242E2,0E0,5.1453125E1,0E0,0E0,0E0,2.2571398E4,2.1660955E4,6.8078223E3,2.7609062E3,1.7507916E4,1.1611562E4,4.5359824E3,0E0,0E0,0E0,0E0,0E0,0E0,0E0,0E0,0E0,0E0,0E0,0E0,0E0,0E0,0E0,0E0,0E0,0E0,0E0],"parents":[2147483647,0,0,1,1,2,2,3,3,4,4,5,5,7,7,8,8,9,9,11,11,13,13,15,15,16,16,19,19,20,20,21,21,22,22,23,23,24,24,25,25,27,27,31,31,32,32,33,33,34,34,35,35,36,36,37,37],"right_children":[2,4,6,8,10,12,-1,14,16,18,-1,20,-1,22,-1,24,26,-1,-1,28,30,32,34,36,38,40,-1,42,-1,-1,-1,44,46,48,50,52,54,56,-1,-1,-1,-1,-1,-1,-1,-1,-1,-1,-1,-1,-1,-1,-1,-1,-1,-1,-1],"split_conditions":[1E0,1E0,1E0,1E0,1E0,1E0,-1.4706944E0,1E0,1E0,1E0,7.632374E-1,1E0,-1.6679207E0,1E0,3.1650448E0,1E0,1E0,3.3775375E0,9.4306487E-1,1E0,1E0,1E0,1E0,1E0,1E0,1E0,-6.400889E-1,1E0,8.3327526E-1,-2.5456163E-1,1.5018631E0,1E0,1E0,1E0,1E0,1E0,1E0,1E0,-3.5642934E0,-3.1781158E0,-7.3751205E-1,4.1469364E0,1.1691326E0,3.8185358E-2,1.4105878E0,1.6055895E0,-1.9688065E0,-2.121022E0,1.2537749E0,3.0011525E0,-1.1113491E-1,-2.783597E-1,1.9486983E0,3.093579E0,-1.6130437E0,3.286273E-1,-2.1764386E0],"split_indices":[112,155,23,1,8,33,0,148,103,16,0,4,0,61,0,80,38,0,0,18,0,29,59,120,2,3,0,10,0,0,0,43,50,75,2,75,2,62,0,0,0,0,0,0,0,0,0,0,0,0,0,0,0,0,0,0,0],"split_type":[0,0,0,0,0,0,0,0,0,0,0,0,0,0,0,0,0,0,0,0,0,0,0,0,0,0,0,0,0,0,0,0,0,0,0,0,0,0,0,0,0,0,0,0,0,0,0,0,0,0,0,0,0,0,0,0,0],"sum_hessian":[1.522E3,1.507E3,1.5E1,1.501E3,6E0,1.3E1,2E0,9.83E2,5.18E2,5E0,1E0,1.2E1,1E0,9.79E2,4E0,5.1E2,8E0,4E0,1E0,8E0,4E0,9.61E2,1.8E1,4.99E2,1.1E1,6E0,2E0,7E0,1E0,1E0,3E0,9.25E2,3.6E1,1.6E1,2E0,4.93E2,6E0,6E0,5E0,5E0,1E0,6E0,1E0,8.95E2,3E1,3.2E1,4E0,1.5E1,1E0,1E0,1E0,4.85E2,8E0,5E0,1E0,4E0,2E0],"tree_param":{"num_deleted":"0","num_feature":"173","num_nodes":"57","size_leaf_vector":"1"}},{"base_weights":[1.4547665E-1,-1.3395286E0,1.0206402E1,-2.6067731E0,1.109654E1,1.1876889E1,-3.6593433E1,-3.031901E0,4.3853188E1,2.2302788E1,-1.555319E1,9.9283085E0,4.9961853E1,-5.1655014E1,1.3444012E0,-2.3920643E0,-3.1732546E1,6.717916E1,-4.0742474E1,2.486467E1,-2.885905E0,-3.050544E1,2.7868425E1,1.1262607E1,-3.9558342E1,6.028952E1,-8.1648636E-1,-2.8395402E0,-6.494015E-1,-2.8909235E0,2.9723246E1,-4.1150734E1,2.7095244E0,8.209009E1,9.993947E0,-5.5863476E-1,-2.4970508E0,2.989577E1,-2.0941929E1,-4.17389E1,2.9516254E1,3.6293076E1,-1.1988357E0,1.3697057E1,-1.8233608E1,-2.325476E0,-2.9384118E-1,3.4034517E0,1.4582291E-1,-3.4991777E0,2.2627655E1,3.8442444E1,-2.9625776E0,-5.375208E1,1.748479E1,4.489397E0,8.975744E-1,-6.289711E-2,8.124432E-1,3.175322E1,-2.7817605E0,-4.6294872E1,8.599403E0,-4.696743E1,5.25831E-1,4.592625E1,-9.0309334E-1,2.2870147E0,-9.8211616E-1,1.5732803E1,-2.3337296E1,-2.6235256E1,2.1446958E0,-2.0907505E-1,1.2239658E0,1.7376994E0,-2.7893624E0,2.1609228E0,-9.4934446E-1,-2.892069E0,5.986168E-1,2.1474473E0,-2.109296E0,1.7055539E0,-1.8495852E0,-2.694715E0,-3.974293E-1,2.4581184E0,-1.7415015E0,-2.5369668E0,8.060652E-1,3.2622268E0,-3.0071527E-1,6.773917E-1,3.9723155E0,-2.02188E0,2.8366287E0,-1.9211553E0,1.3599309E0],"categories":[],"categories_nodes":[],"categories_segments":[],"categories_sizes":[],"default_left":[0,0,0,0,0,0,0,0,0,0,0,0,0,0,0,0,0,0,0,0,0,0,0,0,0,0,0,0,0,0,0,0,0,0,0,0,0,0,0,0,0,0,0,0,0,0,0,0,0,0,0,0,0,0,0,0,0,0,0,0,0,0,0,0,0,0,0,0,0,0,0,0,0,0,0,0,0,0,0,0,0,0,0,0,0,0,0,0,0,0,0,0,0,0,0,0,0,0,0],"id":19,"left_children":[1,3,5,7,9,11,13,15,17,19,21,23,25,27,-1,29,31,33,35,37,-1,39,41,43,45,47,-1,-1,-1,49,51,53,-1,55,57,-1,-1,59,61,63,65,67,-1,69,71,-1,-1,-1,-1,73,75,77,-1,79,81,-1,-1,-1,-1,83,-1,85,87,89,-1,91,-1,-1,-1,93,95,97,-1,-1,-1,-1,-1,-1,-1,-1,-1,-1,-1,-1,-1,-1,-1,-1,-1,-1,-1,-1,-1,-1,-1,-1,-1,-1,-1],"loss_changes":[2.2768094E4,2.0957598E4,1.57576E4,2.3953172E4,3.7080027E4,1.3604168E4,8.0818193E3,2.188711E4,2.4443084E4,1.9270484E4,2.4872422E4,1.2462975E4,7.146246E3,4.5391113E2,0E0,1.884654E4,2.32702E4,6.853758E3,2.580205E2,2.0214969E4,0E0,2.0111008E4,5.23796E3,1.3031406E4,8.9730273E2,3.3721562E3,0E0,0E0,0E0,1.7991312E4,1.6241971E4,1.8673125E4,0E0,1.8442812E3,2.3157901E2,0E0,0E0,1.3999547E4,7.138746E3,7.051207E3,4.733298E3,5.6543496E3,0E0,1.2806932E4,7.973026E3,0E0,0E0,0E0,0E0,2.16363E4,2.7612727E4,5.4834004E3,0E0,6.067832E3,9.409162E3,0E0,0E0,0E0,0E0,1.3580734E4,0E0,1.028666E3,1.052046E4,6.053211E3,0E0,4.4060117E3,0E0,0E0,0E0,2.0779969E4,1.4617102E4,9.5112295E3,0E0,0E0,0E0,0E0,0E0,0E0,0E0,0E0,0E0,0E0,0E0,0E0,0E0,0E0,0E0,0E0,0E0,0E0,0E0,0E0,0E0,0E0,0E0,0E0,0E0,0E0,0E0],"parents":[2147483647,0,0,1,1,2,2,3,3,4,4,5,5,6,6,7,7,8,8,9,9,10,10,11,11,12,12,13,13,15,15,16,16,17,17,18,18,19,19,21,21,22,22,23,23,24,24,25,25,29,29,30,30,31,31,33,33,34,34,37,37,38,38,39,39,40,40,41,41,43,43,44,44,49,49,50,50,51,51,53,53,54,54,59,59,61,61,62,62,63,63,65,65,69,69,70,70,71,71],"right_children":[2,4,6,8,10,12,14,16,18,20,22,24,26,28,-1,30,32,34,36,38,-1,40,42,44,46,48,-1,-1,-1,50,52,54,-1,56,58,-1,-1,60,62,64,66,68,-1,70,72,-1,-1,-1,-1,74,76,78,-1,80,82,-1,-1,-1,-1,84,-1,86,88,90,-1,92,-1,-1,-1,94,96,98,-1,-1,-1,-1,-1,-1,-1,-1,-1,-1,-1,-1,-1,-1,-1,-1,-1,-1,-1,-1,-1,-1,-1,-1,-1,-1,-1],"split_conditions":[1E0,1E0,1E0,1E0,1E0,1E0,1E0,1E0,1E0,1E0,1E0,1E0,1E0,1E0,1.3444012E0,1E0,1E0,1E0,1E0,1E0,-2.885905E0,1E0,1E0,1E0,1E0,1E0,-8.1648636E-1,-2.8395402E0,-6.494015E-1,1E0,1E0,1E0,2.7095244E0,1E0,1E0,-5.5863476E-1,-2.4970508E0,1E0,1E0,1E0,1E0,1E0,-1.1988357E0,1E0,1E0,-2.325476E0,-2.9384118E-1,3.4034517E0,1.4582291E-1,1E0,1E0,1E0,-2.9625776E0,1E0,1E0,4.489397E0,8.975744E-1,-6.289711E-2,8.124432E-1,1E0,-2.7817605E0,1E0,1E0,1E0,5.25831E-1,1E0,-9.0309334E-1,2.2870147E0,-9.8211616E-1,1E0,1E0,1E0,2.1446958E0,-2.0907505E-1,1.2239658E0,1.7376994E0,-2.7893624E0,2.1609228E0,-9.4934446E-1,-2.892069E0,5.986168E-1,2.1474473E0,-2.109296E0,1.7055539E0,-1.8495852E0,-2.694715E0,-3.974293E-1,2.4581184E0,-1.7415015E0,-2.5369668E0,8.060652E-1,3.2622268E0,-3.0071527E-1,6.773917E-1,3.9723155E0,-2.02188E0,2.8366287E0,-1.9211553E0,1.3599309E0],"split_indices":[6,8,63,125,2,28,4,68,23,47,4,62,0,5,0,65,7,18,0,10,0,23,13,8,2,19,0,0,0,63,69,28,0,65,0,0,0,26,0,12,1,28,0,40,16,0,0,0,0,48,61,4,0,22,35,0,0,0,0,45,0,58,4,86,0,3,0,0,0,51,11,19,0,0,0,0,0,0,0,0,0,0,0,0,0,0,0,0,0,0,0,0,0,0,0,0,0,0,0],"split_type":[0,0,0,0,0,0,0,0,0,0,0,0,0,0,0,0,0,0,0,0,0,0,0,0,0,0,0,0,0,0,0,0,0,0,0,0,0,0,0,0,0,0,0,0,0,0,0,0,0,0,0,0,0,0,0,0,0,0,0,0,0,0,0,0,0,0,0,0,0,0,0,0,0,0,0,0,0,0,0,0,0,0,0,0,0,0,0,0,0,0,0,0,0,0,0,0,0,0,0],"sum_hessian":[1.522E3,1.327E3,1.95E2,1.205E3,1.22E2,1.89E2,6E0,1.195E3,1E1,8.6E1,3.6E1,1.81E2,8E0,5E0,1E0,1.17E3,2.5E1,8E0,2E0,8.4E1,2E0,2.7E1,9E0,1.77E2,4E0,7E0,1E0,4E0,1E0,1.153E3,1.7E1,2.3E1,2E0,6E0,2E0,1E0,1E0,7.6E1,8E0,2.3E1,4E0,8E0,1E0,1.64E2,1.3E1,3E0,1E0,6E0,1E0,1.127E3,2.6E1,1.6E1,1E0,1.9E1,4E0,5E0,1E0,1E0,1E0,7.5E1,1E0,4E0,4E0,2.1E1,2E0,3E0,1E0,7E0,1E0,1.56E2,8E0,1.2E1,1E0,1.101E3,2.6E1,2.3E1,3E0,1.5E1,1E0,1.8E1,1E0,3E0,1E0,7.3E1,2E0,3E0,1E0,2E0,2E0,2E1,1E0,2E0,1E0,1.52E2,4E0,7E0,1E0,1E1,2E0],"tree_param":{"num_deleted":"0","num_feature":"173","num_nodes":"99","size_leaf_vector":"1"}},{"base_weights":[1.3789842E-1,-1.1599671E-1,5.51409E1,-5.043805E-1,3.6350784E1,5.9654266E1,7.015175E-1,-8.8749975E-2,-3.294077E1,4.7743523E1,-1.4466127E0,3.491636E0,1.3099118E0,-9.933151E-1,1.6453022E1,-4.168806E1,1.028359E1,5.640378E1,-1.6209958E0,-1.3084304E0,5.4315426E1,1.2673834E1,3.4169285E0,-4.524371E1,2.9116708E-1,-7.723455E-1,2.1868773E0,7.018148E1,2.0323162E1,-1.8559208E0,2.8899672E1,7.5126335E1,-2.2840233E0,1.57978735E1,-3.297268E1,-5.224503E1,-1.2928826E1,3.7496755E0,7.921322E-1,-2.4297066E-1,1.391683E0,-1.1217224E-1,1.9488426E0,1.849988E0,-1.1437863E0,4.3624783E0,5.9673883E-2,1.0486624E0,-8.417082E-1,-2.139614E0,1.5764351E-1,-2.895762E0,-7.9646593E-1,7.610437E-1,-1.3692843E0],"categories":[],"categories_nodes":[],"categories_segments":[],"categories_sizes":[],"default_left":[0,0,0,0,0,0,0,0,0,0,0,0,0,0,0,0,0,0,0,0,0,0,0,0,0,0,0,0,0,0,0,0,0,0,0,0,0,0,0,0,0,0,0,0,0,0,0,0,0,0,0,0,0,0,0],"id":20,"left_children":[1,3,5,7,9,11,-1,13,15,17,-1,-1,-1,19,21,23,25,27,-1,29,31,33,-1,35,-1,-1,-1,37,39,41,43,45,-1,47,49,51,53,-1,-1,-1,-1,-1,-1,-1,-1,-1,-1,-1,-1,-1,-1,-1,-1,-1,-1],"loss_changes":[2.1275082E4,2.1503768E4,4.6185938E2,2.0246371E4,1.3281369E4,2.1368945E2,0E0,2.2221598E4,7.6125293E3,1.154791E4,0E0,0E0,0E0,2.4610582E4,1.4232455E4,2.966412E3,4.118758E3,5.0360938E3,0E0,2.3224273E4,2.007985E4,1.093081E4,0E0,2.7182324E3,0E0,0E0,0E0,1.1652266E3,1.0809236E3,2.1876643E4,1.1331027E4,6.170004E3,0E0,1.2005994E4,1.9086118E3,1.5484648E3,2.0446592E3,0E0,0E0,0E0,0E0,0E0,0E0,0E0,0E0,0E0,0E0,0E0,0E0,0E0,0E0,0E0,0E0,0E0,0E0],"parents":[2147483647,0,0,1,1,2,2,3,3,4,4,5,5,7,7,8,8,9,9,13,13,14,14,15,15,16,16,17,17,19,19,20,20,21,21,23,23,27,27,28,28,29,29,30,30,31,31,33,33,34,34,35,35,36,36],"right_children":[2,4,6,8,10,12,-1,14,16,18,-1,-1,-1,20,22,24,26,28,-1,30,32,34,-1,36,-1,-1,-1,38,40,42,44,46,-1,48,50,52,54,-1,-1,-1,-1,-1,-1,-1,-1,-1,-1,-1,-1,-1,-1,-1,-1,-1,-1],"split_conditions":[1E0,1E0,1E0,1E0,1E0,1E0,7.015175E-1,1E0,1E0,1E0,-1.4466127E0,3.491636E0,1.3099118E0,1E0,1E0,1E0,1E0,1E0,-1.6209958E0,1E0,1E0,1E0,3.4169285E0,1E0,2.9116708E-1,-7.723455E-1,2.1868773E0,1E0,1E0,1E0,1E0,1E0,-2.2840233E0,1E0,1E0,1E0,1E0,3.7496755E0,7.921322E-1,-2.4297066E-1,1.391683E0,-1.1217224E-1,1.9488426E0,1.849988E0,-1.1437863E0,4.3624783E0,5.9673883E-2,1.0486624E0,-8.417082E-1,-2.139614E0,1.5764351E-1,-2.895762E0,-7.9646593E-1,7.610437E-1,-1.3692843E0],"split_indices":[155,112,8,103,23,5,0,28,18,33,0,0,0,141,50,48,0,4,0,81,34,43,0,5,0,0,0,18,0,124,15,77,0,2,2,3,1,0,0,0,0,0,0,0,0,0,0,0,0,0,0,0,0,0,0],"split_type":[0,0,0,0,0,0,0,0,0,0,0,0,0,0,0,0,0,0,0,0,0,0,0,0,0,0,0,0,0,0,0,0,0,0,0,0,0,0,0,0,0,0,0,0,0,0,0,0,0,0,0,0,0,0,0],"sum_hessian":[1.522E3,1.516E3,6E0,1.501E3,1.5E1,5E0,1E0,1.483E3,1.8E1,1.3E1,2E0,3E0,2E0,1.407E3,7.6E1,1.5E1,3E0,1.2E1,1E0,1.4E3,7E0,7.2E1,4E0,1.4E1,1E0,2E0,1E0,8E0,4E0,1.376E3,2.4E1,6E0,1E0,6.8E1,4E0,1.1E1,3E0,7E0,1E0,1E0,3E0,1.364E3,1.2E1,2.1E1,3E0,5E0,1E0,5.9E1,9E0,3E0,1E0,9E0,2E0,1E0,2E0],"tree_param":{"num_deleted":"0","num_feature":"173","num_nodes":"55","size_leaf_vector":"1"}},{"base_weights":[1.3878733E-1,-1.2692648E0,9.678351E0,-2.1483674E0,1.5572794E1,1.1286523E1,-3.5354645E1,-2.445523E0,5.1519207E1,2.1050968E1,-2.677534E1,1.2551141E1,-3.801455E1,-4.9753746E1,1.2759991E0,-3.058652E0,2.0388668E1,6.1907692E1,-2.702925E-1,1.8220825E1,4.629982E0,-4.372448E1,8.024028E-1,1.0739369E1,5.7346527E1,-2.2340639E0,-2.8369102E-1,-2.7214715E0,-6.59383E-1,-4.154625E0,1.2679398E1,2.7937738E1,-3.2207305E0,3.3817863E0,8.316879E-1,1.2225372E1,5.4164227E1,-2.4275787E0,-4.8972532E-1,8.621957E0,4.2486706E1,3.9291108E0,-1.7516899E0,-3.4080644E0,-3.49692E1,6.5627947E0,6.690848E1,3.6290222E1,-2.275323E1,8.473187E0,6.943595E1,6.0693684E1,2.1145058E-1,9.718898E0,-2.7840366E0,4.987276E1,-7.843464E-1,-1.5581594E-1,-3.3922029E0,-1.9662399E0,1.9569091E0,4.8693353E-1,-2.5327861E0,3.9366481E0,1.047834E0,2.5762362E0,2.619551E-1,-1.4857886E0,1.2742348E-1,6.5376395E-1,-1.3343838E0,4.122903E0,1.0847934E0,3.441761E0,